FANN_FLO_2.1
num_layers=4
learning_rate=0.700000
connection_rate=1.000000
network_type=0
learning_momentum=0.000000
training_algorithm=2
train_error_function=1
train_stop_function=0
cascade_output_change_fraction=0.010000
quickprop_decay=-0.000100
quickprop_mu=1.750000
rprop_increase_factor=1.200000
rprop_decrease_factor=0.500000
rprop_delta_min=0.000000
rprop_delta_max=50.000000
rprop_delta_zero=0.500000
cascade_output_stagnation_epochs=12
cascade_candidate_change_fraction=0.010000
cascade_candidate_stagnation_epochs=12
cascade_max_out_epochs=150
cascade_max_cand_epochs=150
cascade_num_candidate_groups=2
bit_fail_limit=3.49999999999999980000e-001
cascade_candidate_limit=1.00000000000000000000e+003
cascade_weight_multiplier=4.00000000000000020000e-001
cascade_activation_functions_count=8
cascade_activation_functions=3 5 7 8 10 11 14 15 
cascade_activation_steepnesses_count=4
cascade_activation_steepnesses=2.50000000000000000000e-001 5.00000000000000000000e-001 7.50000000000000000000e-001 1.00000000000000000000e+000 
layer_sizes=21 40 6 2 
scale_included=0
neurons (num_inputs, activation_function, activation_steepness)=(0, 0, 0.00000000000000000000e+000) (0, 0, 0.00000000000000000000e+000) (0, 0, 0.00000000000000000000e+000) (0, 0, 0.00000000000000000000e+000) (0, 0, 0.00000000000000000000e+000) (0, 0, 0.00000000000000000000e+000) (0, 0, 0.00000000000000000000e+000) (0, 0, 0.00000000000000000000e+000) (0, 0, 0.00000000000000000000e+000) (0, 0, 0.00000000000000000000e+000) (0, 0, 0.00000000000000000000e+000) (0, 0, 0.00000000000000000000e+000) (0, 0, 0.00000000000000000000e+000) (0, 0, 0.00000000000000000000e+000) (0, 0, 0.00000000000000000000e+000) (0, 0, 0.00000000000000000000e+000) (0, 0, 0.00000000000000000000e+000) (0, 0, 0.00000000000000000000e+000) (0, 0, 0.00000000000000000000e+000) (0, 0, 0.00000000000000000000e+000) (0, 0, 0.00000000000000000000e+000) (21, 5, 5.00000000000000000000e-001) (21, 4, 5.00000000000000000000e-001) (21, 4, 5.00000000000000000000e-001) (21, 4, 5.00000000000000000000e-001) (21, 4, 5.00000000000000000000e-001) (21, 4, 5.00000000000000000000e-001) (21, 4, 5.00000000000000000000e-001) (21, 4, 5.00000000000000000000e-001) (21, 4, 5.00000000000000000000e-001) (21, 4, 5.00000000000000000000e-001) (21, 4, 5.00000000000000000000e-001) (21, 4, 5.00000000000000000000e-001) (21, 4, 5.00000000000000000000e-001) (21, 4, 5.00000000000000000000e-001) (21, 4, 5.00000000000000000000e-001) (21, 4, 5.00000000000000000000e-001) (21, 4, 5.00000000000000000000e-001) (21, 4, 5.00000000000000000000e-001) (21, 4, 5.00000000000000000000e-001) (21, 4, 5.00000000000000000000e-001) (21, 4, 5.00000000000000000000e-001) (21, 4, 5.00000000000000000000e-001) (21, 4, 5.00000000000000000000e-001) (21, 4, 5.00000000000000000000e-001) (21, 4, 5.00000000000000000000e-001) (21, 4, 5.00000000000000000000e-001) (21, 4, 5.00000000000000000000e-001) (21, 4, 5.00000000000000000000e-001) (21, 4, 5.00000000000000000000e-001) (21, 4, 5.00000000000000000000e-001) (21, 4, 5.00000000000000000000e-001) (21, 4, 5.00000000000000000000e-001) (21, 4, 5.00000000000000000000e-001) (21, 4, 5.00000000000000000000e-001) (21, 4, 5.00000000000000000000e-001) (21, 4, 5.00000000000000000000e-001) (21, 4, 5.00000000000000000000e-001) (21, 4, 5.00000000000000000000e-001) (21, 4, 5.00000000000000000000e-001) (0, 0, 0.00000000000000000000e+000) (40, 5, 5.00000000000000000000e-001) (40, 4, 5.00000000000000000000e-001) (40, 4, 5.00000000000000000000e-001) (40, 4, 5.00000000000000000000e-001) (40, 4, 5.00000000000000000000e-001) (0, 0, 0.00000000000000000000e+000) (6, 5, 5.00000000000000000000e-001) (0, 0, 0.00000000000000000000e+000) 
connections (connected_to_neuron, weight)=(0, -2.23952268818384010000e+000) (1, -2.97054648199292780000e-001) (2, -3.12921914293489590000e-001) (3, -3.79904526292825780000e-001) (4, -3.28746581981585180000e-001) (5, -3.32918715259242210000e-001) (6, -4.12667146140104860000e-001) (7, -3.35482891857183500000e-001) (8, -3.36044625249640570000e-001) (9, -3.48574857040872380000e-001) (10, -4.03386475671931310000e-001) (11, -4.05536623949770970000e-001) (12, -3.67226641252635650000e-001) (13, -3.99281313956526050000e-001) (14, -3.12481573158994890000e-001) (15, -4.65595242518373200000e-001) (16, -1.50246984484179130000e-002) (17, -4.32351124856225570000e-001) (18, -3.05616005981498130000e-001) (19, -3.92595053775065430000e-001) (20, 1.79341060444577490000e+000) (0, -2.50317155621290690000e-002) (1, -9.20745524996551550000e-002) (2, -3.26940723299466660000e-001) (3, -1.71281005487945980000e-001) (4, -1.82557254807470120000e-001) (5, -1.33499492568465180000e+000) (6, -2.82748070160085020000e-001) (7, -1.48289061785964320000e-001) (8, -2.84899563359949700000e-001) (9, -2.28417772612610340000e-001) (10, -2.80655845444285850000e-001) (11, -2.26688535418828580000e-001) (12, -1.52642377016933980000e-001) (13, -3.25232295247273320000e-001) (14, -1.54830431595177020000e+000) (15, -4.83626843284638630000e-002) (16, -2.33292027576791900000e-001) (17, -8.02000882198788120000e-002) (18, -2.74895718518875120000e-001) (19, -1.51521058656563930000e+000) (20, 5.33134092779857460000e-001) (0, -1.37423069750542050000e-002) (1, -2.60473029516248120000e-001) (2, -2.71528395969785400000e-001) (3, -1.82892516915598320000e-001) (4, -2.09085339031087230000e-001) (5, -1.12766301054427930000e+000) (6, -1.40630081254076970000e-001) (7, -2.63975272102495270000e-001) (8, -1.87173336213996590000e-001) (9, -2.55199431066893190000e-001) (10, -3.39427294794081400000e-001) (11, -1.39670143349233470000e-001) (12, -2.85361600650039130000e-001) (13, -2.27552193902407130000e-001) (14, -1.12616961069176760000e+000) (15, -1.65540151097495670000e-001) (16, -6.24584619670942250000e-001) (17, -2.81191646741149270000e-001) (18, -2.03697938019528320000e-001) (19, -1.02796550785838070000e+000) (20, 5.11738626845395510000e-001) (0, -4.34482514688844660000e-002) (1, -4.51010488143387730000e-001) (2, -3.55148670308685410000e-001) (3, -3.90260081227603750000e-001) (4, -4.77812030765289610000e-001) (5, -3.30201486582660960000e-001) (6, -1.93986145446812220000e-001) (7, -4.86652904929593840000e-001) (8, -4.23076497159160680000e-001) (9, -3.87217063723343580000e-001) (10, -5.00964606412137470000e-001) (11, -3.67237619947042350000e-001) (12, -2.27598206494545980000e-001) (13, -3.44150656831604120000e-001) (14, -4.20060982240479000000e-001) (15, -2.81614385509304230000e-001) (16, -3.92733111419398320000e-001) (17, -2.04612884551860970000e-001) (18, -3.68816061103170220000e-001) (19, -4.92100434134491890000e-001) (20, 2.91909219637331680000e-001) (0, 1.30172809998380880000e-001) (1, 3.31626521133574270000e-001) (2, 2.63122495443158080000e-001) (3, 2.76680936088412210000e-001) (4, 2.94974468105539400000e-001) (5, 5.11616670911881230000e-001) (6, 2.83320134922971980000e-001) (7, 1.96890952886355110000e-001) (8, 3.47312503236818890000e-001) (9, 3.59316977791525490000e-001) (10, 4.31359814761459070000e-001) (11, 2.74067786071644110000e-001) (12, 3.36007271583375010000e-001) (13, 4.62189957534901660000e-001) (14, 4.02445923997930440000e-001) (15, 2.25767966242700320000e-001) (16, 2.56022836773228290000e-001) (17, 3.22009231495925090000e-001) (18, 3.51780728155186740000e-001) (19, 4.55505459024712290000e-001) (20, 1.66042187978057860000e-001) (0, -3.08810015298691020000e-002) (1, 4.25488874880761370000e-001) (2, 5.59973740165991880000e-001) (3, 4.99212180165429950000e-001) (4, 5.70085691873069230000e-001) (5, 5.54982922915293390000e-001) (6, 5.45993886631321530000e-001) (7, 3.91664726626724520000e-001) (8, 5.35648379997838650000e-001) (9, 4.15460798559456390000e-001) (10, 4.53600094434173650000e-001) (11, 5.10454856114208710000e-001) (12, 4.98712359266197340000e-001) (13, 4.80840154751201180000e-001) (14, 4.67613112427415270000e-001) (15, 5.26678307960604720000e-003) (16, 4.82835662010372150000e-001) (17, 4.38150915981664390000e-001) (18, 5.02411089790062770000e-001) (19, 4.74514341333990230000e-001) (20, -1.44568434280448030000e+000) (0, -1.61968784798960600000e-001) (1, -2.15508313850274140000e-001) (2, -2.68462105270205700000e-001) (3, -1.86388802375273390000e-001) (4, -2.96132133127333440000e-001) (5, -1.09289001251615500000e-001) (6, -2.22656249410513620000e-001) (7, -2.33565960654064820000e-001) (8, -2.43218682925901430000e-001) (9, -1.62011016679604520000e-001) (10, -1.66742857725356300000e-001) (11, -1.96902239123377980000e-001) (12, -2.89497611544096370000e-001) (13, -3.80783557113984210000e-002) (14, -5.29124297646691240000e-002) (15, -1.72868279805068250000e-001) (16, 7.09542174334029770000e-001) (17, -1.99757590886900450000e-001) (18, -1.24051048663569600000e-001) (19, -6.23453876373719140000e-002) (20, 4.00737686694832060000e-001) (0, -1.82674524042408110000e-002) (1, 6.24157858288844740000e-001) (2, 7.08802791451196850000e-001) (3, 6.84698248937799960000e-001) (4, 1.50580077130386320000e-001) (5, 6.55456417848563900000e-001) (6, 6.40304253931288510000e-002) (7, 5.68370210227026270000e-001) (8, 5.82083825065042420000e-001) (9, 6.60399243583893570000e-001) (10, 5.90707727304931370000e-001) (11, 6.13388461382144760000e-001) (12, 2.11832785912719480000e-002) (13, 6.49913403583892380000e-001) (14, 7.24659640948987940000e-001) (15, 1.85979396512595760000e-001) (16, 6.03171147131105870000e-001) (17, 1.36425976690150860000e-001) (18, 6.05439841470613800000e-001) (19, 6.67271004412534290000e-001) (20, -1.77713619150539960000e+000) (0, -5.76855144245887460000e-001) (1, -9.30827070566858320000e-001) (2, -1.05586810142440270000e+000) (3, -7.51943660816211450000e-001) (4, -8.12942445216756400000e-001) (5, -1.14232076388603510000e+000) (6, -8.83878937536168750000e-001) (7, -9.44176384982912340000e-001) (8, -1.06765619176081670000e+000) (9, -9.88568599586111870000e-001) (10, -1.10953807837194800000e+000) (11, -7.41350074390215940000e-001) (12, -8.25733936353538090000e-001) (13, -1.02161300322472770000e+000) (14, -1.35483742593347500000e+000) (15, -9.42345394766534890000e-001) (16, 8.11394201448795820000e-001) (17, -7.71227381877400810000e-001) (18, -1.00621231066260660000e+000) (19, -1.21671402025487100000e+000) (20, 6.05901141519909260000e-001) (0, 7.89178033078674070000e-002) (1, 1.15445661642000140000e-001) (2, 6.16030811938496510000e-001) (3, 5.83224935566894360000e-001) (4, 1.89820042257926760000e-001) (5, 5.09189289932427290000e-001) (6, 7.11164597278047120000e-002) (7, 6.37740405261262410000e-001) (8, 7.14005078941663320000e-001) (9, 6.59203003356539470000e-001) (10, 6.50718953193878400000e-001) (11, 5.39999837266540220000e-001) (12, 2.00402405828890550000e-001) (13, 6.53443827717935630000e-001) (14, 7.10912324093813440000e-001) (15, 8.15883176035926000000e-002) (16, 5.29156563072071820000e-001) (17, 1.01044358674492880000e-001) (18, 6.38202559757344970000e-001) (19, 5.86560648334073840000e-001) (20, -2.73313718655014470000e-001) (0, 2.42619163771487230000e-002) (1, -2.76740740977290180000e-001) (2, -3.00971413556121390000e-001) (3, -3.11965786865623650000e-001) (4, -3.00517030918907140000e-001) (5, -2.66347092280767540000e+000) (6, -3.45858239742739100000e-001) (7, -2.35798375776246740000e-001) (8, -2.79891441884757230000e-001) (9, -3.28214921221688720000e-001) (10, -3.11546083817627830000e-001) (11, -3.33381518069322420000e-001) (12, -3.61796328707039820000e-001) (13, -3.52678299923247170000e-001) (14, -2.53705546355265450000e+000) (15, -2.88487001442770730000e-001) (16, 5.05966766014036770000e-002) (17, -2.51008840721949070000e-001) (18, -3.42875951830656110000e-001) (19, -2.69678981016606700000e-001) (20, 2.86692569079912250000e-001) (0, 2.84136462856086240000e-001) (1, 1.88739666792658130000e-001) (2, 2.36373274208570570000e-001) (3, 1.65444405951418600000e-001) (4, 3.31224667347247590000e-001) (5, 1.91626191790010920000e-001) (6, 1.54000798498477590000e-001) (7, 1.16469795846640200000e-001) (8, 1.60977037978232760000e-001) (9, 1.69759382170519200000e-001) (10, 3.06349640738172950000e-001) (11, 2.28266028440535590000e-001) (12, 1.79452459033986850000e-001) (13, 2.33856726570468270000e-001) (14, 1.91459723957647380000e-001) (15, 2.82799194491572370000e-001) (16, 1.62631171680199970000e-001) (17, 2.42245224904973580000e-001) (18, 1.78224892125306090000e-001) (19, 3.38133391125216560000e-001) (20, 3.74686239147274500000e-001) (0, 3.26859236210536420000e-001) (1, 2.76150024782809980000e-001) (2, 3.37944987473293320000e-001) (3, 4.01216163522811530000e-001) (4, 4.08167495884546210000e-001) (5, 3.78493798861801620000e-001) (6, 2.92231214860086020000e-001) (7, 2.43775975629894780000e-001) (8, 3.71976617271176590000e-001) (9, 3.82730973308401890000e-001) (10, 4.50388483673979490000e-001) (11, 2.50318944477392560000e-001) (12, 3.52990581131870260000e-001) (13, 4.24538278313703550000e-001) (14, 3.66101989050391150000e-001) (15, 2.65571765743105810000e-001) (16, 3.20580263256716790000e-001) (17, 3.00767561016346000000e-001) (18, 3.51974263589517500000e-001) (19, 3.91805566638287420000e-001) (20, 1.02614699364300150000e-001) (0, -9.14802503611162470000e-002) (1, 1.08596604448337770000e-001) (2, 1.17638927735564380000e-001) (3, 5.73746699356213470000e-002) (4, 1.40157904558904530000e-001) (5, 1.79620668691062390000e-001) (6, 1.82720143208498030000e-001) (7, 1.28447200118408540000e-001) (8, 1.25914964598977580000e-001) (9, 3.57159456184474240000e-002) (10, 1.49296289919943450000e-001) (11, 5.83695429973211110000e-002) (12, 2.13010648319918700000e-001) (13, 1.88574082237451420000e-001) (14, 1.38316607945803860000e-001) (15, 2.63589302882550780000e-001) (16, 1.55932115874636960000e-001) (17, 1.03188862372449840000e-001) (18, 2.19213242621585950000e-001) (19, 1.02646207206933830000e-001) (20, 6.40810435178204680000e-001) (0, 2.86504177714521580000e-001) (1, 4.13667421455911180000e-001) (2, 4.33893163535735260000e-001) (3, 2.36704218925658180000e-001) (4, 3.03137281521531350000e-001) (5, 4.22076877655703450000e-001) (6, 4.09497146387666770000e-001) (7, 2.85400059320093050000e-001) (8, 3.01811540138129390000e-001) (9, 4.39878075615083020000e-001) (10, 4.05560202428539410000e-001) (11, 4.14318801179990930000e-001) (12, 4.34076004175795280000e-001) (13, 2.53664136988228320000e-001) (14, 4.30805354133397990000e-001) (15, 3.40236499589932300000e-001) (16, 2.46888418526625160000e-001) (17, 4.05759747589358010000e-001) (18, 2.81451941597055720000e-001) (19, 4.38574680635914820000e-001) (20, 1.93221123196573610000e-001) (0, 1.42387762531979460000e-001) (1, 6.08308574558913180000e-001) (2, 5.99992917913966140000e-001) (3, 4.96628818216076800000e-001) (4, 5.66728593944550440000e-001) (5, 4.68251812124407530000e-001) (6, 4.92923653196394360000e-001) (7, 3.91837556888940450000e-001) (8, 5.87546409845810190000e-001) (9, 4.38078853001258760000e-001) (10, 4.77934647308917660000e-001) (11, 4.85935458681733320000e-001) (12, 6.27055512939676210000e-001) (13, 5.06058306887997800000e-001) (14, 4.65450865886841200000e-001) (15, 1.08833532538693990000e-001) (16, 4.64267244070330820000e-001) (17, 4.98842775291895300000e-002) (18, 5.60862885000204310000e-001) (19, 4.60769071474428080000e-001) (20, -1.12300199280438400000e-001) (0, 1.25472613696185430000e-001) (1, 1.15843175795870510000e-001) (2, 1.75565231786094370000e-001) (3, 1.56437353759849130000e-001) (4, 3.03353811787019310000e-001) (5, 2.92906314930391430000e-001) (6, 2.21993947293412960000e-001) (7, 1.96312467222488680000e-001) (8, 2.18840023845909890000e-001) (9, 1.27680514156472190000e-001) (10, 1.75539243888979710000e-001) (11, 1.21586279021777710000e-001) (12, 2.74008108224734310000e-001) (13, 1.02495630663512350000e-001) (14, 2.33285500508964020000e-001) (15, 1.44205772174129440000e-001) (16, 1.53606060451260770000e-001) (17, 1.08922679564855590000e-001) (18, 2.55727397389265810000e-001) (19, 2.46148872940948030000e-001) (20, 5.59176401323856690000e-002) (0, -1.93809323226563610000e-001) (1, -4.08364110332331160000e-001) (2, -3.89567409197643880000e-001) (3, -2.99904297856633690000e-001) (4, -3.12653144941351600000e-001) (5, -4.80515756811299320000e-001) (6, -4.29299025699307610000e-001) (7, -2.40638027574271720000e-001) (8, -2.90436350645413840000e-001) (9, -3.98274231100038180000e-001) (10, -3.68571966930553390000e-001) (11, -3.85576702530197930000e-001) (12, -4.00799140844627810000e-001) (13, -4.61308768430906120000e-001) (14, -9.77836197958034340000e-001) (15, -3.84325039642649860000e-001) (16, -3.42935424056479140000e-001) (17, -3.71868616883211050000e-001) (18, -3.04039741009537010000e-001) (19, -3.49823645144916430000e-001) (20, 9.98194050159347920000e-001) (0, -4.59343267742301220000e-002) (1, 4.67014761671036280000e-002) (2, 6.72345146801135880000e-001) (3, 7.18481739269691500000e-001) (4, 3.14601950538426420000e-002) (5, 6.50521728610592760000e-001) (6, 1.86260986918428770000e-001) (7, 7.01379688233601080000e-001) (8, 7.29343992516308330000e-001) (9, 6.80895491052981190000e-001) (10, 7.59461941101239880000e-001) (11, 7.21356495171903700000e-001) (12, 2.15622884170969110000e-001) (13, 7.11013672871367960000e-001) (14, 8.02408997346074960000e-001) (15, 7.72735411712498490000e-002) (16, 6.91946088058554400000e-001) (17, 1.59172092945397530000e-001) (18, 7.00931069448031520000e-001) (19, 6.70549052703388050000e-001) (20, -2.44615169828505120000e-001) (0, -1.59986211020831800000e-001) (1, -3.03276521825332990000e-001) (2, -3.17033846249083100000e-001) (3, -3.17357167984812670000e-001) (4, -3.93972677565431530000e-001) (5, -5.27889135329190460000e-001) (6, -4.37588361348912490000e-001) (7, -3.54423818927773800000e-001) (8, -4.29631190871087310000e-001) (9, -3.23949129555253850000e-001) (10, -3.75570747299618480000e-001) (11, -4.50517570359682320000e-001) (12, -3.02996369892986120000e-001) (13, -3.58376424870926190000e-001) (14, -4.36295620357100900000e-001) (15, -2.56850427010051670000e-001) (16, -3.77609244866972500000e-001) (17, -2.59943304602733680000e-001) (18, -5.02212426513512720000e-001) (19, -5.20547300514733860000e-001) (20, 1.51730397221110090000e-001) (0, 2.38138488770234410000e-001) (1, 4.32908781262884510000e-001) (2, 3.17833095954373090000e-001) (3, 3.11841575659296600000e-001) (4, 4.41854961468215460000e-001) (5, 4.47717238162777980000e-001) (6, 4.33163555088703410000e-001) (7, 2.96375266835080700000e-001) (8, 3.73153788569488110000e-001) (9, 2.64539859035433700000e-001) (10, 2.93352247272092640000e-001) (11, 2.73319556922309800000e-001) (12, 2.93666570720185590000e-001) (13, 3.11693843807907050000e-001) (14, 4.57925155137082870000e-001) (15, 3.63773238066605440000e-001) (16, 3.26710544381804410000e-001) (17, 3.01300574853222260000e-001) (18, 4.42464180359317780000e-001) (19, 4.20416212365336000000e-001) (20, 1.06608788774140330000e-001) (0, -6.63052588713380020000e-001) (1, -1.09544232728674440000e+000) (2, -1.12982287510946700000e+000) (3, -1.11015341403708460000e+000) (4, -1.29195087487159800000e+000) (5, -1.45281300202064730000e+000) (6, -9.91366900249277650000e-001) (7, -1.16714235215496020000e+000) (8, -1.10364344647490450000e+000) (9, -1.38631409021002730000e+000) (10, -1.17216937894608960000e+000) (11, -1.34637749028297530000e+000) (12, -1.02307032240614150000e+000) (13, -1.34948709025489010000e+000) (14, -3.07059341102788340000e+000) (15, -1.00805391221668540000e+000) (16, -1.25557670984571330000e+000) (17, -9.56256601713221580000e-001) (18, -1.21969310087383410000e+000) (19, -1.48511848881248420000e+000) (20, 2.14254145071785720000e-001) (0, -2.50430733482567950000e-001) (1, -3.76080979522289140000e-001) (2, -4.14515084465511880000e-001) (3, -4.64663537489216130000e-001) (4, -6.10920579605503720000e-001) (5, -4.97909294459801700000e-001) (6, -6.15849483191799550000e-001) (7, -3.28799277652180750000e-001) (8, -4.71198121613703060000e-001) (9, -4.23999947888097360000e-001) (10, -4.43004377646428030000e-001) (11, -4.72865848531772770000e-001) (12, -5.48011643121212530000e-001) (13, -5.12517917897513660000e-001) (14, -4.70569603183017600000e-001) (15, -4.49341444937777830000e-001) (16, -4.21089729535663200000e-001) (17, -5.13659100555204360000e-001) (18, -4.33482724753205980000e-001) (19, -4.93022850612109040000e-001) (20, 8.20704373052373090000e-001) (0, -3.42984528921011710000e-002) (1, -3.04350906512146640000e-001) (2, -2.15007066940630570000e-001) (3, -1.68833658796283290000e-001) (4, -1.49048598638894660000e-001) (5, -9.09850110221274380000e-001) (6, -2.56990070651400560000e-001) (7, -1.84586832859148870000e-001) (8, -3.00061358890060030000e-001) (9, -7.83693077210597440000e-001) (10, -2.77533097051778420000e-001) (11, -1.84753005614542470000e-001) (12, -1.80500016364615990000e-001) (13, -8.23787071948669510000e-001) (14, -7.98890505072620940000e-001) (15, -1.33983995170457890000e-001) (16, -7.51000704646752840000e-001) (17, -2.59444202212793020000e-001) (18, -2.24499652985406060000e-001) (19, -8.67903839891824740000e-001) (20, 4.44646529761177580000e-001) (0, 2.07753476909037170000e-001) (1, 2.32884339877402540000e-001) (2, 2.52806215174261610000e-001) (3, 2.19861569477552250000e-001) (4, 2.95010452515801380000e-001) (5, 2.66660167551806550000e-001) (6, 2.94876493141849550000e-001) (7, 2.71733757636961230000e-001) (8, 2.75071860849437240000e-001) (9, 2.81317057732126450000e-001) (10, 1.66494825600769250000e-001) (11, 2.70423093668477670000e-001) (12, 3.57314008263720840000e-001) (13, 1.88838276632825100000e-001) (14, 3.17466733063814790000e-001) (15, 2.04004999002923150000e-001) (16, 1.86872884270778170000e-001) (17, 2.39369437335258060000e-001) (18, 3.25752728496546130000e-001) (19, 3.17940588178214800000e-001) (20, 2.70449360678774790000e-001) (0, -6.83195791091840980000e-002) (1, -9.98291832205022430000e-002) (2, -1.88823856303489770000e-001) (3, -2.46177705211629680000e-001) (4, -1.98037703869086980000e-001) (5, -6.02075375622157740000e-001) (6, -1.44261972247284240000e-001) (7, -2.40592988331535920000e-001) (8, -1.89237229541193790000e-001) (9, -5.30675422958104880000e-001) (10, -5.58551967904608480000e-001) (11, -6.75546356996942650000e-001) (12, -8.12880644575125630000e-002) (13, -5.71130046966477730000e-001) (14, -1.62751096514406270000e+000) (15, -6.30542594474767930000e-002) (16, -5.74105487566149210000e-001) (17, -7.85581040833643880000e-002) (18, -2.41465013575059230000e-001) (19, -5.64189075924307120000e-001) (20, 5.25881700777006470000e-001) (0, -2.35939276559350260000e-001) (1, -5.89600830669841040000e-001) (2, -5.71336390653510370000e-002) (3, -5.49994576961504560000e-001) (4, -5.40530138147858440000e-001) (5, -1.54061865203598210000e-001) (6, -3.15125490089134870000e-001) (7, -6.00128855052313390000e-001) (8, -4.23806503596040380000e-001) (9, 1.56908736193590960000e-002) (10, 8.32162636691484990000e-002) (11, 2.57343340376350420000e-002) (12, -3.14277101404617900000e-001) (13, -1.23748692915288600000e-002) (14, -8.60109297892400900000e-002) (15, -4.79321137199115120000e-001) (16, -5.91590796091722710000e-002) (17, -4.47526592090104150000e-001) (18, -4.30339079358798840000e-001) (19, -3.43320084968153080000e-003) (20, 4.11586742665544620000e-001) (0, -1.43791394229758360000e-002) (1, 1.43269228182359040000e-001) (2, 6.99967147468153690000e-001) (3, 6.22550674728676760000e-001) (4, 1.06766239963173500000e-001) (5, 6.14688213806041220000e-001) (6, 2.32318268693233960000e-001) (7, 5.64248759929434800000e-001) (8, 6.24619878685503170000e-001) (9, 6.73644708944395880000e-001) (10, 6.03246595359143380000e-001) (11, 6.75645157941721310000e-001) (12, 1.87353519909741560000e-001) (13, 5.54040214974650060000e-001) (14, 6.11868818777768770000e-001) (15, 1.21931818181368630000e-001) (16, 5.24224338986049370000e-001) (17, 1.23263995448436440000e-001) (18, 5.72126686020396290000e-001) (19, 5.43592685097709640000e-001) (20, -9.19162709835707050000e-002) (0, -1.18238117959246560000e-001) (1, -1.76729239760001100000e-001) (2, -2.39355574704611720000e-001) (3, -2.81733386791150010000e-001) (4, -1.37298962279116670000e-001) (5, -7.44697158362043870000e-001) (6, -2.89779562963984880000e-001) (7, -1.87019029911046050000e-001) (8, -1.63725825865879670000e-001) (9, -6.93967372569070480000e-001) (10, -3.76525125374702290000e-001) (11, -5.93463711144329390000e-001) (12, -2.10133011893481350000e-001) (13, -6.49259119949740620000e-001) (14, -7.45889654493961940000e-001) (15, -1.92507501651930730000e-001) (16, -6.98329443916755110000e-001) (17, -2.02690607367128270000e-001) (18, -3.54396291670050210000e-001) (19, -6.05175114962202660000e-001) (20, 3.89556507840663590000e-001) (0, -7.60714523780290470000e-001) (1, -4.81975698259078430000e-001) (2, -4.52527632192991800000e-001) (3, -3.93948172590471210000e-001) (4, -5.11554682858428420000e-001) (5, -5.30565420346766900000e-001) (6, -5.57705246709346290000e-001) (7, -3.48748805214594000000e-001) (8, -5.52821807178421890000e-001) (9, -4.06953956547840830000e-001) (10, -5.37303667196451950000e-001) (11, -3.56100178933287100000e-001) (12, -5.55140924755042180000e-001) (13, -4.58205849905265310000e-001) (14, -5.72330749917145830000e-001) (15, -5.70849862306281760000e-001) (16, -1.85707880783176400000e-001) (17, -6.42841117502793160000e-001) (18, -5.93236954859060030000e-001) (19, -5.19630542830229030000e-001) (20, 2.33975577332724250000e-001) (0, 2.52528968055434340000e-001) (1, 3.72770261385673370000e-001) (2, 2.90559856681881110000e-001) (3, 3.50064584006697600000e-001) (4, 2.87703989018234680000e-001) (5, 2.58689429751178870000e-001) (6, 3.17830942592161160000e-001) (7, 3.57045414075298220000e-001) (8, 3.26995692143887520000e-001) (9, 3.06774261101160290000e-001) (10, 3.34119074512361560000e-001) (11, 3.52946022952586650000e-001) (12, 4.01142799434378860000e-001) (13, 3.00388206013324890000e-001) (14, 3.36881413028924100000e-001) (15, 3.19153143030819760000e-001) (16, 2.36377302091310190000e-001) (17, 3.53174354923076860000e-001) (18, 3.23407323812150540000e-001) (19, 3.79337624908352210000e-001) (20, 2.14889942671800670000e-001) (0, 3.06480155494868730000e-001) (1, 2.52670658313020660000e-001) (2, 3.36816643167771320000e-001) (3, 4.13546273569838310000e-001) (4, 3.32724132625306310000e-001) (5, 4.06704062834484350000e-001) (6, 4.79585699071587270000e-001) (7, 2.94969746327217560000e-001) (8, 3.33707103628258230000e-001) (9, 2.92137791906902090000e-001) (10, 3.01951787564016970000e-001) (11, 4.07150062590969530000e-001) (12, 4.06199434989347190000e-001) (13, 3.97255820506194570000e-001) (14, 4.30192075005631450000e-001) (15, 3.41994096791989830000e-001) (16, 3.90366765685794150000e-001) (17, 3.33223440738573020000e-001) (18, 4.00475918426314470000e-001) (19, 3.50570198412671670000e-001) (20, 1.34913215287916890000e-001) (0, -5.88800747210561910000e-002) (1, -1.86889891125012450000e-001) (2, -3.71758853052549690000e-001) (3, -3.59325852534742090000e-001) (4, -2.78070964201357350000e-001) (5, -7.49626794111402650000e-001) (6, -2.04035614178087940000e-001) (7, -3.52113557321217190000e-001) (8, -2.50606521128477870000e-001) (9, -2.35052852281527280000e-001) (10, -2.63301619738270150000e-001) (11, -3.48389730202823660000e-001) (12, -1.30720183398102850000e-001) (13, -2.66551319242590230000e-001) (14, -8.36031696742996930000e-001) (15, -2.23228751387198360000e-001) (16, -2.06570035264988180000e-001) (17, -1.89154033744622030000e-001) (18, -2.06540364379624450000e-001) (19, -7.77702966404770210000e-001) (20, 4.34193764526227210000e-001) (0, 8.68653291490845830000e-003) (1, -3.92698709432933280000e-001) (2, -3.11838032238756890000e-001) (3, -2.70689720574461830000e-001) (4, -4.38079000576793280000e-001) (5, -2.97360003074570440000e-001) (6, -2.23061994775269420000e-001) (7, -3.51526743079223990000e-001) (8, -3.76136652125148570000e-001) (9, -3.84146806432661800000e-001) (10, -2.93914126811393560000e-001) (11, -2.93888710617031650000e-001) (12, -3.21176009909157180000e-001) (13, -3.58308846758095430000e-001) (14, -3.35098041364095320000e-001) (15, -7.30740331927865750000e-002) (16, -3.80987804180070610000e-001) (17, -2.12215728000190030000e-001) (18, -4.71277889915224850000e-001) (19, -3.41570032766177700000e-001) (20, 3.60211911954132440000e-001) (0, -5.73387591191295500000e-002) (1, 8.73349567302356550000e-002) (2, 7.64023576141165670000e-001) (3, 7.98637412204208590000e-001) (4, 1.39963839037969800000e-001) (5, 7.97969556737208710000e-001) (6, 1.56635653646995140000e-001) (7, 7.04004539394610800000e-002) (8, 1.84888046286701440000e-001) (9, 8.37610996888544570000e-001) (10, 8.45430801039508630000e-001) (11, 8.31822227151825850000e-001) (12, 1.07735822787817100000e-001) (13, 8.20264805223816170000e-001) (14, 7.37826585426643590000e-001) (15, 5.13300931232466490000e-002) (16, 7.46134879193141140000e-001) (17, 6.08661935578959850000e-002) (18, 2.21472057710689870000e-001) (19, 8.06643447174582030000e-001) (20, -1.80688216055304810000e+000) (0, 2.37660157266780000000e-002) (1, -2.80673868692482510000e-001) (2, -4.39970404241409710000e-001) (3, -5.10174915532098930000e-001) (4, -4.12373061022565050000e-001) (5, -1.43810348008860030000e+000) (6, -3.75978245153759490000e-001) (7, -3.83826036696228610000e-001) (8, -4.01301188444924960000e-001) (9, -1.08525020205483850000e+000) (10, -1.19145556084693840000e+000) (11, -1.10501394229135540000e+000) (12, -4.54482852501123970000e-001) (13, -1.22263132697570030000e+000) (14, -1.42538233590967930000e+000) (15, -3.74762223233614580000e-001) (16, -1.10673714659103070000e+000) (17, -3.10236310572019840000e-001) (18, -3.79546419942610570000e-001) (19, -1.45981481817072490000e+000) (20, 2.59073013047602970000e+000) (0, -4.16747668412321580000e-001) (1, -8.57236687578826760000e-001) (2, -9.89587242093003970000e-001) (3, -4.13719496245277650000e-001) (4, -1.16273812768176970000e+000) (5, -8.82276094932016640000e-001) (6, -7.99820183777275150000e-001) (7, -4.28838317096380150000e-001) (8, -1.17456836256198890000e+000) (9, -9.14241494829435840000e-001) (10, -1.07629785657555850000e+000) (11, -3.36737912110519230000e-001) (12, -8.87491083521173450000e-001) (13, -5.86842809855332100000e-001) (14, -1.26047788415310120000e+000) (15, -7.61061834176556930000e-001) (16, 4.56413530504070230000e+000) (17, -8.06501020499634010000e-001) (18, -1.11991985485656740000e+000) (19, -8.27164487693370030000e-001) (20, 8.58723306585429060000e-001) (0, 7.87052017464214690000e-002) (1, 8.79782640810011780000e-002) (2, 5.32682089100883440000e-001) (3, 5.82189636191335460000e-001) (4, 1.15888696579952640000e-001) (5, 7.50294037155909250000e-001) (6, 1.87983534923091970000e-001) (7, 6.01519470463747430000e-001) (8, 6.43594952356962290000e-001) (9, 5.02662330570019860000e-001) (10, 5.93092039760918840000e-001) (11, 5.17994619419199220000e-001) (12, 7.62097409105648580000e-002) (13, 6.13246960992084980000e-001) (14, 7.98713656563032610000e-001) (15, 1.01065937009268320000e-003) (16, 5.06366899429054550000e-001) (17, 9.54572762673884660000e-002) (18, 6.19175935071792580000e-001) (19, 6.81543447421215420000e-001) (20, -1.77669990097549620000e+000) (0, -7.19465615858097400000e-002) (1, -3.86594449621967600000e-001) (2, -4.81334452091459140000e-001) (3, -4.35653798227125130000e-001) (4, -3.66013758071418450000e-001) (5, -1.28088780385817460000e+000) (6, -3.86735421153478030000e-001) (7, -3.65317068855030120000e-001) (8, -5.11885406988934480000e-001) (9, -1.17541133621084400000e+000) (10, -5.10176157273454560000e-001) (11, -5.11190908727716000000e-001) (12, -2.58131160008583830000e-001) (13, -1.21918020375819030000e+000) (14, -1.35952609279541940000e+000) (15, -3.54968977254213450000e-001) (16, -1.10225824626232600000e+000) (17, -3.43421295137411650000e-001) (18, -5.65524260078355210000e-001) (19, -1.33447549166876910000e+000) (20, 2.65619165494858670000e+000) (21, -3.62743438726960800000e-001) (22, 4.59175991366763610000e-002) (23, -1.99213097571350030000e-001) (24, -7.73027930799746050000e-002) (25, 3.39389666401107130000e-001) (26, 3.35513608128727050000e-001) (27, -2.08837556355189990000e+000) (28, 3.39322500886400420000e-001) (29, -2.11816257372398400000e-001) (30, 3.20567804264817180000e-001) (31, 6.35093047568240090000e-002) (32, 3.40958269940106140000e-001) (33, 3.38761004282364330000e-001) (34, 2.77622875311036130000e-001) (35, 3.11700608014335080000e-001) (36, 2.27534072964335280000e-001) (37, 2.56819098508912160000e-001) (38, -2.09134322184001590000e+000) (39, 3.20423478645370350000e-001) (40, 2.69999797048204940000e-002) (41, 2.75308854899353580000e-001) (42, 3.03101917920469570000e+001) (43, -4.54525431628338080000e-001) (44, 9.26485278723278810000e-003) (45, 2.77588207350836220000e-001) (46, -1.97259972542246200000e-001) (47, 2.69312822971397910000e-001) (48, 2.72217911520801380000e-001) (49, 6.58407376822528200000e-002) (50, -1.08736245075219600000e-001) (51, 3.10874828931528850000e-001) (52, 1.70545903863966420000e-001) (53, -2.05474138517650440000e+000) (54, -2.02048498830087820000e+000) (55, 3.80854015003991740000e-001) (56, -3.69629891810703800000e+000) (57, -7.60969140526626340000e-001) (58, 3.84706527199779550000e-001) (59, -3.72060217060291130000e+000) (60, 2.02422307645009900000e-001) (21, -8.87555167355482790000e-001) (22, -1.05416438833692170000e-001) (23, -1.92654431571184390000e-001) (24, -1.47694019485083920000e+000) (25, 1.18806392043717010000e-001) (26, 7.18843291768011540000e-001) (27, -1.50510871521445200000e+000) (28, 7.15699299908097660000e-001) (29, -2.43413115425407390000e-001) (30, 6.30657068143438030000e-001) (31, -3.67992231597926930000e-001) (32, 1.90187008341746070000e-001) (33, 2.16920407177604830000e-001) (34, 2.35676510972717550000e-001) (35, 6.16680017153913630000e-001) (36, 5.96593440517058320000e-001) (37, 1.15374161486863620000e-001) (38, -1.52003101580544240000e+000) (39, 5.37065851739403350000e-001) (40, -8.31858615525978840000e-001) (41, 2.25172360425568510000e-001) (42, 3.00703619945738550000e+001) (43, -6.61138495854155520000e-001) (44, -7.98721974543572110000e-002) (45, 2.78669675675865590000e-001) (46, -1.54315456861335080000e+000) (47, 3.38355705374329130000e-002) (48, 5.90935481448373160000e-001) (49, -3.18667617042677150000e-001) (50, -6.49546927803507510000e-002) (51, 2.72224363079822950000e-001) (52, 1.62822892662654820000e-001) (53, -1.46420559282754440000e+000) (54, -1.45881275317446920000e+000) (55, 7.06840430364431120000e-001) (56, -5.51418098942323100000e+000) (57, -1.73784694457198750000e+000) (58, 7.09601887707864140000e-001) (59, -5.61810601074865450000e+000) (60, -1.63316534358046650000e-002) (21, 1.75666939265317710000e-001) (22, 1.13217255589503660000e+000) (23, 5.20874345416151300000e-001) (24, 6.78311580943988690000e-001) (25, -8.71456768936741820000e-002) (26, -5.91165282508686050000e-002) (27, 1.36991543321755820000e-002) (28, -6.54403501185093360000e-002) (29, 3.53103113924871430000e-001) (30, -2.63395726771514900000e-002) (31, 8.88729622446170710000e-001) (32, -4.93675784293463800000e-002) (33, -3.94021086338117580000e-002) (34, 3.27982512707703580000e-002) (35, -8.21631227497308800000e-002) (36, -1.64597206009344520000e-001) (37, 7.72677075887258370000e-002) (38, 6.26269822128912360000e-001) (39, -3.18632544000858540000e-002) (40, 1.19147352106272630000e+000) (41, -1.03100266975166100000e-001) (42, 1.08462626262045060000e+000) (43, 1.11327527770998190000e+000) (44, 6.05846695579708490000e-001) (45, -5.96188210147421470000e-002) (46, 5.06031922979341410000e-001) (47, 5.30635225860867090000e-002) (48, -6.04460184978767990000e-002) (49, 7.39367205381818990000e-001) (50, 9.10842490267280920000e-001) (51, -9.54187115108527250000e-002) (52, -5.31464707601196220000e-004) (53, 6.70499080827573370000e-001) (54, 2.21058124238326550000e-002) (55, -1.26705764241674150000e-001) (56, 5.54003673062916980000e-001) (57, 4.91773819900908020000e-001) (58, -1.61362623524454100000e-001) (59, 8.31118437751307670000e-001) (60, -1.03597261141219960000e-001) (21, -1.03129432372686720000e+000) (22, -2.59069289009902230000e-001) (23, -4.10004760191032100000e-001) (24, -2.20172545891095830000e+000) (25, 2.39017740811529930000e-001) (26, 5.36456907099011950000e-001) (27, -3.68362633424194950000e-001) (28, 6.32127556207278780000e-001) (29, -1.38759348487056090000e-001) (30, 6.69645735269501220000e-001) (31, -1.82435588841624540000e+000) (32, 2.06577554781258550000e-001) (33, 3.04819743745181060000e-001) (34, 2.46030680369155870000e-001) (35, 2.12540689635741160000e-001) (36, 5.59147780332286400000e-001) (37, 2.60664565715119760000e-001) (38, -2.19139220680385580000e+000) (39, 5.90947097212383140000e-001) (40, -2.90843068858858410000e-001) (41, 3.29679363256243250000e-001) (42, 4.54173133638860590000e+001) (43, -3.81046862845802800000e+000) (44, -4.12885619608960250000e-001) (45, 2.53092448052509410000e-001) (46, -2.22459198279259640000e+000) (47, 2.22073717973115810000e-001) (48, 5.43174879703646640000e-001) (49, -2.86945676326058830000e-001) (50, -1.52138814861580780000e+000) (51, 2.67655436550764850000e-001) (52, 4.59416333533672280000e-001) (53, -1.93503741443051910000e+000) (54, -1.80075663340373900000e+000) (55, 7.02675426128114950000e-001) (56, -3.94460831519031090000e+000) (57, -1.42514804257788290000e+000) (58, 6.55711540933707540000e-001) (59, -3.82699402657391550000e+000) (60, -5.53780663278891360000e-002) (21, -1.25780360249792890000e+000) (22, -1.56536884862090160000e-001) (23, -2.11594486351843890000e-001) (24, -3.17982248079292540000e-001) (25, 1.37285305983135600000e-001) (26, 1.52460196209617430000e-001) (27, -8.07514985189552450000e-001) (28, 1.26613736189544330000e-001) (29, -7.94489627815813250000e-002) (30, 1.46947034410407180000e-001) (31, -2.72273077714396240000e+000) (32, 9.06727564604296880000e-002) (33, 7.18861350867369690000e-002) (34, 9.30082382144929890000e-003) (35, 1.44972363285614000000e-001) (36, 1.27640546501115890000e-001) (37, 7.28581761492820560000e-002) (38, -1.52744022083841300000e+000) (39, 9.97712016166079350000e-002) (40, -9.88753455824556840000e-002) (41, 8.05653344348172260000e-002) (42, 1.16088680326318310000e+001) (43, -3.70529305380160050000e-001) (44, -1.10927347450036310000e-001) (45, 4.03886214928196320000e-002) (46, -2.54125313157918590000e-001) (47, 1.18807728540745250000e-003) (48, 1.40367531464375720000e-001) (49, -1.25051266297883430000e-001) (50, -1.73428266942846850000e-001) (51, 7.59815941321391190000e-002) (52, 1.14531563858285020000e-001) (53, -1.54263691701720050000e+000) (54, -1.32924583580064760000e+000) (55, 2.08109339576533940000e-002) (56, -1.62409280061901700000e+000) (57, -1.39536650456738380000e+000) (58, 1.06994118225092180000e-001) (59, -1.62846731640851570000e+000) (60, 3.99671585536873830000e-002) (61, 3.32657078753941400000e-001) (62, 1.50896809814896370000e-001) (63, 1.42285790255989520000e-002) (64, 7.40084664726832430000e-001) (65, 5.93002135112579150000e-001) (66, 1.37927790121251280000e-001) 
