encog,BasicNetwork,java,3.0.1,1,1319396670406
[BASIC]
[BASIC:PARAMS]
[BASIC:NETWORK]
beginTraining=0
connectionLimit=0
contextTargetOffset=0,0,0
contextTargetSize=0,0,0
endTraining=2
hasContext=f
inputCount=24
layerCounts=1,37,25
layerFeedCounts=1,36,24
layerContextCount=0,0,0
layerIndex=0,1,38
output=0,0,0,0,0,0,0,0,0,0,0,0,0,0,0,0,0,0,0,0,0,0,0,0,0,0,0,0,0,0,0,0,0,0,0,0,0,1,0,0,0,0,0,0,0,0,0,0,0,0,0,0,0,0,0,0,0,0,0,0,0,0,1
outputCount=1
weightIndex=0,37,937
weights=-0.19166868321345845,0.05207170270987039,0.0275032484068162,0.15006425293826517,-0.07699654807290926,-0.07857807618856325,0.050590322703136306,0.007056378873530896,-0.15548105772253173,0.029015808921692754,-0.07401297131327031,-0.04044293812436699,-0.008262490905828656,-0.049086657347939835,0.04475515874752719,0.08195276689340135,0.006582251685834991,0.12177148482793303,0.13378393112218526,0.02342488731676985,0.09163741691553698,0.005007119068074288,0.18709795206571628,0.016605896076879893,0.06996296097071994,-0.0037600287996666306,-0.09265304377669747,0.06948570589653821,0.0034979571294976564,-0.08031775948019498,-0.027670418483551503,-0.06718702554768508,-0.11675490129946985,0.047423975191835464,0.11103270787209785,-0.05404579107640813,0.22994079693813155,0.08117573537817731,0.09057446337683622,-0.022238062363629615,-0.09342699675345915,-0.13428787846273432,-0.024640024651467467,-0.07614722758569067,0.21507253978373356,-0.46097046933166796,-0.23098448002439165,0.15459824276717066,-0.16638275937518304,0.08252682435933287,-0.15660756883838797,0.17427807714039978,0.19869669709143079,0.059134716726341276,-0.18427140620264568,-0.018982662111010042,-0.1936509659651678,-0.182808258559915,-0.1395226261626535,0.1675465839052476,0.10807523943191873,0.24402650630108863,-0.42139770950451977,0.056154056349243295,-0.1706595054292718,0.0863199024659691,-0.035795233281194716,-0.2305458755973269,-0.17584285328307686,-0.23824286009495813,0.33127122168095824,0.16009275109326976,-0.10162136884992191,-0.12297032049138668,-0.23577760135878398,0.21731241853413139,-0.6526382312880953,-0.4557993533463991,-0.17318073389469898,1.2241618396633225,0.13517855976273654,-0.0014132155613582275,0.17457009443548596,-0.04295244873209058,0.16546465993495632,-0.2704244849395505,-0.0755895219525257,0.12091929193951755,-0.12715142809547464,0.3719042056923013,0.007686515157884134,0.20576428234883476,0.06825258357270607,0.009359128886680333,0.06595645883830249,0.35092246589065335,-0.03598878706885386,-0.21784034436815813,0.3887519973678436,-0.013921022153463372,-0.2916786399983181,0.1372653933054639,-0.1483380121877832,0.17883135961616797,1.8140179806978574,-0.21169629003859824,-0.14602205520089748,0.08724329569818816,-0.08454168385311198,-0.477389031845425,-0.03028939829061772,0.3419145094932859,0.3418928149522762,-0.014743133349008695,0.020275374058605942,-0.2993893162648441,0.06092770107928509,0.1543015617202563,-0.39839854739068986,-0.2163937259011581,-0.10532563701670954,0.17730103707542605,-0.048889381075472374,0.1353137615045607,-0.23966612468408102,0.04652406380403819,0.1737747557896654,-0.2704671567991967,-0.0272682234327217,0.1927886691036819,0.07323595984951303,0.061418312380722144,-0.0644061723158528,-0.4223522592405395,-0.08168525777067337,-0.1288317303974301,-0.20385859396876757,-0.20802225945552794,-0.048036832405148715,-0.2084689805112275,0.2386404883738902,-0.05592265969730983,-0.18731188421168976,-0.30516523714416566,-0.3087043722796886,-0.1250427800677342,0.30920714540193683,-0.14507583985601932,0.37803742034419774,-0.6096581969062195,0.505234923477869,-0.07519384573653694,-0.24970994632299826,-0.3757665338095017,0.30435727227546155,0.1682820231104642,0.039415186177197484,0.15266221204617642,-0.05104523616283016,-0.33937688851187414,-0.44093624824025174,0.04319456103232374,-0.2668787557416258,-0.1611439972521108,0.36937124359366336,-0.12477409363190986,-0.1797422974339154,0.01897545296267866,-0.18472988504937699,0.14698154896151655,0.444845889705863,-0.24252160781766366,0.15486784281706914,0.2296371225051607,0.3257380887881427,0.26339945986807667,0.10933826641036165,0.06708010789064352,-0.13851616733714042,-0.114051865147476,-0.13328916969645568,-0.01858385847658172,0.03159534579757079,-0.11705081194164947,0.327576543409051,-0.14782682481814574,-0.05763758273631711,-0.23605205559711162,0.11686294464752756,-0.17853527362028893,-0.13730371006074749,-0.06367000415138481,-0.042828801564918896,-0.022743665080249414,0.1391296429168566,-0.02972174461107619,0.0071826307206437415,-0.2857446001945814,-0.3601271304189029,-0.22549780190045376,-0.09804522550000594,-0.5027744035959034,-0.21984428685484436,-0.16222188687371095,-0.1045023209325596,0.14806437934966124,0.34690586212528923,0.24208588585271024,0.19094382499569848,-0.5538844009709526,-0.13523196861374986,0.13195490550110883,-0.1555615005234592,-0.060469837723413,-0.3461820260555245,0.09169570707746966,-0.2923896546571398,-0.11162807409722779,0.21923152184102707,-0.4453072595944443,-0.13675856555359595,-0.0013097971318557578,0.19198719055140517,-1.0853913987348032,0.07782234961942489,0.0019375428587018488,-0.24712895081679492,-0.1683544810502373,0.026782139571733928,-0.2731242480882038,-0.17508677734268993,-0.20164546578006914,0.10190640035676578,0.00828183841775336,0.4602577089246992,0.583196312466094,0.107909241010631,0.12019373694807405,-0.07380017970760139,-0.17021201039637665,0.21735930062960768,-0.05105045225766117,0.24988145869170186,0.0021688500027430813,0.11697223946124394,-0.2828558691141468,-0.0493178771245493,-0.00832678126776576,0.017870192336562778,0.0006326114162818175,0.23777510463190496,-0.09639884922133737,-0.23678143649223254,0.2786883690100377,-0.1422500382111289,0.04202597610958873,-0.027729806170001838,0.007028126683085343,-0.2279980228432168,-0.2780453819061444,-0.05556853715357985,0.08732245619904075,-0.18448289637215282,0.12400426279785634,-0.5750749627557931,-0.24206178336157805,0.21036088777252518,-0.060467824221930526,0.2410386054138564,-0.1318667055711661,-0.12531324692566193,-0.08252638764992797,-0.0536842494595812,-0.11161855231386347,-0.4001055931094817,0.05564790309752004,0.06482493709331763,-0.0736752832290341,0.6271447785720339,-0.10222062742511874,-0.12303848036865343,0.150114322982214,0.15148922259682077,0.2895755342729902,0.07266023169642272,-0.07558120322541134,0.042138846594078516,0.13882394762512,0.06044951133259785,0.41137232046604494,-0.2307226679306862,-0.12011290340822738,0.20528460755449357,0.32166958149371383,0.24643056171959035,-0.13529720290717398,-0.11782561633939309,-0.012986440676453687,0.012026951011023938,-0.03941580641332909,0.1950097446322109,0.08694873729955394,-0.238641600310099,0.124665863437333,-0.17647829914639138,0.1431053513495335,0.24986874756223532,-0.004096868936331077,-0.0613107294920294,-0.04252990854349439,-0.14029984358378889,0.2648947026938467,0.01539078620726143,0.11422571367809391,-0.14094508368164257,-0.22418980384962117,-0.10295328496129637,0.05409203583601572,-0.2777284962384567,-0.4863892610830683,-0.47635789984589216,0.18482376625853555,0.31254273076940603,0.014275453059755947,-0.1937406221866531,0.4182791846749843,0.5420693110997341,0.15592285935555306,-0.17476974709047557,0.45068318013315745,0.04404123068687809,0.1625905921710139,0.18676223070259354,-0.41645978915290044,0.3736009803561896,0.04061082945708061,-0.04555737754393538,-0.04169447007273624,0.035430932151556016,0.47850529369118305,0.43738061450150917,0.09839469988202687,0.07993069440489475,-0.14132849820551457,0.0065503379362665815,-0.11431815465721712,0.30809486983807527,-0.11237965815579312,0.4752164008223922,-0.5482700988377844,0.36570330146312646,-1.1806555793090394,-0.4046421134757854,-0.029240702278926826,0.4616758263523402,-0.31515475878659466,0.32099222184406784,0.22934974931871252,-0.15443584445888195,-0.2044231456917274,0.1726947582770339,0.018160495539814744,-0.06604461508432061,-0.42627134548545337,0.2385420536210263,0.19240220097681923,0.4102778515286969,-0.20081919536490483,-0.2588442291913068,-0.6166687086267285,0.18956579769541976,0.6568672061975861,-0.4287678265967123,0.21445489829550926,-0.5272798217379724,-0.13943080588613582,-0.051712479273306675,-0.30119555676964804,0.12740606172452767,0.43798797971240916,0.33407159185701735,0.35351609038756304,0.0599634412234509,-0.08946578900266615,-0.2870466936094232,-0.18494301982184141,-0.026157862571950963,-0.11273647928905127,-0.22329668479062356,-0.20206858935672292,0.16159162659835838,0.00025443997536290716,-0.06741879763033458,-0.389420267919904,0.16034780485443725,-0.16718169900219432,-0.31141704148736066,0.4130015976302853,-0.07210366160986902,0.19856347004701524,-0.07314303491898115,0.014460680419379656,-0.00796201289711753,0.43703201661885555,0.09280560980838352,-0.008957045331009047,-0.2069540821601017,-0.19644847284367034,0.0760690238573025,0.331059544713667,0.5036009806663598,-0.18385992456974895,-0.10862194900057334,-0.07779137720428962,-0.2664398718606886,0.00479187833428878,-0.007565304072772318,0.03207408732445197,0.18477664066096056,0.15955267399089243,-0.22868510115124022,0.11679173581198231,0.07374884380220784,-1.2133259490471493,0.08986549689115018,-0.33196583938783897,-0.21629058737750373,-0.30058904403447667,-0.05879757381288219,0.6079952939860586,-0.10389256502133709,0.20148896586835846,0.11381684150631409,0.25463490894948626,-0.3327488229810562,0.48867735727793715,-0.038586811488697,0.20194245365190233,0.023220116306832628,0.0976062036909215,-0.07017987048718205,-0.2619735503930169,0.07370412190076069,-0.06728513336306093,0.23494697849467108,0.09903224812335026,-0.2830897182031169,0.10454163479887532,0.2000437472591024,0.21536849845254927,0.307302341485913,0.21558037398745147,0.07341205878246441,-0.07191565901553257,0.15962690174318292,0.03603691824614538,0.1149560059839093,-0.07522895049352366,-0.3391310466391083,-0.21674368125043825,-0.05395342360410573,-0.21522450246709654,-0.13349909784259167,0.22050865005027984,0.03496386064329628,0.17946227130013942,0.17964863645435847,-0.21021570945268103,0.16879752157899683,-0.08875876541361213,0.1718012801019031,-0.4848578910529088,0.1414755596636174,0.141819050012221,-0.13762915459028785,0.018102828552197536,0.20043912817539133,-0.012178070371284306,0.28682221357887844,-0.26913827855995115,-0.08885523048514456,-0.25279647547046386,0.07158185943777251,0.08193423504846581,-0.14428436478299947,0.05509600954790329,-0.15677854614597694,-0.09351585450727326,-0.0025841495482106093,0.2604211256447163,0.1814938472720114,-0.06177848482809047,-0.12630813430458437,0.06565099723957463,-0.2431267857307546,-0.10649681205189072,0.20773996198628022,0.1560753805480591,0.07235632944169314,-0.1539471368772575,0.28853507257750693,-0.2931995350285661,0.22776050313981466,-0.23424809063257934,-0.08833542284585875,-0.02461011996163363,0.09347757867117283,-0.191191929387379,-0.17033176518295368,-0.04753236731011155,-0.6629865465650716,0.2322351643337459,-0.12352105749583062,0.1500590600793865,-0.3414655498550813,0.034890851636547274,0.13092686554166316,-0.23674572642182937,0.08904584700021893,0.12037755245873222,-0.09617755258355563,0.011837440954590724,-0.41116991101292016,-0.04000926625179611,0.2932599081300783,-0.11774437946902555,0.22716958252464564,-0.1410015029015905,0.24198343040878992,-0.0194581270017056,0.0011737451579628046,0.014482739997134097,0.2745524660810967,0.06117869677070113,0.9118821766147529,-0.354014338011966,0.10886397759340566,-0.031073455402461973,0.21282436009710207,0.1309021503999827,-0.0314564958941707,-0.1609971298349401,0.2162996606789961,-0.5812196353309552,0.404773754847209,0.010082117948987144,0.06514869220176346,0.08219155626870485,0.15170073634988007,-0.19392617889620908,0.360668438640547,0.15894018523893466,0.184933110257282,-0.15306997010986476,-0.23680024335037947,-0.08779135835519852,-0.20404955381741102,-0.18099678382707002,0.14045249010036548,0.01578580527531113,-0.05870710781667703,-0.17806215887075746,-0.14295818698945148,-0.012380145608792867,0.10878788145223635,0.22265108867357902,-0.12567537638221085,0.05472197395402903,0.21151235085023568,0.04301326354158481,0.1434940744091147,-0.021912610248430876,0.11913190068688218,-0.20548247450656368,-0.03744856970347721,-0.07610622782242041,-0.12287450267062416,-0.06744324885499177,-0.27066200115187133,-0.2084122713253082,0.7112225526530374,-0.2785172980373904,0.14743681515273724,0.23627427247832122,0.3858701865222304,-0.03333486236095343,-0.18112485131768594,-0.19526062738082164,0.12106880275799295,-0.008965223609117504,0.15224309611227674,-0.1638363763996411,0.14891263590786713,0.18976485675562524,0.3974094185813216,-0.2739329949929015,0.12527673111156024,-0.15059392097046445,0.2054895430580294,-0.0839309878566237,-0.05203769399568497,0.19847401919488292,-0.2310507294460696,-0.24049112799751607,-0.20239291992571545,0.09755690178958382,0.14816846955414043,-0.032393760474705574,0.06470358986516055,-0.0939913117830062,-0.05539840097077206,-0.17925871563493342,0.2562630188083086,-0.04771878206304055,-0.08121519353565457,0.06053593085259882,-0.2008736954539317,-0.0030402313269573557,0.13676516283519213,0.497246015297457,0.10861862203826776,-0.08847483716862607,0.08882954688729831,0.12916072171148418,-0.18412034207073005,-0.03247260717590939,0.07191662917317147,0.2381914947528491,-0.0009490135491213692,-0.2407874334627475,0.13166439928968188,0.0015692843724827406,-0.11094750320472016,-0.38144520482275446,-0.26325940370938133,0.13651194390326346,-0.15596808272566107,0.24030906647721265,-0.2643101018613528,0.09522841864358293,0.23602373150343994,0.03901752972400994,-0.028041042634135028,0.010019388652599354,-0.06840341128787322,0.13608227789129781,0.11642174520604524,-0.14823568904839046,-0.6423131145943084,0.08211806616677558,0.14890754585710061,-0.2040995250768581,-0.33773882122686666,0.0928000424100962,0.06129810274206876,-0.019895149262110758,0.29698679258252014,0.26902603066419,0.013412845217172634,0.15083704959886302,0.07751237332522277,-0.020352042832848576,-0.2987889378692003,-0.07048598242463044,0.45885939210058785,0.23272357186582693,0.054454785908323214,-0.04931738367219265,-0.017206427876608508,0.07147154575668334,-0.11866345062627871,0.14813427126835454,-0.11232519619478679,0.017791387396917158,-0.2045940528151809,0.13033965141628814,0.1448845948013015,-0.014294475550709571,-0.25347371290110027,-0.05039801273953955,-0.35823994531316766,0.2577140818880976,0.09209767733642157,-0.00909569322965512,-0.6088461718560851,-0.19651053184445003,0.10153561928629508,-0.11095332446103648,0.11610395864630742,-0.2608887585032857,-0.07176349229698188,0.06391861367022202,0.2568607949356114,-0.19105136109791046,0.20068403642542443,0.31460286816837546,-0.0772807373869291,-0.012995186028316872,-0.17311353115356798,-0.04696944217511845,0.09929895997858722,-0.09159098364437666,-0.23894315177719697,0.2861822940393316,-0.04478546163231335,0.3002396975100548,-0.10511337434676203,0.12132585447705826,-0.1398392684177702,-0.28197476685891393,-0.062267253818273006,0.1676126148367361,-0.00038222873901773815,-0.09527351935416888,0.09014565212749719,-0.05519416356269396,-0.31512270218950633,0.1944181006876377,-0.06949340885748374,-0.15913573307029463,0.10893073788622516,-0.07415556285808474,-0.1883563730810941,0.04588205290105462,-0.014217252472434093,-0.11722003933563777,0.005694842361160605,-0.01897325046394486,0.5418112816533147,-0.13346342544392092,-0.5406842088778214,-0.15302935978669363,0.2778287742065412,-0.4252326641512744,0.3627791053585646,0.48111719846360906,-0.1632781414661619,0.008331744359682976,0.053656735414080996,-0.4912177727423025,0.019899401115224955,0.1774970337918352,0.01663552428504748,0.09816904756225542,0.26140055089607256,-0.42773421475152645,0.049285841320979025,-0.10430824656680458,-0.023842613135961498,-0.19258936239591573,-0.03733271576943733,0.17959828698730296,-0.14739952793940397,0.06139320094023274,0.6695580505366554,-0.10540490242313573,-0.04659357178504838,-0.2972340631358833,0.1839584810736647,-0.5500656285239327,-0.24578748433698655,0.006027013677687982,-0.02780625472711495,0.027896425677139684,-0.11609563582361178,0.5960806774901832,0.019727906719458156,-0.1382396785591276,0.10868192745696337,-0.18972686523018695,-0.05534979378017264,0.27055042041484145,-0.03557741708842647,-0.35343726203707115,-0.23279614475217333,-0.3098611526175444,-0.04447138643626489,-0.030571030967075523,-0.171302764059198,0.20603503706136717,-0.4891274448879898,-0.002492675020265541,0.20075971992351146,0.32704464564374525,-0.1979668900358421,0.20117458701217367,0.13408027185404195,-0.29169759253163746,0.20844866120771807,-0.19169200070258194,0.07159616671660286,0.1605535461619482,-0.09347944954280224,0.11316289851817822,-0.37720420454698567,0.14794790589757362,-0.11127811852517916,0.05807472956535441,-0.09745674393924199,-0.499022206278383,-0.11469007464730636,-0.12663948707144224,0.1761729586687629,-0.23368205234858558,-0.2084080789881418,-0.004544324815512265,0.17923347902324854,0.2166296446211182,-0.009620430759239936,0.14301833136649872,-0.018884590778395296,0.17970272744628266,-0.16293009465183914,0.19933179614746666,0.10285411453492876,0.08000864614468146,-0.09066955630427195,0.09070374646163461,0.05734836413489935,0.2084149277393849,-0.2969115814239082,0.07050739815177519,-0.04402824214429576,-0.22603523142350873,0.09167587113052003,-0.006741750983514314,0.17933183554569765,-0.0376738102368603,-0.257687684245261,-0.10717885118499834,0.11965136600264005,0.07649629719300001,0.03572355806013533,0.06487083766926025,-0.1534259553977095,-0.1186998299620461,0.25591380461348173,0.08119757397512672,-0.0874498432589943,-0.002996185514701108,-0.02692675499911044,0.03138332179032035,-0.1263570683401552,-0.041037540036638585,0.016978950823665403,0.33692171420070416,-0.12447767325080505,-0.28543669329430243,-0.17281784855523147,-0.35862380529821924,0.21341205397737853,-0.26243399973616605,-0.2321474136473898,0.1499995082445192,0.6901264928430382,0.13819953502538002,0.08563112589137196,-0.12071084170500007,0.0712847022359633,0.23453658318495893,-0.1052304009853182,0.04704840648230731,0.24694431749190685,-0.08277851704404879,-0.028709509482879144,0.01106306286362646,-0.24133635000154635,-0.219633823782321,0.10328994554991047,-0.0944213696680549,-0.42374156271742147,-0.38675504371681885,0.13084375147817928,-0.12617590619200353,-0.00045869872187005506,0.34346210040784786,-0.21283996063576655,0.19240403139942122,-0.0958651028764973,-0.2871273605939604,0.08422219571821853,-0.2588279539260983,-0.06982978561648079,0.043691276684976646,-0.0674318330051011,-0.13283437331857834,-0.23797901789072537,0.15117165393933274,-0.2333165197375881,-0.06792387945328485,0.23653978105221082,-0.01929756140861816,0.10050167405184761,0.17702050957330076,-0.27616311475393185,-0.12196854354036266,-0.0920033710860657,-0.04277007189932694,0.037123984590918445,-0.007570511438413082,0.1909607191204978,0.17668374677077148,0.1710798462081578,0.29175308801597827,0.18407364535671558,0.40826172691209156,-0.04542076718312522,-0.06851839903277154,-0.12360952117484408,-0.015916542558402053,-0.12905958923995323,-0.22996525695981923,0.0008546215369378332,0.21400218544761945,-0.02236969370572884,0.23860242383551428,-0.2815819374855624,-0.2646689208802048,0.5841103019159002,-0.3771110675570825,0.06672888984699066,0.3197167049967439,0.009072035101556686,-0.04758333194532232,-0.09862170145374016,-0.2391014534291109,0.0486247785367828,-0.07631346549619482,0.03430156254169474,-0.07486591310052915,-0.4510633854976546,0.0864372300065785,-0.0994219707975231,0.3047831586330607,-0.06958685184352466,-0.1779855007615551,0.1550021513359068
biasActivation=0,1,1
[BASIC:ACTIVATION]
"ActivationTANH"
"ActivationTANH"
"ActivationLinear"
