FANN_FLO_2.1
num_layers=6
learning_rate=0.700000
connection_rate=1.000000
network_type=0
learning_momentum=0.000000
training_algorithm=2
train_error_function=1
train_stop_function=0
cascade_output_change_fraction=0.010000
quickprop_decay=-0.000100
quickprop_mu=1.750000
rprop_increase_factor=1.200000
rprop_decrease_factor=0.500000
rprop_delta_min=0.000000
rprop_delta_max=50.000000
rprop_delta_zero=0.500000
cascade_output_stagnation_epochs=12
cascade_candidate_change_fraction=0.010000
cascade_candidate_stagnation_epochs=12
cascade_max_out_epochs=150
cascade_max_cand_epochs=150
cascade_num_candidate_groups=2
bit_fail_limit=3.49999999999999980000e-001
cascade_candidate_limit=1.00000000000000000000e+003
cascade_weight_multiplier=4.00000000000000020000e-001
cascade_activation_functions_count=8
cascade_activation_functions=3 5 7 8 10 11 14 15 
cascade_activation_steepnesses_count=4
cascade_activation_steepnesses=2.50000000000000000000e-001 5.00000000000000000000e-001 7.50000000000000000000e-001 1.00000000000000000000e+000 
layer_sizes=18 35 35 18 9 2 
scale_included=0
neurons (num_inputs, activation_function, activation_steepness)=(0, 0, 0.00000000000000000000e+000) (0, 0, 0.00000000000000000000e+000) (0, 0, 0.00000000000000000000e+000) (0, 0, 0.00000000000000000000e+000) (0, 0, 0.00000000000000000000e+000) (0, 0, 0.00000000000000000000e+000) (0, 0, 0.00000000000000000000e+000) (0, 0, 0.00000000000000000000e+000) (0, 0, 0.00000000000000000000e+000) (0, 0, 0.00000000000000000000e+000) (0, 0, 0.00000000000000000000e+000) (0, 0, 0.00000000000000000000e+000) (0, 0, 0.00000000000000000000e+000) (0, 0, 0.00000000000000000000e+000) (0, 0, 0.00000000000000000000e+000) (0, 0, 0.00000000000000000000e+000) (0, 0, 0.00000000000000000000e+000) (0, 0, 0.00000000000000000000e+000) (18, 5, 5.00000000000000000000e-001) (18, 4, 5.00000000000000000000e-001) (18, 4, 5.00000000000000000000e-001) (18, 4, 5.00000000000000000000e-001) (18, 4, 5.00000000000000000000e-001) (18, 4, 5.00000000000000000000e-001) (18, 4, 5.00000000000000000000e-001) (18, 4, 5.00000000000000000000e-001) (18, 4, 5.00000000000000000000e-001) (18, 4, 5.00000000000000000000e-001) (18, 4, 5.00000000000000000000e-001) (18, 4, 5.00000000000000000000e-001) (18, 4, 5.00000000000000000000e-001) (18, 4, 5.00000000000000000000e-001) (18, 4, 5.00000000000000000000e-001) (18, 4, 5.00000000000000000000e-001) (18, 4, 5.00000000000000000000e-001) (18, 4, 5.00000000000000000000e-001) (18, 4, 5.00000000000000000000e-001) (18, 4, 5.00000000000000000000e-001) (18, 4, 5.00000000000000000000e-001) (18, 4, 5.00000000000000000000e-001) (18, 4, 5.00000000000000000000e-001) (18, 4, 5.00000000000000000000e-001) (18, 4, 5.00000000000000000000e-001) (18, 4, 5.00000000000000000000e-001) (18, 4, 5.00000000000000000000e-001) (18, 4, 5.00000000000000000000e-001) (18, 4, 5.00000000000000000000e-001) (18, 4, 5.00000000000000000000e-001) (18, 4, 5.00000000000000000000e-001) (18, 4, 5.00000000000000000000e-001) (18, 4, 5.00000000000000000000e-001) (18, 4, 5.00000000000000000000e-001) (0, 0, 0.00000000000000000000e+000) (35, 5, 5.00000000000000000000e-001) (35, 4, 5.00000000000000000000e-001) (35, 4, 5.00000000000000000000e-001) (35, 4, 5.00000000000000000000e-001) (35, 4, 5.00000000000000000000e-001) (35, 4, 5.00000000000000000000e-001) (35, 4, 5.00000000000000000000e-001) (35, 4, 5.00000000000000000000e-001) (35, 4, 5.00000000000000000000e-001) (35, 4, 5.00000000000000000000e-001) (35, 4, 5.00000000000000000000e-001) (35, 4, 5.00000000000000000000e-001) (35, 4, 5.00000000000000000000e-001) (35, 4, 5.00000000000000000000e-001) (35, 4, 5.00000000000000000000e-001) (35, 4, 5.00000000000000000000e-001) (35, 4, 5.00000000000000000000e-001) (35, 4, 5.00000000000000000000e-001) (35, 4, 5.00000000000000000000e-001) (35, 4, 5.00000000000000000000e-001) (35, 4, 5.00000000000000000000e-001) (35, 4, 5.00000000000000000000e-001) (35, 4, 5.00000000000000000000e-001) (35, 4, 5.00000000000000000000e-001) (35, 4, 5.00000000000000000000e-001) (35, 4, 5.00000000000000000000e-001) (35, 4, 5.00000000000000000000e-001) (35, 4, 5.00000000000000000000e-001) (35, 4, 5.00000000000000000000e-001) (35, 4, 5.00000000000000000000e-001) (35, 4, 5.00000000000000000000e-001) (35, 4, 5.00000000000000000000e-001) (35, 4, 5.00000000000000000000e-001) (35, 4, 5.00000000000000000000e-001) (0, 0, 0.00000000000000000000e+000) (35, 5, 5.00000000000000000000e-001) (35, 4, 5.00000000000000000000e-001) (35, 4, 5.00000000000000000000e-001) (35, 4, 5.00000000000000000000e-001) (35, 4, 5.00000000000000000000e-001) (35, 4, 5.00000000000000000000e-001) (35, 4, 5.00000000000000000000e-001) (35, 4, 5.00000000000000000000e-001) (35, 4, 5.00000000000000000000e-001) (35, 4, 5.00000000000000000000e-001) (35, 4, 5.00000000000000000000e-001) (35, 4, 5.00000000000000000000e-001) (35, 4, 5.00000000000000000000e-001) (35, 4, 5.00000000000000000000e-001) (35, 4, 5.00000000000000000000e-001) (35, 4, 5.00000000000000000000e-001) (35, 4, 5.00000000000000000000e-001) (0, 0, 0.00000000000000000000e+000) (18, 5, 5.00000000000000000000e-001) (18, 4, 5.00000000000000000000e-001) (18, 4, 5.00000000000000000000e-001) (18, 4, 5.00000000000000000000e-001) (18, 4, 5.00000000000000000000e-001) (18, 4, 5.00000000000000000000e-001) (18, 4, 5.00000000000000000000e-001) (18, 4, 5.00000000000000000000e-001) (0, 0, 0.00000000000000000000e+000) (9, 5, 5.00000000000000000000e-001) (0, 0, 0.00000000000000000000e+000) 
connections (connected_to_neuron, weight)=(0, -9.52026381373798360000e-002) (1, 3.85437017462209040000e-002) (2, 7.37182628172377010000e-002) (3, -7.39501964144437810000e-002) (4, -5.76782235157224930000e-003) (5, -8.20495617695087280000e-002) (6, 5.05859382537892090000e-002) (7, -2.44079593480819310000e-002) (8, 2.90161137136237810000e-002) (9, 9.19250501979149700000e-002) (10, 8.12377941792874480000e-003) (11, -7.87841808614757610000e-002) (12, -3.24890141559990300000e-002) (13, 6.01074227706703820000e-002) (14, 2.33276370663588750000e-002) (15, -9.57031264260876920000e-002) (16, -3.14880375785833170000e-002) (17, 9.73449721536781000000e-002) (0, -8.22143566938393630000e-002) (1, 2.14904788358580840000e-002) (2, -4.21997076600746370000e-002) (3, 7.91809093830124770000e-002) (4, 6.44531259604264050000e-003) (5, 3.45458989522740010000e-003) (6, 1.69006350174640830000e-002) (7, 4.03930670081535940000e-002) (8, 4.67346198370250930000e-002) (9, 9.24499525494866250000e-002) (10, -2.45849613038444660000e-002) (11, -7.68798839580995260000e-002) (12, 1.93725588824236180000e-002) (13, 2.49328616996535860000e-002) (14, 8.81103528754465510000e-002) (15, 7.06298838649672690000e-002) (16, 7.20275889639196980000e-002) (17, -7.44384776717197380000e-002) (0, -2.20214847031456880000e-002) (1, -7.69836437252706670000e-002) (2, 5.71533211641508390000e-002) (3, 1.87500002793967720000e-002) (4, -7.34069835157242780000e-002) (5, 7.11547862165389230000e-002) (6, -4.82788093131603090000e-003) (7, -3.60046392083859250000e-002) (8, 9.30297865425018240000e-002) (9, -7.49023448661318980000e-002) (10, 9.43420424214309610000e-002) (11, -7.86071789057132260000e-002) (12, -5.75683602328354030000e-002) (13, -4.68811042142078800000e-002) (14, 5.85021981373756720000e-002) (15, -4.66308600698539520000e-002) (16, 6.57287607450598440000e-002) (17, -5.21972664027998690000e-002) (0, -8.60778821420353780000e-002) (1, 6.90734873574001540000e-002) (2, 7.15209971594958920000e-002) (3, 7.52502452619410180000e-002) (4, 8.66149915250389310000e-002) (5, -8.24462902910454430000e-002) (6, -6.84997568801009040000e-002) (7, -3.62060552270122570000e-002) (8, -3.87939458905748320000e-002) (9, 3.60229497555337730000e-002) (10, 6.07055673108334300000e-002) (11, -1.16149904074518420000e-002) (12, 5.27648933643831700000e-002) (13, 5.94482430733478400000e-002) (14, -8.63281262863893060000e-002) (15, 6.97021494761429490000e-003) (16, 2.27355960419117760000e-002) (17, -2.24609378346940500000e-003) (0, -2.20336917345775870000e-002) (1, -9.49768080558897050000e-002) (2, 7.02697764377262500000e-002) (3, -1.32324220721784510000e-002) (4, -5.38513191618221750000e-002) (5, 4.54711920838235530000e-003) (6, -6.97998057275981410000e-002) (7, 1.93603518509917190000e-002) (8, -5.24475105471537970000e-002) (9, 9.38171400698593060000e-002) (10, 8.90502942957027700000e-003) (11, 6.28112802328359980000e-002) (12, 2.10571292200256720000e-002) (13, -6.59790048894137730000e-002) (14, 8.93310560186364460000e-002) (15, 6.87988291501824280000e-002) (16, -8.98681654016399990000e-002) (17, -8.54492200232925820000e-004) (0, -6.36535654016370240000e-002) (1, 8.22448742724191110000e-002) (2, -3.85925298719485000000e-002) (3, -9.47265639115357770000e-002) (4, 3.38195805820760140000e-002) (5, -4.48425299650807570000e-002) (6, 7.97729504074595750000e-003) (7, 8.56201184633391680000e-002) (8, -1.54724123399319070000e-002) (9, 7.18994151338847590000e-002) (10, 1.87622073108286710000e-002) (11, -3.24646000931352320000e-002) (12, 4.21752935972108390000e-003) (13, -8.05664074505330060000e-003) (14, -4.90722663562337400000e-003) (15, 7.62939464493683770000e-003) (16, 4.10766607683399340000e-002) (17, 1.65344240745071150000e-002) (0, 9.58679213504183280000e-002) (1, 4.14672857741607000000e-002) (2, -4.81628425145572690000e-002) (3, -1.46362306868468290000e-002) (4, 7.23937999068766660000e-002) (5, -9.61486830733520040000e-002) (6, 6.57348642607757940000e-002) (7, -9.03747572060638050000e-002) (8, -5.67626961583300730000e-003) (9, -2.38342288707826810000e-002) (10, -3.23303227473843440000e-002) (11, -5.23925789057102520000e-002) (12, -5.21728523399360710000e-002) (13, 1.68090822817248410000e-002) (14, 3.17199711757893970000e-002) (15, -7.08496104307414500000e-002) (16, 8.72497571594976760000e-002) (17, -6.87988291501824280000e-002) (0, -6.37146005587965190000e-002) (1, -6.48681650291109690000e-002) (2, -7.84179699185187930000e-002) (3, 3.73840337601905050000e-002) (4, 9.21630873108370000000e-002) (5, -6.16516122468055980000e-002) (6, 1.69189455646119310000e-002) (7, 8.36486828870874890000e-002) (8, 1.47338869383020210000e-002) (9, 1.19262697089652650000e-002) (10, -3.80859380675246940000e-003) (11, -2.56530765541356230000e-002) (12, -2.84790043306202280000e-002) (13, -8.84521497555397220000e-002) (14, 1.74255373690357370000e-002) (15, 6.01257333178182310000e-002) (16, -6.35375986030339850000e-002) (17, -6.21887216298091520000e-002) (0, 1.17309572060548820000e-002) (1, -5.10925300582130150000e-002) (2, -1.80358889406306840000e-002) (3, 8.48876965774252310000e-002) (4, 6.23535165541397870000e-002) (5, 9.38049330384274070000e-002) (6, -5.97900399534410100000e-002) (7, -1.82800295692686630000e-002) (8, 5.94482430733478400000e-003) (9, -8.57666028405219550000e-002) (10, 6.47766122933717270000e-002) (11, 3.21411137601899100000e-002) (12, 3.74023443073383530000e-002) (13, -9.35302748312096810000e-002) (14, -7.60742198835941960000e-002) (15, 5.99670419092035440000e-002) (16, -5.85937508731149140000e-004) (17, 9.99633803958204230000e-002) (0, 5.67871102211938710000e-002) (1, 6.54968271478537640000e-002) (2, -6.19262704540233240000e-002) (3, -8.44726575087406670000e-002) (4, 2.36694339464520450000e-002) (5, -4.63867194412159730000e-004) (6, 5.72509774156060300000e-003) (7, -1.82189944121091680000e-002) (8, -1.82373049592570170000e-002) (9, -3.86962896391196410000e-002) (10, 9.23217787194516860000e-002) (11, -3.39538579278269030000e-002) (12, 1.75109865890590300000e-002) (13, -7.36389171129303580000e-002) (14, 6.65954599767246690000e-002) (15, -2.40905765308525590000e-002) (16, -3.31848149476172690000e-002) (17, 1.09008790686857540000e-002) (0, 8.18481457508823950000e-003) (1, -1.22192384633308390000e-002) (2, -4.55505377881308960000e-002) (3, -2.13928225844028930000e-002) (4, -8.79333509196840170000e-002) (5, 5.86486825145584590000e-002) (6, -1.61926271944139440000e-002) (7, -3.64379888242183370000e-003) (8, 4.64782721769552150000e-002) (9, -2.27722171362074730000e-002) (10, 8.31298840512317840000e-003) (11, -5.50415047264323220000e-002) (12, 4.56298834924382390000e-002) (13, -8.90808118742825170000e-002) (14, 1.57470705471496330000e-002) (15, 9.12719740163083770000e-002) (16, -8.15856945750965680000e-002) (17, -9.53796400931423700000e-002) (0, -4.33410650989571880000e-002) (1, 2.78747562747412300000e-002) (2, 5.44006355762576280000e-002) (3, -1.22009279161829910000e-002) (4, 4.82177741560008140000e-002) (5, 8.65661633993113360000e-002) (6, 8.30078137369127940000e-003) (7, -5.40100105704368620000e-002) (8, 8.46923840745148480000e-002) (9, -6.80786142957003900000e-002) (10, -5.57373055180505620000e-002) (11, -8.69812024679958990000e-002) (12, 8.57788098719538540000e-002) (13, -5.87646493131614990000e-002) (14, -7.88574230500671550000e-002) (15, 4.01733404423794130000e-002) (16, -8.58398450291133490000e-002) (17, 7.69897472409866170000e-002) (0, -9.99633803958204230000e-002) (1, -1.45874025611192340000e-003) (2, -6.64672861466897300000e-003) (3, 5.81604012572825010000e-002) (4, 5.53527840279457450000e-002) (5, -2.91381840279427710000e-002) (6, -4.27307135273622410000e-002) (7, -6.33728036787033490000e-002) (8, 7.06237803492513190000e-002) (9, 8.90441907799868200000e-002) (10, -3.73535161816107570000e-002) (11, 8.48693860302773830000e-002) (12, 3.72314458672917680000e-004) (13, -2.63610843771857620000e-002) (14, 9.55871596274846520000e-002) (15, -9.87121596740507810000e-002) (16, -2.08190921071036430000e-002) (17, -6.84997568801009040000e-002) (0, 3.55834966239854110000e-003) (1, 3.93249517578624360000e-002) (2, -4.06494146682234710000e-002) (3, 6.79748545285292490000e-002) (4, -1.60583498486630560000e-002) (5, 6.66442881024522650000e-002) (6, -4.17480474970943760000e-002) (7, 6.96716318975632020000e-002) (8, 6.05773934807984920000e-002) (9, -3.92944341792826890000e-002) (10, -3.22875981373726970000e-003) (11, -8.56994641676465110000e-002) (12, 7.93457043073431120000e-002) (13, -5.31677254016358350000e-002) (14, 9.93652358556573740000e-003) (15, 6.36474618859210750000e-002) (16, -4.57946784167688750000e-002) (17, 8.51867688475067550000e-002) (0, -8.88610853085083360000e-002) (1, -3.97949224679905460000e-003) (2, 9.48669447730026150000e-002) (3, -8.72436536437817270000e-002) (4, 9.10522474505341960000e-002) (5, 3.43933110593752640000e-002) (6, -5.26611335972120290000e-002) (7, -5.32714851688069760000e-002) (8, -6.73767099883662010000e-002) (9, -7.34741221885997220000e-002) (10, 7.85888683585653780000e-002) (11, -4.46289069150225260000e-002) (12, 2.32849124563472290000e-002) (13, -6.67358408381915070000e-002) (14, -6.33117685215438540000e-002) (15, 2.83813480791650360000e-003) (16, 4.57153327124615320000e-002) (17, 8.12683117578671950000e-002) (0, -8.25317395110687360000e-002) (1, -2.60559085913882880000e-002) (2, 2.83447269848693400000e-002) (3, -6.34643564144425910000e-002) (4, 6.91894541560031940000e-002) (5, -1.46301271711308800000e-002) (6, -6.31225595343494210000e-002) (7, -4.52453620023334220000e-002) (8, 6.62597666123474480000e-002) (9, -1.06384278928999270000e-002) (10, 8.81103528754465510000e-002) (11, -3.50402837252659080000e-002) (12, -1.65954592316666090000e-002) (13, -2.36877444935998940000e-002) (14, -3.27880864260805540000e-002) (15, 4.25842291501794530000e-002) (16, -9.85656752968679940000e-002) (17, 8.23913586496018980000e-002) (0, -7.01843272177029580000e-002) (1, -7.17407237252700720000e-002) (2, 7.59277355064114090000e-002) (3, 8.53271497089735930000e-003) (4, -2.98950199767205050000e-002) (5, 4.84985358789344900000e-002) (6, -9.99450698486725740000e-002) (7, 5.69702156926723550000e-002) (8, 3.61755376484325100000e-002) (9, 9.46838393015241310000e-002) (10, -7.22045909196822320000e-003) (11, -8.39843762514647100000e-003) (12, 7.38952647730002350000e-002) (13, 1.63940432130402770000e-002) (14, 4.37133795576301050000e-002) (15, 2.84790043306202280000e-002) (16, 8.05603039348170570000e-002) (17, -1.44592287310842950000e-002) (0, -5.41564949476196490000e-002) (1, -3.74450689173500000000e-002) (2, -5.04760749709021180000e-002) (3, -1.26403810477313530000e-002) (4, 4.74243171129273830000e-002) (5, -6.29516610943028350000e-002) (6, -1.28540040977895840000e-002) (7, -5.29174812572819060000e-003) (8, 5.42419441676429410000e-002) (9, 6.16638192782374970000e-002) (10, 8.31909192083912790000e-002) (11, -1.82922366007005620000e-002) (12, 1.35314943422599750000e-002) (13, -1.41906740395825180000e-002) (14, 1.60583498486630560000e-002) (15, -6.68090830267829010000e-002) (16, -8.92333997671812540000e-002) (17, 3.32336430733448650000e-002) (0, 7.39990245401713760000e-002) (1, -9.39880385099058910000e-002) (2, -8.93920911757959400000e-002) (3, 4.17480474970943760000e-003) (4, 7.35595714086230150000e-002) (5, 9.86328139697434380000e-002) (6, -2.67517093830065280000e-002) (7, 5.13793952968626400000e-002) (8, -4.33654791618209860000e-002) (9, -1.48803713154848080000e-002) (10, 7.73742687310914330000e-002) (11, -6.38427743888314580000e-002) (12, 4.71801764842894040000e-002) (13, 6.98486338533257370000e-002) (14, -1.89819338766028520000e-002) (15, 7.08129893364457530000e-002) (16, -5.09826667753259240000e-002) (17, -8.07983410477390860000e-002) (0, -4.84069831431952480000e-002) (1, 5.36132820489001460000e-002) (2, -3.41247563678734880000e-002) (3, 2.63793949243336100000e-002) (4, -3.73535161816107570000e-003) (5, -9.73876967636897460000e-002) (6, 2.49389652153695350000e-002) (7, -3.42163091036127300000e-002) (8, 2.39868167636814180000e-002) (9, 9.45373549243413440000e-002) (10, -1.48132326426093640000e-002) (11, -7.01293955762594120000e-003) (12, 7.04589854249206840000e-002) (13, 1.50085451455197470000e-002) (14, -8.82690442840612380000e-002) (15, -5.32409675902272280000e-002) (16, 1.71386721303861120000e-002) (17, -7.36633311757941560000e-002) (0, -2.59399417927852480000e-003) (1, 9.21630873108370000000e-003) (2, -6.42333993946522240000e-002) (3, 5.91613778346982140000e-002) (4, -8.70727552037351420000e-002) (5, -1.95495608381861530000e-002) (6, 8.93981946915118900000e-002) (7, -6.58630380908107330000e-002) (8, 6.67236338067596080000e-002) (9, 2.39013675436581250000e-002) (10, -7.85583507799856310000e-002) (11, -8.00354015832454020000e-002) (12, -4.40917975320189730000e-002) (13, -6.13952645867357210000e-002) (14, 6.37756357159560140000e-002) (15, -6.59729013736978230000e-002) (16, 8.93859876600799910000e-002) (17, -8.52844250989619470000e-002) (0, 9.52514662631074320000e-002) (1, 9.17907728521640820000e-002) (2, 6.45751962747453940000e-002) (3, 2.84423832363245310000e-002) (4, 8.18786633294621420000e-002) (5, 1.13647462630979130000e-002) (6, 7.88452160186352560000e-002) (7, 3.27026372060572610000e-002) (8, 2.98583988824248080000e-002) (9, -2.06970217927846530000e-002) (10, 5.69824227241042540000e-002) (11, 9.97070327357505450000e-002) (12, 8.27880871711386130000e-002) (13, 8.40515149243401540000e-002) (14, 7.59277355064114090000e-002) (15, 7.17956553667136180000e-002) (16, -5.76171883585629980000e-003) (17, -7.67883312223602840000e-002) (0, 6.80053721071089970000e-002) (1, 7.66662609080412950000e-002) (2, -9.30175795110699260000e-002) (3, -9.17968763678800310000e-003) (4, 8.39782727357487600000e-002) (5, 6.33544931315555000000e-002) (6, -2.99072270081524040000e-002) (7, -4.89257819790509530000e-002) (8, 9.70092787893008790000e-002) (9, -8.48510754831295340000e-002) (10, 2.52319339697351100000e-002) (11, -9.54956068917454100000e-002) (12, 2.90222172293397310000e-002) (13, 9.56970229103717430000e-002) (14, 9.32556166239919550000e-002) (15, 5.30761726658965930000e-002) (16, -1.95251467753223550000e-002) (17, 8.45886243073437070000e-002) (0, 9.25170912223620690000e-002) (1, 7.03247080791697950000e-002) (2, -5.50598152735801700000e-002) (3, -4.13696295227055090000e-002) (4, -7.99316418160742610000e-002) (5, -1.71936037718296570000e-002) (6, -1.03088380442386550000e-002) (7, -2.49389652153695350000e-002) (8, -7.30712901513470570000e-002) (9, 6.91650400931393960000e-002) (10, -1.64184572759040750000e-002) (11, -8.70117200465756470000e-002) (12, -8.11584484749801050000e-002) (13, -1.69799807217714260000e-002) (14, 5.33813484516940660000e-002) (15, 2.92785648894096080000e-002) (16, -8.64257825378444980000e-002) (17, 5.87768563445933980000e-003) (0, 4.99511726193304640000e-002) (1, -1.48559572526210100000e-002) (2, -1.37939455180458030000e-002) (3, 3.64562993713661850000e-002) (4, 5.37109383003553380000e-003) (5, -3.35693364377220860000e-004) (6, 3.34716801862668940000e-002) (7, 2.25219729918535450000e-002) (8, 6.23718271012876360000e-002) (9, -1.34399416065207330000e-002) (10, -1.14440919674052570000e-002) (11, 4.15954596041956390000e-002) (12, 5.72570809313219800000e-002) (13, -6.96350108032675050000e-002) (14, -8.25134289639208870000e-002) (15, -6.33056650058279050000e-002) (16, 3.76159673573965850000e-002) (17, 5.83251961816131370000e-002) (0, -7.15576182537915880000e-002) (1, -8.65478528521634870000e-002) (2, 9.60388197904649130000e-002) (3, 6.42639169732319710000e-002) (4, -7.47924815832448080000e-002) (5, 4.77294928987248570000e-003) (6, 1.08032228172305620000e-003) (7, -5.93505868218926480000e-002) (8, -6.40197763445939930000e-002) (9, 9.33837904540268940000e-003) (10, 6.78710947613581080000e-003) (11, 7.50610362747465840000e-002) (12, 4.88708503376074080000e-002) (13, 1.02050782770675140000e-002) (14, -7.80700695227096730000e-002) (15, -3.25622563445904230000e-002) (16, 8.52478040046662500000e-002) (17, 7.96691906402884340000e-002) (0, 2.03063967869638870000e-002) (1, 2.42370609080353460000e-002) (2, 4.22546393015181820000e-002) (3, 7.68066417695081330000e-002) (4, 7.32666026542574400000e-002) (5, -1.42028810710144170000e-002) (6, 3.57055669383044010000e-002) (7, -5.62744149010541150000e-002) (8, 8.57849133876698030000e-002) (9, 4.31518561117627540000e-002) (10, -2.53967288940657450000e-002) (11, 7.01904307334189070000e-003) (12, 1.72790529918529500000e-002) (13, 5.73730477299250200000e-004) (14, 9.85900893597317920000e-002) (15, 9.04418958789392490000e-002) (16, 6.84509287543733080000e-002) (17, -5.99670419092035440000e-002) (0, 9.50317396973332510000e-003) (1, -5.47851570663624440000e-002) (2, 1.53930666356245640000e-002) (3, -5.61096199767234790000e-002) (4, -7.16674815366786790000e-002) (5, 4.18090826542538710000e-003) (6, -2.77832035390019880000e-002) (7, -6.79809580442451990000e-002) (8, 8.81958020954698440000e-003) (9, -3.40332036321342460000e-002) (10, 6.34399423515787930000e-002) (11, -3.03405766239848160000e-002) (12, 3.89526372991895190000e-002) (13, 1.55395510128073510000e-002) (14, -1.26281740162994540000e-002) (15, -9.78088393480902600000e-002) (16, -3.84094244004700160000e-002) (17, -1.26892091734589480000e-002) (0, -4.81994636088529660000e-002) (1, 7.31384288242225010000e-002) (2, -5.45166023748606680000e-002) (3, 7.70935070081577580000e-002) (4, -3.68164067986072040000e-002) (5, -1.83959963678717030000e-002) (6, 3.79333501746259570000e-002) (7, 9.06982435390091270000e-003) (8, -4.94201667520428600000e-002) (9, 3.54370122468026240000e-002) (10, -6.96472178346994040000e-002) (11, 6.42028818160724770000e-002) (12, -9.43847670314426070000e-002) (13, 5.63232430267817110000e-002) (14, 6.79443369499495020000e-002) (15, 7.60986339464579940000e-002) (16, -8.02673351804514820000e-002) (17, 9.30786146682294200000e-002) (0, 3.48022466123438790000e-002) (1, 7.93457043073431120000e-004) (2, 9.99267593015247260000e-002) (3, -5.67626961583300730000e-004) (4, 4.56176764610063400000e-002) (5, -3.34289555762552480000e-002) (6, 4.42504889406336590000e-002) (7, -6.75109873341170900000e-002) (8, 7.53051769033845630000e-002) (9, 1.01196290570442220000e-002) (10, 5.83679207916247830000e-002) (11, 2.81127933876632600000e-002) (12, 5.77453621885979370000e-002) (13, 5.27343757858034220000e-003) (14, -5.68847664726490620000e-003) (15, 9.57031264260876920000e-003) (16, 8.49426282188687760000e-002) (17, -9.42993178114193140000e-003) (0, 9.28222670081595420000e-002) (1, -1.43859865424929010000e-002) (2, 3.78112798603069680000e-002) (3, 1.88598635622838630000e-003) (4, -8.95874036787063230000e-002) (5, -5.78613289872009770000e-003) (6, -2.01538088940651510000e-002) (7, 1.64306643073359740000e-002) (8, -8.75427259138632510000e-002) (9, -5.16723640512282150000e-002) (10, -5.50720223050120690000e-002) (11, -8.57421887776581570000e-002) (12, 1.35559084051237730000e-002) (13, -6.01806649592617760000e-002) (14, 5.05676277066413600000e-002) (15, 6.36718759487848730000e-002) (16, 4.63928229569319230000e-002) (17, -4.21813971129267880000e-002) (0, -3.22814946216567480000e-002) (1, 3.66699224214244170000e-002) (2, 4.03930670081535940000e-002) (3, -2.21557620488965770000e-002) (4, 7.85217296856899340000e-002) (5, 6.07299813736972280000e-002) (6, 9.13513197206157200000e-002) (7, 7.78198253783557450000e-002) (8, -4.67834479627526890000e-002) (9, -8.68408216065290620000e-002) (10, -9.66186537834801130000e-002) (11, -6.26647958556532100000e-002) (12, 7.73681652153754840000e-002) (13, 6.42883310360957690000e-002) (14, -1.56860353899901380000e-002) (15, -2.36877444935998940000e-002) (16, 6.08032235622886220000e-002) (17, -2.42492679394672450000e-002) (0, -2.40722659837047100000e-002) (1, 8.94409193015235360000e-002) (2, 5.94116219790521430000e-002) (3, -3.99353033294573830000e-002) (4, -9.98352065657854840000e-002) (5, 3.25134282188628280000e-002) (6, 4.10827642840558840000e-002) (7, -9.22058119208486460000e-002) (8, 2.58178714784662590000e-003) (9, 1.69738772060554770000e-002) (10, 2.70385746216561530000e-002) (11, 8.85742200698587110000e-002) (12, -2.56225589755558760000e-002) (13, -3.10668949941828030000e-002) (14, -6.01928719906936750000e-002) (15, -6.78222666356305130000e-002) (16, 3.41369633993053870000e-002) (17, 8.89892591385432750000e-003) (0, -1.09069825844017030000e-002) (1, -4.06494146682234710000e-003) (2, 5.06408698952327540000e-002) (3, 8.40454114086242040000e-003) (4, 2.67700199301543760000e-002) (5, 2.46826175552996570000e-002) (6, -1.21520997904553950000e-002) (7, -2.00866702211897060000e-002) (8, 2.30102542491295030000e-003) (9, -9.03747572060638050000e-002) (10, 5.35278328288768530000e-002) (11, -4.38964850291085900000e-002) (12, -5.02685554365598360000e-002) (13, 5.21972664027998690000e-002) (14, 3.25317387660106760000e-002) (15, -8.50708020489037150000e-002) (16, 3.76647954831241800000e-002) (17, -6.07116708265493800000e-002) (18, -1.38366701280574490000e-002) (19, 6.57958994179352890000e-003) (20, -8.67065442607781730000e-002) (21, 3.60473638183975710000e-002) (22, -1.23291017462179300000e-003) (23, 3.86535650291079950000e-002) (24, 7.18811045867369100000e-002) (25, 2.50244144353928280000e-003) (26, -4.71435553899937080000e-002) (27, 7.58056651920924200000e-002) (28, 8.28430188125821590000e-002) (29, -5.97412118277134140000e-002) (30, 1.40136720838199840000e-002) (31, -8.99169935273675950000e-002) (32, 3.74145513387702520000e-003) (33, 7.55432140163065920000e-002) (34, 6.77490244470391190000e-003) (35, 5.81970223515781980000e-002) (36, 1.34216310593728850000e-002) (37, -1.51794435855663320000e-002) (38, -3.71948247729960710000e-002) (39, 4.20410162514599510000e-002) (40, -4.46777350407501220000e-003) (41, -3.07922367869650770000e-002) (42, 2.25891116647289890000e-002) (43, 8.62426770663660140000e-003) (44, -9.63317885448304880000e-002) (45, 8.40087903143285080000e-002) (46, -2.81250004190951590000e-002) (47, 4.57275397438934310000e-002) (48, 3.94470220721814260000e-002) (49, 2.95532230966273350000e-002) (50, -5.85937508731149140000e-003) (51, 4.94873054249183040000e-002) (52, 7.46948253317896160000e-002) (18, 9.62524428405231450000e-003) (19, -7.96691906402884340000e-002) (20, -9.97741714086259890000e-002) (21, -5.09887702910418740000e-002) (22, -3.62915044470355500000e-002) (23, -4.29077154831247750000e-002) (24, 2.70385746216561530000e-003) (25, 7.40112315716032750000e-002) (26, 7.93090832130474150000e-002) (27, -2.52014163911553620000e-002) (28, -5.29357918044297550000e-002) (29, -2.45605472409806680000e-002) (30, -9.36889662398243670000e-003) (31, -6.34216318044309450000e-002) (32, -5.32348640745112790000e-002) (33, 4.41894537834741640000e-003) (34, -3.02062992782339280000e-002) (35, -5.04089362980266740000e-002) (36, 9.70458998835965760000e-003) (37, 4.91027839348134880000e-002) (38, -8.30871594412201380000e-002) (39, -8.01330578347005940000e-002) (40, 9.87731948312102760000e-002) (41, 7.79357921769587850000e-002) (42, 5.52124031664789070000e-002) (43, 9.18579115250395260000e-002) (44, 3.81225591618203910000e-002) (45, 4.58740241210762180000e-002) (46, -6.24633798370268780000e-002) (47, 5.40283211175847100000e-002) (48, 2.14355471944145390000e-002) (49, -5.32836922002388750000e-003) (50, 7.03613291734654920000e-002) (51, 9.17297376950045870000e-002) (52, 7.82958996041998030000e-002) (18, 7.85949718742813270000e-002) (19, -3.83117681490148240000e-002) (20, 6.85668955529763480000e-002) (21, -4.48669440279445550000e-002) (22, -5.32287605587953290000e-002) (23, 9.89868178812685070000e-002) (24, -8.24890149010570890000e-002) (25, -3.32336430733448650000e-002) (26, 1.34277345750888340000e-002) (27, 6.35009775087382880000e-002) (28, -7.69104015366792740000e-002) (29, 7.49511729918594940000e-002) (30, 4.72839362514605450000e-002) (31, 8.70727552037351420000e-002) (32, 7.57873546449445710000e-002) (33, -4.98535163678752720000e-002) (34, 1.13037111059384190000e-002) (35, 5.78613289872009770000e-002) (36, 7.99743664260859080000e-002) (37, 7.26806651455262910000e-002) (38, -1.58935549243324200000e-002) (39, 8.10974133178206100000e-002) (40, 9.66186537834801130000e-002) (41, 2.96752934109463240000e-002) (42, 9.42932142957033650000e-002) (43, 1.18408204889419720000e-003) (44, 2.00195315483142620000e-003) (45, 6.38793954831271550000e-002) (46, 9.88586440512335680000e-002) (47, -8.64257825378444980000e-003) (48, 4.36828619790503580000e-002) (49, 3.07312016298055820000e-002) (50, -6.29516610943028350000e-002) (51, 1.71997072875456070000e-002) (52, 7.50244151804508870000e-002) (18, 1.98730471711314750000e-002) (19, 9.08081068218962170000e-002) (20, 8.02124035390079370000e-002) (21, 4.94323737834747590000e-002) (22, -2.63061527357422160000e-003) (23, 8.31787121769593800000e-002) (24, 4.77233893830089070000e-002) (25, -4.43664557392366990000e-002) (26, -7.51647960419177250000e-002) (27, -5.42297371362110430000e-002) (28, -2.46276859138561120000e-002) (29, 7.52380382305091190000e-002) (30, -8.81530774854581980000e-002) (31, -1.33239748079176930000e-002) (32, -7.15637217695075380000e-002) (33, -5.62133797438946200000e-002) (34, 5.77575692200298360000e-002) (35, 9.00024427473908870000e-002) (36, 8.19702160652013840000e-003) (37, 9.65759291734684670000e-002) (38, -6.08215341094364700000e-002) (39, 7.83081066356317020000e-002) (40, -1.03149415599546050000e-002) (41, -1.95007327124585570000e-002) (42, -4.76074225844058670000e-004) (43, -3.08593754598405210000e-002) (44, 7.69592296624068690000e-002) (45, -8.68469251222450110000e-002) (46, -3.36303715948815810000e-003) (47, 5.70373543655477990000e-002) (48, -1.77551272176970090000e-002) (49, 7.04650889406366330000e-002) (50, -3.50585942724137570000e-002) (51, 5.20812996041968290000e-002) (52, 3.51379399767211000000e-002) (18, -1.59179689871962180000e-002) (19, 4.82849128288762590000e-002) (20, 6.42089853317884260000e-003) (21, -7.18872081024528600000e-002) (22, -7.02453623748624520000e-002) (23, 5.97351083119974650000e-002) (24, 5.98815926891802520000e-002) (25, 4.67529303841729420000e-003) (26, 8.80249036554232590000e-002) (27, -7.54516612805673500000e-002) (28, -6.39892587660142450000e-002) (29, 9.62646498719550440000e-002) (30, 5.84167489173523790000e-002) (31, 6.26281747613575130000e-002) (32, 1.96960452153689400000e-002) (33, 1.42944338067536590000e-002) (34, 8.36792004656672360000e-003) (35, 6.66870127124639110000e-002) (36, -5.22277839813796160000e-002) (37, -9.65209975320249210000e-002) (38, 3.81958013504117840000e-002) (39, -6.76696787427317760000e-002) (40, -5.63415535739295590000e-002) (41, -3.72375493830077180000e-002) (42, 4.33471686146731370000e-002) (43, -3.62548833527398530000e-003) (44, 2.74780277532045150000e-002) (45, -5.99243172991918980000e-002) (46, 5.51330574621715640000e-002) (47, 3.95935064493642130000e-002) (48, -6.72180185797515150000e-002) (49, -9.28344740395914410000e-002) (50, -5.87585457974455490000e-002) (51, -8.97949232130486050000e-002) (52, 6.11328134109498930000e-002) (18, -7.92724621187517190000e-002) (19, 4.72595221885967480000e-002) (20, -7.57568370663648240000e-002) (21, -9.41101088242248810000e-002) (22, 7.61901866821972360000e-002) (23, 6.04919442607751990000e-002) (24, -7.69042980209633240000e-004) (25, 7.63488780908119220000e-002) (26, -3.97766119208426970000e-002) (27, 7.72399913853405450000e-002) (28, -2.28027347147872210000e-002) (29, -4.64843756926711650000e-002) (30, 8.42285168801026880000e-003) (31, -4.51049811408665850000e-002) (32, 9.34936537369139840000e-002) (33, -9.12109388591488820000e-002) (34, -2.57446292898748650000e-002) (35, -6.99707041676447260000e-002) (36, 4.74975593015187770000e-002) (37, -8.32153332712550760000e-002) (38, 1.56127932013987450000e-002) (39, -1.62658693830053380000e-002) (40, 3.15551762514587610000e-002) (41, 9.35363783469256300000e-002) (42, 5.19409187427299910000e-003) (43, -6.44836435390061520000e-002) (44, -2.56408695227037240000e-002) (45, -8.64868176950039920000e-003) (46, -2.90405277764875790000e-002) (47, -5.30700691501806430000e-002) (48, -4.49646002793997470000e-002) (49, -1.84570315250311980000e-002) (50, 7.28942881955845220000e-002) (51, 1.62109377415617930000e-002) (52, 4.41833502677582150000e-002) (18, -4.37011725261982060000e-002) (19, 2.23937991618186060000e-002) (20, -5.47729500349305450000e-002) (21, -7.18688975553050110000e-002) (22, 8.09814465192175700000e-002) (23, -4.95605476135096980000e-002) (24, -4.01245123166518170000e-002) (25, -2.73986820488971720000e-002) (26, 2.80212406519240180000e-002) (27, 3.08593754598405210000e-002) (28, 6.53137216763752800000e-002) (29, 8.21472180209639190000e-002) (30, 2.37121585564636920000e-002) (31, 6.49475107334183120000e-002) (32, -8.28247082654343100000e-002) (33, 1.14807130617009530000e-002) (34, -6.08398446565843190000e-002) (35, -6.64001474738142860000e-002) (36, 9.00207532945387360000e-002) (37, 8.50463879860399170000e-002) (38, -4.33654791618209860000e-002) (39, -7.66479503608934460000e-002) (40, -7.56347667520458340000e-002) (41, -1.90002444237507010000e-002) (42, 4.24987799301561610000e-002) (43, 3.24279789988395350000e-002) (44, 3.34289555762552480000e-002) (45, -6.40380868917418410000e-002) (46, -4.18701178114133650000e-002) (47, 6.31652841443610670000e-002) (48, 5.09155281024504800000e-002) (49, 2.66418461001194370000e-002) (50, 3.98681646565819390000e-002) (51, 7.00683604190999180000e-003) (52, -9.89379897555409120000e-002) (18, 8.47351086845264940000e-002) (19, 7.94555675902302030000e-002) (20, -7.17163096624062750000e-002) (21, -2.78137211175817360000e-002) (22, -9.87670913154943260000e-002) (23, -6.39587411874344980000e-002) (24, 5.31494148544879860000e-002) (25, 7.50244151804508870000e-002) (26, 7.64465343422671140000e-002) (27, 1.11450196973237330000e-002) (28, 6.97509776018705450000e-002) (29, -3.29284672875473920000e-002) (30, -2.80090336204921190000e-002) (31, 1.76757815133896660000e-002) (32, -5.39245613504135690000e-002) (33, -7.58239757392402680000e-002) (34, -7.90466320372615880000e-002) (35, -2.55737308498282800000e-002) (36, 7.15454112223596890000e-002) (37, -5.93322762747448000000e-002) (38, -4.74609382072230800000e-002) (39, 5.71655281955827380000e-002) (40, 2.87231449592582070000e-002) (41, 3.92578130849869920000e-002) (42, -1.25976564377197060000e-002) (43, 3.76220708731125340000e-002) (44, 1.36108400465673180000e-003) (45, 7.19238291967485570000e-002) (46, -4.00573736437763730000e-002) (47, -5.83923348544885810000e-002) (48, -7.50061046333030390000e-002) (49, 9.30847181839453700000e-002) (50, 2.37854007450550850000e-002) (51, 5.75500496856875540000e-002) (52, -1.36047365308513690000e-002) (18, 8.62915051920936090000e-002) (19, 9.67407240977991020000e-002) (20, -7.33459483585647830000e-002) (21, -2.19360354831223960000e-002) (22, -7.43286143888326480000e-002) (23, -9.85534682654360950000e-002) (24, 4.59411627939516620000e-002) (25, -8.58947766705568940000e-002) (26, -4.66003424912742050000e-002) (27, -4.20227057043121020000e-002) (28, -8.45458996973320610000e-002) (29, 1.36413576251470660000e-002) (30, 5.44067390919735770000e-002) (31, 8.46374524330713030000e-002) (32, -3.91601568335318010000e-002) (33, 5.80322274272475620000e-002) (34, 9.67407240977991020000e-003) (35, 6.32385263329524610000e-002) (36, -3.74511724330659490000e-002) (37, 2.82653812805619960000e-002) (38, 9.19799818393585160000e-003) (39, 2.50305179511087770000e-002) (40, -7.70019542724185160000e-002) (41, 2.85461430034956720000e-002) (42, -9.39514174156101940000e-002) (43, 1.36657716880108640000e-002) (44, 2.77709965075700890000e-003) (45, 2.58789066356257540000e-003) (46, 9.26391615366810580000e-002) (47, 8.12622082421512460000e-002) (48, 5.73181160884814740000e-002) (49, 4.86389167404013280000e-002) (50, -1.94274905238671640000e-002) (51, -2.59887699185128440000e-002) (52, 5.16967781140920120000e-003) (18, 3.96423345750918090000e-002) (19, -3.48388677066395760000e-002) (20, -3.65600591385373260000e-002) (21, -4.07958990454062590000e-002) (22, -4.53002936437769680000e-002) (23, 5.60852059138596810000e-002) (24, 7.96447765774246360000e-002) (25, -4.81079108731137240000e-002) (26, 2.81250004190951590000e-002) (27, 5.51818855878991600000e-002) (28, -9.72839369965186050000e-002) (29, -1.39709474738083370000e-002) (30, -7.76855480326048560000e-002) (31, 6.28784189057114420000e-002) (32, -3.13842778114121760000e-002) (33, 4.20959478929034960000e-002) (34, 3.07006840512258350000e-002) (35, -5.72509774156060300000e-003) (36, -5.42236336204950930000e-002) (37, -2.65136722700844980000e-002) (38, -8.29650891269011480000e-002) (39, 8.63403333178212050000e-002) (40, 3.86413579976760960000e-002) (41, -7.91137707101370320000e-002) (42, -2.75268558789321100000e-003) (43, 7.73132335739319390000e-002) (44, -2.55981449126920780000e-002) (45, -2.29614261234019070000e-002) (46, 7.01477061234072610000e-002) (47, 3.96301275436599100000e-002) (48, 2.91870121536703660000e-002) (49, -6.68273935739307490000e-002) (50, 3.16162114086182560000e-003) (51, -5.23559578114145550000e-002) (52, 4.99816901979102110000e-002) (18, 3.82934576018669760000e-002) (19, -2.05261233527380680000e-002) (20, -3.86901861234036910000e-002) (21, -7.15454112223596890000e-002) (22, 2.61230472642637320000e-003) (23, 1.26403810477313530000e-002) (24, -9.27856459138638460000e-002) (25, 8.30444348312084910000e-002) (26, -2.35778812107128030000e-002) (27, -6.48559579976790700000e-002) (28, -6.19812020954668700000e-002) (29, 5.43823250291097790000e-003) (30, -6.44897470547221020000e-002) (31, -3.30566411175823300000e-002) (32, 5.17578132712515070000e-002) (33, 2.78076176018657860000e-002) (34, 4.57153327124615320000e-003) (35, 7.03857432363292900000e-002) (36, 5.21118171827765760000e-002) (37, -3.30444340861504320000e-002) (38, -5.03051765308555330000e-002) (39, -2.30102542491295030000e-003) (40, 3.09448246798638140000e-002) (41, 1.69677736903395270000e-003) (42, -2.87353519906901060000e-002) (43, 3.72924810244512630000e-002) (44, -4.56481940395860870000e-002) (45, 3.96667486379556070000e-002) (46, 2.84790043306202280000e-002) (47, -3.48327641909236260000e-002) (48, 3.35144047962785410000e-002) (49, -7.01416026076913110000e-002) (50, 2.68005375087341240000e-002) (51, 7.61108409778898930000e-003) (52, 6.15112313853387600000e-002) (18, -2.28942874505264630000e-002) (19, 9.95117202328401620000e-002) (20, -7.84729015599623380000e-002) (21, -2.53906253783497960000e-003) (22, -8.52661145518140980000e-002) (23, -8.53271497089735930000e-002) (24, -1.47705080325977180000e-003) (25, -2.09106448428428850000e-002) (26, -8.27026379511153210000e-003) (27, 3.87268072176993880000e-002) (28, 9.91516128055991430000e-002) (29, 4.51782233294579780000e-002) (30, -6.94458018160730720000e-002) (31, 8.79699720139797140000e-002) (32, -7.65747081723020530000e-002) (33, -5.10803230267811160000e-002) (34, 1.19323732246812140000e-002) (35, 9.92126479627586380000e-002) (36, 2.39135745750900240000e-002) (37, -5.63903816996571550000e-002) (38, 4.28771979045450280000e-002) (39, 5.07751472409836420000e-002) (40, -3.22875981373726970000e-002) (41, -7.81616222584489150000e-002) (42, 6.40869150174694370000e-002) (43, -3.48449712223555250000e-002) (44, -4.65698249126944570000e-002) (45, -1.05773927357404320000e-002) (46, -4.68688971827759810000e-002) (47, -7.54150401862716540000e-002) (48, 8.95568861001265760000e-002) (49, 5.53710945750935930000e-002) (50, -2.04467776484307250000e-002) (51, 3.07189945983736830000e-002) (52, 4.03747564610057450000e-002) (18, -8.08654797206145300000e-002) (19, 6.81518564842917840000e-002) (20, 3.97094732479672530000e-002) (21, 4.56970221653136830000e-002) (22, 3.63403325727631450000e-002) (23, 2.67517093830065280000e-002) (24, -9.60510268218968120000e-002) (25, 2.07336428870803500000e-002) (26, 4.43054205820772040000e-002) (27, 9.46777357858081810000e-002) (28, -4.83276374388879050000e-002) (29, -5.77941903143255330000e-002) (30, 2.85644535506435200000e-002) (31, 6.81579600000077330000e-002) (32, -6.42944345518117190000e-002) (33, 2.71118168102475470000e-002) (34, 1.16638185331794380000e-002) (35, -4.10705572526239850000e-002) (36, 8.26232922468079780000e-002) (37, -8.97277845401731610000e-002) (38, 4.54772955995395020000e-002) (39, 4.23400885215414750000e-002) (40, -2.64648441443569030000e-002) (41, -7.30102549941875620000e-002) (42, -1.17248536903389320000e-002) (43, 5.10986335739289640000e-002) (44, -1.22436525261946370000e-002) (45, -9.29992689639220770000e-002) (46, -5.21850593713679700000e-002) (47, -2.89916996507599830000e-002) (48, -5.93811044004723950000e-002) (49, -1.39648439580923880000e-002) (50, 7.17102061466903250000e-002) (51, -5.09643562281780760000e-003) (52, 4.66918952270134470000e-002) (18, 4.11804205355110750000e-002) (19, 6.62658701280633980000e-002) (20, 9.10278333876703980000e-002) (21, 3.96240240279439600000e-002) (22, 5.63415535739295590000e-002) (23, -7.48291026775405040000e-002) (24, -5.78857430500647750000e-002) (25, -2.01049807683375550000e-002) (26, 2.40478519208409120000e-002) (27, 4.91027839348134880000e-002) (28, -8.85498060069949130000e-002) (29, -1.83288576949962590000e-002) (30, 8.97583021187529080000e-002) (31, 3.76831060302720290000e-002) (32, -7.91015636787051330000e-003) (33, -9.90600600698599010000e-003) (34, -5.48950203492495350000e-002) (35, -6.51245126891808470000e-002) (36, -4.43115240977931530000e-003) (37, 4.01855474738113120000e-002) (38, -2.38708499650783780000e-002) (39, 9.22241224679964940000e-003) (40, -6.37023935273646200000e-002) (41, -7.13439952037333570000e-002) (42, -2.71179203259634960000e-002) (43, 5.00305183236378070000e-002) (44, 6.79199228870857040000e-002) (45, -7.01599131548391600000e-002) (46, -9.33959974854587930000e-002) (47, 6.08825692665959650000e-002) (48, -7.21496592782386870000e-002) (49, 8.70300305937234950000e-002) (50, -1.92871096624003260000e-002) (51, -6.83959971129297630000e-002) (52, 4.63134772526245800000e-002) (18, -8.95446790686946770000e-002) (19, 6.18957528754435770000e-002) (20, -2.99560551338800000000e-002) (21, 7.60375987892984990000e-002) (22, 1.31286623050073100000e-002) (23, 9.75158705937246850000e-002) (24, 7.48474132246883530000e-002) (25, -1.09863282887090460000e-003) (26, -8.41247571129315470000e-002) (27, 2.55859378812601790000e-002) (28, 3.05053715483154520000e-002) (29, -3.41491704307372860000e-002) (30, -4.72717292200286470000e-002) (31, -1.64123537601881250000e-002) (32, -9.40979017927929820000e-002) (33, 2.61718753899913280000e-002) (34, -9.20715345750977580000e-002) (35, -7.76184093597294120000e-002) (36, 3.76586919674082310000e-002) (37, -9.74609389522811400000e-002) (38, -8.41003430500677500000e-002) (39, 3.13903813271281250000e-002) (40, -2.05505374156018660000e-002) (41, 6.79931650756770980000e-002) (42, 5.52795418393543510000e-002) (43, 8.14270031664818820000e-002) (44, 9.86328139697434380000e-002) (45, 8.11096203492525090000e-002) (46, -3.15979008614704070000e-002) (47, 9.13024915948881240000e-002) (48, 1.35498048894078240000e-003) (49, 3.56384282654289560000e-002) (50, -6.26220712456415640000e-002) (51, 2.45422366938328200000e-002) (52, 6.74560556926735440000e-002) (18, 8.08593762048985810000e-002) (19, -5.19104011641502440000e-002) (20, -7.75817882654337150000e-002) (21, 7.63549816065278720000e-002) (22, 6.88415537601940740000e-002) (23, -2.66662601629832350000e-002) (24, -2.04467776484307250000e-002) (25, 5.22460945285274650000e-003) (26, 8.49487317345847260000e-002) (27, 6.31713876600770160000e-003) (28, -3.16528325029139520000e-002) (29, -1.93115237252641240000e-002) (30, -8.22143566938393630000e-002) (31, 7.58361827706721670000e-002) (32, -8.14697277764935280000e-002) (33, 6.52404794877838870000e-002) (34, 2.48718265424940910000e-002) (35, -2.56652835855675220000e-002) (36, 5.79589852386561690000e-002) (37, 5.97473153434293640000e-002) (38, 5.01831062165365440000e-002) (39, -6.99340830733490290000e-002) (40, -7.89062511757947500000e-002) (41, 3.16162114086182560000e-003) (42, 5.00305183236378070000e-002) (43, -4.52819830966291190000e-002) (44, 3.11950688242177420000e-002) (45, -4.92370612805643760000e-002) (46, 8.32702649126986220000e-002) (47, 9.76013198137479780000e-002) (48, 6.26953134342329580000e-002) (49, -8.78173841210809770000e-002) (50, -7.77343761583324520000e-002) (51, -6.22314462398207980000e-002) (52, 8.98315443073443020000e-002) (18, -6.95739756461080110000e-002) (19, -5.91613778346982140000e-002) (20, -5.47058113620551010000e-002) (21, 2.78869633061731290000e-002) (22, -1.68212893131567400000e-002) (23, -6.46423349476208390000e-002) (24, 4.28955084516928760000e-002) (25, 7.32604991385414910000e-002) (26, 8.75854505238748970000e-002) (27, -6.46911630733484340000e-002) (28, -7.69042980209633240000e-004) (29, 4.86022956461056310000e-002) (30, 8.98620618859240490000e-002) (31, -4.04174810710173920000e-002) (32, -1.49414064726443030000e-002) (33, 5.92895516647331530000e-002) (34, -7.91442882887167800000e-002) (35, -2.52990726426105540000e-002) (36, -7.64160167636873670000e-002) (37, -3.25439457974425750000e-002) (38, -1.06811525029115730000e-003) (39, 1.12426759487789240000e-002) (40, -3.38562016763717110000e-002) (41, 8.99047864959356960000e-002) (42, -3.86901861234036910000e-002) (43, 9.47143568801038780000e-002) (44, -7.54394542491354510000e-002) (45, 2.60131839813766420000e-002) (46, 5.24292000000059490000e-003) (47, -5.28259285215426640000e-002) (48, -8.61206067520470240000e-003) (49, 2.20581057974413850000e-002) (50, 2.01232913154854030000e-002) (51, -8.42651379743983850000e-002) (52, -2.07214358556484510000e-002) (18, -2.19482425145542950000e-002) (19, -8.05053722933735120000e-003) (20, 8.43261731315578800000e-002) (21, 1.07727052386508150000e-002) (22, -9.65515151106046690000e-002) (23, 6.12243661466891350000e-002) (24, 2.48779300582100400000e-002) (25, 8.96850599301615150000e-002) (26, -7.21130381839429900000e-002) (27, -8.43200696158419300000e-002) (28, -5.57678230966303090000e-002) (29, 8.54370129918606840000e-002) (30, 7.33093272642690860000e-002) (31, 9.89624038184047090000e-002) (32, 8.29956067054808950000e-002) (33, -3.85253911990730560000e-002) (34, 9.36157240512329740000e-002) (35, -8.33374035855740660000e-002) (36, -7.74108898253871300000e-002) (37, -2.09045413271269350000e-002) (38, -1.18286134575100730000e-002) (39, -7.92419445401719710000e-002) (40, 5.67504891268981740000e-002) (41, -9.20349134808020610000e-002) (42, 9.53979506402902190000e-002) (43, 5.39184578346976200000e-002) (44, 8.37646496856905290000e-002) (45, -2.55737308498282800000e-002) (46, -2.73315433760217270000e-002) (47, 3.47534184866162830000e-002) (48, -2.43896488009340830000e-002) (49, -2.09655764842864300000e-002) (50, -3.12194828870815400000e-002) (51, 6.53808603492507250000e-002) (52, 8.03344738533269260000e-002) (18, -8.55285657275999260000e-002) (19, 9.52941908731190780000e-002) (20, 4.24743658672923630000e-002) (21, 1.38854982537850450000e-002) (22, -8.49792493131644730000e-002) (23, -9.70825209778922730000e-002) (24, -4.69116217927876280000e-002) (25, -2.38647464493624280000e-003) (26, 6.90673838416842050000e-002) (27, -3.07861332712491280000e-002) (28, 3.64990239813778320000e-002) (29, 9.77783217695105120000e-002) (30, -7.43896495459921430000e-002) (31, -9.60937514319084580000e-002) (32, -6.68334970896466980000e-003) (33, -7.68066417695081330000e-002) (34, 2.62390140628667720000e-002) (35, 7.80029308498342290000e-002) (36, 2.30895999534368460000e-002) (37, 3.73962407916224040000e-002) (38, 9.37500013969838620000e-002) (39, -1.69799807217714260000e-002) (40, -2.82714847962779460000e-002) (41, 4.14550787427288010000e-002) (42, 8.60595715948875290000e-003) (43, 2.64770511757888020000e-002) (44, -3.01330570896425340000e-002) (45, -1.62170412572777420000e-002) (46, 4.58374030267805210000e-003) (47, 7.00317393248042210000e-002) (48, 4.35546881490154190000e-002) (49, 5.31188972759082390000e-002) (50, 1.47888185797455660000e-002) (51, -8.35693371827801460000e-002) (52, 7.84545910128144900000e-002) (18, 1.09741212572771470000e-002) (19, -6.89697275902290130000e-004) (20, 5.14770515483178310000e-002) (21, 1.87438967636808230000e-002) (22, -8.02185070547238870000e-002) (23, -1.41967775552984680000e-002) (24, 4.74426276600752320000e-002) (25, 8.21411145052479700000e-002) (26, 2.29919437019816540000e-002) (27, 5.41320808847558510000e-002) (28, -6.60766611408689640000e-002) (29, 7.21008311525110910000e-002) (30, -6.65893564610087200000e-002) (31, -3.50341802095499590000e-003) (32, -5.73486336670612220000e-002) (33, -3.14453129685716700000e-002) (34, -1.40930177881273270000e-002) (35, 8.41247571129315470000e-002) (36, -6.77246103841753210000e-002) (37, 7.84545910128144900000e-002) (38, -8.90808118742825170000e-002) (39, 7.19177256810326070000e-002) (40, 9.95422378114199090000e-002) (41, -7.27294932712538870000e-002) (42, 8.48449719674135850000e-002) (43, 7.21801768568184340000e-002) (44, 8.30383313154925420000e-002) (45, -2.71850589988389400000e-002) (46, -8.63281262863893060000e-002) (47, 2.87658695692698530000e-002) (48, 6.57165537136279450000e-002) (49, -7.74719249825466250000e-002) (50, 6.04248055878997550000e-003) (51, 2.28820804190945640000e-002) (52, -1.74011233061719390000e-002) (18, -6.44531259604264050000e-002) (19, 9.20288099650861110000e-002) (20, -5.82519539930217430000e-002) (21, 3.96789556693875060000e-002) (22, 9.08264173690440660000e-002) (23, -5.61401375553032270000e-002) (24, -5.85754403259670650000e-002) (25, 5.05249030966297140000e-002) (26, 2.47802738067548490000e-003) (27, 5.48522957392378880000e-002) (28, 3.50219731781180600000e-002) (29, -3.38134770663600650000e-003) (30, -3.63586431199109940000e-002) (31, -6.71875010011717680000e-002) (32, 3.75305181373732920000e-002) (33, -8.21716320838277170000e-002) (34, -9.98840346915130790000e-002) (35, -3.59130864726466830000e-002) (36, -1.41601564610027710000e-003) (37, -6.08093270780045710000e-002) (38, -8.49731457974485240000e-002) (39, -9.53796400931423700000e-002) (40, -4.56665045867339360000e-002) (41, -5.97412118277134140000e-002) (42, -9.42504896856917180000e-002) (43, -4.57763678696210260000e-002) (44, -7.03063975320219470000e-002) (45, 7.32971202328371870000e-002) (46, 3.43139653550679210000e-002) (47, 7.02270518277146040000e-002) (48, 2.22961429103634150000e-002) (49, 3.65600591385373260000e-002) (50, -6.73583994412183530000e-002) (51, 7.69042980209633240000e-002) (52, 9.92553725727702840000e-002) (18, -9.11254896391255900000e-002) (19, 2.37365726193274900000e-002) (20, 2.68188480558819720000e-002) (21, -6.18713388125797790000e-002) (22, 5.17944343655472040000e-002) (23, 4.01733404423794130000e-002) (24, -2.96142582537868290000e-002) (25, -5.67626961583300730000e-002) (26, 8.56567395576348640000e-002) (27, -7.89001476600788010000e-002) (28, -1.01257325727601710000e-002) (29, 6.86645518044315390000e-002) (30, 4.55871588824265930000e-002) (31, -3.10058598370233090000e-002) (32, 5.41198738533239520000e-002) (33, 7.90832531315572850000e-002) (34, -7.60253917578666010000e-002) (35, 4.74426276600752320000e-002) (36, -4.98046882421476770000e-002) (37, -2.01965335040767970000e-002) (38, -9.45861830500689390000e-002) (39, -9.88098159255059730000e-002) (40, 4.82666022817284100000e-002) (41, -5.28808601629862100000e-002) (42, -9.94567885913966170000e-002) (43, -2.03125003026798370000e-002) (44, -4.40795905005870740000e-002) (45, -9.61914076833636500000e-003) (46, 8.49060071245730800000e-002) (47, 4.54345709895278560000e-002) (48, 1.82067873806772700000e-002) (49, 7.69287120838271220000e-002) (50, 4.92065437019846290000e-002) (51, -5.17028816298079620000e-002) (52, -8.04138195576342700000e-002) (18, -4.88830573690393070000e-002) (19, 6.70898447497165760000e-002) (20, 4.71313483585618090000e-002) (21, -5.58837898952333490000e-002) (22, -2.11853030500606110000e-002) (23, 8.67614759022217190000e-002) (24, 5.99182137834759490000e-002) (25, -4.98840339464550200000e-002) (26, 4.84741218160706920000e-002) (27, -4.72900397671764950000e-002) (28, 2.36083987892925510000e-002) (29, 1.54541017927840580000e-002) (30, 6.01501473806820290000e-002) (31, 6.37146005587965190000e-002) (32, -5.49316414435452320000e-002) (33, 9.89379897555409120000e-003) (34, 3.35998540163018330000e-002) (35, -2.65136722700844980000e-002) (36, 2.42248538766034470000e-002) (37, 5.05249030966297140000e-002) (38, -3.31787114319013200000e-002) (39, -5.99243172991918980000e-002) (40, 3.07678227241012790000e-002) (41, 9.67712416763788500000e-002) (42, 7.62146007450610340000e-002) (43, -6.95922861932558590000e-002) (44, -8.44299328987290210000e-002) (45, 4.09912115483166420000e-002) (46, -5.03784187194469270000e-002) (47, 8.61206067520470240000e-002) (48, 3.81896978346958350000e-002) (49, -4.88891608847552560000e-002) (50, 4.35363776018675710000e-002) (51, -4.30053717345799670000e-002) (52, 9.15832533178218000000e-002) (18, 2.14050296158347920000e-002) (19, 5.56579598137432190000e-002) (20, -9.18090833993119300000e-002) (21, -9.46533217229443840000e-002) (22, 8.77990735739331290000e-002) (23, 4.15649420256158920000e-003) (24, 7.59887706635709040000e-003) (25, 8.74023450523964130000e-003) (26, 6.37634286845241150000e-002) (27, -5.52490242607746040000e-002) (28, -5.24902351571654440000e-004) (29, -6.52832040977955330000e-002) (30, -4.67041022584453460000e-002) (31, -4.30175787660118660000e-002) (32, 7.06848155064108140000e-002) (33, -5.37963875203786300000e-002) (34, -3.00292973224713930000e-003) (35, -6.91528330617074970000e-002) (36, 1.57775881257293800000e-002) (37, -3.40820317578618410000e-002) (38, 7.66601573923253450000e-003) (39, -1.48864748312007580000e-002) (40, -9.28955091967509360000e-002) (41, -9.04541029103711480000e-003) (42, 5.15502937369092250000e-002) (43, 4.84375007217749950000e-002) (44, 7.63061534808002760000e-002) (45, -2.66479496158353870000e-002) (46, -6.84021006286457120000e-002) (47, 3.47595220023322330000e-002) (48, -8.66394055879027290000e-002) (49, 4.79797370430787850000e-002) (50, 2.88696293364409940000e-002) (51, -5.60607918509958840000e-002) (52, 8.94470228172394850000e-002) (18, 8.88732923399402350000e-002) (19, -4.15588385098999420000e-002) (20, -8.08410656577507320000e-002) (21, -9.00756849359822810000e-002) (22, 7.54150401862716540000e-002) (23, -4.03442388824259980000e-003) (24, -7.87963878929076600000e-003) (25, 3.57055669383044010000e-003) (26, 4.94384772991907080000e-002) (27, -6.87683115716026800000e-002) (28, -5.25390632828930390000e-002) (29, 5.44921883119968700000e-002) (30, -5.53039559022181490000e-002) (31, -9.50805678230608460000e-002) (32, 3.74938970430775950000e-002) (33, -1.72241213504094050000e-002) (34, 6.97631846333024440000e-002) (35, 8.47473157159583930000e-002) (36, -2.13562014901071960000e-002) (37, 8.02734386961674320000e-002) (38, -7.42675792316731530000e-002) (39, -6.25610360884820690000e-002) (40, -3.92639166007029420000e-002) (41, -9.23034681723038370000e-002) (42, -6.00341805820789890000e-002) (43, -4.74914557858028270000e-002) (44, -9.95666518742837070000e-002) (45, 5.92773446333012540000e-002) (46, -2.96630863795144250000e-003) (47, -2.56347660069877750000e-002) (48, 7.00805674505318170000e-002) (49, 1.28173830034938870000e-003) (50, -5.17517097555355580000e-002) (51, -1.19018556461014670000e-003) (52, -6.68212900582148000000e-002) (18, 9.05822767404060870000e-002) (19, -1.90979006752058920000e-002) (20, -9.76562514551915230000e-003) (21, -8.22631848195669590000e-002) (22, -2.04406741327147760000e-002) (23, 2.85461430034956720000e-002) (24, -2.42126468451715480000e-002) (25, -4.12048345983748730000e-002) (26, -8.63830579278328510000e-002) (27, -9.64416518277175780000e-002) (28, -2.72338871245665360000e-002) (29, -5.87036141560020040000e-002) (30, -7.25524913154913520000e-002) (31, -6.68334970896466980000e-002) (32, 5.41381844004718000000e-003) (33, 7.46398936903460710000e-002) (34, 4.64599616298073670000e-002) (35, -1.96899416996529910000e-002) (36, -3.25561528288744740000e-002) (37, -6.98913584633373830000e-002) (38, 9.94934096856923130000e-002) (39, 3.04565434225878560000e-002) (40, -1.34582521536685820000e-002) (41, -2.75695804889437570000e-002) (42, 4.91027839348134880000e-002) (43, 2.57141117112951180000e-002) (44, 4.70031745285268700000e-002) (45, -8.32580578812667230000e-002) (46, 4.56970221653136830000e-002) (47, -7.25341807683435040000e-002) (48, -7.30712901513470570000e-002) (49, -5.78369149243371790000e-002) (50, -8.82629407683452880000e-002) (51, 8.87329114784733970000e-002) (52, 5.99365243306237970000e-003) (18, 9.33349623282992980000e-002) (19, 6.22680673341164950000e-002) (20, -8.24035656810337970000e-002) (21, 2.86865238649625100000e-004) (22, -9.90051284284163560000e-002) (23, -3.19641118044273750000e-002) (24, -8.71398938766105860000e-002) (25, -1.97143557625167890000e-002) (26, -4.69604499185152240000e-002) (27, -3.25866704074542210000e-002) (28, 5.32531746216591270000e-002) (29, -7.16979991152584260000e-002) (30, 4.71618659371415560000e-002) (31, -6.65649423981449220000e-002) (32, 2.13317874272433980000e-002) (33, -8.37402356228267310000e-003) (34, 5.64147957625209530000e-002) (35, 2.12402346915041560000e-003) (36, 4.35119635390037730000e-002) (37, 8.76525891967503410000e-002) (38, -6.11022958323701460000e-002) (39, 6.84204111757935610000e-002) (40, 2.72338871245665360000e-002) (41, 1.71508791618180110000e-002) (42, 2.28332522933669680000e-002) (43, 5.59387215366768940000e-002) (44, -2.32360843306196330000e-002) (45, -5.79406746915083200000e-002) (46, -1.69067385331800320000e-003) (47, 6.67907724796350520000e-002) (48, -3.13232426542526810000e-002) (49, -1.60766603958109040000e-002) (50, -5.31188972759082390000e-002) (51, 1.77490237019810590000e-002) (52, 6.83898935972138130000e-002) (18, -6.83593760186340660000e-004) (19, 4.03198248195622000000e-002) (20, 6.89636240745130640000e-002) (21, 6.89575205587971140000e-002) (22, 8.84643567869716210000e-002) (23, 3.97766119208426970000e-002) (24, 5.15563972526251750000e-002) (25, 3.33862309662436020000e-002) (26, 9.33044447497195510000e-002) (27, 2.65441898486642460000e-002) (28, 2.38037112922029340000e-004) (29, -7.82958996041998030000e-002) (30, 4.12841803026822160000e-002) (31, 9.57641615832471870000e-002) (32, -2.71606449359751420000e-003) (33, 8.40576184400561030000e-002) (34, -8.95385755529787280000e-003) (35, 4.42138678463379620000e-002) (36, 3.40820317578618410000e-002) (37, -9.89501967869728110000e-002) (38, 3.64135747613545390000e-002) (39, -1.64672854016316710000e-002) (40, 9.65148940163089720000e-002) (41, -4.73571784400519390000e-002) (42, -7.52807628405207650000e-002) (43, -8.99292005587994940000e-002) (44, -1.95861819324818500000e-002) (45, -3.23486332945321920000e-003) (46, 4.59411627939516620000e-002) (47, -3.73840337601905050000e-002) (48, 4.33227545518093390000e-002) (49, -6.10168466123468530000e-002) (50, 4.86938483818448730000e-002) (51, -7.14111338766088010000e-004) (52, -1.11694337601875300000e-003) (18, 7.44262706402878390000e-002) (19, 3.95263677764887690000e-002) (20, 2.47924808381867480000e-002) (21, -3.99902349709009290000e-002) (22, -1.68090822817248410000e-002) (23, 2.15698245401654280000e-002) (24, 9.93530288242254760000e-002) (25, 3.71521001629844250000e-002) (26, -3.94226080093176280000e-002) (27, -7.10449229336518330000e-002) (28, 6.05041512922070980000e-002) (29, 9.79125991152614010000e-002) (30, -3.67187505471520130000e-002) (31, -8.68164075436652640000e-002) (32, 8.90136732014070730000e-002) (33, -5.81665047729984510000e-003) (34, -4.71191413271299100000e-002) (35, 3.76525884516922820000e-002) (36, 5.02502448894119880000e-002) (37, 6.31774911757929660000e-002) (38, 1.78405764377203010000e-002) (39, 3.66821294528563160000e-002) (40, 4.21325689871991930000e-002) (41, 8.50219739231761200000e-003) (42, -4.47326666821936670000e-002) (43, 9.52209486845276840000e-002) (44, 8.10058605820813680000e-002) (45, -3.24462895459873830000e-002) (46, 9.36889662398243670000e-002) (47, -9.44824232828977980000e-002) (48, -4.33593756461050360000e-002) (49, 7.15026866123480430000e-002) (50, 3.81042486146725420000e-002) (51, -4.30297857974437650000e-002) (52, -1.23718263562295760000e-002) (18, -9.58618178347023790000e-002) (19, -8.14636242607775780000e-002) (20, -8.45153821187523140000e-002) (21, -9.15893568335377490000e-002) (22, -3.42895512922041230000e-002) (23, 2.33459476135067230000e-002) (24, 4.84497077532068940000e-002) (25, 1.92321780209567810000e-002) (26, -5.18066413969791030000e-002) (27, -1.39160158323647920000e-003) (28, -4.82360847031486630000e-002) (29, 3.01818852153701300000e-002) (30, -7.19299327124645060000e-002) (31, 9.46838393015241310000e-002) (32, -6.50146494062937560000e-002) (33, -6.93481455646178800000e-002) (34, 8.29284680326054510000e-002) (35, 4.13574224912736100000e-002) (36, -7.90405285215456390000e-002) (37, -8.45458996973320610000e-002) (38, 3.82202154132755820000e-002) (39, 3.27148442374891600000e-002) (40, 1.61926271944139440000e-002) (41, 9.87915053783581240000e-002) (42, 5.02502448894119880000e-002) (43, 3.06396488940663400000e-003) (44, 8.09936535506494690000e-003) (45, 4.74060065657795350000e-002) (46, -6.82006846100193800000e-002) (47, 7.50854503376103820000e-002) (48, -5.44738777648490210000e-002) (49, 6.40686044703215880000e-002) (50, -7.34313975785880760000e-002) (51, -3.84643560419135610000e-002) (52, 5.86914071245701050000e-002) (18, 5.27893074272469680000e-002) (19, 3.86962896391196410000e-002) (20, 1.66625979045420540000e-003) (21, -2.51831058440075140000e-002) (22, 9.68139662863904960000e-002) (23, 2.35778812107128030000e-002) (24, 1.37268068451703580000e-002) (25, 8.57482922933741070000e-002) (26, -1.91467288009334880000e-002) (27, -5.36682136903436910000e-002) (28, 4.46777350407501220000e-002) (29, 2.37670901979072370000e-002) (30, -1.13464357159500650000e-002) (31, -8.59802258905801860000e-002) (32, -1.56860353899901380000e-003) (33, -9.81811538067631770000e-002) (34, 7.22045909196822320000e-003) (35, 8.79760755296956630000e-002) (36, 2.38830569965102770000e-002) (37, 7.45239268917430310000e-002) (38, 6.89453135273652150000e-002) (39, -1.75109865890590300000e-002) (40, 4.39086920605404880000e-002) (41, 7.60314952735825500000e-002) (42, -3.71704107101322730000e-002) (43, -4.40063483119956800000e-002) (44, -9.32922377182876520000e-002) (45, 9.11865247962850840000e-002) (46, 4.61669928754417920000e-002) (47, -9.88098159255059730000e-002) (48, -5.94421395576318900000e-002) (49, 1.60827639115268540000e-002) (50, 8.78112806053650270000e-002) (51, 4.01367193480837160000e-002) (52, -6.56738291036162990000e-003) (18, 6.43432626775393150000e-002) (19, 7.43469249359804960000e-002) (20, 3.07434086612374810000e-002) (21, -6.14318856810314170000e-002) (22, -2.46643070081518090000e-002) (23, 1.04125978114097960000e-002) (24, 9.08264173690440660000e-002) (25, -7.26745616298103410000e-002) (26, -1.93908694295714670000e-002) (27, 4.44213873806802440000e-002) (28, -5.40466316647325580000e-002) (29, -2.94372562980242950000e-002) (30, -1.52160646798620290000e-002) (31, -4.91088874505294370000e-002) (32, -9.25720228638056140000e-002) (33, -7.02087412805667550000e-002) (34, -8.28613293597300070000e-002) (35, -9.93103042142138290000e-002) (36, 8.65722669150272850000e-002) (37, 9.92858901513500310000e-002) (38, -8.98681654016399990000e-002) (39, -4.95666511292256470000e-002) (40, 5.15563972526251750000e-002) (41, 6.05529794179346940000e-002) (42, 6.11816415366774890000e-002) (43, -1.77917483119927060000e-002) (44, -6.68823252153742940000e-002) (45, -9.76562514551915230000e-003) (46, 3.38073735506441150000e-002) (47, -7.49511729918594940000e-002) (48, 8.53210461932576440000e-002) (49, -9.71984877764953130000e-002) (50, 5.45898445634520610000e-002) (51, -1.08215333643784110000e-002) (52, -9.23645033294633320000e-002) (18, 9.30786146682294200000e-003) (19, -3.80187993946492500000e-002) (20, -5.55053719208444820000e-002) (21, -6.53625498021028760000e-002) (22, 7.33337413271328840000e-002) (23, 6.33728036787033490000e-002) (24, -2.56286624912718250000e-002) (25, -5.24902351571654440000e-004) (26, -5.45043953434287690000e-002) (27, 5.66162117811472850000e-002) (28, -6.38488779045474080000e-002) (29, -2.25158694761375950000e-002) (30, -4.22851568800979290000e-002) (31, -2.77893070547179380000e-002) (32, -4.04846197438928360000e-002) (33, -8.39294446100211640000e-002) (34, -4.14978033527404480000e-002) (35, -7.50122081490189880000e-003) (36, 1.39648439580923880000e-002) (37, 5.72082528055943840000e-002) (38, 7.04650889406366330000e-002) (39, -9.60021986961692160000e-002) (40, -2.32604983934834310000e-002) (41, -4.12597662398184180000e-002) (42, -4.85839850989577830000e-002) (43, 3.92517095692710430000e-002) (44, 3.23242192316683940000e-002) (45, 2.07824710128079460000e-002) (46, 4.01733404423794130000e-002) (47, 6.43493661932552640000e-002) (48, -6.50756845634532510000e-002) (49, 2.34436038649619150000e-002) (50, -3.16162114086182560000e-002) (51, 6.83898935972138130000e-002) (52, -3.50158696624021100000e-002) (18, -1.78833010477319480000e-002) (19, 1.96655276367891930000e-002) (20, -8.88244642142126390000e-002) (21, -8.88305677299285890000e-002) (22, -7.34069835157242780000e-002) (23, 1.72180178346934550000e-002) (24, 8.53332532246895430000e-002) (25, -9.10400404191022970000e-002) (26, -8.97033704773093630000e-002) (27, -7.88085949243395590000e-002) (28, 4.91699226076889320000e-002) (29, 6.71447763911601210000e-002) (30, 5.57983406752100560000e-002) (31, -8.28918469383097540000e-002) (32, 8.64440930849923460000e-002) (33, -8.65539563678794370000e-002) (34, -5.70861824912753950000e-002) (35, 7.65319835622904070000e-002) (36, 4.93713386263152640000e-002) (37, -9.46044935972167880000e-003) (38, -5.43273933876662340000e-002) (39, -2.87597660535539030000e-002) (40, 4.10644537369080350000e-002) (41, 3.37158208149048730000e-002) (42, 2.43041995809107900000e-002) (43, -7.78076183469238460000e-002) (44, -6.32324228172365110000e-003) (45, 6.14318856810314170000e-002) (46, -2.13928225844028930000e-002) (47, 6.44714365075742530000e-002) (48, -1.47705080325977180000e-003) (49, 1.00158692898730810000e-002) (50, 6.88598643073419230000e-002) (51, -9.04602064260870970000e-002) (52, -5.56274422351634710000e-002) (53, 4.37316901047779540000e-002) (54, 1.05590821885925830000e-002) (55, -1.40258791152518820000e-002) (56, -7.97912609546074240000e-002) (57, -2.84912113620521270000e-002) (58, 4.92858894062919720000e-002) (59, 3.99780279394690300000e-002) (60, -6.13159188824283770000e-002) (61, -9.84436049825490040000e-002) (62, -7.81860363213127130000e-002) (63, -2.30895999534368460000e-002) (64, 3.65600591385373260000e-002) (65, -3.48693852852193230000e-002) (66, 9.89990249127004060000e-003) (67, 2.50793460768363730000e-002) (68, -9.17053236321407890000e-002) (69, 4.06555181839394210000e-002) (70, 9.27978529452957450000e-002) (71, -9.69360366007094850000e-002) (72, -7.08740244936052480000e-002) (73, -9.04663099418030470000e-002) (74, 4.91943366705527300000e-003) (75, 7.17590342724179210000e-002) (76, -7.61352550407536910000e-002) (77, -2.51953128754394130000e-002) (78, 4.81567389988413200000e-003) (79, 5.25085457043132920000e-002) (80, -6.24206552270152320000e-002) (81, -2.60192874970925910000e-002) (82, -3.82934576018669760000e-002) (83, 9.24194349709068770000e-002) (84, -3.54187016996547750000e-002) (85, 1.72241213504094050000e-002) (86, -3.41247563678734880000e-002) (87, -4.17297369499465280000e-002) (53, 9.17541517578683850000e-002) (54, -1.77551272176970090000e-002) (55, 6.90979014202639520000e-002) (56, -5.98815926891802520000e-002) (57, 1.26831056577429990000e-002) (58, -3.02124027939498770000e-003) (59, -3.85559087776528030000e-002) (60, 4.59716803725314090000e-002) (61, -3.13232426542526810000e-002) (62, 4.15283209313201950000e-002) (63, 9.06372083818496320000e-002) (64, 6.87133799301591350000e-002) (65, 7.29980479627556630000e-002) (66, 3.78417974388867150000e-004) (67, 3.02368168568136750000e-002) (68, -9.34936537369139840000e-002) (69, 7.45910655646184750000e-002) (70, -3.64379888242183370000e-003) (71, 2.90527348079194780000e-003) (72, 1.80297854249147350000e-002) (73, -8.25378430267846850000e-002) (74, -6.26037606984937160000e-002) (75, -3.49975591152542620000e-002) (76, -6.32934579743960060000e-003) (77, -4.79858405587947350000e-002) (78, -9.24987806752142210000e-002) (79, -4.12353521769546210000e-002) (80, -7.59887706635709040000e-002) (81, -4.53491217695045630000e-002) (82, -6.69311533411018900000e-002) (83, -6.17126474039650930000e-002) (84, -5.31677254016358350000e-002) (85, 1.17370607217708310000e-002) (86, -4.41406256577465680000e-002) (87, -2.43591312223543350000e-002) (53, 5.38757332246859730000e-002) (54, 2.43347171594905380000e-002) (55, -5.61096199767234790000e-002) (56, 5.32409675902272280000e-002) (57, -6.14013681024516700000e-002) (58, 8.98620618859240490000e-002) (59, -2.86071781606551670000e-002) (60, -5.11535652153725100000e-002) (61, -3.37402348777686710000e-002) (62, -8.30322277997765920000e-002) (63, -7.50732433061784830000e-004) (64, 1.93786623981395680000e-002) (65, 4.74426276600752320000e-002) (66, -7.01477061234072610000e-002) (67, -1.29882814435404730000e-002) (68, -1.01989747613515650000e-002) (69, 9.64050307334218810000e-002) (70, 1.82678225378367640000e-002) (71, 6.78100596041986140000e-002) (72, -4.66369635855699020000e-002) (73, 5.53955086379573910000e-002) (74, -1.04614259371373920000e-002) (75, 1.74682619790473840000e-002) (76, 8.93676771129321420000e-002) (77, -3.37158208149048730000e-002) (78, 7.87048351571684180000e-002) (79, -5.10803230267811160000e-002) (80, -9.51904311059479370000e-002) (81, 7.06726084749789150000e-002) (82, -2.68188480558819720000e-002) (83, 6.33117685215438540000e-002) (84, -9.39147963213144980000e-002) (85, 1.97753909196762830000e-002) (86, -9.19372572293468690000e-002) (87, -1.09802247729930970000e-002) (53, -9.29748549010582790000e-002) (54, -2.46582034924358600000e-002) (55, 8.84582532712556710000e-002) (56, -6.02539071478531700000e-002) (57, 7.94982922002418490000e-002) (58, 8.28125012340024110000e-002) (59, -5.05371101280616130000e-003) (60, 2.30651858905730480000e-002) (61, -4.71618659371415560000e-002) (62, 9.79919448195687440000e-002) (63, 2.85400394877797230000e-002) (64, -6.94396983003571220000e-002) (65, 6.83959971129297630000e-002) (66, 4.85290534575142370000e-002) (67, 5.13366706868509940000e-002) (68, -5.91003426775387200000e-002) (69, 9.53369154831307240000e-002) (70, -8.86413587427341550000e-002) (71, 7.91015636787051330000e-002) (72, 6.70227060768411320000e-002) (73, -8.58825696391249950000e-002) (74, -1.25549318277080600000e-002) (75, 8.21044934109522730000e-002) (76, 7.86987316414524680000e-002) (77, 7.36816417229420040000e-002) (78, -4.49768073108316460000e-002) (79, -4.96582038649648890000e-002) (80, 3.17932133643807900000e-002) (81, -7.11669932479708220000e-002) (82, 8.25988781839441800000e-002) (83, -2.04589846798626240000e-002) (84, 3.53454595110633820000e-002) (85, 6.38610849359793060000e-002) (86, -1.69860842374873760000e-002) (87, -6.59606943422659240000e-002) (53, 8.78417981839447750000e-002) (54, -9.11926283120010340000e-002) (55, -1.02966310128067560000e-002) (56, 4.29138189988407250000e-002) (57, -8.61450208149108220000e-002) (58, -4.55017096624033000000e-002) (59, -6.34826669615904390000e-002) (60, -1.44409181839364460000e-002) (61, 3.23364262631002930000e-002) (62, 7.27050792083900890000e-002) (63, 2.23083499417953130000e-002) (64, 2.29614261234019070000e-002) (65, -1.22253419790467890000e-002) (66, -5.23864753899943030000e-002) (67, -5.84960946216597220000e-002) (68, -6.90856943888320530000e-002) (69, -2.44628909895254760000e-002) (70, -7.51403819790539270000e-002) (71, -3.80371099417970980000e-002) (72, 9.14489759720709120000e-002) (73, -7.42187511059455570000e-003) (74, 8.44116223515811730000e-002) (75, -6.86218271944198930000e-002) (76, -1.24511720605369190000e-003) (77, -5.52490242607746040000e-002) (78, 4.35363776018675710000e-002) (79, 9.33715834225949950000e-002) (80, -6.43005380675276680000e-002) (81, 4.21020514086194450000e-002) (82, 9.60632338533287110000e-002) (83, 9.46655287543762820000e-002) (84, 7.74414074039668780000e-002) (85, -8.68042005122333650000e-002) (86, -5.74951180442440090000e-003) (87, 6.45202646333018490000e-002) (53, -2.18933108731107500000e-002) (54, -3.00781254481989890000e-002) (55, -2.05139163213061690000e-002) (56, -5.23559578114145550000e-002) (57, 9.70520033993125250000e-002) (58, 5.39001472875497710000e-002) (59, -3.19702153201433250000e-002) (60, -2.81127933876632600000e-002) (61, -7.93090832130474150000e-002) (62, 9.57763686146790860000e-002) (63, 9.81323256810355820000e-002) (64, 3.19946293830071230000e-002) (65, -6.35803232130456310000e-002) (66, 1.86584475436575300000e-002) (67, -5.53161629336500480000e-002) (68, 7.05505381606599260000e-002) (69, 1.46118166239830320000e-002) (70, 1.69616701746235780000e-002) (71, 7.75146495925582710000e-003) (72, 3.74877935273616460000e-002) (73, 5.51696785564672610000e-002) (74, 4.18884283585612140000e-002) (75, -1.88903811408636100000e-002) (76, -9.06372083818496320000e-002) (77, 5.47058113620551010000e-002) (78, 2.47558597438910510000e-002) (79, 7.18994151338847590000e-003) (80, -5.03906257508788260000e-002) (81, 5.07324226309719960000e-002) (82, 6.95556650989601620000e-002) (83, 2.45483402095487690000e-002) (84, 9.11132826076936910000e-002) (85, 9.90173354598482550000e-002) (86, -5.42053230733472450000e-002) (87, 1.41784670081506190000e-002) (53, 2.22351077532039200000e-002) (54, -5.96008309662465760000e-002) (55, -8.69140637951204550000e-002) (56, 5.08972175553026320000e-002) (57, 5.76721200000065440000e-002) (58, -8.66699231664824770000e-002) (59, 8.51440442374951090000e-003) (60, -3.39233403492471550000e-002) (61, -2.47253421653113040000e-002) (62, -3.16650395343458510000e-002) (63, 2.82653812805619960000e-002) (64, -7.20520030267834950000e-002) (65, -9.98352065657854840000e-002) (66, -5.92956551804491030000e-002) (67, -6.54724130849899670000e-002) (68, -5.43029793248024360000e-002) (69, 1.73461916647283940000e-002) (70, -6.23840341327195350000e-002) (71, -8.08593762048985810000e-002) (72, 3.71093755529727790000e-003) (73, -5.89599618160718820000e-003) (74, -4.01000982537880190000e-003) (75, 5.50415047264323220000e-002) (76, 3.20678715715985160000e-002) (77, 9.34021010011747420000e-002) (78, 6.72546396740472120000e-002) (79, -3.30627446332982800000e-002) (80, 1.96716311525051420000e-002) (81, 5.95581063562349300000e-002) (82, 8.53759778347011890000e-002) (83, 5.22766121071072120000e-002) (84, 7.61962901979131860000e-002) (85, -4.25842291501794530000e-002) (86, -2.57446292898748650000e-002) (87, 8.39599621886009120000e-002) (53, -5.09155281024504800000e-002) (54, 4.63134772526245800000e-002) (55, -4.90783698719496900000e-002) (56, -7.41516124330701130000e-002) (57, 1.89208987194433580000e-003) (58, 7.00256358090882710000e-002) (59, -1.93908694295714670000e-002) (60, -7.51342784633379780000e-003) (61, -3.97644048894107980000e-002) (62, 4.40246588591435280000e-002) (63, -5.99243172991918980000e-002) (64, -1.58142092200250770000e-002) (65, 3.15124516414471150000e-002) (66, -7.88085949243395590000e-002) (67, -5.46447762048956060000e-002) (68, -7.12890635622898120000e-002) (69, -9.52514662631074320000e-002) (70, 1.73645022118762430000e-002) (71, 2.13623050058231460000e-004) (72, 6.09436044237554600000e-002) (73, 3.67492681257317600000e-002) (74, -2.21557620488965770000e-002) (75, 2.15881350873132760000e-002) (76, -2.83996586263128850000e-002) (77, -6.91589365774234470000e-002) (78, -3.38073735506441150000e-002) (79, -1.83105471478484110000e-003) (80, -4.35974127590270650000e-002) (81, 1.44287111525045470000e-002) (82, 5.65490731082718410000e-002) (83, -6.14929208381909120000e-002) (84, -3.16162114086182560000e-003) (85, 2.16308596973249220000e-002) (86, -8.92944349243407490000e-002) (87, -3.52294927124603420000e-002) (53, -9.61303725262041550000e-002) (54, 8.72680677066455250000e-002) (55, -7.88269054714874070000e-002) (56, 8.45336926659001620000e-003) (57, 5.57189949709027130000e-002) (58, 5.83984383702045310000e-002) (59, -9.84130874039692570000e-002) (60, 6.43493661932552640000e-002) (61, 6.10961923166541960000e-002) (62, 2.96875004423782230000e-002) (63, -9.44763197671818490000e-002) (64, 5.89050301746283370000e-002) (65, -2.09533694528545310000e-002) (66, 8.87451185099052960000e-003) (67, 5.51757820721832100000e-002) (68, 8.93127454714885970000e-002) (69, 2.66784671944151340000e-002) (70, -8.14453137136297300000e-002) (71, -3.90075689406330640000e-002) (72, 8.95568861001265760000e-002) (73, 6.05468759022187440000e-003) (74, 4.05273443539044820000e-002) (75, 1.36108400465673180000e-002) (76, 7.96386730617086870000e-002) (77, -1.85363772293385410000e-002) (78, -9.10095228405225500000e-002) (79, -7.07397471478543590000e-002) (80, 5.43029793248024360000e-002) (81, 3.83056646332988750000e-002) (82, -4.11804205355110750000e-002) (83, 2.99987797438916460000e-002) (84, 6.74133310826618980000e-002) (85, 5.49438484749771310000e-002) (86, -6.48559579976790700000e-002) (87, 3.99047857508776360000e-002) (53, -3.16833500814937000000e-002) (54, -8.14086926193340330000e-002) (55, -2.94677738766040420000e-002) (56, 7.85705578114175300000e-002) (57, -5.36193855646160960000e-002) (58, -8.33129895227102680000e-002) (59, -6.40197763445939930000e-002) (60, 3.30810551804461280000e-002) (61, -5.99609383934875950000e-002) (62, -6.51489267520446450000e-002) (63, -2.79907230733442700000e-002) (64, -1.01928712456356150000e-002) (65, 6.64611826309737810000e-002) (66, -7.26318370197986950000e-003) (67, 6.04858407450592490000e-003) (68, -9.28405775553073910000e-002) (69, -7.17590342724179210000e-002) (70, -5.09338386495983290000e-002) (71, -3.75549322002370900000e-002) (72, 1.06445314086158760000e-002) (73, -4.67346198370250930000e-002) (74, -9.30053724796380270000e-002) (75, 7.12646494994260140000e-002) (76, 9.14184583934911640000e-002) (77, 2.40295413736930640000e-002) (78, -4.88220222118798120000e-002) (79, -1.78161623748565030000e-002) (80, -1.03942872642619480000e-002) (81, -4.73388678929040910000e-002) (82, -5.23376472642667070000e-002) (83, 8.97094739930253130000e-002) (84, 4.36523444004706110000e-002) (85, 5.79040535972126240000e-002) (86, 3.79882818160695020000e-002) (87, -2.40173343422611650000e-002) (53, -1.30676271478478160000e-002) (54, 2.86865238649625100000e-004) (55, -4.13818365541374080000e-002) (56, -2.26074222118768380000e-002) (57, 7.28637706170047750000e-002) (58, -6.82312021885991270000e-002) (59, 1.70593264260787690000e-002) (60, -1.87011721536691770000e-002) (61, -9.02099622817331690000e-002) (62, -8.39294446100211640000e-002) (63, 5.58410652852217030000e-002) (64, 5.90393075203792250000e-002) (65, -1.30981447264275630000e-002) (66, 7.59704601164230550000e-002) (67, 3.56323247497130070000e-002) (68, 4.15710455413318410000e-002) (69, -2.76062015832394540000e-002) (70, 2.37854007450550850000e-002) (71, -3.12011723399336920000e-002) (72, 4.38781744819607410000e-002) (73, -3.48632817695033740000e-002) (74, 3.13293461699686300000e-002) (75, 3.45275884051261530000e-002) (76, 4.45007330849875870000e-002) (77, -1.88415530151360140000e-002) (78, 9.55566420489049050000e-002) (79, 6.89086924330695180000e-003) (80, -7.36022960186346610000e-002) (81, 5.60913094295756310000e-002) (82, -4.38293463562331450000e-002) (83, 2.70446781373721020000e-002) (84, 8.53393567404054920000e-002) (85, 4.48913580908083530000e-002) (86, 2.14233401629826400000e-002) (87, 5.08056648195633900000e-002) (53, 1.21765138533191930000e-002) (54, -9.98901382072290290000e-002) (55, 5.83618172759088340000e-002) (56, 2.88085941792814990000e-003) (57, -4.48425299650807570000e-002) (58, -9.01062025145620280000e-002) (59, 3.82690435390031780000e-003) (60, -3.10363774156030560000e-002) (61, 6.86035166472720450000e-002) (62, 7.70202648195663640000e-002) (63, -4.76684577415653620000e-002) (64, 5.70251473341159000000e-002) (65, -4.58740241210762180000e-002) (66, -7.98217785331871710000e-002) (67, 7.71850597438970000000e-002) (68, 5.89111336903442860000e-002) (69, 7.01904307334189070000e-004) (70, 7.87902843771917110000e-002) (71, -5.88989266589123870000e-002) (72, -5.63232430267817110000e-002) (73, 2.98156742724131620000e-002) (74, 2.57568363213067640000e-003) (75, -4.75952155529739680000e-002) (76, -8.62731946449457610000e-002) (77, 5.19104011641502440000e-002) (78, -9.28466810710233400000e-002) (79, 2.33276370663588750000e-002) (80, 5.51452644936034630000e-002) (81, 4.04602056810290380000e-002) (82, 7.69042980209633240000e-002) (83, -1.35986330151354200000e-002) (84, -8.65844739464591840000e-002) (85, -7.01721201862710590000e-002) (86, 9.63195815133985890000e-002) (87, 2.53417972526222000000e-002) (53, 2.57507328055908150000e-002) (54, -5.67565926426141230000e-002) (55, 9.11560072177053370000e-002) (56, 7.66479503608934460000e-002) (57, -5.86547860302744080000e-002) (58, 5.70434578812637480000e-002) (59, -3.94226080093176280000e-002) (60, 5.81481942258506020000e-002) (61, -3.92578130849869920000e-002) (62, -9.24194349709068770000e-002) (63, 8.15979016065284670000e-002) (64, 8.07067883119998440000e-002) (65, -7.43774425145602440000e-002) (66, -5.31250007916241880000e-002) (67, 6.69921884982613850000e-002) (68, 9.94750991385444650000e-002) (69, 9.01977552503012700000e-002) (70, -4.66003424912742050000e-002) (71, 5.79895028172359160000e-002) (72, -3.92517095692710430000e-002) (73, 5.51757820721832100000e-003) (74, -9.58251967404066820000e-002) (75, -6.69738779511135360000e-002) (76, -9.91760268684629410000e-002) (77, 4.79248054016352400000e-002) (78, -8.55712903376115720000e-002) (79, -8.63098157392414580000e-002) (80, 5.30822761816125420000e-002) (81, -7.71362316181694040000e-002) (82, 5.11108406053608630000e-002) (83, -5.07690437252676930000e-002) (84, 1.94702151338788100000e-002) (85, -2.46215823981401630000e-002) (86, -7.35412608614751660000e-002) (87, -3.91662603492477500000e-002) (53, 6.27136239813808060000e-002) (54, 3.84582525261976120000e-002) (55, 7.79296886612428350000e-002) (56, -7.31201182770746530000e-002) (57, -2.44995120838211730000e-002) (58, 5.05554206752094610000e-002) (59, 4.06494146682234710000e-002) (60, 9.04907240046668450000e-002) (61, -1.71691897089658600000e-002) (62, -2.65258793015163970000e-002) (63, -8.12377941792874480000e-002) (64, 7.06176768335353700000e-002) (65, -6.61437998137444080000e-002) (66, 4.19128424214250120000e-002) (67, -3.82080083818436830000e-002) (68, -4.21813971129267880000e-002) (69, -6.06140145750941880000e-002) (70, 7.58789073806838130000e-002) (71, -4.76135261001218170000e-002) (72, -2.38586429336464790000e-002) (73, -8.86291517113022560000e-002) (74, 8.72680677066455250000e-002) (75, -8.84033216298121260000e-002) (76, -7.78808605355152390000e-003) (77, -3.94165044936016780000e-002) (78, -8.81835950640379450000e-002) (79, -7.19848643539080510000e-002) (80, 5.28503425844064620000e-002) (81, -9.12353529220126800000e-002) (82, 9.77050795809191190000e-002) (83, 1.69738772060554770000e-002) (84, 3.24646000931352320000e-002) (85, 7.14416514551885480000e-002) (86, -1.79687502677552400000e-002) (87, 1.60766603958109040000e-002) (53, -2.85217289406318740000e-002) (54, -3.22814946216567480000e-002) (55, -1.35314943422599750000e-002) (56, 2.33154300349269760000e-002) (57, -1.30554201164159170000e-002) (58, -8.67004407450622240000e-002) (59, 6.32629403958162580000e-002) (60, -1.60034182072195110000e-002) (61, -6.32202157858046120000e-002) (62, -4.71130378114139600000e-002) (63, -7.70996105238737070000e-002) (64, -6.72241220954674650000e-002) (65, -8.12988293364469430000e-002) (66, 8.83728040512323790000e-002) (67, -2.53417972526222000000e-002) (68, 9.69848647264370810000e-002) (69, -1.48254396740412630000e-002) (70, 5.89172372060602360000e-002) (71, 1.13159181373703180000e-002) (72, -3.24401860302714340000e-002) (73, -4.43237311292250520000e-002) (74, 2.92602543422617600000e-002) (75, -3.08105473341129250000e-002) (76, -5.62011727124627210000e-002) (77, -9.25964369266694120000e-002) (78, 4.24987799301561610000e-002) (79, -5.07812507566995920000e-003) (80, 5.81848153201462990000e-002) (81, 2.58239749941822080000e-002) (82, -6.49414072177023630000e-003) (83, -4.99572761350464130000e-002) (84, -1.24572755762528690000e-002) (85, -3.82080083818436830000e-003) (86, -2.06115725727613610000e-002) (87, -1.52587892898736750000e-002) (53, 5.67871102211938710000e-002) (54, 1.72912600232848490000e-002) (55, -1.69067385331800320000e-002) (56, -8.79821790454116130000e-002) (57, 4.14550787427288010000e-002) (58, 1.88537600465679130000e-002) (59, -5.35461433760247020000e-002) (60, 1.34704591851004810000e-002) (61, 7.53845226076919060000e-002) (62, -3.64624028870821350000e-002) (63, -1.09985353201409450000e-002) (64, 7.95898449359810910000e-003) (65, 6.96533213504153540000e-002) (66, 1.50634767869632920000e-002) (67, 2.86682133178146610000e-002) (68, 1.44409181839364460000e-002) (69, -5.08422859138590870000e-002) (70, 5.35522468917406510000e-002) (71, -3.92700201164188910000e-002) (72, 4.01550298952315640000e-002) (73, -8.70422376251553940000e-002) (74, -8.06030285448287030000e-002) (75, 5.11840827939522570000e-002) (76, 2.54882816298049870000e-002) (77, 2.47558597438910510000e-002) (78, 6.69372568568178390000e-002) (79, -9.91699233527469910000e-002) (80, -2.32788089406312790000e-002) (81, -6.03454598835924120000e-002) (82, 9.04541029103711480000e-003) (83, 3.63403325727631450000e-002) (84, 1.78771975320159980000e-002) (85, 7.35412608614751660000e-002) (86, 3.41186528521575380000e-002) (87, 8.44482434458768690000e-002) (53, 9.30358900582177740000e-002) (54, 2.12646487543679540000e-002) (55, -2.35473636321330560000e-002) (56, -1.43005373224696090000e-002) (57, -4.97985847264317270000e-002) (58, -7.01049815133956140000e-002) (59, -7.85095226542580350000e-002) (60, 3.82080083818436830000e-003) (61, -6.18652352968638300000e-002) (62, 3.33435063562319560000e-002) (63, 2.69897464959285570000e-002) (64, -1.29211427706650280000e-002) (65, 4.72839362514605450000e-002) (66, 5.44982918277128190000e-002) (67, -5.84533700116480760000e-002) (68, 3.78417974388867150000e-002) (69, -7.38830577415683360000e-002) (70, 8.12561047264352960000e-002) (71, 1.57470705471496330000e-003) (72, 4.65881354598423060000e-002) (73, -9.59045424447140250000e-002) (74, 2.25952151804449390000e-002) (75, 8.80676282654349050000e-002) (76, 4.65942389755582550000e-002) (77, -4.74548346915071310000e-002) (78, 5.09643562281780760000e-002) (79, -7.56164562048979860000e-002) (80, 4.56420905238701380000e-002) (81, 1.46484377182787280000e-002) (82, -6.27014169499489070000e-002) (83, 9.62707533876709930000e-002) (84, 9.08508314319078640000e-002) (85, 3.58581548312031370000e-002) (86, 8.47961438416859890000e-002) (87, -2.45483402095487690000e-002) (88, 2.30163577648454520000e-002) (89, -7.40783702444787200000e-002) (90, -3.21533207916218090000e-002) (91, 2.79418949476166740000e-002) (92, 7.66296398137455980000e-002) (93, -1.62109377415617930000e-002) (94, -1.77673342491289080000e-002) (95, 8.83728040512323790000e-002) (96, -1.81396487078018250000e-002) (97, 1.67358400931334470000e-002) (98, 1.29150392549490790000e-002) (99, 8.16284191851082140000e-002) (100, -7.52746593248048160000e-002) (101, 8.47473157159583930000e-002) (102, -7.43164073574007490000e-002) (103, -2.70751957159518500000e-002) (104, 2.17285159487801140000e-002) (105, -9.83093276367981160000e-002) (88, 8.88610853085083360000e-002) (89, 2.77587894761381900000e-002) (90, 6.52160654249200890000e-002) (91, 2.42431644237512960000e-002) (92, -6.87072764144431860000e-002) (93, -3.72558599301555660000e-002) (94, -4.36401373690387120000e-003) (95, 6.00585946449427870000e-002) (96, 4.30236822817278150000e-002) (97, 6.88354502444781250000e-002) (98, 5.70434578812637480000e-002) (99, 2.62817386728784190000e-002) (100, 2.46826175552996570000e-002) (101, 8.79699720139797140000e-002) (102, 9.20532240279499090000e-002) (103, 8.96911634458774640000e-002) (104, -7.97729504074595750000e-003) (105, -7.54455577648514010000e-002) (88, -6.75170908498330390000e-002) (89, 1.97814944353922330000e-002) (90, -5.82336434458738950000e-002) (91, -2.70874027473837490000e-002) (92, -5.80383309429635120000e-002) (93, -1.40808107566954280000e-002) (94, 8.50097668917442210000e-002) (95, -5.79956063329518660000e-002) (96, 6.67236338067596080000e-002) (97, 2.99682621653118990000e-002) (98, -4.54956061466873510000e-002) (99, -4.13024908498300650000e-002) (100, 5.08789070081547830000e-002) (101, 4.54711920838235530000e-002) (102, -8.04443371362140170000e-003) (103, 3.07739262398172290000e-002) (104, -2.76245121303873020000e-002) (105, -5.20629890570489810000e-003) (88, 2.17041018859163160000e-002) (89, 5.09399421653142780000e-002) (90, -4.41040045634508720000e-002) (91, -4.63256842840564790000e-003) (92, -8.30505383469244410000e-002) (93, 2.31445315948803910000e-002) (94, 1.90063479394666500000e-002) (95, 6.33544931315555000000e-003) (96, 6.48010263562355250000e-002) (97, 9.23706068451792820000e-002) (98, -9.23034681723038370000e-002) (99, -5.31555183702039360000e-002) (100, -6.35437021187499340000e-002) (101, 5.92285165075736590000e-002) (102, 7.76733410011729570000e-002) (103, -2.27966311990712710000e-002) (104, -3.13659672642643270000e-002) (105, -3.94714361350452240000e-002) (88, 7.75878917811496650000e-002) (89, -2.57690433527386630000e-002) (90, 6.26281747613575130000e-002) (91, -2.85644535506435200000e-003) (92, 9.04602064260870970000e-002) (93, -6.80664072642684910000e-002) (94, -9.27917494295797950000e-002) (95, -9.61303725262041550000e-003) (96, 8.95507825844106260000e-002) (97, -8.11157238649684590000e-002) (98, 3.15429692200268620000e-002) (99, 4.81445319674094210000e-002) (100, -3.50097661466861610000e-002) (101, -7.65747081723020530000e-002) (102, -5.48706062863857370000e-003) (103, 2.20214847031456880000e-002) (104, 7.72583019324883940000e-002) (105, 1.80847170663582800000e-002) (88, 1.65344240745071150000e-002) (89, 3.67919927357434060000e-002) (90, -6.02417001164212710000e-003) (91, -2.56774906169994210000e-002) (92, 6.02783212107169670000e-002) (93, 7.32788096856893390000e-002) (94, 6.60888681723008630000e-002) (95, -4.10583502211920860000e-002) (96, 6.64306650523940330000e-002) (97, 8.61145032363310750000e-002) (98, -2.50244144353928280000e-004) (99, 4.34143072875485810000e-002) (100, -4.92309577648484260000e-002) (101, 3.74084478230543030000e-002) (102, 8.02001965075760380000e-002) (103, -4.27062994644984430000e-002) (104, 6.88598643073419230000e-002) (105, -7.22473155296938780000e-002) (88, 3.79028325960462100000e-003) (89, 1.70715334575106680000e-002) (90, -4.54467780209597550000e-002) (91, 5.73120125727655250000e-003) (92, -2.54821781140890380000e-002) (93, 6.16271981839418000000e-002) (94, 3.85314947147890050000e-002) (95, 3.71398931315525260000e-002) (96, 2.12341311757882070000e-002) (97, -7.43774425145602440000e-002) (98, -4.67224128055931940000e-002) (99, 1.53015138998853220000e-002) (100, -8.20922863795203740000e-003) (101, 8.19702160652013840000e-002) (102, -6.94946299418006670000e-002) (103, -6.39038095459909530000e-003) (104, -1.95556643539021020000e-002) (105, -1.52282717112939280000e-002) (88, 9.74914565308608870000e-002) (89, 2.15576175087335290000e-002) (90, 4.46289069150225260000e-002) (91, -5.61828621653148730000e-002) (92, -2.15209964144378320000e-002) (93, 6.56066904307408550000e-002) (94, -3.24829106402830800000e-002) (95, 6.20178231897625660000e-002) (96, 7.37304698486696000000e-003) (97, 9.59777846333054190000e-002) (98, -7.75024425611263720000e-002) (99, 6.70043955296932840000e-002) (100, -4.19372564842888100000e-002) (101, 2.08068850756717440000e-002) (102, -4.17480474970943760000e-003) (103, -3.19641118044273750000e-002) (104, 9.85351577182882470000e-002) (105, 4.87243659604246200000e-002) (106, 2.37915042607710350000e-002) (107, -3.03527836554167150000e-002) (108, -2.49206546682216870000e-002) (109, -3.87146001862674890000e-002) (110, -9.94689956228285150000e-002) (111, -2.68981937601893150000e-002) (112, 3.28247075203762510000e-002) (113, 7.63366710593800240000e-002) (114, 1.28356935506417360000e-002) 
