encog,BasicNetwork,java,3.0.1,1,1318870270906
[BASIC]
[BASIC:PARAMS]
[BASIC:NETWORK]
beginTraining=0
connectionLimit=0
contextTargetOffset=0,0,0,0,0,0
contextTargetSize=0,0,0,0,0,0
endTraining=5
hasContext=f
inputCount=24
layerCounts=1,17,49,37,37,25
layerFeedCounts=1,16,48,36,36,24
layerContextCount=0,0,0,0,0,0
layerIndex=0,1,18,67,104,141
output=0,0,0,0,0,0,0,0,0,0,0,0,0,0,0,0,0,1,0,0,0,0,0,0,0,0,0,0,0,0,0,0,0,0,0,0,0,0,0,0,0,0,0,0,0,0,0,0,0,0,0,0,0,0,0,0,0,0,0,0,0,0,0,0,0,0,1,0,0,0,0,0,0,0,0,0,0,0,0,0,0,0,0,0,0,0,0,0,0,0,0,0,0,0,0,0,0,0,0,0,0,0,0,1,0,0,0,0,0,0,0,0,0,0,0,0,0,0,0,0,0,0,0,0,0,0,0,0,0,0,0,0,0,0,0,0,0,0,0,0,1,0,0,0,0,0,0,0,0,0,0,0,0,0,0,0,0,0,0,0,0,0,0,0,0,1
outputCount=1
weightIndex=0,17,801,2577,3909,4809
weights=-0.1590161376960885,0.022505973905401766,0.30234488378031005,-0.13233809854102177,0.06183918028509341,0.12484888504238248,0.16994187521333673,-0.12222199413847537,0.054592259650996684,0.1695016669179554,-0.015411770681158891,0.01890272586558273,-0.0795307083382403,0.004384973933630673,-0.2744091149173139,-0.05963967589322325,-0.015990052103508703,-0.10119648220773528,0.14540883757805656,-0.09665319384043611,0.14572495704435023,0.34510128476495555,0.06488539244385128,0.07255954620581495,-0.0663509523562185,0.08193698728409093,-0.07866989487348092,0.04616913747055587,0.10667516440819284,-0.622213711635637,-0.5918346068990676,-0.033451671088648494,0.00909953394731522,0.23414271215452245,-0.12045235684985081,0.09572199032149045,-0.07432524567235274,0.028945943925826306,-0.028077777309228478,-0.32345103889802185,0.04748297007259551,-0.012556552552549283,0.14122352318644177,-0.18901980682646574,-0.26204544781223865,0.2789290768849918,-0.8480186233952077,-0.020594399129991864,0.04522622249290542,0.16630058888902832,-0.10310121405724662,0.2585765405338071,0.04873798402883803,-0.2029584838595084,0.00047764944010015437,-0.18156268358888522,0.2123563765710339,0.04947265466585139,0.3252632098997224,0.0686163738270725,0.1294845510098521,0.7947944377407015,-0.026944596325452087,0.06457302296946725,0.02250068701252239,-0.3368432273199439,0.007278150108937995,0.21055072135982822,-0.07849699885722686,-0.003040700799582378,0.20473833433472616,0.3916692455043723,0.22197436292744113,0.022366763001679314,-0.20990288936146217,-0.20969253718182373,0.44397425880988506,-0.2381551139169826,-0.07541382972714122,0.02500781897692498,0.13689439148220026,0.01968811527765517,0.0995111947585835,-0.04448664248257702,-0.15664106720544826,0.005031275654475347,0.29357675480585804,0.1657512091346492,0.06366738380161593,-0.0966175757323099,-0.13743541782817328,0.06951826686651877,0.2025576732584364,-0.1744068013303714,-0.17948808292033774,-0.10172115870543491,-0.2137757249256686,0.16543711395557834,0.08162840823316606,-0.17348776611343256,0.1375192553408025,-0.4201014868474256,-0.03490282126500304,0.12686039219723352,0.30119992123544326,-0.3642091294389865,0.16384626391578,0.23245618172594662,0.02180710547323385,0.11078233251965652,-0.017766219811772767,-0.30127895258577814,0.3677593352283957,0.08228817405732289,-0.669433938608633,0.24271016763242265,-0.020731278866520375,0.2483814054196953,0.5145692028780378,-0.03273771921801523,-0.1074281226209915,0.2937631172881465,0.27671760116877714,0.06472430662907082,0.44968706396539737,-0.09080701011822567,0.18339920088454964,-0.09389670620128322,0.158990694448927,-0.16244560316981438,-0.1561713247082132,-0.3700391605382885,0.08652277111308351,-0.04189205604841795,0.018064963818334546,0.16847784713171132,-0.015315521795986952,0.03950470615715422,0.27316196392881475,-0.5051779273951608,0.11967292347494556,0.33316531674472527,-0.05876668003509601,-0.106928511127839,-0.12837127478698424,-0.27460819862555125,0.09517851411396624,0.46649467133305,-0.7429461313237142,-0.08543765792544414,-0.04216092082286588,0.37563553933961,0.019970741882899032,0.5459153992531527,-0.2704624028933325,0.14563242065578788,0.08432973505516927,-0.06501411278549589,-0.23641613168639483,0.1831527495413673,-0.1155574790155967,0.18899279222901996,-0.1355989476945404,-0.17122222274677132,-0.1639774390240823,-0.3055267299092495,0.020827825226557448,-0.12621639473700766,-0.779135269873125,-0.6598791164672502,0.08653118879557087,0.17033518172916337,-0.2827928575103983,0.09272511715784265,-0.1704994127069404,0.14441439253355848,0.2752673983137386,0.13616208297612223,-0.35908030108806427,0.7419363997636115,-0.030393917756182304,-0.12939617652572055,-0.04076236443021468,0.04802081390683524,-0.08100341169471202,-0.29191822893132663,0.299997123608558,0.16736953634305105,0.05126804976485169,0.11141575161762378,-0.12152203675236287,0.3058853859174257,-0.09045042527071459,0.3288126393615892,-0.11920036711036232,0.14159312258762513,0.17463366289918567,0.0208889429292536,-0.4318752819260413,0.4428900660617964,0.17726525178058652,-0.6924993604025226,0.13783672956939974,0.015379927926141387,0.046982697632788534,-0.15728135702335277,-0.33490284034679074,0.15320826103055718,-0.2961443393400851,0.30196416699766604,-0.021746327121795694,0.21163700889530088,0.09525327137841612,-0.02860111229821991,0.027606861398644614,-0.03266282109274625,0.17789086593786763,-0.0941702303301878,0.6847722182188798,-0.03824063684303493,-0.07986405407690285,0.17090415873894751,0.05655131129485246,1.588490756270753,0.1161672796750346,-0.04299958669090338,0.07579544503522674,0.16954615454210564,-0.4302235827750477,-0.15896944106245772,-0.32403417669932505,-0.030309885552455625,-0.4352224241751502,0.03838344082431883,0.30229289851735597,-0.0017690498296179386,-0.10000538661455138,-0.08658205936187179,-0.19625075139589404,-0.06878257542687154,0.023882305872559753,0.005974117076133656,-0.13863688749012437,-0.19532783644218105,0.06770548237534442,-0.24791562784003202,-0.22354468782070364,0.0017387599065291776,-0.05870370204632953,-0.009023220837992372,0.05146058142147629,0.20217496437107604,-0.13693463223614813,0.007256068911475781,0.15905669454420807,-0.029936167333134464,0.1559949517142969,-0.07281700006847228,0.019421674860787948,0.14921709200348865,-0.10993189759812338,-0.2545525615714065,0.1788788163121554,0.04657722892004809,-0.1339959099699715,-0.17745127219894888,-0.28215066461367516,-0.3002670589919387,0.018004710729180837,-0.08522773976463346,-0.15934726662963558,0.054652998009269683,-0.08196993703721332,-0.197070440091393,0.27825452110657634,0.14136420693464355,0.010572671794529616,-0.0629465300113066,-0.10974645632921345,-0.15825577464533244,0.1498599893670939,0.0893268060790805,-0.3010838305983552,-0.859252182421711,0.15793611871222477,0.03172355823388631,0.07125551399014535,-0.1797819663328192,0.09569348580883894,-0.010287860098771102,0.2686226309943219,0.08021842628964922,-0.11206692148867614,-0.06349396060765813,0.013859737781718753,-0.1021762690591676,-0.528951370171378,-0.03268545389649552,-0.0038086112065624164,-0.22834690236461244,-0.002394180987115687,-0.059454035041920233,-0.16671532002886388,-0.04068572766637557,-0.27817601038068657,-0.026332207917569083,-0.5713505047115048,-0.1895956940872145,-0.1878301832594658,0.10512893741004628,0.2197161424550789,-0.2043596814585429,0.03280843609138283,-0.015300717904807491,-0.027816593054913602,0.2535181252936498,-0.10410380771156508,0.2203692286117752,0.15502468287586108,0.059089642656035765,0.13159669001378044,-0.20335554874112938,0.6319941272073131,-0.3662415824241638,-0.21328502936186544,-0.01074452098079657,-0.334023631176551,0.25801454443283484,-0.04558065602833947,-0.02477514190334762,0.07275563671298488,0.12212981365523524,0.5568213873953494,-0.13811707060539477,-0.05385177665414886,0.15484994260284088,0.04675010319077359,-0.05496895486972114,-0.313573185771874,0.021924683885710033,-0.13835053640132536,0.10294470485463553,0.14042015300660865,0.054763535680505605,0.018084063085542,0.1651070491773993,0.04136655534243819,0.021729201874510162,-0.03653210533926896,-0.09363484218775828,0.037249686315888306,-0.1473586371722203,0.16635762194845444,0.35466125275870186,0.023999379185502524,0.8381706592704956,0.3224153575761557,-0.21654360474030526,0.2195348653612566,-0.04834877044232205,-0.14158005668555157,0.15148240867802007,0.0758653326538159,-0.1494334970836566,0.026895276158900777,0.28904495057755225,-0.16766533661955818,0.10089480922956637,0.07626261397832129,0.16593095083004916,0.27392692669108104,0.08864434883356112,-0.5224843889507862,-0.13823261155148406,0.7061201150524814,-0.28868303473327567,-0.14446760944312345,-0.11407512546078222,-0.11935128251880678,-0.12137401984911453,0.21101174320617566,0.6263655067718208,-0.10675030287399892,0.00043234586165595557,0.165359026576681,-0.14504086743608668,0.10922872216557153,-0.31093947427747254,-0.023227961773868114,-0.05984132435117726,0.13334570736940743,-0.11558569799312426,0.11035686306994688,0.04545681664829,0.7289410192715389,-0.1514771490912716,0.18006403917740893,0.17685128682569912,-0.12664867697768123,0.08287661564623082,0.013634379427219318,0.24416919033685608,0.6244713974810587,-0.2705966377286247,0.3390847986705396,0.09201279307095447,-0.08488956222194564,0.11672379236762062,-0.06449557192073421,0.09746621417666687,-0.40225600947840734,0.04949062988727905,0.18209427568481526,-0.29156011237142404,-0.02105443182513775,-0.21690455558397978,-0.14695029573055232,-0.027758736622279852,0.02967248266696936,-0.08270294724314478,0.10638041708788684,0.09455692923761652,0.03448692188022265,-0.2688166863782467,0.12158825325411197,-0.08720942448558738,-0.03132229499432369,0.15671115301208657,-0.22595205624395462,-0.17524871099525707,-0.39604558683233043,-0.07812643527248866,0.13941271674079567,-0.17816949527201006,-0.19169289731398928,0.04429214473587427,-0.1002359007280059,0.042584615551832045,-0.01758817569560059,-0.15860444689671407,0.012698681270571926,0.4170290895772719,0.07299611350149543,-0.0637379516359727,0.01451237435298511,0.03825961172323619,-0.30355549690041506,0.1148364747899194,-0.049957106756923456,-0.1259652536898332,-0.5032031917956502,-0.17696570871979997,-0.28711896119012814,-0.8684197226038348,-0.08259062385611421,0.14763561592924176,-0.2282638116213516,0.17963612741047544,0.12006235163348375,0.10105221077237335,0.24516720963224242,-0.06330772233707116,0.5356291993211888,0.1282866556242849,-0.023453714865839415,0.16750159503914563,-0.20081222442990193,0.05405977477674909,0.13347070115421258,0.00989384758403886,-2.174014123459322,-0.6734465763291962,0.312142751150233,-0.04099406673740058,0.1877203167732451,0.1084261195844835,-0.09466959840113556,-0.16036548725779076,0.1586769520607418,0.3863724988923741,-0.7591168417084766,0.0355880538504194,-0.0975508030689515,0.14423038844719266,0.08278369231144983,-0.713580735819662,0.015088805711982971,-0.2271028426776744,0.29463448953010724,-0.2710880625454124,-0.01746820823160923,0.25544168626373215,0.750500703962933,-0.22090226340265723,-0.29865488200262236,0.7773620170949,0.19910190919541537,0.12431273535263077,0.013073492749116946,0.12525902800222824,1.2792442814996223,-0.16755570606682818,0.9166302018883024,0.009398237673889823,-0.2843360319401532,-0.03331328213034897,-0.3118172378500986,0.19617703962364275,-0.1490028117567521,0.15428434893630896,-0.04753900148715072,-0.02507999812209096,0.12076113992592992,0.2722611521331711,-0.03066698808432778,0.021116627604999542,0.004649636332599787,-0.30368166350910986,-0.14336803514449595,0.0904554371868045,0.2928540258568602,-0.12807747365596245,0.2711021282628004,-0.052827546309373793,0.17910709292822344,-0.07796127823932239,0.19496792604782806,-0.2957858982625102,-0.23581772789616492,0.24710014308092013,-0.06993661197027101,-0.05065833322170698,-0.02937689265537518,-0.16436004202817842,0.3150074148049373,0.1899026906780559,0.11289811258006152,-0.0774027851748501,-0.1439787340352586,0.39526140560372436,0.05542175330962445,-0.10908750000566665,0.05972420387901559,0.07787745752600693,-0.1426534029973737,0.1127863107843848,0.08385101364921517,0.15452780508768488,-0.12753120858437694,-0.1574203355148557,-0.07014875106446597,0.0003188763505216005,-0.10075135810977622,-0.08495647408800346,0.08195289198787449,0.34415778923407336,-0.15128659429057553,0.07074528826181224,-0.06857183286874585,-0.08727043804502943,0.13974004055117697,0.022592854648658456,-0.026729814995712392,-0.08392848227745747,-0.1793007396442757,0.33054955905528394,-0.4621186415194781,-0.036005012745286884,-0.10484587049757507,-0.015960414303555985,0.11923257769903266,-0.15985215009997206,0.1404087969737614,-0.18820950112874846,0.23541727099401508,0.5498678830431152,-0.08973276749934361,0.15871830341984977,-0.06805933291834208,-0.03458683768904127,0.12692667820293735,-0.1438026811118743,0.09141328353044297,-0.02509616312420549,0.14772803651899918,0.02451190572416071,-0.08990286862447772,-0.186706369149052,0.12238401892650265,0.06069859706682484,-0.17885779408323554,-0.0992167050687,-0.22173570152636765,0.06427836326039807,-0.5464019996087963,0.20317932412368456,0.21222363394657257,-0.030273513980716205,-0.030358333029649694,-0.3409409388282985,0.05261758527215902,-0.13469787646534906,0.09366732191520455,0.08363890052116615,0.3958653531805049,-0.05568842493765237,0.27732293372491973,-0.14346100654711863,0.07569127088322611,0.17207428371804526,0.07224391284538621,0.05717042430019296,0.1418186667498413,-0.18056362208077303,-0.18800920122400305,0.07044579074961951,-0.47732322817681444,-0.1121318179968068,0.09735327291085868,0.05579690276709279,-0.38796832576547313,0.06853554428681699,0.2033338167229367,-0.09677587514210814,0.04996722195926802,0.17091080047538065,0.0076226453390923245,0.026116284470294387,-0.12315449622576527,-0.25108370793771245,0.13558769960996045,0.13600171263477645,0.06495781910237669,-0.14662519776469374,0.10740766275052266,0.0814946710888749,0.1438271993300656,-0.21365389471715934,0.009982878697898961,0.1290158847213854,-0.19359615920424733,0.05213087734309977,0.04452891556210459,0.2601255219432716,0.13424812786640522,0.06687124172002196,0.3259269822247034,0.007213161014089229,0.6291001191579004,0.02069072233797201,0.11590694497938069,-0.03498775883452519,-0.2225429896425172,-0.3523552753009703,0.06022210167801014,-0.1117404649044159,0.0749715007426345,-0.1766917120351784,-0.10169307581588748,-0.22038685255399545,-0.04267502638850412,-0.24044245946884704,-0.23313736473862684,0.26636961568897877,-0.46695250546957257,0.3281555021468183,0.009214379463386936,-0.01510037885312109,0.09838901262729866,-0.12130182325379643,-0.02079538565407838,-0.1834409064840954,-0.0680143928660695,0.27719299390833774,-0.038135852088181044,-0.08684019011233217,0.19526376142061244,0.24060919763875757,0.07108273763257926,0.11029032092104687,-0.2650223735386026,-0.012944414307077023,0.209146761571038,-0.3343299602345839,-0.00991984890751125,-0.37632192442096607,0.1278099594419313,-0.02567968972851939,-0.15367302699787652,0.06911701776450352,-0.2003690321512215,0.18940163969063695,-0.2962525684372738,0.3017647801383344,0.3061775573992794,0.04773456331495868,0.05358193641606291,-0.0010594304212022954,0.07636388386423466,-0.20438765978737947,-0.11051373387949298,0.0012146316340248264,0.3031882951860169,0.26318596582213694,0.2742679324687837,0.02437145714732382,0.16941688868848775,-0.08389696832574893,0.5367268862067257,-0.20397850356199104,0.10389087439171676,0.14376553645117301,0.024016673118565583,0.2706244225503946,-0.025846783959374522,-0.09722373627546067,0.008607150163830945,0.2772420016865419,-0.3556706875614639,-0.23461365015034036,-0.11851087802880327,0.0730860864487627,0.04960327662337356,0.06209622832620191,0.09069086415161205,-0.25452391492083803,-0.1527811197716495,-0.058945834912962285,-0.06792093866327194,-0.061042023966051864,-0.04016539267258713,-0.17582479647227667,-0.08740417757799547,-0.21661523958586115,0.012686068263606557,-0.12790131567589985,-0.12718135261030727,0.06643295998965888,-0.31061798161229004,0.14086869154074272,-0.06908207184033537,0.11688310756358912,-0.08581514525525981,0.3204675534817879,0.26861690909013847,0.24929771446394566,0.17296806002446702,-0.11250415887479613,-0.4246097840557324,0.1644197742212396,-0.1055032691407949,-0.35147165107212025,0.04157920992572492,-0.4212654160514777,0.12233705544542857,0.03505367383033747,-0.15537468194752402,-0.5228072194440052,0.11433537006677597,-0.14785108621548035,0.1278760533602179,-0.06614824568692831,-0.47218096183072167,-0.03224684304779915,0.3094470653280357,0.05862104944277297,-0.18781083639674812,0.6312385445645675,0.25517453146985714,0.16758774607028476,-0.10523336497590599,-0.04784776881639151,-0.3707155580370103,-0.030684506116031435,0.25551317335533863,0.08643748672160328,0.23909586776957367,-0.05333224399048975,-0.046165701230421165,0.03182984990120352,-0.10094284347055629,0.38781982229373524,0.22220035996604479,-0.01591052701109258,0.2691405464466108,0.2232595495653081,-0.25574821150999016,0.2167950667203949,-0.2754529532737744,-0.1423871132144613,-0.08447987805145743,0.026367192669284507,0.05508605533117059,-0.41944460147920526,-0.3127690350703969,-0.13691972953087747,-0.27824195093024384,0.1150997217348276,0.004525060712402981,-0.11152993508516064,0.6449913938932953,0.37802077171522475,-0.17153383710724918,0.1951241486761132,0.27546683625843665,0.0669930809727361,0.09218735999292305,0.5065025962370956,0.06282655162638515,-0.3224770900871096,-0.020686415535498593,0.27119204614170905,-0.312966750716352,0.03568434781422258,-0.28587464905362087,0.3464474906658781,0.24986963932808298,-0.04079517987338165,-0.24586158024089752,0.11340853168016359,0.49658006247949604,0.08009569082096135,-0.12304340003811229,-0.17458433213472307,0.2493257817179052,0.11588361949435018,-0.0018991775041462822,-0.2815112124314293,-0.523451473779642,-0.7003457872042054,0.049115351082806374,-0.12267013020293427,0.10254259667845171,0.33029580767171757,0.06036034446057458,0.12637558114220987,-0.03403443219564364,0.21999848900611213,0.1951838213701643,-0.11536252490437783,0.054242032123945245,-0.028989875195847205,-0.28279049845213666,0.07606670262887891,0.1358613874447755,0.11390580663591054,0.041850952605962374,0.0936757998476885,-0.303667094934186,-0.20046426100103057,-0.06864817249077945,-0.08930227255123316,1.6168222570825082,0.09806251420468348,0.12221980408431488,-0.05590706824307882,-0.3068547001037065,0.39285081663484195,-0.15143977924232632,0.21346102614503096,-0.017240703431283606,0.07048751061594749,0.3542120320683396,-0.037563468979375327,0.10013756683968845,0.07993141788851592,-0.38873855559419757,-0.22634910506586223,-0.00016030228190726248,0.28979299785643087,0.08320203668197552,0.17762018419831718,-0.7353286206604297,-0.41992976249558844,-0.23818789325207482,0.013316296508312815,-0.14894210332929467,-0.39312135127870484,0.1692948371357478,0.03323605033201904,0.23727442730205886,0.14273617237576072,-0.06328650325086504,0.35092235655789644,-0.23621501556862542,-0.041204546628422656,-0.19147132095119682,0.030883090494638228,0.21985079131539828,0.06674751057580447,-0.03627468776663967,-0.1434911072700952,-0.12313562471149837,-0.24207958176577013,0.13124121410055792,-0.3520249696616983,0.14470584710036613,0.11354307672191459,0.02834343922804998,0.2799924102868466,0.3454155784481189,0.5327701813828811,-0.14645207022303475,-0.07379187051798769,-0.3352763123957831,0.1506042407127227,-0.2155175190923186,0.20561498301197004,0.037567907499605785,0.16025429022810736,-0.06424938771310214,0.1992401560920259,0.024751596292712563,0.05754761425944893,0.17638662548857134,0.4860460100840609,-0.07757962352439768,-0.19629013089020847,0.2436075274996585,-0.5733850731694576,0.12611995785100377,1.0965579487657071,0.09253553947083312,-0.1281989514281787,-0.08811284784533918,0.1874242926171909,0.1396951495081848,-0.17287025145180251,-0.16712532033041264,-0.0232509740994354,-0.1282021322402967,0.47443073213493253,-0.07095926618667171,0.3978017792875632,-0.1670722054226695,-0.06541350506135678,0.05815654741853834,0.18432585152826203,-0.013100178269943016,-1.748805073342557,0.3259939334255535,-0.3411961926471332,-0.4520807315129024,0.08916513204699111,-0.5474211249423403,0.10693457336028733,-0.12850332456961094,0.19207179886193446,-1.2409058451075468,-0.47868485390442206,-0.39885658941573965,-0.7507161051087615,-0.10286534496604081,-0.43564404257473255,1.4531205346473122,-0.3045304561161746,0.09204755518503284,0.02606706948219073,0.23873824323495896,-0.2503148583213204,-0.1475880551203735,0.41436153787380847,0.07762436241305182,0.23414392991538027,0.00428408500431403,0.015384854310353692,-0.1421659651492008,-0.4133482848738572,-0.3232577334852098,-1.3366390701501238,-0.13218819182191485,0.21765763747142247,0.30568063592804484,0.49642917173550893,1.5068642114811426,0.24746488902465913,0.025490350152575066,0.014017667505832082,-0.33170997713269507,-0.24241479987745915,0.5484002805549715,-0.22212141148401107,-0.09441322087549534,-0.5312539320446867,0.040373141651890564,-0.12400998323210079,0.0992761842525711,-0.0005898178410393123,0.10486805111724022,0.05101124809559549,-0.5778144745919358,0.2793190227534398,0.2759445598549323,-0.004688588783712366,-0.1727601460100387,0.1960066561110219,-0.11650849582917847,0.022972549491130673,0.019990486424207435,0.2301231806544582,0.22268287744557258,-0.6229516041687351,0.21377281480705554,-0.12938054757370215,0.011552337895812672,0.15525016049617663,-0.1634572088652681,-0.020296864543423818,0.37866617294578875,-0.046124191671234695,0.07685528419080481,-0.15278781338619563,-0.012237466484536082,-0.22531060694178753,0.09489783101011486,-0.25299886444824393,-0.14013516774584794,0.001554445337608703,-0.2213291315153029,-0.19818904553975433,-0.5497354910063548,-0.20578523590456327,-0.4031551119708797,-0.28240053752011973,-0.17551026482970647,-0.16309382674480888,0.5805310215571019,-0.033856620060768464,0.14337832957247554,-0.2019652316251488,-0.25006419789903467,0.22131875087315478,0.17550088610187456,-0.060686922266410606,-0.31999519741536386,-0.09137595631071037,0.15247450835193285,-0.17436420438691258,-0.05641616703883037,-0.5674321850178843,-0.7523586876620233,0.18483847853450816,0.03182797011496748,0.15432729531958295,-0.34652051903636205,0.15453570428744276,-0.39321530666333515,0.022745551567568786,0.1453954414178501,0.13528615654141063,-0.3629900268246087,0.4809650218131206,0.07933990127322171,0.15745570097584108,0.07823390903403897,0.021638193936582215,-0.12798400002128682,0.3137065711585887,0.18420335028698073,-0.4725708335608447,-0.07634119226381023,0.2710378971850705,-0.13034472398241523,0.662494497561803,0.1266928818294307,-0.31187031443589897,0.4456460878049182,-0.37909796830217024,0.3049339881413239,1.6694267534226133,0.024697319527513285,-0.007109930103498923,0.2964760417492557,-0.0414761204671191,-0.07532392118827601,-0.3668867263646647,-0.1545413633946331,-0.1791356471929776,-0.021152296729132405,0.18124174025570403,-0.0776758955460202,0.031088800400306496,0.15703026572925188,0.21892384423829753,-0.1711089653325754,-0.09692288558746179,-0.07734486316341359,-1.9139900600042707,0.2736923113338362,-0.30774650898065614,-0.5962336156245976,0.1817954380512816,-0.2755397982495502,-0.296088488252365,0.09526046157821295,0.01732485196786882,-0.7560521027916193,-0.07169100762356334,-0.4165679593718967,-1.207342760356727,-0.17372579015884468,-0.3887707823751704,0.5319390519108361,-0.15766590144288617,-0.025841153125847338,0.1761512685959887,0.035289333482533825,0.02913517497413004,-0.14639040453081273,0.9173166831920431,0.034483800118904784,0.12589556924601839,-0.08413790526133254,-0.005966825931477626,0.10263352848332274,-0.002003465438095039,0.094486150862569,-0.7306994351478385,-0.03900967582362171,0.031896542244021275,-0.1692436738003893,-0.02425969586217025,0.41137893803331044,-0.09991309722836302,-0.10590636837930878,0.03215956740508495,-0.1259392435161885,-0.07736814280726206,0.14103299546081108,-0.8480767889052717,0.034830688760830994,-0.2894865073035443,0.6262866250291301,0.020339999411109973,-0.22281379806759954,-0.4622504282094322,-0.18889476038124106,0.07176419322255227,-0.20035126974237824,-0.10288263812979406,-0.07269756064455549,-0.27680372491888755,-0.0261302686175214,-0.10164884711453613,-0.1343575303459001,0.24484697813084036,0.32574238418990453,-0.185028270335923,0.6394157020474549,0.06707822158457247,-0.2512857868790739,-0.10112590138106294,-0.0807574734598631,0.16309007890571117,-0.1907490045719252,0.12228594427889869,0.44919466653461493,0.36106620164867576,0.10479830881743606,0.06313867701957222,0.06079554133459167,-0.15950602842317252,-0.09181038813020233,-0.8019531783010484,-0.34204308182581555,0.0472275139142157,0.25876941557304145,-0.4099933075762911,0.06503815544709282,-0.18082142064781892,0.16438391302068614,0.09550641652084225,-0.1972747090831216,-0.21787634685138735,0.13532969081219903,0.18106652076648558,0.17337286869646243,0.06788508128578079,-0.3077559022401262,-0.07651250201084295,0.39511947681276716,0.052309225769452405,-0.42043648163733066,0.34756621899698487,0.0595793083383128,0.03726299529051391,-0.16293364921945244,0.17393294338496929,0.051787020365867,0.22083336195878872,0.11695494770659451,0.2255235574790102,-0.2746918571099121,0.12594770077131892,0.05476997691889008,0.032025093239758384,-0.04835831049463547,0.155695668685252,-0.620633693484006,0.1972972484643624,-0.08123626251619984,-0.3568256214667756,0.2857565776129258,-0.26263210819235255,0.08502412047119251,-0.046389356091274404,-0.1133792086395148,-0.4931562306392314,-0.26811548928837703,-0.12897456704188737,-0.42797625757891955,0.16302991983835735,-0.6100991492117405,0.18212375342663753,-0.15992529239766465,0.13324344374717859,0.29902848031930157,0.011691401673286299,-1.1843719977506622,0.12471556994194435,0.3039362796647075,0.1619734111618837,0.24057172109634753,-0.32099701870757064,0.1275972696087617,0.033409463805539455,0.03266717910240306,-0.3421539194347463,-1.3223412097606668,0.1780480442435499,0.4132608444115301,0.04497641884254812,0.0851305449601465,0.2538751409549569,0.4642666778234691,0.04992710117705744,-0.10972454043399453,0.1113636831652557,-0.32428386845724366,-0.0917244028814922,-0.11162134986422645,-0.05323668981375358,-0.5088194622066479,0.21042541906360418,0.22139064066430644,0.3223562936195421,0.21085919836323927,0.8081767993600756,-0.0666996618171651,0.9051151176454599,-1.2074966238304063,0.12911290298157885,-0.19660064723115375,-0.2774966540091967,0.20875827456543397,0.9924212142662436,0.11311736575417386,-0.616720011337406,0.19773171530675265,-0.04329125464360818,0.016468928970112515,-0.11828513189943157,-0.1994694251950021,0.2119528222690393,-0.03791887375853577,0.5965908059918521,-0.2467439936711248,0.1207819681115162,-0.20345122521431172,-0.35636154307082674,-0.922843924219125,-0.27133168346741826,0.18157929122085623,-0.12699417340058933,0.4087614058021505,0.27825844999351257,-0.31606833988981353,0.31941282341417265,0.016813999074745515,0.7631078139352598,-0.057331686877607715,0.1140934628258421,0.26103966159190894,0.18786600059091704,0.19551742215460508,-0.059685678547760884,0.9641299992362076,-0.9937316044217529,0.05198822520122379,0.06272034697357248,-0.37444617088746274,0.050052557977415646,0.4932989034695461,-0.10522235711560882,-0.481367004863713,0.24843092660281382,-0.28972138223494664,-0.09277005344477571,-0.13524060036777938,-0.30309107270303687,0.3014740383063755,0.12782490381274014,0.19925289411981326,0.06361079054934321,-0.0747458765593747,-0.08332457673398286,-0.35997295424032455,-1.516270650586256,-0.2762825531118594,0.17610851048406015,0.09941729078256065,-0.11338258112751626,-0.0011179036418038878,-0.12901092376257356,0.17991699829212013,0.125351770961342,0.943915411317263,-0.03616867361403714,-0.18849129286443947,-0.12587976748143007,-0.1457129618169454,-0.24049026399907905,0.007311035368966363,-0.6356605109700622,0.2184399763051929,-0.12433575282012325,0.34879624847945556,-0.18966696856564744,-0.27992212211145145,-0.10186639925880142,0.1840096521553507,0.9363013879072201,-0.13504490130058824,0.13985376515155723,-0.08046306730006705,-0.07822422005302967,0.27199356064790736,-0.18009370351648796,-0.20899784729997675,-0.4278122820042475,-0.09996502184823179,0.18072638335363714,0.04526392123849988,-0.051223459679956396,-0.02292776492425967,-0.0655153438355621,0.5079030842674483,-0.14975246657615673,-0.6783682703571372,-0.09478240489190404,-0.18981724886743398,-0.044807086486989944,-0.05516012377993558,-0.9600570174122395,0.046112508821900655,0.05930037188843282,-0.19691353004010315,0.025306802692852737,-0.16822670559859243,0.17529041729121364,0.44660718143493855,-0.24191289375355485,0.08260356585463095,0.027147372757593706,0.014940347861947137,-0.22996576872841612,-0.06165686787099016,-0.12676618976648923,-0.008604938921473572,-0.18248839711078865,-0.02842133744468818,0.30716588498997915,0.08530255995815006,0.006446971444744015,-0.1630383167833652,-0.14491025088859277,0.1198083501826487,-0.3354698742229332,-0.0803793274634308,0.129628092336512,-0.03348997325178227,-0.1975548704894988,0.08274267337953917,-0.02422704662031261,-0.12730018087714307,0.8558886997087516,0.17731638395781793,-0.021795541050427025,-0.10073702265996008,0.28554666397090445,0.26583612114156524,0.2732580634213169,-0.03867627181645996,-0.7032237750719046,-0.0576200260591304,0.07522606636536461,0.11902387681417131,0.16289383776705546,0.14690175857672286,-0.5100299668871535,0.30048429361876783,0.24600745975496982,-0.14844881668320345,-0.29327302986074544,0.13040111795003126,0.37252128621154906,0.24677414233788578,-0.13644525407931524,-0.33781488022320394,-0.04622236567492449,-0.1013833132970893,-0.2616312272341269,-0.3870020416350456,-0.07649450712270203,-0.15726843880739566,0.3044032874042625,-0.02887171732758613,0.18208104024318025,0.12152418716786004,-0.11351107259825434,0.44232992609997535,0.23098694525293717,0.16401505304638025,-0.18277834630209097,-0.01438325510331573,-0.13799213778311728,-0.1349701703073029,0.13331068507259855,-0.15325134250066222,-0.3134365476031179,-0.3097450864407168,0.15923140634530852,-0.12785062356220073,0.25810331574200784,0.253385705230789,-0.02934951185522127,-0.05776285562505001,0.06586593697155942,0.16743381927577075,-0.0666705687667967,0.02666480740108132,-0.14538082266312832,-0.6357465924656873,-0.031081330487871053,-0.31805336192411615,-0.03994209497338996,-0.33703695487726126,-0.3861502404670794,0.08626273947391737,-0.14075137038576463,-0.2563473488846893,-0.3616416308897681,0.08908609114603613,-0.2878275666764812,0.16600950152489397,0.005177265935475045,-0.060451499432590074,-0.10504403395886117,0.3719071521990942,0.5589772212755768,-0.1442724591978345,0.23159142014677195,-0.1414615408148249,-0.02837792917499701,0.32821155400745544,0.5350354702700784,-0.12810849308189715,-0.08032986151099286,-0.07941925500400836,0.316385373318369,-0.02163162694692323,0.11264353718270917,-0.27807629933411715,0.1582431059406168,0.2579815455535833,0.04521358140206522,-0.4271008727383383,0.1836149767534613,-0.006036545796807409,-0.1758608469632201,0.11379575911136966,0.39487076817910477,-0.14996835389722987,-0.25196136303318045,0.07996121206093132,0.03429922390926059,0.07996639223602789,0.09574540495008008,0.6123467141023956,0.17400010520209142,0.03820247125978076,-0.024184705206947293,-0.32395562505767717,-0.1523647289100437,0.23115336949282586,-0.25717383881408806,-0.29918939169353076,-0.011003129070311616,-0.11206963887630902,0.9357485486465635,-0.14838983672191852,-0.16288542425911182,-0.37916186656825623,0.2782808779429884,-0.493013879683746,-0.6793158471349117,-0.30841917915938816,-0.16419190248675453,-0.2836915010334715,0.1579441650757097,-0.20025628136108656,0.1739381341093769,0.19173511888053205,-0.2963290527118392,-0.3314865866624563,0.027129633599200245,0.032420429312437805,0.12130355446630538,-0.1197633709881487,0.08897506378581861,0.2781705918598376,-0.10493023779654814,-0.20279786714133477,-0.5948229839350132,-0.15264481758682036,0.08668603897037405,-0.14847625457654792,0.026259918001694485,0.21564646226385245,-0.08378986789351998,-0.08072243731594402,0.07572074391063283,0.06838431911274072,-0.09840324491477878,-0.05064938577298626,0.38556248218635647,0.4141560713690894,-0.10612261867988518,-0.08384719493251316,-0.09042267062688565,0.10928526492307133,0.2334887718027744,0.10293901533649466,-0.32173639811724625,0.14293405059077927,-0.1687015631831365,0.018107958177471843,0.05223525134046449,0.08012277224249711,0.07985741902051988,0.05125277950097186,0.03415606556828444,0.15960013016455987,0.04473181196132738,-0.0629877624418284,-0.0878850384126699,-0.41779788286303127,-0.13177757687242728,-0.09084590934686641,-0.2071028247764941,0.2857218340575281,0.018435944319334298,0.29236728703458714,0.0916663916479664,0.3211315548871725,-0.0027544211697367246,-0.06349597015874481,0.3044033669464745,-0.06554652074825267,-0.12292883362437693,-0.3789015029360847,-0.4605209283789574,-0.04847120885648108,-0.09296163404898841,-0.2764125903084404,-0.25115513200592,0.07393431265670697,-0.13354876227105897,-0.18356362218669484,-0.48501221768145736,-0.5173832643720512,-0.06027674715172973,-0.7594697041992194,0.5408699046362023,-0.10623126104349358,0.11834573226054397,0.4131295457241797,-0.15513305681720727,-1.350595374663354,-0.12348387351443599,-0.043977172935665554,-0.08398848788356816,-0.27815808339185755,0.07380461301590092,-0.020710296279362717,0.1921618741196676,-0.48251269686453274,0.06691230206442636,-1.1453780716842161,-0.004551113872524562,0.14662220735301287,0.09145231223485195,0.07287046938148775,0.9072197043280233,0.7485063813809119,-0.16367540399268485,0.244230007630391,-0.20325836973942718,0.01941948981677795,0.3432990734712964,-0.15642715878981722,-0.0889019258789663,-0.6291436777423212,-0.14329712472559897,-0.05688608784775161,-0.11979187024580933,0.2267050040245674,0.8374353466986626,0.00941773898290218,0.8413852643528396,-0.9357907804504387,0.10122811422498333,-0.1820869240732087,-0.2284184990924307,0.02454615108344394,0.33219015217098147,-0.04580479699224605,-0.5913435950594534,0.1895799103681374,-0.1655879049419653,0.24591790611099526,0.12353738557624544,0.21926444236079462,0.2789581028962538,0.09098904130127032,3.8195205279358824,-0.216236701131434,-0.12222782190295696,0.04303702254875044,-0.04906205262254967,-0.7554221640159715,-0.20498801940017203,-0.11899594781965722,0.15606935605822375,0.13040416695038498,0.013614920584902926,-0.0699229913472707,0.06609251976541779,0.43684781191986277,0.7341480753388181,-0.26770564202722097,0.097730247069318,-0.03889268449351387,-0.012863400322470466,-0.3737802873460505,-0.2720210267290866,-0.05492216419327312,-0.0027997943988515017,-0.16285493514080568,-0.015856463755253812,0.5247361852937549,-0.09931478078905526,-0.2233317992028106,0.26509543161436705,0.2005991086927729,0.2833707982665301,-0.057818194035808866,0.0991733247718608,-0.03857677657869059,-0.1302926814287989,-0.16781988864768965,-0.31137000089745104,-0.06512989083392498,0.09132022065441056,0.2180115487843399,0.3552500067873039,0.2841329541527656,0.405112618323227,0.024877512863654666,0.35654100104293235,-0.02562085873417967,0.1034304393242114,-0.10478115521945108,0.0059713936078268914,0.20802514604677375,-0.11951746956222213,-0.3589866238188621,0.29692668244983783,0.04313289351716513,-0.3608812455984018,-0.19556408680851128,0.1215529865533694,-1.0487106618534912,0.0030660037292169623,-0.06461912858101665,0.006529995867207358,0.46841948351663326,-0.19396867639554258,-1.0084871601361662,0.07181908976733936,0.27165307208040157,0.08644942396081684,0.0008873818251993806,-0.2725095694129589,-0.13863788785828796,0.2982923798228877,0.33080115635361185,-0.2170073014062455,-0.3050699717716229,0.1904538572366136,0.06741413058499747,-0.059740211940465186,-0.17139186381902005,0.16326538820152384,0.25475787251684046,0.07845245254132183,1.4976298946600872,0.10814842981439475,0.08199568309809219,-0.0391249338423715,0.17964079757492615,0.2647517409154152,0.038904437395324606,0.0772914504722081,-0.14926780863992667,1.2971727535793338,-0.1611531447560379,0.06731452452598152,-0.1420165633288811,0.0009968805585838514,-0.004109625748028461,-0.164254078917814,0.1279493196520559,-0.4030030857226201,0.12275821325711997,0.30411791633049073,-0.08459350651129349,-0.22418069028534507,0.10787796200637892,0.17805010105443456,-0.15049487745700074,-0.20336982643056828,-0.4039570503686035,-0.24586977334592133,-0.06338224955433105,0.0333203998237306,0.1736409575560511,-0.5732503701910159,0.06505708545116984,0.0666688702048977,0.11902384192476848,-0.20615990971951478,-0.13722804948621067,0.020760312237621398,0.2194276201699211,0.004575260388888613,0.12033689731253291,-0.09505790904207088,-0.009194216175773649,-0.13396062689319413,0.08109364413175701,0.0062920471387201415,-0.3778256987822634,0.2865591465141068,0.19764176814253276,0.10413252168396091,1.0507473243392844,0.1711099548673309,-0.07324624828275887,-0.1368611790309056,-0.1742871250755472,0.18313936221361082,1.626461223598267,0.010939154938356725,-0.6121330643416854,-0.3154922120678991,-0.15137159976800316,-0.08151645590737147,-0.20115420455531094,-0.14840706056428973,-0.36093138542331005,0.11843356485082246,0.3198079879020463,0.03995097027518031,-0.2750910071542477,0.17459510139696585,0.10991914198157414,0.001980586179460786,-0.1402095216748387,-0.2198015952217887,-0.9228737609226791,-0.006041223865997054,0.16789866322054922,-1.020662241025632,0.030927146092354287,0.026011811591342623,0.1731529545850072,0.1773196362995833,0.14162235434078574,-0.9099159782106341,0.4949063419414791,0.35330755841036393,1.0289494749616301,0.23689372872024902,0.9425363796321751,-0.9733574104042801,0.21601288574524113,-0.17883471499030001,-0.20089665531949724,-0.01600156805303129,-0.06895731713276941,0.17430845418455554,-0.466886978650028,-0.22007745863676131,-0.20239338192037667,0.05672407103750927,-0.10901861558199127,-0.16475736409254063,0.3015011196575598,-0.030625434981105114,0.7084610795359607,0.06962136079403941,-0.37135035999143623,-0.07620387357411129,-0.36605640074555995,-1.0780999449850293,-0.11017895972877673,0.06201716847558896,0.02730579932847884,0.34294792549501113,0.1996199625521302,-0.5241909502462789,0.14366816693415838,0.14657236317830255,0.2216989883676424,-0.08206609761664191,0.12205640840042685,-0.2507437143414051,-0.17496606824688382,-0.10953235883087309,-0.1814421589821956,0.05847824281756974,0.147105078719,-0.26408219200425503,0.29668079108882933,-0.04757315059989838,-0.07040227693784057,0.20221608422876844,0.210462840146496,0.16377158410248796,0.0559519134796643,-0.1326861353430337,0.19925695323104362,0.22419738545146825,0.07089314380894282,-0.20509037154888396,-0.17170764221324006,0.21505384749413028,0.3017015797487801,0.2375704892470663,0.6137409087096768,0.0405271773632884,0.5599231779436944,0.0821697524194542,0.14383549977986798,0.22532260638571588,-0.18771628752191097,-0.08055865829451517,-0.11955404051128854,0.24301431710253132,-0.06535928291188221,0.05398771070977046,0.07040590849931873,0.1758330619569672,0.06553817133432568,0.033568905346776715,-0.07667873025845975,-0.11052176911734041,0.44660380138255024,-0.18006869017242966,0.40373760548348164,-0.16759431183506604,-0.039705349526958617,0.052268373089219264,-0.14520659712302567,-0.1418248837419559,-0.7962348602743814,0.1489759720976148,0.015298613862563391,-0.5276020020466389,-0.24630844152398976,0.07011061223928035,0.20528576127367082,-0.16039029085865936,-0.04759592017499657,-0.16485036565678904,-0.13485327607550582,-0.21291182813583373,-0.04340535232902082,-0.242941817963707,0.09694968672797025,-0.10421136176923111,-0.2410299526877978,-0.04356191191271423,-0.10148839655139022,0.19968963367538106,-0.0805029425844799,-0.18185631857134,-0.009496011350195094,0.07451293117236533,0.21119297585462718,-0.14738552059709376,0.17438337236664367,-0.14996238277953852,-0.19219209076222066,0.05415084557779652,0.06901106630697121,-0.04721476993777224,0.2552098793798258,0.30668199656955875,-0.30977414804174463,0.07787368780905415,-0.2007713978554463,0.20891485842936755,-0.053857731184847546,0.12048738715964402,-0.22511858729506526,0.053693842717975476,0.07010827796757016,-0.13993075815048173,-0.6374545648303922,-0.2560860022111661,-0.034395310580776564,-0.014556844478138108,0.17189387899644204,0.23440970790529828,0.2668267302998475,-0.04109036738391167,0.18044758254611726,-0.013196791212173533,-0.06617769049259624,-0.03420122878860475,1.00408369412703,-1.3619455958251991,-0.23686605031473187,-0.09012640652919032,-0.10710256640611876,0.2478491100411229,0.07050368027674662,-0.05622716079105497,-0.11498355017281083,0.5624668748259546,-0.3479944676860315,0.2382637829093816,-0.17197569829414946,0.10809995669082272,0.06489054695931916,0.2403395736913428,-0.29287350903851717,-0.1592377168135698,0.21488156428289368,-0.026452150416696678,0.14345958968431927,-0.22339910674373223,0.06541375365774844,-0.3603429931349573,0.08644912053756167,-0.2629134803099286,-0.10710379651447373,-0.06827338471736925,-0.015852108855534314,-0.06407560133625943,-0.15253118212430195,0.17791826903133345,0.1380494452627914,-0.3950220306433177,0.5061611530965595,-0.23663547066767432,-0.1646479541936734,0.27305519989600346,-0.6460807379235607,-0.16077159698484245,-0.3212143815493659,-0.04109058607836956,-0.7329397030562884,0.19321603870578055,-0.5003255834121568,-0.1646318079288064,-0.15569602701333357,-0.21203299427469813,0.19634964336278196,-0.032618446826002234,0.3082787082478181,0.07582721422714278,-0.13524452630753753,0.013389289999948319,0.3125186248081862,-0.137941814606281,0.0011293931806258262,0.3133630297729611,-0.03634433371289306,0.29840843517483984,0.260902579181312,-0.4980956615641905,0.029156646096213396,-0.22696323833083304,0.15991707673577094,0.11832732051907147,0.35891201091755337,0.5421117701538608,0.36462844719839843,0.27321029029172456,0.09239461894079543,-0.2001587386123484,-0.16522093045123448,0.15171998786095714,0.0695185033413466,-0.12446357318520265,-0.05006394384431653,0.036643264253332246,0.09740603087906224,0.09967354061153247,0.09125691671343704,-0.2942869015640506,-0.23830501324737838,-0.9547196089477342,0.062308597263494754,0.11431378039067416,-0.2220679659797399,0.3562155388905116,-0.12542893904297095,-2.102305723659882,0.2317371268076525,0.46122380187960443,0.062128455119065264,-0.1104061188853915,-0.20898099428355804,0.07758748195998387,-0.2112600980838774,0.09757712577279143,-0.3814813318116826,-0.3270173181306971,-0.03764527849802602,0.12376994758467841,-0.2824651758170056,0.19731761405328152,0.259156189898845,0.3050011992403015,0.014120522542793864,0.6974248080391043,-0.023963679723770667,0.22688644877581893,0.28409192464620425,-0.009225775581529039,-0.016579635097750865,-0.18502323152241415,0.21950639499331406,-0.19783306352374938,1.7501384144040004,0.007062351038242676,-0.3959005467049151,-0.4601265995526179,0.15850417231726707,-0.9791062203564332,1.3353291266510443,-0.022294067379131737,0.21331218802174515,-0.16108372941034796,0.09514329625919898,-0.44996039790527875,-0.04685986198112513,0.9618857336033654,0.05967895065190119,-0.18085796407574967,0.15129065374198697,-0.016672221921062925,-0.10856557369974867,-0.4829477371115723,-0.12425944893919662,-1.0292389910079403,-0.17801518596955387,0.06707347118292559,0.018610329069225065,0.1645965016169889,1.0191954062145687,0.15621497297106388,0.09382564226483994,-0.053809724133788275,0.13746509811175486,-0.17701276972465238,0.09554629455249572,-0.17225993911727022,-0.011567971667334868,-0.5866533187949007,0.054700687046366187,0.11332840089026,-0.22472138436822547,-0.008364806814409903,-0.0722034268896237,-0.17010261795591045,0.2980629095586569,0.16086644841903136,-0.3786904486659929,0.165544980671919,0.021162896834923742,-0.03927000929768489,0.16554122595614532,0.03172418978349193,-0.5462795622794392,-0.16497427083634922,-0.7403939411697846,0.11410673979481606,-0.20274837972930568,-0.1701152490573876,0.13596503642071173,-0.2046926766306857,-0.09024638455682066,-0.19137039697324523,-0.17873195991643967,0.013580618371607206,-0.17867872926954217,0.18224689975979766,0.019234896772551607,0.10023269024579368,0.027303412810664007,0.9181595334246642,0.269091224615871,0.07190577255561942,-0.2177375007223187,1.0714368567153048,0.6774527771961811,0.44561413337549605,-0.1345684208485423,0.3186045646807295,0.11026116788662739,0.18317849422446342,0.07633782936523353,-0.12637357316308473,0.010360158337685854,0.28423674232010065,-0.03165448866919987,0.18439953078522853,0.009640481318935844,0.12100982863059408,-0.16875131951956124,0.23104800196953396,0.18857953748031703,0.35257304987136423,0.16536219314093425,0.10785692977549477,0.10994028435460299,0.10298786766926998,-0.06019226954281722,-0.052245252852026816,0.17916164312759908,0.17230233000774306,-0.010697947267293392,0.022459682806117515,-0.029519158947589115,-0.02894460666592886,-0.22083454393697338,0.19095799305568084,-0.28761216147337265,-0.034046736834912036,0.09742814753477735,0.21565050329162555,0.1407316660808567,-0.06426609980477625,-0.029303417992073935,-0.11530114812432989,-0.2591524020475808,-0.20092660807314328,-0.22842593312441267,0.05348498191394696,-0.13000329392492888,0.33878777902088564,-0.5027294594419934,-0.09537370350279928,-0.07969190494821791,-0.048647402004711765,-0.07113060112635344,-0.015411031704513328,0.23636864548480227,-0.23377343070772108,0.21221056077368208,0.25634462202556946,-0.061785684930467266,-0.11585713082072792,-0.31223146552997905,-0.19675672823831677,-0.3717131937438058,-0.0310115386903978,0.014407751530387411,0.17860952975048758,0.2710299934559175,0.9335789125598287,-0.20041463706477813,0.19207745948622018,-0.22182327481369932,-0.12448678381296946,-0.21848939486951546,0.07999847198719232,-0.00030556632149330264,-0.026771008418449795,-0.5407964642765901,-0.23470707322013504,0.010663409333492248,0.45696435867953067,0.10037973642794568,-0.009604628991551694,0.896376075491261,0.009500104037682915,-0.21438041608023922,0.18914272734902204,-0.17167457279602522,-0.20928036115440343,1.3533849412095558,-0.06863942952220031,-0.22028312256935076,-0.20087725638557075,0.03533754443529177,-0.03311257623910508,-0.16997335560562796,-0.17262835427371545,-0.27491756534193523,-0.027268713841840226,0.25257013436706993,0.14020117864581888,0.07400618017331889,0.29338679387684335,-0.20754007817497522,-0.26084514159656064,-0.2518045169329138,-0.1296076321282597,-1.7465652772258757,-0.12997908238202655,-0.36038272362478474,-0.04765288464723337,0.056454975560742186,-0.32688353040762014,-0.034730073995092245,0.21724316641424118,-0.1379670415137406,-1.2007424130104027,-0.6044013770735756,0.06582176031919876,-0.074801527232995,-0.3623076928093144,-0.17708495254919296,0.3760609035618836,-0.7907708252679847,0.17576829775590513,0.06891091694759688,0.03371661595307518,-0.0846041561518314,0.31332319093750544,0.0904034486643455,-0.1909700367490331,-0.24821769783730663,-0.08063279631442075,0.10235447530818056,0.13419144683649092,-0.2656414148378857,-0.5879938896456867,-0.2564834492727463,0.19565068324984317,0.1357676466723269,-0.20952001262248926,-0.09302500619179599,0.04316275758540105,0.09629562320599927,0.4877090306863793,0.1740529979592408,0.007609504932381779,0.17019582254992902,-0.09927868218278753,-0.013681032927097535,0.03303690767496295,-0.037482579266272485,0.20931668745454687,-0.03450410001634194,0.3168267260118839,0.27037054018890827,-0.07822169187271102,0.130951341727167,0.13160054375212987,-0.11315958698863171,0.3332086378859567,0.09830067198559425,-0.3246762484511251,-0.18493403124720206,0.18342257724900954,0.03235197346771844,0.3235704192498961,0.05309977294250763,0.15639532180691906,-0.0970097264490285,0.11723120374765147,0.06852967069943319,0.24333433595895007,0.44519404586648903,-0.11775289748494969,-0.1629127391601751,0.06532060025790994,0.03950820163781709,0.09502045250173827,-0.059641429012810124,-0.1649817223889225,0.17309843578557843,-0.018648119195376317,-0.3139588426405221,-0.007361696034163591,-0.1802738555126017,0.15749881266571633,-0.11516751601564959,0.01619479463706332,-0.28369904049168604,-0.14124793397474192,0.11034225048588156,-0.053531287308694095,-0.011623426181168073,-0.08368688724758007,-0.2913865805596292,0.20895266842997928,0.027565952251721038,0.279048268306012,0.08084341113064636,0.11128652774256326,-0.26420154345339913,-0.0781122458779403,-0.0900152487018154,-0.3163905783786509,1.0845743270316186,0.0653258280741518,0.042836476123459984,-0.0958914857568347,-0.11514482029101743,-0.1406288048328014,-0.29496552601565096,-0.07681782878741973,0.01337382292547655,-0.0718454926450488,0.6070396175791813,0.27773529391187557,-0.09024610589342738,-0.0721613096773013,-0.238793062869362,-0.23237499775687112,-0.47248398172933914,0.01644035793086088,-0.12102536717158503,0.0374771352121504,-0.44693971428318385,-0.036031726567031463,-0.1210639642088131,-0.3020844244483474,-0.35824432673931833,-0.6604084653856248,0.14846255534926062,-0.8651085264991405,0.8951327969609452,-0.02156199062179544,-0.1181365069446418,0.05191283446710976,-0.1341838661866889,-0.6967814487063959,-0.16219423288868215,0.777952450390797,-0.21448144569772726,0.30395086295163615,-0.2798008910933733,0.21699839476980173,0.09913182157075287,-0.15908969168847875,-0.17244400098937643,-0.5371829664027652,0.04041648753330888,-0.06700524526410594,-0.009574008468473618,0.12140218928268753,0.8579074478274521,0.1314029255956522,0.02661758580076424,0.21438881183134423,-0.25895349520831773,-0.049942041972214385,0.3251546580123488,-0.20975855515236605,-0.06966091289047134,-0.36058824726628436,-0.00011080310169807664,0.043459812987316784,0.24403304305355847,0.09590843889355782,-0.017047139359474717,0.03686389734548301,0.11172635327042992,-0.07685892513452729,0.1304662350741521,-0.15938440126131953,-0.23094573381055,0.08320637698930872,0.1637285048812036,-0.34438851382586366,0.14847308389388222,0.036580300161295945,-0.21240681216636711,0.11451151574655624,0.02879091222948329,-0.29688826890703146,0.5914220973949924,-0.20741036802570786,0.09656166751163918,-0.07435479578560154,0.1830937239811674,-0.32346673687344907,-1.1570533307161366,-0.04669052512472095,-0.14507595610412627,-0.3565699762615855,-0.10121789740286155,0.02278700707067083,-0.123977901636972,-0.15635570640132546,-0.27830073996218235,0.3975090410043746,-0.027151227943604632,0.04815800388094277,-0.3654343807901074,-0.14880115104449596,-0.1811509425517657,-0.1267860069971962,-0.1324814299616184,-0.7225236753162325,0.8341161219318003,-0.06943981648187618,-0.1883132233740503,0.12002046956326692,0.03272830055742537,-0.9139440565509642,0.20131433699593201,0.4801781239107799,-0.22281494878796776,-0.10901352918810883,-0.07434341132756621,-0.0927323575946091,0.19617915380089293,-0.19667486566158945,-0.35876739516530265,-0.9625552846370087,0.236545031669099,0.22620445296216854,0.07528969484456557,0.1745681796886411,0.8106640265495091,0.32955094998525286,-0.04082755808929736,0.1550384415773527,0.12791120351603447,-0.0873698674352486,0.3104666190775186,0.06918915707580733,-0.42902594706261404,-0.9746899755468738,0.12159455078293488,0.06767426517378416,-0.09673718844397614,-0.30203196198376603,0.19494338193057134,-0.04150265345468404,0.29206792692576733,0.34732410797964974,-0.33034351345047086,0.33449447325407866,-0.18614550288641193,-0.20703408309863425,-0.01921013000950804,-0.023061215096394215,-0.15248807690396315,0.149477533635302,-0.07942386774669007,-0.2258602676115201,0.010077879515170116,0.14359986630735455,-0.35275917274001456,-0.16020122248354304,-0.10152839954413823,0.18222395847112133,-0.32682803119351755,0.08651960989614549,0.10840516832078784,0.09360229246510804,0.07709401480596045,0.08440851608617334,0.43238779182392745,0.10293498972665047,0.4423288576978366,-0.01971238434877196,-0.07861392430281383,0.15101721568319915,-0.2693118225190339,0.11937011479799098,0.21589631734919035,0.5101761028228149,0.2514425671638571,0.24519022780141095,0.3363055122088365,0.04057311514256008,-0.5497944537820487,0.4153624356081126,0.01556085526251804,-0.1793324944403868,0.05733980657597331,0.04592688858365193,0.04525750783103777,0.08710687479757762,0.6394274766118444,-0.10270589146983682,0.17285659851582724,-0.409036921543972,-0.5090691075931139,0.012703727144713213,0.3791368215437859,0.11185996427902149,-0.35314649753420757,0.03783823653348384,-0.2851238598768358,-0.24064690592139706,-0.33861349450424605,0.018554734404006384,0.030237584116046545,0.026903547719703578,-0.31888792619971956,-0.18958132542065492,-0.14682702605721085,-0.19222838713927087,-0.09221788376430534,-0.05566234597331823,-0.1110012940007052,0.0054875729726102385,-0.15089150424255454,-0.11130520409371006,-0.1797763825639703,-1.859796029564452,0.01849721404393291,0.028296776333084563,0.17352390168544657,0.35859294770674194,-0.011862805490673813,-0.2051295268025355,0.07751080740179864,0.44461130238015967,-0.0559726626293526,-0.4755449039380893,-0.10102492183721007,-0.189639653348582,0.11245152171957279,0.3762979078833812,-0.1805483838003488,-0.0288003381356022,0.24720363717242327,0.10012176287482026,-0.3143619142543538,0.007653343731931623,-0.10045046397722339,0.19188342016563395,-0.006549723318157438,0.538034543070622,-0.03800026006350701,0.12228393609672211,0.19523405668972335,0.10724374987386931,0.29243683138392257,-0.2349547164101493,0.07153389797974047,-0.21117193934806283,0.6663099804438224,0.43503318217011056,0.04972644611358467,0.003893805153050659,-0.19167801200181114,0.09799346562768427,-0.19284815783467485,0.3797506986265792,-0.2267408864790402,0.10984409586365501,-0.17684911741658374,0.08999150152287054,0.3540957840049248,0.36998347666278864,1.1284545569329545,0.5154504757776571,0.16597794890551149,0.3389641419911031,0.04819233343005953,-0.47814912515112074,-0.18841107485690756,-0.49825446435119347,-0.07278435913980924,-0.15880838255693924,0.6836824767908651,0.08010895613577124,-0.3292118071979114,-0.7020380400353319,-0.17980643505276941,-0.21337221407838197,-0.1120956893448089,0.21664192608934743,-0.1913967052963189,0.058214394380917016,0.34928190811837045,0.46629057632770166,-1.1835120755049355,-0.08781341524147862,0.10083531183107458,-0.22225617013060156,-0.10634122898208981,0.09292243872787095,0.08048636001464649,0.4878902606279331,0.24700716044016166,0.026051870249708238,-0.3382501298656486,-0.11155811567362776,0.19343535474083015,0.22387196802154866,0.13914888451814203,0.4539104848157498,0.11459496724022453,0.07599081066814037,0.23783455465016756,0.5330753997245935,-0.1589532805740111,0.3414427522966801,-0.47886223070029765,0.13134476688693997,-0.1792462931024488,0.217910801415266,-0.18071628021138456,-0.6549669840199275,-0.1911277093219374,-0.37298383466622487,-0.16002669386715912,-0.13528583599569943,0.18140489023399095,-0.16269773205354143,0.3574370604331904,0.4146623921089668,0.01957009048949865,-0.41530670111111306,0.09591471084054472,0.7401365760417876,0.20820029999888542,0.14529317404106734,0.10000191392025742,0.24211906315354859,0.024339115786187363,0.1013299142715105,-0.30284137289848456,-0.21734113471171054,-0.16364514147555148,0.0017856065664540802,0.7454400258769164,-0.08564014960560253,0.23507634331705243,0.2861241854075385,0.1798069631415004,0.137075393943613,0.10516424159001055,-0.1599974571481562,0.001869806412519175,-0.7818392962051471,0.27220738088918967,-0.03939933917999253,0.18554901006560404,0.07242932622641289,0.022728846515229016,-0.36922792139116734,-0.06679951537059911,0.04462977081797521,0.10528086918336943,-0.24719527579870512,0.06881736371024694,0.3715421647389467,0.0970061874539602,0.13283118146237818,-0.05138058262834082,0.03372055618090862,0.07384375570393545,-0.16912127472049276,0.030186117950227652,-0.22309529114126392,0.07687586640353013,0.25809403337452436,0.23266252291537276,-0.19058192806530863,0.08133784227225857,-0.16694092580776668,-0.18548398342650477,0.2709419242083719,-0.12972305587969016,0.295065707898713,0.3528158440777582,-0.10000754092944558,-0.15571157679857478,-0.34134736734602866,-0.059676480514730415,-1.121785033930658,-0.1307532058048013,-0.10789868651386181,-0.19270961465234007,-0.02601483268454311,-0.08531442501548187,-0.18432235352172735,-0.1014953763419982,-0.30905541195006164,0.9323117778369486,-0.1257898151093933,-0.08674885669009036,-0.43640553564442564,0.00041210064364484433,-0.12227127671413064,-0.1960384270503735,0.07426679965027896,-0.8585207637006562,0.30726681453668464,-0.12131010172034418,0.18685609502399275,0.25784733297333684,-0.2428611554561195,0.07797963321477658,0.6102450969961173,-0.20639237521914364,0.011052240469638451,0.1571802046328655,0.03765703809092602,0.19792305535611707,0.02453589625636076,0.22679806072750305,0.1621352882182092,0.21504872478196774,0.6463069980071994,0.2661720913810594,0.22721910401353176,-0.0899271349521307,0.10718468220790991,-0.23348578504339912,0.0240258388206902,0.22758374963095518,0.2773446570138474,-0.3329818973777183,-0.21227942123386842,-0.5385594917597569,-0.18013036204040364,0.12308474534085634,-0.008230904376756918,-0.12441309993477592,0.22900861996994523,0.4732521325744929,-0.07295372341767736,-0.4747214374319528,0.09793554346588623,0.14537149237719132,0.2593679248100914,-0.28391648055338514,0.09231146652679667,-0.5031312728101168,-0.25891736941120275,-0.008170237043487924,-0.4677221971015296,0.3409448867360741,-0.22406422807003412,-0.21958515788092453,-1.5614438998932112,0.1373700656634526,-0.17441115116196082,-0.14358462006517042,-0.25530608917139075,-0.01137599712725693,-0.39863255905543415,-0.18717273043481583,0.08407709779035205,0.345911526302563,0.010612399035905466,0.33282908966249136,-0.09237303029061368,-0.13984370885365038,0.2662419984358439,0.09875447241214672,0.03774507330659491,-0.2127993709406459,-0.17885343712082763,-0.21499606638899477,0.06898543788338268,-0.3960959818011594,0.00920286754878887,-0.10843365305284018,0.27744783187381417,0.1097263072589719,0.07557408796563925,-0.05953628585465017,-0.2592601636374836,-0.13071756844475768,0.23549164154240165,-0.036453646506320894,-0.22678852163617944,-0.08903794796200604,-0.10660756900950702,-0.36043739395757385,-0.15105406172352023,0.5551151401457686,0.40864513836975114,0.34671470062177806,0.5816810641822905,0.014535095051551069,-0.17675058167360164,0.2982006126698152,0.11262003210488414,0.21739971554357496,-0.4609245735595461,-0.26852361928513296,0.00930628815602945,0.21313021315618233,0.2935965679077699,0.09464816703242102,-0.21194517345880934,-0.11638037230841602,0.2327143816935776,0.06937280561019471,-0.15084689894641892,-0.18780083828462818,0.37193999176898324,0.412816871047162,0.05289329917580034,-0.38403567958360874,-0.2074923039247961,-0.3711555443552906,-0.07562480083551569,0.2537804233702885,-0.13526842119649835,-0.5827094377975512,-0.3805222007086117,-0.7764704540575453,0.6655279692499438,0.05004747681484442,0.17976186866462962,-0.04706258896980463,-0.3813453410455282,0.12676397580891763,-0.1775722719349456,-0.2523700864256664,0.001932101389958897,-0.28307481789569167,0.018507861768263148,0.12016011678875571,0.19330803248766942,0.1343173014680391,0.2020747631837338,0.10958119025125457,-0.22674995543952597,0.07965996768095517,0.4615025520042034,0.06306085058597471,0.583374305950303,-0.2328280051506232,0.007602705113820123,0.3916138310228199,0.4614795728109895,-0.8529225788402353,-0.39600918803397545,-0.25542759885262306,0.25793786520481243,0.13122202050417672,-0.14952063273495478,0.015197392891530565,0.395683426395895,-0.1319639277927475,-0.25980749373476864,0.13756610741742498,0.170662377885306,0.0379561475588976,0.30813521298295077,0.1619099976334918,0.2136333584307903,-0.27679927418947514,-0.34141482487510677,0.023425063395932113,-0.1565528919614319,0.21859675749221577,-0.26879670130284633,0.30242218534661136,0.2054682202520093,0.08725920472301656,0.6573118148123855,0.050559296945290697,0.27475888980103663,0.11223067279260411,-0.11751515305505413,0.03046653264987937,0.38021980467389993,0.011264437606380545,-0.048925650347287755,-0.09241382957118463,-0.07544839480016272,0.1008417167376214,-0.1729008983864933,0.009625270777669311,-0.19464222447127105,0.10058964001650833,-0.08668965301096182,0.2996551210209645,0.06285655539963349,-0.04251703823397984,-0.0020732296081225343,0.43913111432706653,1.0732078776558305,0.011511131576305674,0.09543279992872837,0.4346119047346483,-0.048346206852421705,0.15397624053512912,0.418032950826564,0.14869917542959052,-0.014818272370882896,-0.11103647508287284,0.09642795794899744,0.23706218773953514,0.03094912351855477,0.2782604040658574,-0.3629006276997121,-0.3969292956404525,0.3368873652051036,-0.354356469724098,0.029793141965876013,-0.15221877793780117,-0.8200792855801864,0.06946343889818801,-0.21042003393430728,0.2590921335003378,-0.9220903235044692,-0.3463341658221238,-0.12549360357449277,0.46651543317343286,1.0780923668401865,0.10566283771488263,-0.15474811432443508,-1.444018243896522,0.01432885833413382,-0.16459638431584833,-0.11804105552556049,-0.058878300486948316,0.11430707305025624,0.050648779425080025,-0.09684082961709631,0.03752978675482754,-0.06392421078451441,-0.20153320574047376,0.14195397333931387,0.7486771296739083,0.3887235898993152,0.9445433394553918,0.2551318078802864,0.27477308576533577,0.19959486114438535,0.06257009455088657,0.16628657412521583,0.1865339651324764,-0.7104556925479897,0.1957065737697598,-0.09608067830216792,0.6635325634055561,0.11709042696678636,-0.4130777890935118,0.08633110296871441,-0.15076810654787556,0.21573925101621297,-0.1384978106721833,-0.01694518301184729,0.16292565655665717,0.7522863169125422,0.08210765514353999,0.1498283566519438,-0.15436835314272684,0.1848347634118688,0.006121827352874146,-0.10679461097952081,0.10169262143818991,0.06923717944504386,-0.4654518627246761,-0.2567529561466572,-0.15207416665282747,0.5796816339458154,0.0015855850734333848,0.26669467871556896,0.23453002839522902,0.017069517622488525,0.2538627897556168,-0.28288477166958403,-0.2784402494320733,-0.043172297408691954,-0.24256938399699562,0.17699254717403462,0.09557124843030829,-0.27585939081124555,-0.2206189894609715,-0.19452145727587625,0.2879135219269104,-0.29432517800633484,-0.3677321436522785,0.22608577445556838,-0.1310889001900151,-0.11017496515587681,-0.24373627745033433,0.08783708544264787,0.09948736523210172,0.9571025873786551,-0.2072421047652895,-0.1692851402134112,-0.2381462522462975,-0.15111518092368614,0.6124091276195676,0.1450611174321374,0.22711795963607853,-0.05126448822176337,0.25674414265766643,-0.06973449034615749,-0.07878168651664333,-0.47038923100409646,0.18631333623360272,0.06580101291232057,0.20837610133559378,0.4733772683672046,0.044944397772631206,-0.009956403284930117,-0.5133198688065816,-0.4675847145365737,-0.3614853624907695,-0.41513854297554376,0.1398883296666093,0.008721261996671392,-0.2576838630503987,0.07262038508611632,-0.12850878136480537,-0.05296533939484148,-0.19923777642269458,0.007184919975040588,0.14511209175971992,0.5785644960444292,0.3038109435053342,-0.061469198297560576,-0.0182441628840517,0.01944942385286711,0.5696682709478722,0.07886707523685797,-0.09840858516041275,-0.19303540412408618,0.10326042187873485,0.11878568072170172,-0.06294671442432259,0.27280084805871757,-0.09722602881909292,0.059473941921971994,-0.15120055562970564,-0.23875516767869248,-0.16470979036964975,-0.430575513694743,-0.1570324997991837,0.30762029187017564,-0.12244399502071815,-0.16259336063375127,-0.16033982376353645,0.12313583747434913,0.24353830732108547,0.058082386953132156,-0.7139485917770566,-0.0037116350136906333,-0.23097458476747218,0.060628894461895996,-0.007544368639808745,-0.13965206084974124,0.1720063988947007,0.07450945524970568,0.026341041029310105,-0.1629805026284193,0.21551238808107853,0.00136250610039723,-0.05736870487806777,0.4453858155932396,-0.179445976621518,-0.18201803262282426,-0.0678261913154277,0.09250305062631942,-1.0809993850945767,-0.15533551282276575,-0.25591062693057726,0.22898182319778274,-0.03350682586333884,-0.30997669790144017,-0.03953553706166177,-0.03564206101125686,0.06982588746253433,0.22312132435406618,0.17728765709516317,0.7348713702688111,0.23428489114383808,-0.24195005422303548,-0.053622157585401085,0.35610706918005375,-0.24192445409563643,-0.20411152188192114,-0.06366941497437599,-0.04645575165190832,0.7441364576786966,1.08581802867247,-0.04752092215229979,0.03825517582047097,0.17004197914222324,-0.11352452862579718,-0.7529129641949747,-0.3179624103155006,0.21048699434284868,-0.20419185548181715,-0.38319761496546845,-0.36851813163259683,-0.4499628951474706,0.03828954711329717,-0.18690474843557145,-0.06732362585789418,0.04460987992343474,-0.3592065769326458,-0.11823077527368027,0.11977545363361929,0.14113184741044077,-0.3195391364286514,0.5623435490097917,-0.08412900438531742,0.2918348138629214,-0.32466707295980435,-0.09123232601929375,0.06239105193095215,-0.18191292997063346,-0.10361903203627577,-0.12220318330320881,-0.03768506759413871,0.15852052727145563,-0.2509311653220404,-0.0031437667013918553,0.19381056900590984,0.007304588900669515,-0.25915778598218514,0.24929813721975144,-0.194642560283789,-0.18207136001845087,-0.3472162381877281,-0.2253885061004644,0.2315563704122215,-0.14948328570584166,0.2817898607472601,-0.27429076174307665,0.0018292240074821754,-0.1411146974674996,0.49989524015220066,-0.12646667440265624,-0.12165968106376984,0.10578057554418252,-0.09311993852205466,0.10241726316303416,-0.20989046212023846,0.2751974960424817,-0.1822826245551833,0.3040306741794009,0.08943152341889662,0.151206232806216,-0.1336687696946389,-0.14301651081729352,-0.046647641637496434,0.2442028605706995,0.2550927030329736,0.30911332705727723,-0.0005785910595512075,0.04426186939546866,0.25183160406045063,-0.46588390988473705,0.18915774320106551,-0.24491500878613648,0.01114169242324968,0.44393425333353936,0.8658036042467009,-0.3034066947745925,0.1123676925142613,-0.24973023950359294,-0.12098394769164439,0.02379394478075387,-0.8408749681093018,0.3331114554218421,0.1417255530303367,0.1388868282437601,-0.5648107259952012,0.03631105711512203,0.23445063398822422,0.061703435674310664,0.02435122340760739,0.1675342674312826,0.05276915773496457,0.12214262423690177,0.3579711134548897,-0.17214721491849452,0.14602422354276795,0.06511502642562768,0.12380044863080229,-0.07769915366853257,0.03792592482630494,0.06631262216651565,0.17711274890559206,0.016842385013995705,0.058109957669756435,0.45155463345227187,-0.2952016900269451,0.24914459846552148,-0.4640824714376662,0.07179263768975372,-0.39961218731933923,0.25437296115490765,0.44812378312976886,-0.40062520056856893,-0.052199331194436496,0.042585878500731464,0.13595489848996806,-0.05171730430958662,-0.48816972286886595,-0.00737149247846396,0.15450584900447187,0.05322746354161206,0.1459507223364416,-0.6063648634914671,-0.18533864654306373,0.35189940295216776,0.37644124569888704,0.043616137272198416,-0.45095593871583073,-0.3128181822509542,-0.07642778515991312,0.46867295572765444,0.08310871444028017,-0.25162514651765,-0.20276189567142752,-0.04179340763120555,0.7620332983819531,0.7456397218433676,-0.1786986769984644,-0.6899941731980472,0.08337391895351534,-0.2442285759309946,0.25525148184379876,0.03918763305068884,0.42163466377724684,0.21265834840544667,0.09145258728815844,0.2667165812801721,-0.06260452365054446,0.20962257616763016,0.12078460828619911,-0.30120422025468063,0.009282458908416781,-0.03036397986947871,-0.3056583322817501,0.02868171246727662,0.0826065294187327,-0.3342453780942688,-0.07557431935569314,-0.2923675440305771,0.21962427449637603,0.2702218240670914,-0.1824084621420075,-0.14573177819728453,0.8258321326342879,0.36801118207485717,0.32523624916080374,-0.10502055869595181,-0.273999493052042,-0.057844846447491965,-0.26241798594796584,0.011291404616626036,-0.11396114994796142,0.32681938661836646,0.21487293665569135,0.24197830052237618,-0.24059635586425018,-0.050089196998342966,-0.14102721505782473,-0.13295975390718826,1.2837044212268567,0.7874698459706388,0.2896804524319838,0.5095441554415941,-0.11554143038883591,-0.032739901266563065,-0.17782160230549054,-0.027785186443795795,0.20928478170217366,-0.5484489204611722,0.055884238941329864,-0.1407336428079991,0.31629358360120585,0.11906947349123573,-0.40784460584691323,0.14721362768517562,-0.33448927473962214,0.48220341365514907,0.33633804194250017,0.01611739976270464,0.3225118925344795,0.22556755486373067,0.13643566763785567,0.5109238181257707,-0.7428617786246775,0.10746436465658284,-0.0016786367851996178,-0.10461131896002818,-0.06523685291675316,-0.04210676774869086,0.1225954516047692,0.09621192952944882,0.6394211774850069,-0.06223075733177128,-0.0426461150592584,-0.2008356991401119,-0.13146197085065295,0.8783241835923463,0.4049448599642302,0.9234358940453672,0.11518520671262238,0.20695909995152942,0.17957316001945978,-0.008075701652422013,0.1234759448793881,-0.18753271524353834,-1.0094097102336577,-0.15782507268814586,-0.34555091309293795,0.17764710159618297,0.15455746930989092,-0.4278269510213172,-0.1499309056739793,-0.10779978555352404,-0.2337382086130876,0.07237545455539776,0.16276512210410768,0.09028408536671792,0.4593564541120188,0.18015348155642105,-0.1244897026804866,-0.10512589241826736,0.0878163122243533,0.09707731771462676,0.09501492790633495,0.15697012183164935,0.3300563210480952,0.16010259641413185,0.33240652916940056,-0.06175818866536009,-0.0816154053646618,0.21126750128954366,0.07254168838456061,0.6379463535557925,0.020420135808755784,0.10883482079731295,-0.20241443030434972,-0.2000505839479075,-0.08325482033824647,-0.2098046881396151,0.3385152065048197,-0.4939081782035024,-0.4427636035693797,0.016502917760007882,0.16345444994491506,0.23259253638540997,-0.6660526410762201,-0.2479629325765768,-0.15492183360093167,0.24029909539313735,0.2709523969919542,-0.22526807403524832,-0.17773879374891927,-0.08303040250403615,0.14688268539043425,-0.2656891824805772,0.16066915814419416,-0.2878046749410465,-0.048906195411485345,0.4054337896486234,0.23412342225066665,0.09607711788058745,-0.26347064343580606,-0.02450653372138535,0.08627561637786671,0.24655413765722814,0.3822541112802189,-0.6906617154984512,0.27090228977341313,-0.10589299603671777,-1.7013192676628819,0.16043142378831057,-0.03367412102696414,0.026163770354283522,-0.03820461421678942,-0.0176879357775062,-0.19514594096164314,-0.8002587533112201,-0.24161869749634587,-0.06581317120802758,-0.012047734880158756,0.24087062858867295,0.3384461109651204,0.2150891381847507,-0.2128395660661954,-0.5555190969073305,0.0015747992571377711,-0.24780865368463986,0.4322209113785397,-0.347972866066523,-0.5256327634863622,-0.30514070243840175,0.7723840453841323,-0.023439200584252275,-0.043142896929060814,0.043640988159785093,-0.09038783426684263,-0.4355530281098948,0.19456184611908284,0.11625783626440414,-0.07686344378401994,-0.34354958941997915,-0.10700939729077587,0.08756304238453405,-0.050714222862184466,-0.10599807553018256,0.12001311199586379,0.09966248257045954,-0.14776462953366673,0.23949429644610523,0.12780455923453413,-0.10467420876497462,-0.10563013035489029,-0.08984798190980152,-0.18096625985828632,-0.35012305987732645,-0.0948725854747853,-0.06328508453651085,0.017722511916056803,0.13013991706890943,-0.24113214630118318,0.023805125052783857,0.17853804406839055,-0.04327876177284508,0.46631717871364436,0.23066895211963623,0.1060326939241463,-0.12224123836659383,0.4346484813408158,-0.7935062023754975,-0.36871140882195796,-0.3388494328267973,-0.014410142194852343,-0.22925938474945118,-0.11217792960575279,0.12080524716573042,-0.17835997937472034,0.050122930127962914,-0.25637240626390423,-0.22590372967049935,0.08967618427388507,0.36976943619092206,0.14033487199776773,0.21433625491106464,-0.08001314870517232,-0.09798607350931016,0.16996990352857885,-0.33313209867626536,-0.2007606014595142,0.14577977743326426,0.3153878399969885,-0.49069181353833047,0.32115593051436364,-0.08802305182882099,0.5012116534638933,0.19331794439617941,0.519055928986557,-0.2457234266584725,0.07384277719812225,0.43840562655942583,0.017751089836933628,-0.028486986417966993,-0.35730661829247895,-0.07894324615104155,-0.07237487808928432,0.17064890548379727,-0.3265583344025925,-0.2076883663179367,0.11012169852005704,0.3334625133199357,0.08944174637474345,-0.028337529396620487,0.2571603167908903,-0.1884420333983064,0.24354623645227,0.04708009893445185,0.19212714567434797,-0.010862108630101416,0.28936780750202123,0.13551691947832498,-0.059237679933306156,0.18124606279423428,-0.26734630941973225,-0.38758115723882536,-0.5465686379193913,-0.42016225774337806,-0.26346545657899517,-0.22488901305437292,-0.250971401803397,0.16312501155441828,-0.4982705735785261,0.45871996188276704,0.18125481793636078,0.22736122632367572,-0.2203063104763712,-0.37557230013200776,0.29085694335161627,0.18607664973461227,0.17370693948923585,-0.17587312635501506,0.1302583696388654,-0.14251435625073047,0.15656586688300525,-0.1330378316375049,-0.09752103675847831,-0.11330641705801024,0.25358152090079644,0.12591994536302514,-0.2248307902069902,0.16874938213635296,-0.10069242674123449,-0.08331371049970829,-0.5759670465735058,-0.5184910005224975,0.11110761881729184,-0.05167428631811546,0.07219802494801739,-0.14348696662777133,0.046657329973488065,-0.7968248482771486,0.060633187327549465,-0.07339568329412334,-0.20999437148336836,-0.077361706109397,0.1784699804544435,0.2578733779970844,0.2514221624954021,0.06184977371329253,0.24671986388139727,0.03804271000001698,0.052326933033163193,-0.22185635749921337,-0.17203039755755128,0.38813673921634845,0.055505090246931024,0.46474411925064973,0.2073330295101637,-0.11248634441874723,-0.2021409998544399,0.0471038246933539,-0.680397994103648,-0.39869925302071274,0.08422377886890807,0.19432181687730912,-0.16319885090971956,-0.5211332779695221,-0.10578723248602953,0.8273529977494691,0.14297903856959557,-0.048704910041365054,-0.47082299762552227,-0.2054697034265756,0.6255392904949244,-0.4178010368819816,-0.16454993975009913,0.15869622936116978,-0.27004816485290073,0.19715865934185087,-0.002107999683996834,0.015907547677253994,0.16106936342510542,0.27672632677761283,-0.0686358997411536,-0.24418431707912863,0.04200815422851406,0.4088312571721454,-0.14106907229479315,-0.07951588214308665,0.0616290657761243,0.30367878308656004,0.9377497510596542,-0.31431934916328524,0.5533217896659282,-0.6721179486720432,1.449786046401457,0.19552519995670317,0.092736992466835,-0.5711061974937007,-1.1750856284228242,-0.08414214382214294,-0.16347205548761004,0.3610942381507053,0.106417816040725,-0.1240812002187906,0.014223103205905252,-0.044153371786496406,-0.018138471284543406,0.0973790273245004,-0.23398238608163488,0.16623739335591525,-0.3550113987276122,0.15655018822940905,0.2176566688496222,-0.6513954760050926,-0.19712331791861018,0.3691516300269959,0.008769300568410732,-0.1915497590137491,-0.4067060866144595,-0.5801790788105097,-0.07900623355148476,-0.226745087745979,0.28918342553483434,-0.29081831316198054,0.38459077961721555,0.12991589177238114,0.008269284001406339,-0.1088713744411724,-0.174601927870426,0.12876293477618497,0.391892675618476,-0.286109509268114,-0.32957307611743836,-0.18822214474606436,-0.21031067356330346,-0.2798786987535202,0.13213781240853445,0.06353943311473675,-0.292536376058036,-0.47252690691119037,-0.2984603139084084,0.31883708680274775,-0.19879822222513444,-0.4242869931688671,-0.1109229399112782,-0.3570350146341256,0.031193757235885584,-0.7164551579602575,-0.3316156162980315,-0.15556384756671024,-0.048099863588966126,0.12365100904646363,0.017408737438737443,0.1044464412717295,0.042939017906026965,-0.08297497946421833,0.0017724378616654837,0.012225028884117368,-0.2594896282926864,-0.09126841744297905,-0.24438925834412262,0.23326299500082656,0.3601250529544143,0.3125357015951755,0.16412185734328508,-0.4347301877658891,0.04548886453069443,0.02615329114680534,0.11436100863040771,0.1132229203565307,0.04799935770364797,0.0507811631694285,-0.31576671715197313,0.14943216175834043,-0.14334889587939253,0.15210145378620454,0.0054350324497311475,-0.3070521026739964,-0.00013777017176361261,0.05177503651517943,0.005188873550505225,0.05123428300239346,-0.2755026828922811,-0.013186991954840856,-0.44974387770825935,-0.04659137234946513,0.2773609380511424,0.2495124707909461,-0.3275144000196433,-0.2527428266452604,0.09778477021454861,0.21885644341570434,-0.18946281383498453,-0.185371738759279,-0.057254506565980995,0.3551456805144288,0.12225408710873933,-0.07572048610563042,0.4057599417064303,0.06470399018351607,0.15276285901606385,0.15349291887640992,0.2007628391408197,0.2083724515508239,-0.08874708095226101,0.6184884411233711,0.27389780975586153,0.09983316003579831,-0.19939629913996268,-0.07142226260425022,-0.12684496590807812,0.0041241124767855755,0.20773049837061025,-0.4588098695721598,-0.019587912442733064,-0.05081994442170323,0.015755634318093226,0.01181200769021341,-0.011488767837751365,0.02857329290213251,-0.014507314445235215,0.08427883389652664,0.014823285671531971,-0.12360232966234308,-0.29268938029247715,0.250627181682733,-0.24273371391464904,-0.4120167060315655,-0.19768505677102918,0.14885237862665648,0.16270436494896395,0.3057978188432039,-0.12891070029352908,0.08977776187744993,0.07759035821582301,0.04909425514987844,0.07071900669192241,0.12573935269054629,0.06494925711984859,-0.04801804594693932,0.16232771095952725,-0.14980537235286254,0.058954119309816325,-0.11589737879366242,-0.2247320722259412,-0.2159193931281662,-0.04903565681650752,0.21210890137857052,0.48456568225844554,-0.26677288967551294,0.11629476999582848,-0.6055405321838239,-0.10287016956467546,-0.4908488395126186,0.23426325796231243,-0.011023234992931941,0.12154141531165107,0.02481425022218114,-0.0017191012521188005,0.3387611044515578,0.04976172868665621,0.04754344879795336,0.28225688152220785,0.6148459004866138,2.53999823602615,0.5134509572866168,-0.2791147028676358,-0.03883815451781461,-0.491118499886943,0.10865360059762774,-0.05356134947549823,0.12183941785542483,-0.2395395019068616,0.6982088308024833,0.9289419539351947,0.10164263105914745,-0.167912504454127,0.068083485096327,0.12310705109919513,0.1482045421393294,-0.23921018549433168,-0.3605034149977491,-0.12297876975683511,0.013294859242110667,-0.22853674506809885,-0.035584660051520244,-0.06844185246666928,-0.14783606263796437,-0.1885132551990061,0.0037707610133783705,0.24344857238032933,0.30373670896858995,0.011924461687712547,-0.21014261661357542,0.2640653740223689,-0.3056556983051003,-0.027442463107560988,-0.17247944492059156,0.2583631584063978,-0.22759804771205686,0.11641475123943981,0.13422448520677893,-0.02026766000579064,0.2549572478889434,-0.10786131963843135,-0.25826358157938667,-0.1335227736498483,-0.3934969146831087,-0.2601188702304751,0.0018438167057151303,0.19652300989667018,-0.23231218567442202,0.09854253959054994,-0.3639299067676519,0.06119038570377861,-0.26110912213643095,-0.15018847928046794,0.03426820288007812,0.002262066484332359,0.07397744962585821,0.11579420143547989,0.13503198098475963,-0.13647604977694372,0.025771117991882145,0.22028194583434693,-0.32470083284127005,-0.04241853573211611,-0.4346856187835786,-0.19550963582867484,0.0606185709195987,0.2620632579618434,0.19911490433039106,-0.3419395853862861,0.04209615745275663,0.05743777480272786,-0.02019044468795811,0.19121587320518124,0.8285882467949154,0.4844696634059229,0.1116924607799415,0.12109331085637745,0.11395045579717114,0.058166141333372404,-0.00750435352322848,-0.1723855460463265,-0.24754339886567409,0.10680875100250738,-0.029869914557348283,0.12171880428144996,-0.1149531998690001,-0.39165844116565257,0.14585960366270062,0.28536558781939586,0.7454708051115255,-0.06122660243542989,-0.5057866265437817,0.25192841125848137,0.20358460791064786,-0.12110580272756874,-0.017471797353801177,-0.3026768892308411,-0.5024080018915147,-0.014081633695094086,0.31319173174011017,0.039845442119380535,-0.0974606803815112,-0.06652644222122935,-0.1931258809699021,0.2650097631789607,-0.5367642440746956,-0.03943599326704847,-0.07196997314315934,-0.309850792539318,-0.06604975676508569,-0.1916601402477772,-0.008283990597604542,-0.1362102532861595,0.023945152239690234,-0.36042263528940144,0.2374141885321946,-0.3763587434241643,0.28825670206696163,-0.15720619743155811,0.11956124375496999,0.10070724489889862,0.18629785028048343,0.07456598651697484,-0.20139816446572206,0.2781734908695493,0.2707099829733613,0.3766602174546557,0.19505371112117695,-0.23988426273154712,-0.020915169070486468,-0.26459405779055717,0.11242218685196637,-0.058876551515447406,-0.03718473240124896,0.03590822607900862,0.07357961519130649,0.3622874005287724,-0.3113110829020692,-0.08824359910111161,0.08741649554061233,-0.058019771320359806,0.28407165983267874,-0.08070968976611738,0.031844912918784614,-0.0992447807309528,0.24703955117545745,0.33117155881046256,-0.037381581105298406,-0.3066712661461444,-0.37201494122677714,-0.07756647582092108,-0.0981857992676479,-0.32537235256528474,0.24781877058075588,-0.37890639114161995,0.2767756630575459,0.04696298925603067,-0.2166284958988102,-0.18253420567357115,1.2207274143030227,-0.264409304080494,-0.02049664700386905,-0.31367570807800543,0.6110770683371102,-0.2807343841574741,0.30320097253523387,0.1001207761250178,-0.029077598170090653,-0.08946653599815918,0.277527814053231,0.0629350045058952,-0.7090549030736693,-1.008422001774097,-0.06592638070201426,0.6543747555770578,-0.006821930894030565,0.3382193958886568,-0.29871613637864103,0.26272956740437353,-0.7763281733199773,-0.6553058042371604,-0.1972283722219405,-0.7634915097435805,0.03370024615763955,-0.3115138617291838,0.23523090964020082,0.2497432330148882,0.2860394424690684,-0.022279739537856627,0.21872787163548185,0.18070008957384207,0.1808422876332143,-0.3339712818902323,0.05001715669947359,0.06883137240833728,0.5060943292195039,0.14784582509445196,-0.11703311417595884,-0.14240096185736031,-0.33885050322648014,-0.2997476962254548,-0.15625053629712482,0.07944027496074395,-0.3092479764388416,0.5014348176129462,-0.05956968887414913,-0.18441966619877956,-0.04411329368191486,0.2097180480370368,-0.00930517900248315,-0.24212835170616817,-0.5587014949549012,-0.17998228306092554,-0.2827376157178897,-0.06613292220289257,0.3796478352632258,0.18040037770015452,0.26746545062036964,-0.48134781122731785,0.213368203597102,0.3237668549679976,-0.3994234767726676,0.012538455770719489,-0.05122528317713597,-0.07077249110638598,0.007047983774122135,0.40700820486961153,0.5821564828107382,0.2262879745393977,-0.2851313921780452,0.021528693456137907,-0.09861752081942057,-0.16106671902202102,0.22146951869533374,0.1617193181158513,0.08435167544559057,-0.17330446940383407,0.03441206179722628,-0.5770630171832704,0.12799528998272275,-0.16762392728953046,0.18725585593634142,-0.24334406185877364,0.36786255946982743,-0.47579746942324547,-0.34975072206691926,0.2236340775972246,0.2069344060890335,-0.40169923755801323,-0.42142394396588745,-0.12607616156901663,0.17297104615891892,0.19488974955653876,0.14864973563123904,-0.021220078003446004,-0.30080048944289467,0.17880719202922882,0.17591585351417693,-0.1900818919411356,-0.1339401114431546,-0.29626896541397485,0.24105696833725998,-0.08062179775129377,-0.07793309621919667,-0.11431843425175985,-0.23726982544669592,0.10137377127190618,0.3065619114721122,0.30473599163121307,0.12748531045584366,-0.09203926538630174,0.3142743407746727,-0.08759063938594012,-0.02153355753639939,-0.048140409876758584,-0.045230084320267,0.09354178660510334,-0.058928859477216294,-0.5011900587334495,0.19922525560208348,-0.19352780017639415,0.15053029238123697,0.1566835051060628,-0.3377383333437567,-0.2753379085980654,-0.12419121989637585,-0.08457598624820682,-0.10464661606931829,0.08078928788988282,0.06460622433429691,-0.31550570355338664,0.2829762351238332,0.5700773708564082,0.1729942064299873,0.18987177634407554,-0.17775029600051478,0.27305079911474783,0.15088263679277159,0.10980881856892932,-0.23326696311371667,-0.24676522931768466,-0.5297615143265543,-0.0633292446074205,0.04654186335672834,0.15529683556527657,0.24011181112673566,-0.3000319450159198,-0.10312955633189136,-0.16516147060894737,-0.22283497070659736,-0.20423156439018492,-0.2846633544048548,-0.16438782537138463,0.12532892474157167,-0.12046662752992945,-0.28221666231230785,-0.3308057213225291,0.3059512886343111,-0.23599144756759027,-0.13969890943684532,-0.13120135755415782,-0.1808412215449243,-0.08408879230720813,-0.08023075238692276,-0.25110882590298356,-0.23076567192150946,0.15356232532248626,-0.141648145855906,0.2337887851104947,0.1708518278432133,0.020811288476587794,-0.11711147301680637,-0.202139671914945,0.17821301062197759,0.9171071625848017,0.2138097226906207,-0.801769591444198,-0.15338185165501464,0.40177996370490066,-0.008266748791062636,0.7883655564897232,0.14999035891395707,0.0027491156593124257,0.010119091307857,-0.16865493418044464,-0.2070098310010373,-0.18539019350506006,-0.4014067426794045,-0.17170192750406493,0.6860535636098507,-0.41589466808379105,0.18474727632484697,-0.21037082556729483,0.5921536458299209,-0.43247861769317086,-0.3604244406119187,-0.40196085448776925,-0.047184620738129,0.03790701713101262,0.05441070622105944,0.15702381851898634,0.22361806493275266,-0.8149383499991124,-0.00589481137976134,0.0497517960725891,0.1505447161842272,0.16625341201690613,0.07146076796593573,0.014595961746482493,-0.14770273616452603,-0.08720828278502757,-0.09955441844476978,-0.39578644983762834,-0.03013256636184932,-0.01103348842977546,-0.4575898347097147,0.011255858133934232,-0.016017680071272654,0.2659280763012136,-0.5821843324906087,-0.8364745742959082,-0.5443406845097079,-0.349148183505806,0.13827316124394443,-0.06362504475525757,-0.5316932380950702,0.34350254289395404,-0.47927337467408515,0.4601346392982726,-0.2394189073733136,-0.13512649523748227,-0.11308651916476954,0.21552665766397258,-0.06207760430028169,-0.03523585946560772,-0.03392254618932039,-0.046284301575511555,0.17015624131347604,-0.15298513279383247,0.007198150876415451,-0.08877932443837382,-0.12851645813560642,-0.13254431716038065,0.12352809634927564,0.20317105379968395,-0.35243353326951155,-0.03013773311874994,0.12507075378557886,0.11534072923320132,-0.37338161308188333,-0.07356637124310171,0.11055080422659613,-0.19290855250660474,-0.030518204860063014,0.10667811258885501,-0.4867121380013389,0.08027974701084253,0.2890797847157095,0.15942845153450805,-0.17470097642590537,0.23348384192926705,0.26670455624974265,-0.08721569643029661,-0.12248401198460158,-0.43673381753931995,-0.034260355023436675,-0.42152872155338095,-0.15663683735617986,0.21516822872558886,0.3410965544597767,0.8159044394560108,0.49719436575431397,0.725922925412449,-0.17613323788444815,-0.8652139814233699,0.2460455909111278,0.46176543856425034,0.6932198943361906,0.1453950674668149,-0.06748067871836641,0.0014129264939082928,0.05078740588426154,-0.011352895784186088,0.8718609038117292,-0.6284105143205206,0.18667169440113157,0.19737063183003545,0.2758266452225428,-0.14878616410296877,-0.48093376237099295,-0.022134015873417297,0.025364871942849008,-0.026043892046115,0.05083997065785176,0.06516748835684079,0.565952728616937,0.005164663496119361,0.47403102424681376,-0.10751608430659701,-0.3049825967880009,0.08742579732915375,0.432551144994911,-0.2659124793866763,-0.1888827790814959,-0.014705200989469928,0.0772311742852203,0.42409855504505045,-0.08677354023793982,0.973233224636975,0.0044562146122307175,-0.036251771642966654,0.5622284332263466,0.2786964930727327,-0.29110438168531905,-0.34950762852655737,0.00208681696233143,0.018712387291082877,-0.19856264181625485,-0.331701541089324,0.7324386847132174,-0.1509247152576165,0.20828698723632755,-0.009630049674985736,-0.28229553430520127,-0.5973191540794708,0.0336614607850381,0.18853842356258357,0.12799098858356056,0.02553459170761168,-0.06471934833868523,-0.21909181428771526,0.6203268566345825,-0.07855703605332552,0.310273118739857,-0.02632431260312621,0.7360255090523908,0.9087005271457891,0.5954561691282279,-0.03740507883168022,-0.8543648571182177,-0.132809097417939,-0.06360097380357191,-0.17417048411716665,-0.40131273824595576,0.25230770708050404,0.24630718604765567,0.3273769713894086,0.07636338500773894,-0.07462145572013648,-0.005634526576519529,-0.06394048674177281,-0.12561675232846425,0.4200857250460976,-0.06819133110165929,-0.13165813496734813,-0.23744114201347793,0.24743599111105852,-0.10723479568559355,0.3655154618140751,0.10700094453257479,0.2212400502796415,-0.09224721088440431,0.05299918218783789,0.018729079826940442,-0.12268213479216236,0.232225922742314,-0.20812031533267175,-0.10558987204352133,-0.03632165852283046,0.17511740822605837,1.590091905855242,-0.13375439930532262,0.682507951906498,-0.1041930385544804,-0.6321557952959178,0.08289533809955132,-0.3508818285304007,-0.17329234514563546,-0.14333113045026102,0.0815540600233121,-0.1302318961138273,0.1501589555318314,0.10559846853402391,0.14211242712952135,0.07040557352889752,0.014574930100478735,0.3225853125202447,0.5565177835241562,0.16694056118560124,-0.4624226469387761,0.12855044288056008,0.07753259188743215,-0.04428395112381627,-0.7005139692294797,-0.14238913599007505,0.6304546594302466,0.6844075311046851,2.078677976613138,-0.07161154635782982,-0.22947490181182392,-0.09361833482043685,0.008536599358743877,-0.024193033249872067,0.3257299015975055,0.05648506605704225,0.06918548777535918,0.09279962727381554,-0.14145717772752536,0.26950218148914223,0.378487595179984,-0.17746784614327127,0.050139576639107224,0.2702379304550857,0.01187078584012042,-0.409533545641355,-0.08906520245642982,0.03675500828112814,0.41831230369389044,0.06007074898755385,-0.3127859706122316,0.6290600927679082,-0.45044953761529094,0.48156581405340937,-0.0033822312981522263,-0.16842694551894286,0.4512030883372916,-0.34870111628313216,0.37673380339652207,0.002359446893565584,-0.13433945766293476,0.46131762825391054,-0.050794080419101995,-0.22250160954732956,-0.3845489096349567,0.05397155243235975,0.3317311154435248,-0.2373069741833532,-0.22896773425869657,0.24002139660710595,-0.28132982513367033,-0.31182595846712874,0.6252502153794113,0.13287812282536382,-0.013624137596956808,0.44032075817779115,0.2674863955876632,-1.3760885906251608,0.12199610375135916,0.017829787589642588,0.05217178592732595,0.061488111789342714,0.00017165616877332437,-0.010471294322531365,0.4688355069357729,-0.22368973499120023,0.047707218046762104,0.2520394904125157,0.008495920674165946,0.20693333538907766,0.09062740318465973,0.058661073043244936,-0.14174150565592614,0.7553662547248368,-0.23067366936037179,0.026381230734144098,0.04608438547306119,-0.5484590451553539,0.18341881308094948,0.36568928876957907,-0.1543592126820982,-0.008765536043931722,-0.10507865000566365,0.23430403532337143,0.034807489032600086,0.3171588403289897,0.09038432277993862,-0.17088258231870468,0.31285381004891744,0.33203670327674856,-0.21342927116988222,0.4392198741983878,0.03070318337818384,-0.18294952274447612,-0.5068054478769186,-0.23034749068567897,0.10209642677813255,-0.31339143821738646,-0.3460080364782248,-0.2609582319547321,0.1855763215781567,-0.07362644625828338,0.5534136501209599,0.03913016956786206,0.44740756019005457,-0.06331738837017878,-0.37354830137429923,-0.4481057527750794,-0.6108198128610747,0.14651958706608134,0.30556874183957206,-0.027913991961239105,0.01792091492119735,-0.3738368230261852,0.10677063396616901,0.30665136862818376,-0.2616932797902425,-0.5490734326766957,0.16580599309584482,-0.12669301484685822,-0.2627921997693205,-0.7641158688564136,0.10437623635682701,0.30100071791468175,0.08306377933928939,-0.2776500173089196,-0.3158097572312732,0.24184805715577445,-0.12351154493369111,0.021450488829557208,-0.5738885889598508,-0.2988335861352332,-0.17572693303143594,-0.16187122403871437,-0.06636964403612186,-0.036151216447500634,-0.31114437770353387,-0.17592391145110708,0.02450228733451916,0.21270933199943026,0.12073390595764058,0.10301161680148012,-0.01805275732491098,0.2095411389098297,-0.3246475611008801,-0.09035937049635992,-0.0033440330493390014,-0.46859417084519145,-0.3076094751389183,-0.22012637973916066,0.28748948881197145,-0.2617646693813493,-0.11802530379433937,0.2764113363337251,-0.3818281888478146,-0.45544510286673806,-0.23611903670892787,0.10110769860484374,-0.4922030152173187,0.22234382343089146,-0.4580677439881776,-0.11751024947385791,0.0618896895111859,0.36204406122225047,-0.4384547415469089,0.035259008078104545,-0.4861018217407783,0.10023875189419307,0.08950322366584448,-0.20668251234224716,0.1263521094995926,0.3051088400790411,0.3982963975872482,-0.07392191859783921,0.30270060307992686,-0.25695087484999224,0.306065059799742,-0.12380261446459521,-0.058691043389500604,-0.3566575649568993,0.2969942868254252,1.5784487872771156,0.27969943646513956,0.5671385728574754,-0.17519151665133306,-0.35028032237994755,0.14612323401173147,0.3206116868024937,0.33786104573655024,-0.12990648458709703,-0.09018403253484969,-0.06237523909475298,0.1818777298965836,0.03466530763000972,-0.05915611622159745,0.11474643776045534,0.2937121421542325,0.05565441733557118,-0.13962391988796122,0.11000436321209964,-0.5563399285631607,-0.3102370232665232,0.19647962486131007,0.15335196891545982,-0.42825569049680645,-0.22023740619806242,1.112326440305786,0.49555098350200055,0.48063104525966655,-0.042492833410537736,0.21023906075110135,0.26402634726242263,-0.17561758483271497,0.41808661219395654,0.01933953696946071,0.25766057424271926,0.10243195312355721,-0.24080384942721123,0.16781884814468054,-0.36119176653579954,-0.24892661187537093,-0.0003372505976919687,0.08881764177201981,-0.13218050308509713,0.0029241781534802298,0.3594488711404843,-0.07634590192358046,0.1531403707546253,0.10619442688146685,0.11983239839274332,0.04714250537377066,-0.030379504608710167,-0.09095048520128148,0.08460983738948777,0.7578324217526591,0.33444186884156674,0.1807871889816423,-0.12621376342717927,-0.38375375779529136,0.1771837447049446,-0.5117260438721452,0.22887540526356315,-0.3637188547557561,-0.21721985287630322,0.157817859776204,0.10435703098166187,-0.5115323772569282,-0.6086144544156873,-1.1827456685428044,-0.08092731705403404,0.6252092223991346,-0.13145250715537377,0.19557621198420896,0.012393852232956247,0.3595270924548812,-1.2432636113824138,0.08697784789684068,-0.07096095062128058,-0.36311931032428957,-0.05002342409180823,0.0497127682276286,-0.41282203072368157,-0.1261788345524589,-0.12540423764800115,-0.23267679603531927,0.22081641560311652,-0.17693599735347065,-0.22344013673765806,-0.22866141700526835,-0.15922360184686557,-0.2511704351791888,-0.13888373426942419,-0.15055140715744403,-0.14900033245271993,0.18860283021096513,0.18975739181636192,0.09595680791302089,-0.07690787601043038,-0.07862539604446593,0.41019583752135763,-0.3333812475032596,-0.20308006797419906,-0.09466199661324244,-0.2338521937655904,0.4185228993021864,0.18317647034735315,-0.2572647873217214,0.3181699193534736,-0.18928900174341795,0.15037872170771766,0.2437199331462004,-0.2573443366797993,0.11749177749586713,0.23417734345445335,-0.032804466404473126,0.16376465213490787,-0.2462596916863145,-0.0055894297900104944,-0.1418623485023671,-0.2811814705644072,-0.14655031323062673,-0.41649091893146006,-0.14384352783657217,0.09647031175373456,0.06640133145510134,0.04418970195140848,-0.043092159216324234,0.2379929922541471,-0.05433799360486907,-0.3054471957212057,0.19649453000726103,-0.2720141879178708,0.32093449558329434,0.33021295171876164,0.14962136805111756,0.20830255706716513,-0.2905368532310829,0.24735584243507747,-0.03446143171556115,0.1678673291118185,-0.20376538653553675,0.5718095631927653,0.6655336349623864,0.5195529365564246,-0.11970216898768661,-0.20633210797268237,0.12193599364778146,-0.12992858657635487,-0.20098149385791808,-0.25323248562972467,-0.05330363450804561,0.48980272840850103,0.2918276034409455,0.30664381511037797,0.1515353870469812,-0.12775015945191912,-0.0009940391717883496,-0.2066676523824685,-0.012541978958343261,0.16209752187018384,0.059892185515322875,-0.33835492949604057,0.2896014203022238,0.052155143206669224,-0.013967967362471285,0.3120075862648142,0.32605321282896166,0.22228482655306958,0.2489047631343192,-0.15782495647415076,-0.11186847466978483,1.0450609131193231,-0.3714852289798259,0.23653501129009805,-0.7508236887125744,0.2362506478546327,0.22483171974498534,-0.14975535512770077,0.2677344699316311,0.2229698186364067,0.09215437570023412,-0.5825989667792465,0.3211872934141878,0.09205027337786587,0.12160202625782823,-0.02426316104726,0.1275763210054857,-0.23536569366632756,0.47851034958005917,-0.006476153971820605,-0.06633110309384202,-0.05890187055737836,-0.2895461667423989,0.29970577309639257,-0.23745293829983846,0.2555431599803502,0.32698780606286576,0.15856959498946235,-0.38225531007982705,0.061446870024024436,-0.564677391074079,-0.1823293763985287,0.18709896191078199,0.09347523013180976,0.3255799339990279,-0.08702069516261006,-0.027162351747249548,0.15404699889266518,0.020064023272948116,-0.15382111358080988,-0.001583878639493338,0.01257098484860791,0.3132140095603448,-0.344910255523109,-0.09109856777937214,0.2197781856066882,0.24839252205099185,0.32288392960253837,0.29269290641134776,-0.18901714872113215,-0.2580626168668841,0.25534568368135674,0.03818046883215897,0.0353109040503221,-0.36546896291617287,0.28173097538371644,0.4741755106057231,0.05238756602883244,0.11448200159356145,-0.39967081946609617,-0.040952178906353665,0.11293862079061553,0.09021765808474519,-0.1665624738932701,0.07022281370815461,0.11161365097366661,-0.27090831203941335,-0.24351653281528174,-0.008783728527888359,-0.07753090660891346,-0.15781204225447862,-0.17539029913463713,0.42051630756031394,0.0855136731944178,-0.5009733793177511,-0.09955513560665322,0.26494222222087527,-0.07592511276776659,0.2794625238755381,-0.36743713465598754,0.11543646511455471,0.852097819341528,0.1247839936182279,-0.05917494919228934,-0.4340739896884461,-0.20342769739806588,0.10793131870157398,-0.10196201369852834,0.19940577446564528,-0.12500451273704474,0.40828998886236934,-0.36517629088042725,0.02549098140916798,-0.24346743984486466,-0.16159387541903308,-0.1604519312328296,0.20743035628057982,0.03813237410837107,0.0091815614370597,0.3111344348676513,-0.02584430576039367,-0.3216813502760578,0.060988470280252026,0.0574214339297735,-0.3439180990212358,1.0775165317459554,0.19486172114783612,0.1990381327714022,-0.011435516144192236,-0.1163791225699183,0.1269876628974746,-0.2762909007033862,-0.3893822153919381,-0.3169041472842652,0.2096212886507984,0.011753762816064401,0.19159659962944098,-0.30791289371883546,0.06087609095529251,-0.6102722427952257,0.04686181108075037,-0.02608222479432992,-0.28486679514535296,-0.20109351530915348,-0.10973022928919197,0.304338574510665,-0.06311999438930528,0.07001923169796147,0.04518161981318223,0.3017936951627131,-0.3419611664040862,-0.7844965922757432,-0.20717177347825785,-0.27669202736583637,-0.01671102908372508
biasActivation=0,1,1,1,1,1
[BASIC:ACTIVATION]
"ActivationTANH"
"ActivationTANH"
"ActivationTANH"
"ActivationTANH"
"ActivationTANH"
"ActivationLinear"
