encog,BasicNetwork,java,3.2.0,1,1425243594936
[BASIC]
[BASIC:PARAMS]
[BASIC:NETWORK]
beginTraining=0
connectionLimit=0
contextTargetOffset=0,0,0
contextTargetSize=0,0,0
endTraining=2
hasContext=f
inputCount=48
layerCounts=1,73,49
layerFeedCounts=1,72,48
layerContextCount=0,0,0
layerIndex=0,1,74
output=0,0,0,0,0,0,0,0,0,0,0,0,0,0,0,0,0,0,0,0,0,0,0,0,0,0,0,0,0,0,0,0,0,0,0,0,0,0,0,0,0,0,0,0,0,0,0,0,0,0,0,0,0,0,0,0,0,0,0,0,0,0,0,0,0,0,0,0,0,0,0,0,0,1,0,0,0,0,0,0,0,0,0,0,0,0,0,0,0,0,0,0,0,0,0,0,0,0,0,0,0,0,0,0,0,0,0,0,0,0,0,0,0,0,0,0,0,0,0,0,0,0,1
outputCount=1
weightIndex=0,73,3601
weights=##0
##double#3601
   0.4085427584,0.5515193301,-0.295465606,-0.4146942954,-0.5368426686,0.3877374052,-0.3899187339,0.5435189974,0.4543004307,0.5769621165,-0.8938426066,0.4266626629,0.4569614075,0.4781048547,-0.6085484987,-0.845141407,0.4607808999,-0.6923090865,-0.7992375448,0.9669733853,0.2623305045,0.4179738733,-0.3119146487,-0.4451039327,0.4966038703,0.4555460067,-0.3093064523,-0.4829776472,0.5419117092,0.5962250331,0.4574604505,-0.5285546823,0.5949831158,-0.4331188899,0.4432627664,0.2806227604,0.4909992091,-0.5421376951,0.4754046152,-0.4070785957,-0.5402084544,-0.6962226882,-0.4942962558,0.8142580865,-0.7342287847,-0.5600100281,0.5572064394,-0.4777524109,-0.5269667163,-0.9835383907,0.4696183096,-0.3683149536,-0.553598751,-0.4035464357,0.6334257608,-0.3992084818,0.3747607512,-0.7008477025,-0.524130393,0.5046066378,-0.5822244973,0.5913049596,0.7009484288,0.6141295707,0.6374089566,-0.5512885603,-0.2930898206,0.370905965,0.5603349435,0.3775213306,0.4493262455,-0.4359909945,0.4869409768,2.8575270454,-1.383688438,1.1622331733,-2.2930175234,0.311773975,0.1517879046,-7.112593987,2.1272235219,2.6950470969,-0.4448355278,-0.2100148298,-0.5205514864,-0.1504150709,0.1552215288,-0.2246722014,0.754372929,0.6874141934,0.0804809801,0.7176731943,1.7135414879,0.7628829585,1.5952785626,0.4019780525,0.6027013472,-18.6549428713,3.1767007626,4.5050970764,-5.1151919212,1.5465819382,-2.3685491773,2.8517390893,3.8644276896,-1.1457703651,-9.4040788018,9.3529343904,8.514000378,1.007796739,0.4799038253,0.3316537392,0.0749218605,4.9432949672,0.2015371669,1.4924436557,1.9901193928,0.779713772,4.7725112218,-0.0642166371,-0.0300194526,0.227084953,1.0337969596,2.0367792606,0.3425150685,-0.8513266966,3.0908875535,1.8555274295,-4.8806145922,-29.8335689879,-31.779323581,3.1543011923,-1.0183608088,-0.9277059169,0.7678477352,0.1142939732,0.9898747488,-0.6912333581,0.2266592912,0.6570417613,0.9964980505,1.8170500545,1.4994861026,-0.6317097858,2.5490075839,1.5768752915,36.4545948433,-63.1541169464,36.4576725415,44.965317963,49.843461156,-15.5924241085,27.3629157401,30.0308590626,65.8330447744,6.3963325587,21.8367408069,14.0013794337,6.5400267373,-2.3999732398,0.4825092624,-6.7560077385,-1.1799241758,2.6561464548,-9.4915126376,0.1297402034,-2.8772565198,23.5117569136,-11.1678208017,14.9030828257,0.0032270377,3.1920980284,-6.2729705989,-6.5366717289,1.6195735149,6.9773425904,1.2866437695,24.9320301307,3.2148454668,4.6084016211,-1.2185794265,-0.3542562993,5.6269301838,-0.2357643187,0.0824882059,2.3835917199,0.789939282,2.4255620612,-0.3329654016,0.4535759739,3.8268616642,3.6449682728,-0.9097490604,1.2682736923,0.7339698229,36.6237111172,33.7082988234,-4.6726184828,-10.8324560429,-62.9705971093,8.2792188171,-24.7266760159,25.4333962432,-7.0408782175,93.7490568315,-45.0628355764,-24.5596446162,-0.3325140051,9.658010804,4.032737523,3.2777181552,1.2189049017,-12.3628788431,-12.6357348334,2.1273569365,-16.069887429,-0.6026754242,3.3479444237,-2.4808255523,0.031317639,2.6612046327,0.0435698463,2.0260205178,1.0080199793,-7.7511210714,-0.4212676982,22.8120073536,-1.1947011767,-7.0025956599,-0.4167915615,-0.3691436397,-1.8222643543,-0.5758422362,-0.4111074474,-0.1131553951,1.2318624573,1.8037108515,1.3843110379,0.9596144573,0.7115508292,-0.1338116371,-2.095772322,-1.6189395103,1.888629537,21.9433703187,13.5854973805,21.2208121656,-30.4288107031,-10.79944214,70.2919175385,3.4033276047,6.1425147903,17.8823562377,104.0055429074,-8.7368108845,-36.5836016814,3.2964817429,-2.159702993,-0.9040922841,-2.859910473,3.8656238589,-8.9088379558,-20.7927529638,8.957734419,1.1440350381,-3.9810328089,0.578873261,-0.3342903989,0.2143412828,0.9421564531,0.9423446622,1.7263425551,0.5213496122,2.6428584716,-0.1956145157,0.947823423,0.1756301832,0.0098025301,-0.000389424,-0.5614407435,0.1209535343,-0.0140240745,0.1540145876,0.2587415956,-0.0799704436,-0.0961235253,-0.0724099024,-0.0459700868,0.1602932263,0.4618471022,-0.0926662325,-0.0953954533,-0.3834672235,1.8617856676,22.8497781119,-2.312385722,-4.0653193635,1.013443725,39.57336384,-18.9579921677,-15.6959867591,40.3718003796,-0.3275541757,-35.5578297616,-5.1846579552,5.0771825277,2.0312223223,-2.6154222995,1.6330850182,-1.7532941524,-4.6780657712,-13.7220998727,1.7030322215,-1.1457168189,-0.1336130014,2.1023987064,-0.8560628466,-1.7341735645,-1.6098308753,0.5278947811,-1.4773222327,0.5103928524,-4.8598528369,4.3941654224,72.0379047215,-27.2303571428,-17.5775371166,2.1782610239,1.9731508616,-5.7492860862,0.384593213,-0.2419924783,4.0740344871,1.2304202429,1.129731257,0.2798145567,-0.27610579,2.526308332,-0.5265335796,3.717996008,0.1971129406,0.5399307587,-30.4440655983,272.5600681308,54.1789697122,-5.5501179189,10.3376709347,-26.72661182,0.7715136074,22.2129580502,57.5056452902,192.7882346636,-34.52106603,314.9755830097,2.6113393816,2.7901818758,5.1934443632,11.3158122494,15.3887000061,3.6054126295,-10.868729829,11.8781041055,-6.4478931635,46.3691508119,-54.9669662271,-16.4460559441,0.0873358506,1.4545396354,2.5260145104,0.1805661681,0.7982288503,0.8532532219,0.0027981754,19.7647285214,33.3178771895,-0.9815028128,-0.4748044883,-1.2266008683,0.8568850318,-0.1316334441,-0.9001227388,-0.5446916505,2.634144234,0.597178705,-0.0877869936,1.4954284549,2.5940169288,-0.0155354412,-0.5811181938,-1.543310166,0.532988744,-2.7638470225,-71.6892384983,-7.3654540302,-23.8510632194,-7.9756119373,9.848204114,58.89921687,62.583490866,-6.8170138555,-11.1730372422,-13.6324832997,-27.443749768,1.7482134212,0.2191428836,0.7437179462,-1.1265214204,1.3023058961,-4.1938063214,-8.6385469478,5.6531062315,2.4078264962,0.4329984896,-10.5038057293,3.2314947082,1.3443022121,-0.589901904,0.3966489377,1.5465173641,-0.9007815752,0.3788757989,-0.39319648,4.352496507,-0.1895985927,-1.9910928362,0.277035494,1.6153779418,0.4255832331,-0.4063647992,-0.1379238927,0.0336936016,0.4530113031,0.3767705332,0.7244606794,1.4610991146,1.4671257814,1.3935721273,0.7264230038,-0.0171433586,0.1132835483,-11.5292438793,23.1078431535,-12.0778644543,10.8511231525,-17.8533030292,4.2223170416,6.9505021428,14.1815753753,40.9637709636,45.8930216583,1.5869123265,17.6631384304,3.1969298527,0.0165614677,-0.2710448947,0.0677064847,2.0734598223,-0.4199798736,-1.0387669473,-2.8090585483,-1.9119186012,-2.5747307453,2.0779219075,-0.8723032021,0.6413241481,1.2840700174,-1.5681897727,-0.3626387462,4.2301198822,1.017715558,1.0378037141,64.6406233832,-33.284879013,49.6945617398,0.503559046,2.8186518563,1.6780507304,1.4619238867,0.7847170701,2.436793501,0.5234174292,1.4577614154,1.1494235062,-0.4642377322,3.0701369972,0.9699702445,0.2988662044,-0.842413731,1.611638529,-15.7241788153,-20.3196106539,-21.5207473517,-15.9128416435,-48.3437206131,160.1889491307,-84.6959208519,7.667959762,25.5741428959,-18.4151413817,2.947369385,82.3642375884,0.1423151935,-4.9567174327,7.1499828476,4.175372744,7.6196491334,-6.6747211998,-4.6137877163,1.870720824,-6.2836093046,1.1828144246,4.2589844994,-11.0515438314,0.0403456427,1.4516357652,0.3272267999,1.2748541124,0.689931463,0.3224168728,0.6516091922,0.2909572523,0.8014953995,-0.2044320076,0.0437383795,0.2909504171,-0.2040152532,0.2308277869,-0.1865949801,-0.1725486787,0.3936230218,0.5716595366,0.6880297722,0.947759217,0.4879970223,0.1904537358,0.9631450155,0.3058277258,0.7536319222,-3.3031643996,9.4417221405,-1.0540153249,-11.5795426484,4.2914817841,2.018408494,23.337705095,3.8650076201,1.9284962692,2.057822198,-0.1690922105,-8.9206171674,0.9200216977,0.0780831743,-2.4801292687,0.2541705115,1.7422787312,0.1942464371,2.6290576373,-0.1463751461,0.0729479374,-0.5901404473,-0.9989764548,0.4303147404,-0.4517324268,-0.1138073416,0.5439226043,0.4582646761,0.7182623541,0.3868020739,0.4127117187,6.1836804241,0.7420480902,4.536628806,0.1069839655,0.1941021084,0.2807681813,0.1600258276,0.5966760768,0.7418710136,0.9957672487,0.206505039,0.2173350524,0.8090753085,0.1260390861,0.8047733863,0.2693063844,0.0152054997,-0.7157266353,0.2889913801,14.7567794418,39.3384050514,4.1490146297,-15.5232499763,3.3172708698,10.5830867776,-5.5353816346,10.8327062788,-0.3993794345,-1.4152880273,-7.4306460509,2.326741232,0.4456641159,0.2241357369,-1.1078031018,0.7575794256,-1.3674960963,0.4117840581,0.6029800548,0.4685548682,0.3689968649,3.8778492378,1.7267614082,-0.225819561,-0.2777585906,1.1621559646,2.2617369718,2.4441312173,0.1825749358,-2.1870636736,-0.5849079239,-2.345427072,-0.6121151554,0.8557897278,1.9347233589,0.1700543319,0.3013501359,0.7290121787,-0.5883825038,0.6183495018,2.982593951,1.2615183118,0.09307893,0.0044875156,0.8289324811,0.1007802351,0.5771753602,1.9687552316,39.7529192046,23.6209039217,6.6870529896,-26.0244006716,2.1983757331,-16.8292324406,-20.0022065805,6.3526787702,-23.0957523761,23.7660007389,51.5232589907,-44.8310905544,-2.1676780408,-0.5522595166,-10.6461672434,-8.4403337366,1.4254062849,-0.0677439082,6.3887549495,3.299225185,1.6913765051,-5.6175052566,-1.7953053291,-1.2067323407,1.4968477576,0.2665749153,-0.1586559499,0.8094198822,0.2121780741,3.1946420645,-0.4709684783,-13.3125314102,-6.0874324799,19.9381173826,-0.6127076824,-2.2416291104,1.360963555,0.3688832548,0.1838955037,0.1463438932,0.70197013,0.2979710372,0.5407978103,0.4706137384,0.876696668,-0.5622488156,-2.0914984358,-0.2804992571,0.3319197222,21.4681258627,-14.2032770648,48.6807712217,54.8263880518,3.1333109807,20.5792330514,54.688341001,-20.995716232,10.6319647467,-5.1799256691,48.9978409012,28.5236878341,3.615300804,-2.5202365781,3.580312364,0.0257350646,-1.3835719059,10.2364345988,2.7560084077,9.0902565725,1.7399118617,5.3712272041,-2.3996316565,-11.6955478372,-0.6661737031,-0.3203612194,0.4605285051,1.7318013392,0.3655376202,0.3168730149,-0.716583863,-0.2274541901,-12.1425876984,0.0632378279,0.3934180658,0.7204972798,0.3647107162,0.2075498327,0.8251152868,1.7581288145,0.3071589342,1.8879734241,0.5145015399,0.7583143829,0.5567074451,-0.5186607363,1.4891870875,-0.5575557843,-0.0100491939,-0.147556084,7.5688658836,4.9835227318,-11.0518890709,0.1264782377,5.1146034524,9.9552336903,-5.0548520428,-8.5430548474,7.3007489767,3.1394389073,1.6059963225,0.6764274504,0.0659106301,0.2771738827,0.4970179099,0.4824065614,2.027094892,2.0870385173,-0.3219319578,-0.0791232348,-0.9583469125,0.1092546045,3.8751628969,1.0484342589,-2.3196747651,0.151032189,3.2099221663,-1.9327825346,-3.9243679541,2.577106207,-1.8784980357,16.5165701868,-0.5858222601,1.2727759437,-1.520447565,3.217828522,0.3946691107,0.1261681176,0.4954457241,-0.0060966981,11.3470905117,-0.9741809449,-0.5994481564,-0.5412693882,1.3377665678,-1.012210356,-3.0427519566,-1.3498588831,-46.3779221847,15.4217464212,45.6613624648,4.0101497885,6.7378499101,-67.5089664981,72.5362273461,19.3179800033,71.0535933822,36.3988468658,10.8056857923,44.0633674764,5.3411132814,2.5709233689,-9.0970918623,-4.535253253,-2.6248889963,-10.3807723087,5.0611326447,0.2476404941,3.1532788736,-4.2366583657,-5.2636516879,2.2225164808,2.8279078194,0.0361618668,0.5880940867,0.227716376,0.1614696611,0.1386025621,0.6099977345,0.4385306071,-0.0113966217,0.0315142149,0.4005662269,0.7462054688,0.9339451452,0.2391931694,0.6741678546,0.455517675,0.8709512916,0.3363498384,0.3093934537,0.808715239,0.7260580352,0.118537556,-0.0447966448,0.2081523876,0.0161584429,1.8868822025,1.3027630221,0.4481354184,4.5393026664,-1.6804014623,0.3183198006,-8.232517605,1.7807412442,2.0895099383,-2.6207752268,0.4632779619,-2.6001944912,0.1517572824,0.3820600516,0.6381126736,0.4906392527,0.3099870403,-1.5729369726,-0.2300904318,0.4489382728,0.0565927111,-1.5611814382,0.5857159229,1.2120354757,0.0389163828,0.2223722424,2.1706428211,2.9275640772,-0.0026534838,1.0714184447,2.6260900388,-12.869422719,-7.2410055448,-13.3300182014,0.3902346648,0.4847650185,-0.4711230595,0.8460705449,0.3784454136,0.563117031,2.3640359666,2.6179099966,1.0947076523,0.6336198716,0.9438420021,2.805397992,3.06334886,-0.6998065262,1.3052187063,-36.3959859341,57.8674688125,-27.4574943185,-17.6363596397,10.2791749065,-1.0726295195,36.7815619675,-14.8090443933,-5.6317274987,-29.3701617904,-44.1607438422,7.968833241,3.1534485395,0.237924275,4.4473306965,0.4927130123,-0.6864476154,-4.1330376099,1.687712025,-0.1887347135,-0.2881205494,20.409993823,16.8754339231,7.3073122835,0.3169451327,1.7276924546,0.8055676788,0.141083287,0.3345806234,1.9538615181,0.3090228998,-13.8253303258,0.6735980452,-4.0693686057,1.391670987,0.0704821752,-0.690475156,0.1289297678,-0.4686547858,0.7258471985,0.5220196754,0.2045217299,0.2768012372,0.2870591774,1.2024911051,0.5289146978,0.8280330596,2.7829585876,0.596768153,-6.2350307085,-5.9456192537,-23.8427345742,2.0634470834,6.9428952907,5.0765452032,21.1147280042,18.2491998826,-9.1342840667,4.6613209822,8.2085465254,3.972766186,3.6315119099,0.6348136999,0.4675689224,3.2010526852,1.6608861741,0.9945130257,0.4591107652,-7.0343457543,-6.7336958145,6.4380889692,3.7495963919,10.2041975763,1.0434885127,0.296930371,0.9260998304,1.1065588696,0.3384483105,0.0008910511,-0.0042972416,-0.0634742881,0.2934708869,0.431044633,-0.0333864337,0.0028589566,0.5251204578,-0.0729560566,0.2034749604,0.5686591743,1.6153463315,0.6742543695,0.7951067954,-0.3098511504,0.4817194173,0.3729431688,0.4706823535,-0.1560225447,0.2060110812,1.8566684269,-2.7527137794,2.2348696302,0.4240553933,-0.831291804,-3.2335422005,9.2687022206,3.5059638051,2.044832778,0.9853738034,6.742725296,5.1769582656,0.643399958,-0.0074477496,-0.1205944264,-0.0076256213,0.55276736,0.3575950059,-1.574579299,-0.0830710725,-0.1461757752,3.5970843352,1.931574403,1.7747307594,0.1132960151,1.0231639035,-0.2794786144,0.5218428847,-0.263969695,0.1507186413,-0.2062551522,-11.7794458648,0.7380101601,0.1523304612,-0.5047926913,-0.0054934635,-0.0483455228,-1.3141107874,-0.5594233555,0.2491215608,0.7799146839,0.6222109347,0.2319049634,0.1918442473,0.2859054185,0.0526411807,0.0435232313,-0.6498872722,-0.5514988553,23.4678361493,3.4678522282,0.9272951594,-0.8910921056,1.8987665966,3.8945632701,15.6959424899,-0.7462774656,-1.1528589759,15.1643245927,-0.8368062432,-20.2908085567,-0.7902270657,-0.2856482588,0.2815826728,-0.0477928334,-0.3671481851,-0.3163993568,-3.6596529754,-2.0692232097,1.7568249413,2.3506018338,-0.4622835823,0.1086164802,0.0075532616,-6.7146903269,3.9500960496,7.8604386105,-1.1874623314,34.5141332941,16.0689248185,685.2662368924,281.2449282444,1196.9707741897,-6.6814328519,16.2496612974,-6.988583603,0.3880273368,-6.2491539781,2.872438626,-4.6454324669,0.1132354274,-3.7525798623,2.6640055559,-0.3926532563,3.6401086147,1.4347902529,-3.2058497998,-1.7503961842,-762.3304137142,-711.9542468518,9883.0452187462,456.394904864,-139.6848903279,254.385023105,83.7783878921,265.6388949473,452.2929235685,-627.919018398,-171.9975278854,602.7505721839,15.2366496751,29.0115246282,23.2122067216,29.3219349281,-39.5512073395,4.3251619786,2.7191480667,-11.3839363727,-29.4447509378,10.6160906229,56.6996920166,-41.5352708933,-0.8868598372,1.3805409337,1.5685995818,0.0998947095,-1.685624958,-0.5153520186,-3.4208196398,5.6230794468,8.3577582281,0.7395533056,1.2198458798,0.3881637564,0.3806271983,0.4922121984,0.0002552911,1.8638127744,0.2880828047,1.1120226208,0.8853604888,1.6763588721,-0.4086023159,0.441644582,1.3108213303,0.4522065654,-0.0166505832,-13.2208764988,1.1768568614,-18.2623484742,-5.8528369558,15.5149115205,-48.384500554,-0.5858490413,-11.353883259,-8.3885468314,18.3008369339,2.964406761,20.5728518406,6.5322373526,-1.1507383061,1.3436629659,-0.1179354368,-0.5404100342,1.1051836883,0.3864119881,-4.6635149123,-0.3887670363,-7.5531342042,2.8974063424,8.9607669948,0.5628307193,-1.6328735539,-1.276008847,-7.091748091,1.7349184347,1.9999830856,-0.0017151695,49.9056206672,-45.7724692083,58.2588017016,-0.7954858697,-0.2382566871,2.0740263689,0.0564793267,-0.1189045941,-1.9197016345,0.4952277044,-0.1228615766,2.6675739236,0.0869202287,0.1362468218,1.503211284,0.4842601598,1.0946183141,1.7897482278,34.353075272,0.541537214,-107.8697234486,70.384113139,-79.4408788138,13.4697822032,2.7892527436,-8.4494012,-31.4123978341,94.9698336904,-5.0601055365,-79.8307300473,-1.6251451467,1.6072390505,1.3874240656,-1.3414741177,-10.0234787029,6.7259875905,-7.9672866547,0.3915136352,1.1398947649,-9.1063175808,30.3229815813,3.7109584968,1.081871218,0.2806202574,0.3269871925,4.1697052446,0.3241704294,0.3523897035,-0.2266995917,32.1010652081,2.3326159556,32.6229373769,0.7751232191,-1.1075315478,-1.320820172,-0.2860380739,-0.675719275,-0.3053673866,1.3589854519,-0.2001828471,0.8468313722,2.0460688501,-2.5045290771,-0.0448724193,2.6682923591,0.7248721403,0.2730979517,12.2327101882,-3.8015779221,3.9640054599,-12.9981083006,-9.1872626329,-1.3336399931,27.0811928506,44.2843130785,31.0565567435,-5.670575766,2.6305616331,-18.3298111729,-0.6965673414,-1.0026341526,-1.2062808686,-10.1501468105,-0.0327409421,-3.4399502592,7.5054307271,1.635701745,2.7811424438,12.231293455,-15.9239372175,1.326829469,0.1907095216,2.0731837357,1.139403619,2.312714428,0.3816785455,-0.5518814344,-2.9147431602,18.3921826201,9.9017684858,-9.0487089341,-0.4002791014,0.0428281419,-0.8193081713,0.0298708951,0.66115627,0.1823221808,-0.3122159275,0.3562516484,0.8777312528,2.1346765185,-0.2591747259,-1.4408741404,0.7500558295,0.0874375517,-0.0136384325,20.7520752778,-9.5235340278,-30.3876476747,-5.4313670448,10.9673420968,36.3246557985,-5.5459297773,-10.0978186241,8.3028179319,0.710934825,-0.0636268385,-33.0365398672,-0.7913127476,-2.046523836,-1.1756465474,1.1784206388,5.6711308827,5.6278253352,-2.116403485,-0.6918215427,-3.2542161942,14.3713972375,1.7185725886,4.9279787522,0.5879468708,-0.5839859302,-2.9383655034,-1.095273557,-0.0584623735,-0.2192858101,-0.3227268863,-1.8146827195,10.2408621126,7.0050401218,-0.1976802444,-2.32364148,0.3880408293,-0.178782761,-0.1492243403,-0.0117219255,2.2909733064,2.4123103602,0.2419999674,-0.9394831973,0.8294445641,0.8851628254,2.439953475,-0.1833339153,1.8335650978,97.1902832317,47.3569152904,-8.6125133434,28.9502222676,6.5329579442,107.0747866213,-44.6789718936,-5.1824258626,13.3676046887,5.6476993689,140.4716973622,17.9913206332,12.4855661046,3.6280201566,-1.2508626569,-12.2875906536,-0.4452846855,-1.3672858486,1.6774388241,-4.0906290537,1.8658441263,9.1549173776,8.5728940033,33.163907791,1.3557518292,1.0226964642,-7.6439274188,6.6418494581,-4.1180511812,-0.5690259577,-2.8716328385,33.380448949,-10.4694403347,75.0934395886,-0.083548738,-1.489648708,-0.527237693,-0.1682426729,-0.908043373,-2.60616543,-1.2347488799,1.7412975947,0.3834630462,1.8588237637,3.2429644025,-0.0087913029,0.9462366688,0.3403490529,0.242589185,-140.5750782066,224.3804336392,-34.4337464531,-13.2051807651,-76.3951521162,26.2228814931,-72.7607717769,21.2732232226,-0.4451199241,49.3872022065,-5.3050576864,-38.0277319498,-5.9307060256,5.4625390839,5.1123948407,-1.9530086804,-1.5677824555,1.7406772944,11.4346455086,9.7970218411,7.2663039049,10.4193097659,4.0388540662,-2.7332182674,-0.374901965,0.1562479885,1.2423402916,0.4853390157,0.2064562575,-1.0506149795,0.1451859309,20.63033829,0.346256053,-1.6910322809,1.3899044568,1.5842039674,0.6729954378,0.4369923079,1.312305001,0.5313056172,0.8730166128,0.8992637021,0.7564643386,-0.1190670502,-0.9218388498,1.0759173684,1.9996310283,0.0088469348,-0.3553492374,-20.8874313728,1.963869482,-29.6296690663,-15.5792842295,-0.9914172417,-4.741337325,-1.8181998482,-8.6471289042,-2.3900583554,13.005488754,-2.5185756357,-40.9723342466,1.6842811617,0.2880053966,-0.300815113,-1.0269833726,0.258649888,-0.0575805569,2.4993262532,0.3081052971,-0.9570642099,-0.1610875002,-0.274192105,2.3164069936,-0.4570813975,0.6921555185,2.4900401204,0.5805817059,-0.9650562232,1.4147371042,1.5706481899,-33.908869771,-6.1035491834,2.8607478082,0.7192029723,1.1124563791,1.0906895671,0.7871255585,0.1207592903,0.5590545122,-1.2508575436,0.8551136276,0.5296801269,0.6499846448,0.2793907705,-1.2008201878,1.1683084346,0.5565020237,0.6364536584,-50.3364817428,2.2457789919,-7.061199259,-0.4634976247,-22.7853132728,-32.5120204047,-9.9814840051,-10.1537898202,-9.0627435238,-27.0307407917,-23.206364935,38.2775278397,1.8276646569,0.6918591913,4.264613939,1.5765061903,-3.1584100276,0.9873478254,16.4428106639,11.2469629588,7.8469687167,0.8718913215,-1.4959370248,-0.3217010294,-0.7398152796,0.0880756944,-0.2129241049,1.1728566473,0.3670685244,-0.2575586617,0.0136533596,0.1018145883,-4.7855554453,0.290190939,0.0712063571,-0.1221318296,0.3515688019,0.2352057432,0.0009959621,-0.7436163199,-0.1998012952,0.3702410099,1.2544705715,-0.0349049514,0.325599851,-0.507842731,-0.3886938574,-0.1873617595,0.575050633,22.2035022652,2.7077672255,34.0139669613,-12.3780533638,6.3185066584,-12.6100247336,10.7004555409,16.8374863004,6.498333904,64.5199895251,-77.7093880729,-2.0998354974,2.3515629545,1.5611856362,-1.0325305713,-1.1763603903,0.2721392136,1.2715543024,2.603768213,1.8540780095,0.0305247215,6.8079125637,0.4001143761,5.5386866299,0.5446518066,6.1592345804,-1.3300240594,-3.889966277,-2.62509352,2.1183323339,-4.1949680163,12.5218899003,-4.0312243233,-16.7243964396,-7.2855156299,0.1855403449,-2.5116118456,-0.9814404769,-1.9566092916,-3.4407931792,1.3672595543,-15.6436913422,0.184213535,-2.7989064324,1.050328229,-1.4062353472,-2.6815502688,-2.944257851,-1.2178503482,-58.1168242147,-85.0441424558,10.0045440157,19.9844190864,-11.6222294999,-32.0377427952,-10.1746724384,-25.7902458472,17.3593455878,-20.0345194329,4.9464848186,-34.8655542676,-8.2229767391,2.3293730945,5.7275335694,39.3517081254,-0.4777793029,-13.2436073865,3.9328950668,-5.274377448,9.8859095427,7.8889029624,16.1614409787,4.7644553123,-1.4021756242,-1.255951474,0.1428917045,-2.7251829437,0.2505336512,-3.1687999186,0.0969991782,-2.881886221,-2.2000762465,-3.603336922,0.1104185666,-0.5800226224,-1.3773656845,-0.6854710551,-0.6609609896,-1.375771906,0.3951240327,1.295246813,1.5166084553,-0.1597972362,-0.8696063879,-1.6458024244,0.2264740297,-1.4428982922,1.4093806637,-6.6360806383,-6.1717683356,28.7195780893,13.9344337271,8.127118789,-5.5487329734,16.7130934466,-7.2595795549,2.2795541984,39.5534549652,48.6063508401,-12.7499580706,0.3270616153,-2.2696589113,0.7233965316,-2.19903572,2.4960060467,1.1028348882,-0.6599515892,2.1506219781,11.709032367,3.6112924376,-0.8593397483,3.3317108606,0.9952573117,1.0941489549,-0.1067762659,0.0391824119,-0.5983865183,0.5088947958,-0.087610739,-3.553160062,0.4211860659,-0.1907258928,0.1848062613,0.6129478334,0.3938200477,0.0724587784,0.0729337217,0.0379146088,-0.24663203,1.567216715,1.5633231277,0.4925213406,0.79177314,0.8217994181,0.0430761671,0.249091442,0.3617378613,3.027130315,-1.7781973255,2.9342894036,-1.5737922262,2.9028309447,0.0479762764,-8.3511614396,0.3637691827,-8.9191267844,-8.7056428093,-2.4833314918,2.5028676813,-0.8143827218,0.5183718782,1.4447137213,0.1897272803,0.0303736205,2.1663150134,-0.7584919195,-0.0508951028,0.290191459,15.1948347801,-0.3249102764,-0.4556514702,0.6761764116,2.6303030894,1.4170685138,-1.1346585124,12.4750301204,2.3648532245,-0.9794215763,108.342557324,59.4560352269,-8.9142553768,-1.6544624923,3.0626561517,-1.7012241669,-0.0127010103,3.3386181448,2.9194408671,-0.0182795265,0.68658325,1.0239567729,3.1687316969,1.5769351871,1.3471514936,-1.7655879038,-0.1366820154,3.6221931231,-54.7552641014,-33.7310896265,-49.2003878686,19.0717529434,18.4146908924,-54.738658686,-7.0695825967,64.7659282801,71.1622775547,-194.5575830925,0.67501023,67.2297941401,-3.8181127972,0.1229815897,1.7839823678,0.0676705231,24.8610909489,-14.1925162709,66.7266906617,-39.3749854677,6.3999071851,8.1386266178,-2.6179703178,6.2826996289,-1.1244848878,0.9144253463,-1.2084099435,-0.50928273,0.7382371816,0.8330760437,1.1699691468,19.7726476172,0.0137091268,0.0045118143,-0.0993867032,0.6993703916,0.6513502056,0.5381952145,0.7459859429,0.6140547642,0.7504524006,0.3541394277,0.5305373072,1.2393172704,1.0117125042,0.0716811541,-0.1837478745,0.236697859,0.7034963559,-13.9422737663,-8.3821826717,3.0068626625,7.6030687216,-1.9697187291,-9.1722727326,-1.1887485909,3.0245568466,-5.7368134286,5.4281816461,-4.304709799,-0.2470951202,2.0655690261,-0.06814418,-0.1223546012,-0.8041241762,-0.0939732869,-3.5927462705,5.4384216891,0.8577390438,-0.303241748,-4.4378674706,-0.5087427169,-2.2804462071,0.3725184097,1.3718668023,0.5014952568,1.9514649554,0.336432118,-1.3612021566,1.1523628994,-194.2989956947,0.3230498878,34.7870768173,2.987781712,-0.563786968,-0.1409891992,-0.5192486557,-0.3299234505,0.8892211234,-1.8696396823,-0.0990758282,1.9593447624,2.7909239189,2.2172264259,0.1622148567,3.3965452151,-3.1402595727,1.8519973821,-36.5671257022,1.3305914336,-81.2132207995,63.6925674929,-9.3850319346,-26.0443363441,-5.4957712752,29.0109312695,26.4126790235,-6.3341110947,-113.2727544667,138.9257525334,-5.9592643668,-1.964594067,-11.0304003961,18.3827178285,-5.0207731501,4.2199979329,81.1088324422,17.55838451,-0.8600910218,9.5771256467,-0.2077522858,0.7221100906,0.3729217752,2.1516744866,0.5865992225,1.2835122071,7.6023960711,-1.3883849912,-0.0961053874,81.9627673139,17.7096286755,-70.3837849428,0.9723659233,0.8152268025,1.4564012905,1.8411105488,-0.5316984767,1.0775602158,0.1771813002,-1.0492542855,0.7629231613,-0.2782227785,-0.8045965175,0.653810755,7.1835042397,-1.4968285634,2.588442809,-37.4546046775,-0.1465911933,-6.4175226852,-27.6172205507,-24.6051371305,37.8234165411,-37.1419394303,6.9327797414,-1.4849013124,-62.1119332038,-163.4156476616,145.5361687203,-2.5439637919,1.8207789902,1.4664477814,-1.6641844004,3.6317444271,-3.3189388475,-20.2053276836,2.6888298583,-0.4924421057,15.8757095239,9.077119456,4.3732211521,-0.4216731256,0.6783577864,0.3669797678,0.9640261866,-0.9982446976,-0.9264408282,-0.3463899048,-70.6061231959,0.5224535227,-4.4015769268,0.4092005714,-0.163936117,0.6571226081,0.5389195701,0.0774032351,1.6333067293,0.2856887645,-0.1252630424,0.1950175057,0.5813554661,1.1288547244,-1.4133100113,0.8103257045,0.6109555355,0.4606291433,3.5604228197,-11.9955367314,3.4432213016,3.67681266,-5.1245948257,10.1740837554,70.012849848,-42.0710968429,0.7792833272,-4.6344929756,2.9224558329,-13.7362452892,0.3184370966,-3.1574556154,-0.3113967847,3.2030491105,0.1952704514,-3.5075246689,1.2749271068,-3.2787370079,2.1505340653,3.497447879,1.3034656287,0.9724870316,0.220261738,1.1593166063,1.2854751116,0.3353961671,-0.5025192197,-0.4649999579,-0.1931735148,-3.6196786702,-23.0885997843,-3.1303029637,0.2049299493,2.1814084156,0.069675478,0.0946951559,0.2588896212,-0.4883527531,1.594809963,0.9959207666,-0.1818445901,1.0019771222,-0.2459306506,1.9921878232,1.3175425582,1.552692514,0.3088282273,-24.1768477209,-1.0557298155,-7.0875622404,56.4350254888,0.5503017021,-3.9125259546,54.7100790516,-33.4805581927,-16.0694103192,5.6717910469,-15.1335572344,-17.1792309089,1.0938593981,0.6427188064,0.1579854476,-7.2857707771,0.6223046052,6.8993382022,3.7177020297,6.2541785327,-2.8939723554,20.5058138063,8.3422297977,-5.8960383767,-0.4106887455,0.9069955238,0.8298395865,0.8736007351,0.0556961895,0.295517517,0.0383336196,0.5234715511,0.4333779172,0.0511078233,0.9678780828,0.0904314783,1.1461065243,0.0215164705,0.286392866,0.2035452931,0.608497413,0.5686359219,0.5611059662,1.0407832667,0.2874117861,0.8551232127,0.0575985834,0.5182057868,0.2514358662,-2.7812044116,-15.683186096,6.0152784981,29.9054957429,2.8395507422,-14.5898819395,-11.1427349657,0.5600809585,-15.862445933,8.1411216871,0.6267028006,4.8664250268,1.6482284509,0.1247855195,0.1739759239,0.3512579765,0.3790367871,0.3638651515,-1.8358520475,0.2950053456,0.5087764664,-0.3842262785,-3.1009996121,0.2298638708,-0.8726963011,-0.6991755525,-0.1075806374,0.3912856095,0.6129973405,0.8357958228,0.9383773029,5.3376150264,-9.8023277504,0.2335191418,0.1856053807,0.7728153489,0.0815423253,0.5623521073,0.5714895582,0.4536530008
   0.2850335523,0.6247243797,0.2647956536,0.4369663584,0.6575032003,-0.2283467466,-0.6312718934,0.2432633606,-0.1768389167,19.4972399251,3.4678317602,3.0590049848,-22.8959687699,6.3413612799,-1.1008797153,-18.1201050535,10.5951935972,-32.1799260892,3.5651909037,-0.4553270899,-19.0467793361,-1.8981563852,0.5571362417,-0.1017533778,1.294178861,1.2613111618,6.1444618192,0.20255127,-0.18915064,0.4970504793,4.9349298546,2.4830777909,-3.7211489272,-0.7396110233,0.5936544031,0.4355870691,0.2523066211,0.4789398095,-0.2710451574,0.441229813,7.4604532396,0.605484621,0.1671355317,0.4467645274,-0.0191232774,0.2631421348,0.5348906307,0.0195710352,0.4961209372,0.038696537,0.74950199,0.561804147,0.4620526458,0.0372329619,-0.3278391386,0.4157199786,0.205253119,-0.1114673641,-14.7604035448,0.4770343298,-0.2480064946,-0.0121379462,-1.2610685427,1.5273952131,2.8776658376,1.9802120859,7.2072758557,-0.0495318982,11.9506201805,-12.9421452615,0.7000288982,0.2637002355,-0.027631041,-0.2065224171,0.5897868655,0.0669475542,0.0126570535,0.0631386248,0.1373404937,1.6737647103,5.5037746618,0.1722367558,0.2834135913,1.7607810917,-0.3808153059,1.9350539944,0.7588499163,-0.1088031694,0.062240547,13.7962839635,2.1706779174,2.0553175998,-0.0935709904,0.5190482925,-0.3231070646,-0.0996810532,0.0785882569,0.209630626,0.1433628365,0.9086629731,0.7214518658,0.7393051281,1.9189037184,0.2491462188,0.8729037583,0.5274227261,0.324596735,8.3464477965,-27.2365717211,0.0237792663,5.6637068228,1.0998560969,-2.5091865266,4.5816803841,5.3777149267,22.8750117311,-13.5201875774,-4.0603216615,-5.9110527695,1.8978649704,-0.7158034744,0.0962282653,5.322697152,0.9782106089,8.2129138722,0.1908547345,-0.1171563987,-1.0025469266,-3.1871882848,-0.1181676143,-0.2053826444,0.4819807078,0.8721033541,0.1932652621,0.0651974844,0.5246658213,-0.1631851195,0.3476373952,2.3937925209,0.4062313805,-0.3720119608,-0.2266314559,-0.2041744223,-0.2056452724,-0.0612780104,-0.3741082724,-0.3803516599,1.2194026355,0.0680645491,0.8856864916,0.7688012979,0.6810100497,0.310381804,0.8305837975,0.609265747,0.1051457138,-7.3784234569,-0.7796255068,-5.2096687872,0.5476871755,0.2114621675,3.9023125266,-2.6294211419,-4.1322987503,0.226697058,-1.5341849031,0.3601295656,20.3510793147,-1.5058526959,0.1843564134,0.2563504307,1.692824283,0.5588685266,0.2392318237,2.5387179301,-0.0060795174,0.4297340828,1.7127387974,1.5049143082,0.0948394146,-0.0568246318,0.3940977545,0.4887009106,0.3108624614,0.4532748389,-0.8383064133,0.2145074654,8.6038129673,5.9118959017,30.2622551179,-0.7151477062,0.4061957615,0.5532125021,0.1745129935,0.4129131617,0.3898055778,0.7696024058,0.80207173,0.6507026592,-0.2545848704,0.5293005876,0.1304282562,-0.3249510929,-0.4664018694,0.600661635,-12.8575495199,27.9804774058,51.8020170041,-16.6282152041,-6.0296853808,6.910792563,-13.2031336794,12.3937732044,11.9873706005,3.6186468712,-0.9358811262,-11.1098938997,5.3129793461,0.778766881,-1.1475023902,2.7414104585,1.4802248077,-0.5168657143,-2.547595413,0.0856036897,0.6427032276,0.4735921457,-0.2143092714,2.4610319555,-0.2629776792,-1.5876833886,0.9997260354,0.5403804051,0.5099941465,0.0432122262,0.741294555,1.3627693847,-2.0647801398,0.0520634121,0.8981209839,-0.4897992027,-0.6574014281,0.0398896129,-0.4527107596,0.1454869081,1.2180264541,0.2484696285,0.2148825718,0.4198168471,0.64160235,0.8023294169,0.1325444203,0.2703422876,-0.514064296,11.2965802387,20.5970310854,-30.7106022825,1.3867441675,-2.9916440263,-1.6329741362,-5.3953209155,-15.0058875911,10.2793186829,46.3700187812,2.2264417368,12.5999549459,-0.8471320385,1.4396343584,3.6933971213,1.0235214043,-0.1813451957,2.9349715538,-1.8900356615,3.2945168339,1.7371763528,-0.7903909193,1.6070819263,2.2487574649,0.1686937128,-0.1654066957,0.9117540084,0.8206840326,0.3305089515,-0.1174828517,-0.2411921535,0.261200962,-0.0187991526,-0.6154756646,0.0557756815,-0.434158887,-0.1590320082,0.0911762482,-0.124077734,0.4135398418,-0.1576309037,0.766306114,0.5545954718,0.9183218416,-0.292022507,0.3672972045,1.2521200421,0.9258739926,0.033667727,-9.6043775995,-2.6392460953,6.5677909506,-8.4947676063,4.0029300825,0.0329080682,-1.4109692387,3.2439809234,2.622148112,-7.6639318306,-0.4692015369,63.6398477847,1.626281549,0.2846794661,0.4547145208,1.7616804089,-0.4105965167,-1.6895604023,2.8059546061,-2.5527261472,-1.634995856,0.0733316077,-0.0915776621,1.4224314179,-0.3538416858,-2.0852499658,0.5580024727,2.301202112,1.0262087065,-0.2196894789,3.095007773,1.4069668951,0.2453624501,-6.195150731,1.2469419337,-0.7273348747,-0.23574948,-0.0372882294,-2.1748103557,0.4096066594,0.5200657081,0.7378083921,1.2345593863,0.9458842548,0.3571879985,-0.6451150685,-1.0840657225,-0.0066236134,2.1909201712,-19.3544418195,-15.7201651927,15.6630731231,24.8054348218,-15.457875236,-14.5494735906,35.2865801632,5.5393382951,-22.8995835281,-4.7075569569,-31.6738166818,26.4963588359,-0.5223638448,-0.36901861,0.7331510881,-0.1098205773,-0.3575693957,7.9561307616,2.7888873095,0.4107499563,-0.6746957995,-1.7427128296,-0.7569791518,-1.8667691524,1.6071183634,0.802563519,-0.8195501311,1.2190406245,0.5887700028,0.5980807333,-0.305730388,0.6196337378,-0.3027202972,-2.5041531467,0.3265707226,-0.0550845793,-0.1971238546,0.2161090751,-0.5346851293,-0.1665160269,0.5814645058,0.6929265191,1.0102525046,0.0040215049,0.3379692015,0.4208532415,0.0246568849,0.4521042962,0.3885478483,36.7293037306,0.6391026053,1.0367358316,-3.6531259378,-7.6105757921,-8.274425604,-0.8359229303,-0.2719672295,2.7539833311,6.4186798175,2.1446217356,8.3236486329,0.2128838099,0.5942479237,0.1608566742,0.7972023233,0.2586972494,-0.7411800166,-1.3933493372,0.395525773,0.1156319628,0.3100196346,0.4604258549,-0.8990713354,0.4772388841,0.5504399637,0.4517390884,0.7901646394,0.1703982324,-0.4998935879,-0.6513070225,0.1593825101,-0.0398252653,-0.7488108114,0.2161163438,0.4401855946,0.3623800398,0.1232451059,0.327431924,0.6226870686,0.5482002647,0.3979324537,0.3609892519,1.6886227231,0.3570500041,0.0339956881,0.6317961138,0.1118061982,0.4022250596,0.7721630147,-7.0359299618,0.1753059338,-0.1589822976,-0.0909358536,-10.6641120736,6.7022017097,-0.753465393,2.5955675599,-1.2965104955,0.7591870736,15.6361774518,0.6166761755,-0.3074239993,1.5189960141,-1.0264283804,0.0041571889,1.015519621,1.6739267192,1.0345604557,-0.1612119122,-0.787591438,-0.3853667736,-0.0949706971,0.3915956528,-0.234844738,2.1405240288,0.6624769617,-1.3200512682,-0.9834845227,-0.772553113,-5.2537715243,13.4087224693,0.514867391,0.1972001621,0.6706809446,1.5084585849,0.2998655139,1.7611542606,2.1307660052,0.9492798753,0.7429563395,0.2051697482,1.6433523542,1.7047522568,0.0081078147,-0.0427633654,-0.6036930186,0.4244257393,124.0272037319,15.6293137664,12.9301501799,-30.3755305313,34.9976181103,-46.5827829464,-11.7900117675,10.43947809,0.3768107423,-27.4532186287,-24.5452289983,55.7092656846,0.1685326707,-0.0920459987,1.1135531515,1.6714970229,5.0199394314,4.3421016825,-3.5496084733,-4.0974280143,1.1735843403,-7.0941740847,-2.1831945219,-1.0048120237,0.6789415178,1.0190492492,1.9935049305,2.083114962,4.4190594677,1.7574777311,5.6192646327,-39.9232071318,0.2962100763,-10.2537720065,-0.2156877804,0.974292309,5.3855516952,0.343051114,1.0870845984,2.8343568518,-1.8833581459,0.7186752773,0.2963454399,0.8549456001,1.8552742324,0.3068462524,0.0951007294,0.5581415658,0.1640299839,29.1677134538,24.5113737045,-29.1289618807,18.0266076162,13.1054897336,-55.896305933,10.1847074348,2.8856305569,41.530355077,122.2635956688,11.8077531706,26.0607861168,0.2498648032,0.8160384122,0.6164932557,-9.2892939166,2.6089702715,8.0569857908,1.7023498363,16.8755615603,-13.5274668624,-14.605214558,-2.0318479575,-6.7047500394,-0.8283820093,1.4873457508,2.3958236745,0.3214455814,-0.1795237538,-0.5654609398,-0.0009416349,-8.0526795417,-0.4516547303,0.2705081269,0.5008631285,-0.557015892,-0.9035123142,0.164839324,-0.1684937971,0.4079152455,0.5015579865,-0.2733835415,-0.2989203607,1.9283811749,-0.3439363903,-0.2374284586,1.9161036808,0.1687799018,-0.5187196899,-3.0557794417,-3.7305499108,0.5063750529,-7.5855451669,19.5719161257,1.8043439982,-13.9786687888,-3.0458008258,8.8963785405,19.5987470328,10.0651907505,0.2477456216,-1.315578119,0.5625955527,-0.4408211517,1.0861438017,0.4450079399,-0.0857598642,0.7728392126,0.6137942505,0.3583033495,-0.5801067653,0.2795622592,2.6989280651,1.7430037756,-1.1424132636,2.5105664673,2.7092190332,1.3007562815,1.2795309824,2.0796407392,61.4541513173,-15.6782443993,-8.4949046532,-1.4101350774,0.9481004604,0.0271906325,0.5875092458,0.5754125007,1.2308219802,0.0745851184,0.2438160488,0.4088357133,0.6718003547,0.6351787527,2.5521986847,1.9730198364,2.2764873581,1.7881429612,27.6334099344,-29.7218463118,30.0399720359,-40.4064240746,0.5553511591,41.282319813,170.1222390573,33.0870151145,12.5102815731,21.3108838562,-6.5817748907,-20.933069129,1.1730728178,-0.849111583,-4.407900223,-0.5697358035,-6.0953013007,3.0403338131,-7.7925128422,-3.3496684959,-12.0514283446,0.4062683368,0.4644485992,-0.1950780433,-0.9330156647,0.1745266029,0.0577517458,1.7158035124,0.5321895924,-0.0565548324,-0.1648711978,-1.7922904805,0.3262225793,0.7201712545,0.5046997783,0.3227745689,0.0449117495,0.2490873754,-0.1279401059,-0.0423649322,0.3682881352,0.8243599687,0.4431122521,0.1458218265,-0.3572050054,0.6662935567,-0.0822911828,-0.6700134574,-0.2782435918,4.2668309806,-14.6460528452,2.9422420183,5.9023290666,-1.777255239,-6.3505738316,17.7781687023,9.0218031768,13.2379201567,-0.4199438735,-3.2265238104,-4.47543914,1.6222700662,0.0155874545,-0.1423910972,-0.5507415996,-2.0717461875,-1.4800269576,1.6022838074,-0.0242268079,-0.1022914289,0.5496388362,-0.6751215525,0.4384711741,-0.1070065894,4.5104404013,1.4034164402,-2.5718791856,-1.2563979384,0.9860917479,-1.7195436715,8.3174208121,30.100620863,42.5090300665,-0.8412091157,-0.6956542533,-1.2468921397,-0.3078749519,-0.494210561,-0.0483701108,-1.0731243555,-0.2185114061,0.9781792477,-0.8543985371,0.8508561703,0.1097314736,1.213543634,2.668845223,0.0851362289,27.4095843032,-31.0831866078,-14.2075918183,8.8012846803,-8.9197917055,59.7150849288,80.9382157489,-21.7234152234,-0.9893045778,-1.0533801087,-54.932095648,28.4343815891,-0.1205558488,4.3444337195,3.2590428049,11.7069616949,-2.5600200354,0.4572819208,-6.3661758012,5.8445716648,3.1463956102,-2.4245683861,-0.4854665467,-10.1502707221,-0.6014002015,2.082305455,-0.5059522055,0.926368234,0.0114037163,1.1053920859,-1.055154653,-19.4219696266,6.6596363567,-0.1363261385,0.7917392356,0.6237013552,0.1863761546,0.4895035731,0.4537306293,-0.2812379914,0.7363147227,0.6685153697,1.2311197475,0.3474861134,0.821562061,-0.3152692306,2.0093980643,2.2698519849,0.1103919269,8.4439200204,8.4641309759,-25.7062299821,26.5120905033,-17.97744995,-2.3141694879,-6.7203157088,-2.1927030456,14.9466341525,2.07287049,-1.0911765034,-15.6843512033,1.9782620964,2.1322742424,-3.0423831749,-0.1944842834,0.8429969752,1.2439783558,-7.2326132031,-0.058451456,1.3398647523,-5.2690974951,-0.072734031,-2.5137010919,-0.0061666684,0.3391045816,0.2873724682,0.3481872613,0.890039379,-0.1196258398,0.3139062248,1.0530093302,2.4464387007,-0.1970211962,0.0427843283,0.348369016,0.2256836331,-0.0796550343,0.0832403853,-0.8252650907,0.7027385871,0.6245286516,0.3372700882,0.3409413761,0.4602755367,0.9382910503,0.6807370931,0.4007993745,0.6444569098,-1.5305303598,2.4262824355,0.1835612654,10.0705956457,4.1563954478,-0.745222104,17.8258867302,8.4652626462,10.182754952,-6.0781977158,-5.6317100748,-16.7299551916,-0.1028214391,0.049483205,-0.9131228312,-0.3796912837,1.0767957557,0.0465724088,0.5101993955,0.2859234575,-0.2906481688,-0.246976429,1.3557123571,2.4544618374,0.6318185145,0.8017016809,3.0059666048,1.4947927891,1.2902923931,4.1478614955,-0.5462663496,71.6454362707,4.746494188,9.5374574236,-0.4433676072,0.3713261514,1.9924674829,-0.0264768261,0.207734531,-0.9210365854,-0.3065371364,0.2787409872,-0.1494781173,0.4192334454,0.509562222,-1.5597710181,0.4841808396,0.6441567316,-0.2914241846,35.7695166488,22.8154100842,-18.6445195248,17.8862118549,4.1788721381,-37.8767323295,32.1041404775,-31.5488643612,13.4934315158,9.4975630241,-17.7040204419,-7.5625756661,-2.4468420198,0.4225782295,5.1682536352,1.4140334797,-6.1770645366,0.7235348155,-0.8429172464,12.6573279248,-0.5650907849,-0.4305068586,-4.9221682208,0.1554181068,-0.7480689611,-2.5706371626,2.206782336,-0.2336600746,0.9944636571,0.1481832529,0.8020998155,2.6296073518,-0.151767146,-0.1820925502,-0.072455529,-1.6944773053,1.0033280073,0.2011579068,0.2659315491,2.0983781742,2.8332058945,1.229670202,-1.1272982002,0.5792897922,0.5091436865,1.3373411807,0.0089739533,0.8808752282,0.1415322137,-18.463005319,-0.4532562726,-0.8978087424,23.2843966236,36.6669387301,-24.4885292965,-10.5900826858,-3.2839371742,-10.3668960392,0.5175904864,-22.8959100612,2.2546159197,0.6879890097,-0.2531588974,1.2228268463,-2.9876643237,-3.9502391006,3.0104735014,3.0297417304,-2.4957825972,0.0209118764,10.7795459452,-2.4889685311,2.8777967652,0.3706873517,0.8150060381,0.7940439322,1.0150844324,1.2167838793,0.4508157656,-1.3543742605,-7.8638601627,-1.6963508811,-21.0419945599,0.8454053867,-0.5178578941,-0.8237444837,-0.5955214426,-0.4316826659,-0.1327312249,-0.0766487362,0.6127351515,0.272215444,0.9525407569,0.7972803426,0.4083498652,1.9915939931,0.1261471019,0.1672211899,33.3900760963,4.3230540251,3.4931108497,0.042824694,8.8156935407,-12.6464950172,1.5363907897,0.6649035553,5.0881358075,-16.4245780613,25.3951964615,-3.8055815617,0.8005031282,-1.0456881921,0.5761926659,-1.2196440623,-1.316139177,2.4074885574,1.671521733,-3.0982273345,2.0881689776,2.6646017321,0.0861966114,0.9807549582,0.1051253934,-0.8929960908,0.7443740859,-0.1591895772,-0.9235420622,0.2108505492,-0.3902697269,0.2739500505,2.0709853036,0.2214070162,-0.2082200055,-0.326565434,-0.3559135392,0.1836163807,-0.5431132003,0.3274519123,-0.0179325796,0.2862995935,-0.0866438795,0.8700260773,0.1130582722,-0.9919339435,-0.0074453874,0.691171937,0.9855213645,-12.3638023537,-20.2226648115,18.1312408077,-14.8733756331,-7.8323347083,11.8326236991,11.3346361515,-13.6691535137,1.6153175287,-24.7176189382,-3.0201172593,-0.7381957142,0.9850201772,0.4866924176,-1.2571397932,-0.4461297492,-0.3064183741,-0.2570258716,1.54463318,-0.3548126408,0.2772858142,6.3191254357,3.058139634,0.3556962057,0.2167143317,0.310321343,0.6131145125,0.6665059038,0.6079192759,0.1079958291,0.3953293745,1.1063952264,-0.6783127758,-0.3795905806,1.3272342804,0.1114035213,0.6884257622,-0.0516127778,0.8706636918,0.9288458997,0.6810657663,0.6273812384,0.3218094854,0.8195552407,0.2693054551,0.4937439598,0.8354823739,0.2653291234,0.3241957956,-4.3214911903,-4.0596818154,-0.6411523398,-17.0766803126,-4.1789802818,0.98295996,15.5014529379,8.3582818401,5.0193423042,-8.0628455761,-0.7893445734,-32.3089471017,0.1942553346,0.0158116734,-0.8388477611,0.6121687205,1.3485259459,-0.2948651636,0.2029105888,0.1043671256,0.5012878009,-0.3935000722,3.0111882942,-0.0147635557,-0.2467022532,-0.1174806359,-0.1478338753,0.9176584736,0.4554730775,-0.6796915297,-0.0655295198,1.8909521462,0.3536773861,0.2442251833,0.7334458535,0.0476197583,0.3299963847,-0.1396319153,-0.2922797053,0.9732536497,0.3759191527,1.4265143398,0.6374808009,0.6924582363,-0.7743261948,-0.5723944561,-0.9892573531,-0.2474031156,0.9264611656,2.1535742071,24.8395937448,-8.8770304487,-7.3925580071,-3.8729474091,-25.984040858,25.3737322471,-2.0924464014,3.1831740436,26.2932261093,9.9320580416,-6.9293092888,1.463212281,1.3797981735,0.6825160662,-1.4003483564,3.1638373276,1.1260498369,0.3304565311,-0.1623761402,0.5891996384,11.5924400053,-3.5951481986,4.0864334961,1.1121653959,0.5691453112,1.484488199,0.141349839,0.6615829545,0.1627417285,0.0677339156,-1.3754178614,-1.7147470033,13.5545221016,0.5003018595,1.0985554258,-0.8154998251,0.608467022,0.717693412,0.8317896378,0.0250565979,0.261066735,0.3410715918,0.8589631025,0.5774235366,0.5830060792,-0.7808260315,0.0188217958,0.4719120956,-4.2910682138,-12.1842820659,11.0074751725,-5.6701863232,-2.7048462805,0.5606870032,-9.4108574057,-4.4231632766,1.1873410451,-3.6448438949,-0.1174280966,-0.7802546279,2.0104021615,-0.1203815285,0.0878603781,0.4185525743,0.5252431459,-3.0764607507,1.1042434638,0.6614841295,0.5520996857,4.9097129478,-1.244472851,0.0936819239,-0.4323909874,1.9187773714,-0.799471182,4.7114744876,1.4038329436,-4.2853258094,-1.206979853,-43.0605698829,-14.6406692733,-3.0882281795,0.1738673208,-0.5563613713,0.215148093,0.2076197923,0.5239119608,0.8391387125,-0.0905894254,0.3753846666,1.834410665,0.6136298943,1.2013529424,1.0305477589,8.7605981243,1.206602452,3.582447967,-39.1489989507,34.7020509458,2.7282711697,23.5173377619,-3.3064054611,-1.5453186865,2.9582114757,-39.1097637454,21.6157479866,-13.5441031462,97.7062333579,-15.6178421033,-0.7202785816,-2.2027853167,-0.7160399009,-9.2457438236,-3.8203683379,11.8340862688,-19.7971047633,17.0428487985,1.6180888913,42.2576684754,-7.3318430132,-5.3022524767,0.0315116053,0.9829137684,0.6723854808,-2.8268135246,0.2511070604,-0.4633798495,0.1650648951,25.9337524829,-0.5598470262,-0.4517577751,1.5410740763,0.447356826,0.6305324695,0.384436617,-0.0419476261,0.1937281997,0.5505938454,1.7607029964,0.9777287396,0.6914818571,1.3982661329,0.7669559298,-0.0252861953,0.0797464557,1.6007705634,33.5345429536,27.1890990875,-18.2270225357,-0.1096855598,21.5698353719,-8.4405380729,9.026900397,-11.7286764686,-37.1845971786,-4.2877241445,-4.0903941989,13.9781394395,0.6461448722,0.2911146608,-0.2136526503,-2.6538136476,-1.4182950937,-4.3410416167,12.1038138325,4.1396563494,-3.8820367296,33.9789951721,-10.8044688225,9.7509347479,0.2866902671,-0.3793734538,-0.2651240756,-0.9127399059,2.2714266106,0.9900893994,-1.3287900282,9.6299671728,38.8171740916,-3.4583767612,-1.9327525176,0.4966299312,-0.5301295388,-0.0652490466,0.2831014131,0.9561582844,-1.6366352781,0.8092391561,-1.3894686291,0.2231130646,0.3725481065,-0.3967649008,0.5941119899,-1.1065981466,0.622435177,31.2001587057,-49.5792182987,12.5709556696,-11.6113194666,16.6656846927,-24.0348107741,-18.4414150454,-11.1500579447,-11.8434766035,-12.4982903311,7.3108246347,-38.3155274231,4.3727239956,1.3490755823,5.5710581929,4.7069739662,-1.7110798513,3.5788554352,12.1842152228,-12.6062447473,2.0999095839,3.5946271666,-5.9611842954,1.1734162312,-1.3542178385,-0.6901326964,1.0924999583,1.2258318929,-3.4275857174,-0.0725144402,-0.4326884782,-1.47371453,-2.5508822124,-2.0968774858,0.0477064907,-0.3095985071,-0.2200704338,-0.3415999877,-0.3602369627,0.1890446217,1.0885016218,0.6861898112,0.1174613078,0.4048428577,1.3815592146,0.5660768245,0.0426169551,0.698200323,-0.2590089635,37.6265942099,-9.4638759091,-1.1061058768,-3.4066719627,-7.1946917611,6.5192812207,24.4368603529,4.4546737377,0.5841223323,-1.6938162732,-1.650217146,21.1628502094,0.310006125,1.1352590109,1.7618572381,2.8787723958,-2.341655348,2.4720355757,-0.7524804563,-0.3242272604,-0.7606810968,3.0975679659,0.3827632639,0.9505580337,0.2991251157,-0.6882343901,1.2957268056,-4.3177559484,0.1106551711,0.9575107388,0.2633716373,-6.2546017961,1.8088790016,-7.7987400859,-0.131135024,1.3696935417,0.7821056897,0.7302494454,0.6807544832,3.2691729329,0.5119341616,1.1313307667,0.5790691087,0.7611013598,0.7616351003,1.2565790894,1.0558361059,-0.2353256848,-3.7702434203,-18.6729509506,16.7613649535,21.6883753118,-10.8234647524,6.4597289784,18.8604866945,-6.3632966766,0.6456290656,-1.311924474,26.0896703114,-33.2245690083,-6.2278244367,4.5342020206,0.9806172032,0.9237940709,-0.0229666246,-2.723021589,10.4349783669,-1.5129551575,-12.8835528812,1.2354541017,-4.0660143399,14.2494460721,-0.0752522257,1.7723990701,-0.2097394166,1.40411922,-0.4323478359,-0.53973508,0.3192640113,-1.689956493,-11.4265157106,-8.2585271169,-8.8486426678,1.4737781661,-0.021770565,0.5054834329,0.2324071161,0.3516840406,1.2833521416,0.212864047,0.9464767619,-0.0452512504,0.2125947967,0.947969814,-0.6417271054,0.252158203,0.6458815496,0.493536463,-24.1078542888,10.1645194161,-0.3667552679,12.3079707759,-1.5267092973,6.672090785,11.6765749312,-0.1593680966,18.6308642575,-7.1800391244,-8.0551557605,-4.7083095071,-7.4495682037,3.1978256488,1.4879602682,-0.5872149415,0.2777994515,-4.7952870909,8.1854625337,8.6507095511,0.3830793315,-2.0032708106,-0.3363408263,-0.2964966594,-0.4160549711,0.6106040593,-1.6720688583,-1.6841530896,0.2048762558,1.7490225551,0.1415337632,-0.2385633577,-0.4181803098,0.5053591109,-1.4378996714,-2.0619365862,0.1244721348,-0.4878072395,0.3577519327,2.3823418223,-0.7061641181,0.4266861498,1.6595690368,1.4246233993,1.0739976861,0.1067826275,0.189389909,0.5858828208,-0.0718177425,-46.012425249,-9.4399819781,8.882230381,-15.2960417399,9.4005521412,4.9239222292,21.0245761981,-2.011095424,-0.0498293123,-56.9695532683,0.3319595554,35.5908754769,0.9874107519,-0.1481108451,-0.3802800513,5.7612391131,0.5102618782,1.743225032,2.9770260198,0.5764209981,0.0732265201,0.0333484857,0.4451466332,0.6497891575,0.6808332527
##end
biasActivation=0,1,1
[BASIC:ACTIVATION]
"org.encog.engine.network.activation.ActivationTANH"
"org.encog.engine.network.activation.ActivationTANH"
"org.encog.engine.network.activation.ActivationLinear"
