encog,BasicNetwork,java,3.2.0,1,1427686553016
[BASIC]
[BASIC:PARAMS]
[BASIC:NETWORK]
beginTraining=0
connectionLimit=0
contextTargetOffset=0,0,0
contextTargetSize=0,0,0
endTraining=2
hasContext=f
inputCount=52
layerCounts=1,79,53
layerFeedCounts=1,78,52
layerContextCount=0,0,0
layerIndex=0,1,80
output=0,0,0,0,0,0,0,0,0,0,0,0,0,0,0,0,0,0,0,0,0,0,0,0,0,0,0,0,0,0,0,0,0,0,0,0,0,0,0,0,0,0,0,0,0,0,0,0,0,0,0,0,0,0,0,0,0,0,0,0,0,0,0,0,0,0,0,0,0,0,0,0,0,0,0,0,0,0,0,1,0,0,0,0,0,0,0,0,0,0,0,0,0,0,0,0,0,0,0,0,0,0,0,0,0,0,0,0,0,0,0,0,0,0,0,0,0,0,0,0,0,0,0,0,0,0,0,0,0,0,0,0,1
outputCount=1
weightIndex=0,79,4213
weights=##0
##double#4213
   0.5054929713,-0.3771410276,-0.4477709849,0.6210676164,0.7616156524,0.341776383,0.3197397715,0.3294785151,-0.6776023067,-0.3585612662,0.294635817,0.3252030207,0.32118774,-0.3256611398,0.3240006686,0.7265282271,0.4582283044,0.2598248293,-0.2256605798,-0.677429271,-0.3869768914,0.2941282429,0.2937175255,0.2675655872,-1.1951859744,-0.2995937217,0.434796337,0.5359334457,0.2980307415,-1.126981475,-0.9549746285,0.3925474613,0.4205435885,-0.5270679475,0.4840484925,-0.3055056055,-0.4842771872,-0.2634785439,0.3869459416,0.2609134434,-0.3565291868,0.2894431394,-0.7302561753,0.2998133699,0.3080506994,0.7074330565,0.5224049043,-0.513801166,-0.81184235,-0.428510397,0.4615649178,0.2483459122,-0.4509387825,0.3095356573,0.3996331616,-0.5841215896,0.6630409129,-0.4664466009,0.3590956118,0.280219546,0.3268196745,-0.5392473453,0.3685731631,-0.4163377962,-0.7458522252,-0.3684994257,0.2509056976,0.2905153463,0.235910557,0.3285541501,0.7150093652,-0.5937008822,0.2573696299,0.2668136829,0.4253056213,0.5463662154,-0.5192058303,0.2226209708,0.2149517029,3.2174218258,-0.7728054868,-0.6397434541,2.5868999463,-14.5167297396,2.5808742385,10.742661247,3.1986912001,-11.9978804912,29.1540794591,42.1193005524,217.297837942,5.0353190674,2.5424180906,-3.4797745263,-4.2189156861,-4.8203649175,-0.9772015527,8.9052656545,5.6667691752,-0.0456994477,-5.2642762864,27.9152820746,2.675781833,44.188544296,-18.9056546466,-11.3354091538,8.2161361113,11.0118239334,-2.3675434471,-5.9560815777,10.6506156768,1.8971691351,5.302532604,-0.9517271418,-1.835299977,-2.9674974198,-1.404227432,0.5732101501,-1.5838243573,3.8125768553,2.5466233507,-1.8898210496,-29.381261792,16.2442529123,-2.9492816166,1.2808831272,-0.3268824473,-3.5948220541,-1.0501343871,-3.1789982983,3.2566893446,3.0961391126,-1.6879807607,0.1606191023,0.726433972,1.5716882049,0.3539924677,4.8761030217,8.5299266041,-6.5553864607,-45.4125507401,-12.8371065877,-49.2751881583,-138.5697299461,-5.2855332606,15.6346475345,10.6012398935,-13.0141025901,-10.492249216,4.2628484554,7.5279882018,-6.3358573987,-13.0575556175,22.2106302713,-50.3479669196,24.7716103573,4.8773004092,18.2431585991,0.7316694775,-19.8202109214,-4.4810077688,0.5685782728,8.7039826997,-6.3911183428,0.7760657013,4.7123242723,-2.3221609706,-3.014448149,0.8915570655,2.4876502393,0.5901705411,-0.6228180084,-7.6077191985,-6.7914916168,13.8269555079,-6.5432575309,4.2522171379,-0.9322365301,-0.7328601017,2.9036732468,4.2260566524,-12.2487357774,6.5341842757,3.1695985609,1.382873407,0.7738377723,0.8759101981,1.0607793195,-0.0242506269,-1.9635709752,7.0503336585,0.652492629,1.3287442115,10.9712808393,-2.5513589378,22.3639961218,11.8307224249,7.4235519086,0.4888975521,7.9649506417,-1.7532457967,-4.5194831841,2.4725659704,7.3925583462,7.4432424745,11.9410382589,0.9287738002,-10.2306828048,2.1181589695,-4.1987119132,-3.0567923729,-5.9257668399,10.6525817301,0.0866055515,-0.6684215257,1.256138755,6.5615190862,-1.0840307413,-0.5584096059,-1.0314379113,1.4647980361,-1.593471607,0.0228503203,-0.245680339,-0.1802535786,-2.4471155975,0.4889852633,-4.4106090636,-12.3125907148,-0.0149822472,-0.8961628457,-0.2140874351,1.5083882475,2.3534550567,-7.905589726,0.7788738861,0.7687683579,0.05844809,0.2216384351,1.2582715625,0.7602212327,0.0144231772,4.4411572092,-4.539315418,1.1799675641,-2.0978379145,5.0054725028,-6.631280765,0.684898409,-63.0773834247,1.8494725225,1.9874614772,0.701533316,-2.8332056257,11.5996321774,2.7385647265,5.4647301323,20.0233368451,5.6340273111,-14.601702419,-18.4411354343,14.5727651326,8.975521915,0.15284773,-2.5155897138,12.3829253647,0.0339376417,-7.5451158149,7.4074103307,6.9936064226,-0.0480972365,-0.2980484933,0.2961062364,2.4649768199,-1.9485566013,0.4215285571,0.1966964461,-1.082748742,2.3530821197,4.5435981676,-20.8573721269,-2.0815178836,5.2553757797,3.8121575305,-1.3270132771,1.4927042152,-2.8414509362,6.5817798714,-0.6478475916,2.4212166641,-0.9765916849,0.1151743782,0.7937712574,1.2054770568,-0.3236901767,-0.6821490173,1.6256862913,1.1621114865,0.2557704758,-7.6164909262,0.8879849882,-31.2230117733,25.9018814064,2.6100009852,-0.4076025657,-0.6119291809,-4.3929712248,1.8391875438,-1.2239362255,0.4015819007,-2.0627695846,-5.9500133729,8.2035363308,-2.3220046715,-4.4904496546,-7.7408529344,3.0955227843,9.2259724871,-3.1394761452,0.9794802032,-0.0739801811,-4.6566266454,5.4628841684,-0.4674882627,-0.7042404459,1.4882258919,0.983821936,2.5642436955,1.9810784763,-0.6760889202,-0.1844377976,-1.5324898242,3.117144959,-5.7948237756,3.1731874225,-1.6129796758,0.3828274983,0.4342671054,-0.7527934718,0.2909901828,-4.1165655893,0.5916761794,2.8448110404,-0.9837795581,1.2243036479,0.9045958372,0.2628921516,2.4322505197,14.6198498079,-3.052951026,-25.8411757365,8.0325758893,118.5803354316,-204.9458611679,89.0861791309,-241.44440444,47.9936277223,4.6742529029,-44.9242854056,14.1085677109,-2.8137191727,5.6920154728,-10.2266026807,17.4623988134,-2.3179050142,23.4111791399,33.9192570038,35.0065378305,3.8458752908,18.2509955871,-16.9111630885,24.9828100601,0.0343996024,0.4227492236,2.5854916489,0.7540254979,0.2302876476,0.2471519033,4.4569383084,2.4077410313,3.8081909162,1.0092586852,-1.9269301471,-1.3191480399,1.1899418621,-36.2633239446,-12.8960148423,44.4964398759,38.291778407,0.3049405658,3.5454661113,0.524439538,-6.0913679117,2.7424518914,4.5793072623,-2.214688757,2.3634095158,22.4901533668,-2.1705908045,7.8167001552,1.1847927315,15.3122564797,19.5180176162,6.1913548003,-0.5627617463,323.4839777973,151.5680349589,368.4454836274,2591.5944260877,-22.750040313,-16.2793852128,-185.3873081194,10.3603065973,67.3067189454,-5.3348725682,141.7951911008,-9.6173511993,261.9220275586,-265.5485058614,-55.3668299604,240.5888996663,-323.6294262532,132.1370673994,-232.4841891767,249.3292182282,41.4034470924,-0.1456468395,-141.656828085,205.5717556512,13.1740341261,13.2126060822,25.4984145066,34.6286283422,-8.5310823102,15.962841134,-26.7298019875,-16.5243594782,20.4034942433,-18.2930493267,80.3261149446,275.0062410861,20.1327330829,12.5703935433,-9.0644627578,0.0055629596,-58.8057121966,55.6286642565,-37.7934837984,-76.7562323291,1.0929551323,-20.0163361766,-13.4222489687,-7.0621623391,-1.4782008854,-2.1473322406,-16.209535743,70.4574032377,-23.3387923031,-70.0073902635,109.8334186481,583.3475829891,-410.7487731427,-33.5678901956,-43.0009645332,-58.3867007431,-90.803395119,-114.3824495143,204.2612409085,-239.1118800503,-18.9442765952,66.6509051878,27.8974241133,-282.7206123472,60.1270358981,176.2154808306,-49.5633942923,-41.4102478571,390.10106539,-21.097542622,-0.0859972041,97.5077161021,-51.3306546384,28.1176451056,16.1294478053,16.4603286815,8.5491988405,-11.1900718022,-35.3388106968,-10.1762702229,23.5646081652,16.2298066703,106.0438297601,99.3932686323,47.5057699061,-5.4897568885,23.1215355991,6.4004070042,2.8596412829,-17.3867199636,219.1728853304,-7.6682817091,17.9388177273,-1.7202792533,0.6557626598,0.1126495449,-0.1809815483,0.1626177412,2.0226590904,0.1071799417,-2.4486708422,2.2313914268,6.3249057187,57.3335997271,-0.1775592703,30.5969529291,0.3674911932,-3.851017361,-5.1089742579,-4.6935802237,4.5132347101,3.936050317,-5.125493436,1.0070191218,-2.9182417498,4.7090877518,-2.1258725868,-1.5519570878,-5.1390301131,6.4424809485,-2.9708167045,3.740998877,10.1906237728,-0.3977182506,-8.5487669441,-2.1210741575,0.5456473602,0.1278198767,2.6203036603,2.5384886644,-0.0569400582,1.5947002498,-2.6548424673,0.247927404,1.2037278694,0.587290187,2.4302425427,-3.0950870575,-0.0913438433,0.425781349,0.7478679909,-0.8984850715,-3.1640422773,-0.5832815699,-3.3714226291,-0.3739662677,-0.6170090924,0.2684551097,-0.5851165754,-0.7100759162,1.6650058955,-6.3266890761,3.8844657726,9.398789129,0.8532170219,38.2308075243,-45.9387232461,149.0931888379,-167.8533526409,11.0177899586,-5.5265977469,1.6470964204,-0.5608465776,8.2300317633,-16.9919643863,-10.9858217304,15.529467789,-2.6199388406,4.6619979395,-21.2440666999,21.1878330671,9.8500406511,10.3288183003,-52.149764722,34.1307052087,0.8797203565,-2.4214844458,-6.2073397255,-8.3174156147,2.1880681233,0.4253564698,2.3643553929,-0.3569323524,-3.8045394283,0.2835134222,1.5160120692,0.8724937979,2.3483715279,3.0436360644,-20.9028644134,-15.5785307628,3.6877671952,0.6096662741,-0.8935859796,2.2284522824,3.3072223669,10.4258615534,-3.0260681726,11.0201452161,1.2214512647,7.6446080955,74.7954047,-29.7664213298,-48.1897284442,-57.9780362327,211.9829442581,-52.7374336542,54.1151351586,-120.032861383,-83.1678132677,381.5857583282,2347.6374184998,34.2978910307,20.3117626619,-51.2583444476,153.6548375309,-39.2378823311,-161.1852918779,-322.9291127175,-95.3555824474,36.4565560644,-44.0423546115,415.1427871602,-192.5108185244,-149.8700703687,1093.9580365916,-205.1634945472,-176.0727181879,88.7731540032,6.2877438714,174.1528297174,49.7836356109,-45.7788158255,11.3439738859,47.0752697777,-2.2163357139,-79.1606288462,92.8785275834,-15.7890263629,19.6907403201,46.100237522,-150.7641028741,294.0584610644,-11.2795484271,33.8558546694,20.5240985152,36.3774583057,27.5294386699,-19.0696157927,21.6602837034,-27.4064261208,122.1461659601,-7.0469580083,15.3722066429,4.3783940631,-1.7090406048,2.6689090749,8.9140083307,-7.6854318467,26.6092502904,-20.7092582962,48.07163482,17.3975803175,-453.0247559177,713.0336828683,-4.2469717411,13.3373601547,34.3087913514,7.3914844315,-4.2921103595,-56.784469237,26.436296487,110.2116242607,-65.4255504869,71.6637212886,85.2149302751,-198.5336016008,44.7963267769,93.8220781548,101.8612281083,-37.315854178,22.1872593085,96.9418802955,-150.2228768886,28.5005642603,-1.2256699364,7.5619657551,-3.4308627705,12.4546164291,-3.0390425044,-6.308475254,21.1687047139,16.0225513002,29.8862677426,-52.7108209596,55.5599866764,35.3835023675,-8.6491516289,-11.5054473403,-0.8728816601,-1.1528740088,-0.5233854922,41.7592934688,35.4828940518,-16.0659471991,2.3146791716,-3.2873772097,10.2115501919,11.5855189246,9.0979475204,-44.6932151415,5.8070396649,-1.3796832498,164.5324778977,307.2512000916,-662.1088236044,339.6393385197,2799.4860018392,137.4408378174,-108.4843008249,96.0279954161,-287.9232090218,424.2299136369,-179.3212637681,56.8741129103,206.2784000027,-37.1166225555,-421.9205692986,493.0134421416,247.3064193652,313.9797902957,-184.0169540646,-9.9537736513,-209.2383549315,93.8024974198,-65.5172974296,-117.586347275,-4.7963548988,-45.3899791618,115.6882718777,31.931844262,5.2280181534,32.7522576008,45.3151106281,16.1313403565,-10.8204476389,18.3198354883,-74.1459962763,101.576737122,56.6652151709,-130.9395561302,-12.4913169554,23.0332158185,37.7475575034,-103.9402991978,7.404138273,-66.8370992834,31.7143560639,10.7727666225,16.8307667029,-34.4662534955,-4.0260327458,14.018473974,10.5794248377,-12.7239028917,5.2488375326,-4.2110037278,55.2798698266,196.8655503974,502.8259297963,-1286.0427977693,185.28393555,-68.9490596187,-45.9934557331,-49.7426483114,13.9818556949,-122.9666718369,68.424975676,-9.5679081258,2.6409980633,232.981515821,-16.6091086583,-103.462735333,-107.2661257799,79.1194692056,39.4586927837,-31.4644074399,22.900462035,43.3285585421,47.1502450759,-120.3032953544,20.7720207609,9.1655928229,22.079483772,-7.1970777083,11.6426951708,-4.0124312164,1.7745472615,-0.3433988124,2.4101252803,-65.4012353909,-88.8057904663,-62.4748452166,55.8947621032,-2.2941288345,-7.0339639608,6.3667090211,6.6219301008,64.0782309662,26.418815924,37.36633511,3.3045336387,2.0633316638,-2.7641228891,0.3277303259,1.0111268324,0.0042423961,-9.9579226797,20.2574929659,-4.8922202151,-27.1333615646,230.7965015031,-411.7850055663,317.4699695797,17.9135109385,3.5484548263,-12.3919594575,22.8008393058,-4.3521575638,-30.6524347852,-16.1140320437,-2.7499688331,-23.5098094022,33.9663684303,16.7942782441,33.6341978516,-10.2863373233,-27.3178076233,-14.7903096798,-42.2957343779,-23.2640731391,42.4219670184,16.6545770273,-28.5486593618,-2.0618172043,-8.7053335843,4.7997720057,3.3279179889,-3.1139778646,4.657072125,-2.1690289538,-1.9167823505,-3.5040009174,-0.2524441911,-9.917703544,3.7856552737,39.3481254279,-1.8602131529,-2.6496141127,1.5518645167,-2.1041761478,-11.6797768406,9.4693121145,9.9438901258,1.1028143818,0.0338351261,0.3714946568,0.7287477715,-0.0518362506,-0.3677544259,1.0307147431,-0.4293448975,2.7692612304,-1.6262739389,-1.4607320762,-29.0276947463,65.7013061027,0.4006887037,0.4802239513,1.0498062579,-0.2844809224,2.4051253907,-6.4715337739,4.5148095396,-2.3772231655,-0.5003316761,-1.8186489632,-4.1157993635,-1.910050229,-2.7467643814,5.9477572393,7.7576299844,-3.1737248132,-0.2247241593,-0.4616104247,-0.4351209075,1.0060222168,0.4954361311,0.2710784429,-1.6403887667,2.6932324841,0.1266542659,0.4142933223,-0.820700568,-1.9407486705,1.4845717407,-0.2708441167,-0.791061509,-0.3675224246,0.4989332061,0.45410154,0.0784183131,0.1620164461,-1.2318957768,-0.7063231426,1.6275514585,1.1115456905,0.4156602609,1.3393418004,-1.962672964,-1.2681956807,0.7807358939,3.2179661823,10.1509191694,-3.1256231817,-3.9156322064,0.5658294892,-2.5173007204,131.0758433047,-259.7995716538,1.7245694191,8.3303384402,0.5594717007,-14.499657185,7.6796823284,-0.7059575121,8.2310154691,-15.3211678517,28.6972709952,-40.707093092,9.9655489405,4.0728330889,-20.262379192,40.9416401886,-24.472965316,-7.0795030536,-9.6217432629,5.7470344103,4.0116016537,0.7939398032,-0.1387012906,-1.1589799237,0.5673639199,1.0538445179,-3.1655113458,-0.9006643078,0.2305531164,0.3454617546,4.5196620413,6.2021939986,-7.2863646642,-9.7207458475,19.4517240141,-0.3336506515,0.6367934116,4.2124034625,1.5342717041,-3.4625424215,2.0573567541,3.887887262,0.6509348902,10.3338118781,53.4104468843,10.1356661307,-14.8161927555,69.9734438237,-25.7379416073,-83.4113064216,-97.6372398086,-113.8276877277,130.7101560915,-1923.4970037232,-2377.9270861034,-73.437103328,152.3416754712,-60.2761241793,348.557543526,-181.3193511544,-101.6701196052,-326.3494984242,-380.624555923,-95.3629751211,-657.4916597088,72.7918339454,-52.2884063331,-494.1433131707,-24.0756498096,836.5091764479,-870.3511985011,-81.8560392445,-23.9823509836,197.2342762561,119.9193109582,-26.6422492065,20.5415802403,11.9619119553,5.6107447218,-27.5346610569,29.1314618921,-9.4928058616,-11.7746224295,169.5013649599,0.0607658672,5.9392627251,88.0122320425,234.9787771705,-13.0325243687,32.1130742251,-3.9378595858,240.2623257817,77.7965468791,-34.7901980428,19.4293061221,-4.2663422957,-24.1996753357,15.6786138239,-80.8590074769,-0.5189707929,-102.3044428585,-263.8093843943,240.6330848775,30.4202575722,139.1478461418,-424.4670378351,868.1068389157,1211.6505901441,13.2179824721,197.5396927987,233.1016398025,-62.6571093023,658.593696624,119.0544111667,-347.8376235539,-279.220348633,26.4910104571,111.2545917499,57.8368890797,482.1304951996,235.3409378406,648.9140655636,-848.0753643075,-37.0553832916,-17.1472963206,-29.619977017,-30.0570865855,530.914365089,-9.4801775426,-114.5581678103,104.4369980813,-49.012275006,-31.9865146301,-16.8678985484,6.423637277,153.8246070549,-70.7993891206,29.9630861831,270.1167313449,70.4507594185,-173.7252767146,-31.5272827462,50.0296781301,46.8727940889,53.1266342385,-70.2135625689,103.7153604077,-39.2542762697,-0.6847648766,-0.1453374059,0.1993547407,0.9016499466,0.0637505659,1.5705668061,-4.2098536373,6.2878701082,0.0843757797,-8.5694305134,85.3934476561,29.8215780434,171.616676025,1.8351726221,5.7978960736,-3.1561064439,7.4429744628,1.3815898681,-4.1248025694,-0.0745877405,3.8282975383,5.4784139807,-20.550965294,19.6512521738,-5.0526763667,8.69054431,-9.5205166422,9.7079570558,-13.9765847172,-7.6696604319,8.0099570001,-1.5097812195,-8.0431031832,-0.9034196183,3.4552941786,1.095125603,-1.094898118,0.0458253295,1.5381689988,2.1308247841,0.4150132027,3.2014075272,-23.0106063757,44.0102473444,3.256248666,-2.7294817724,1.0307025968,-0.7737696553,3.1519513699,-7.4878549692,-0.451887214,1.4168624927,-1.4489248371,0.3804261402,3.5103608966,-7.5171531901,2.3008077282,3.7157392033,5.0886149813,2.1010266352,1.6262903383,6.5942816791,-45.5398477796,226.0659107069,341.4152829319,-43.7078107229,-12.3342587752,4.3897402454,-16.4499565074,-33.5186050745,1.0177876961,27.8257694737,-14.0314660337,56.5555694278,80.7670913378,-129.3632459444,-44.1375390493,93.210209072,190.1020612699,-223.7421488615,167.011654216,-81.833384161,-8.1612708479,50.4364754396,-95.9007879853,180.6990083335,-4.0675734578,2.8125130452,-7.2233734379,3.926386235,-10.8172091264,3.9151075762,24.8672831832,-1.2456416229,18.8547525599,-14.5938986583,71.8438495088,-25.7671678906,-38.0455179038,-5.2444405146,10.7235525164,2.6863247733,-26.9964769938,47.4776781464,8.9617614778,29.6656956114,4.2494687837,26.0960661819,19.2767754046,49.6277075908,41.6531885722,21.1233927715,289.6050735064,6.2144978438,-80.1643320592,6.6470103169,-363.6339184874,375.1558250718,-1783.7246937942,73.1009419221,-99.8024992968,-53.6380688399,102.5543212586,16.9829069418,-655.5164011536,142.1703356409,269.985215716,99.9399910788,179.6928645523,-281.6908423758,113.0176246806,-28.1047034852,52.8664783437,-85.5041126641,274.1672721327,-47.4775962853,7.8194297957,124.7698236997,-180.9232606733,18.6800544851,-46.9193111671,136.6061972815,2.8383898678,45.8100821527,54.5009907675,-30.7783500541,5.9628180432,36.7804494817,52.9521222949,-271.8379543056,125.8232643686,88.9346929305,5.1610301096,15.4051456839,17.4189339757,181.8960138912,211.5782769262,-1.8706418873,442.4644172971,5.8081344048,-23.6493686936,3.4717301507,8.5224924982,13.5092248238,-11.7678585954,23.9927451823,18.6061375386,20.2971047465,20.8023464824,0.9844874905,-2147.5238747207,-229.1443523544,-47.5397548698,-18.0994208624,0.5412309469,61.5797754333,12.2407156645,72.8667895967,-242.9189281354,-10.664657837,65.2139286798,6.7746238328,-460.7876637025,453.9650754315,192.6834543639,320.9566348495,-43.3311513705,-459.2911792425,72.4107818257,3.5532942842,-13.0542427832,-218.3075261228,-18.9845249751,27.2442927397,3.2134901257,17.5116124315,60.0612522486,25.8124666577,58.6698623395,10.3452489541,54.1457244604,-43.9926931362,192.668162045,-45.3491331448,39.5167268865,6.2334708,44.8063955878,33.8804270203,26.1789737443,118.8889699482,-8.8635675672,69.2126933289,16.8838319831,28.2319916475,26.6466802456,13.1691880293,-1.7910094705,60.8091944935,69.2434453359,-64.7042351852,78.8995995427,172.9419408229,22.6894587881,138.7728997803,-681.7158519623,-22.7859653919,-73.0450913328,-21.264646681,92.7445408783,117.0147313605,-25.3125787788,35.8820117755,-68.4208605968,-50.2050704144,-8.9221382132,-93.7411909494,92.1851637409,-80.0194909878,70.8624715139,24.9550404054,-450.3522673397,-101.9502931688,-1.7348311351,31.0193844427,49.8355826744,11.2520167293,-1.3559941133,18.3698355339,-9.7726229051,31.0128069849,23.8657543844,-6.1521403448,98.0849397059,-30.7799112921,205.4696499744,99.752613742,1.0990263279,21.1399684376,27.9750885462,-14.4995305323,40.7603449819,98.9979364161,89.938744224,-50.9029579202,-96.8103457886,-2.3579398032,0.2581541213,0.7701668405,0.3008111059,0.4207444394,1.830849592,-0.7864591692,0.2009546234,0.7540105125,19.5099531543,10.6537265801,-26.7727753162,12.1998321985,1.098510853,-7.5408102543,0.6130478919,-3.4702552134,3.835318591,-2.2543911047,2.990849654,2.4516553003,11.3411182383,-22.2263905471,19.0107827472,-13.5661942279,0.3919606559,5.5676099546,-4.3677508495,4.5163482245,-0.1844351631,1.0084624669,3.0668207589,-2.9583192711,-0.4450869236,0.6434331564,-0.8719282566,1.1134636656,-0.7504404298,1.0747654184,0.1739583292,-0.5011218748,-0.5623594181,-1.6404073426,1.0013441652,-2.6806804103,1.4994518588,0.3782475156,0.9494677978,0.5592779858,3.4541723335,-1.513975812,0.4775621216,4.0894581665,-0.6142329904,21.5175811401,-4.5161306632,5.2587251805,12.4504501222,83.9773809562,-13.7418046392,-65.954013117,-187.3158967953,127.9734828291,-497.1025887118,2246.6605752365,520.7131750119,49.8230791677,-58.4540335809,75.7337150367,143.6379695322,26.1259866292,37.3708583199,22.59799969,-116.8183982043,-234.1547024544,161.3300614331,-12.0747450536,192.4428715876,-75.035871032,-153.3956550019,49.3972843158,234.4095751075,-44.4400499553,-49.6673250635,22.0286826707,18.511669054,-12.2927699338,-3.7111618165,20.9702184492,-28.7489119527,-54.9524583847,34.7162125074,-71.4905443256,-33.1522043906,38.6251523249,-64.9266420388,115.157609184,-39.2982068111,128.2950611765,22.4428312238,-21.8665924099,5.4222437775,-41.4421625124,-228.0323571879,46.7637175922,11.0476279634,3.3502467017,-6.0422987355,-7.2772353948,-2.0025711307,4.3833160266,0.57299133,-17.5032654379,-4.2734109834,0.6474556993,-131.2639873629,8.1611450638,151.1138072586,-276.6897667294,12.8924058811,-12.4459619134,-15.1922287665,3.8862092548,-29.2925185146,20.998485914,-13.4299807643,-17.4581119972,35.5159146974,-71.1462614646,43.1248875249,-69.6135330861,40.2910721866,25.7739584041,-29.4343935055,49.8180236256,-16.4131935768,42.1804627374,-19.0224380377,19.7964229373,3.6128642883,2.1972342228,5.5925764131,4.0228471909,-10.0830437724,-0.7889452522,-1.7315449229,5.6739449056,-9.7139160684,40.6250575264,3.3596387546,6.4631208827,-13.6003083711,-2.3153883409,-5.2013162651,-1.6247216956,18.6552870853,-20.0804867979,-4.7763027382,4.4865885342,5.8808750806,0.5299152346,2.316297925,1.51994931,-0.0856692748,-2.5724766526,-2.1189457832,8.9109783488,-2.7009639561,67.4095293699,154.574046136,72.5348945908,141.0058545755,1.7841974836,-16.8343702286,-23.2110972014,-1.3915611846,5.7804938641,-19.5458783019,7.6538743152,-7.3732379115,-10.3449819061,26.1467222648,3.1499221484,-37.3005770156,-8.323829234,-6.041123278,65.9295001729,-41.9500579683,8.1156739823,-12.2758625905,14.0575977138,-2.0260003295,0.6863619723,1.3708194041,0.6926479478,2.1010944682,2.117393697,2.4229488043,-0.2642865719,-0.9047270318,-1.0003142358,5.1212108577,7.7768711332,-3.5451694915,-1.7202814129,-0.2152208724,2.6821045132,1.2138721383,-2.8611458272,6.1681503422,5.5174487414,5.1026650906,-0.3348419315,6.1415082609,-2.19675943,-0.3024047079,-1.7513105821,3.2653085582,3.2099457891,16.9778427325,-20.3292086578,11.4911839659,-76.3275706466,259.7433453728,-701.7480606481,-23.7853967802,127.1363480621,5.2221900453,0.5903982303,3.7258393234,-23.8937736259,30.2283326036,9.549516619,-87.2139123001,101.8378275032,-24.2243301533,-7.0910465591,-10.7263053429,4.1435724679,-75.8129127634,47.6403397809,-11.8134924824,8.2985734026,18.5594655556,-3.0566505263,1.6507344963,-0.9419659344,-9.1044405317,-4.0711863246,17.795437174,-4.2406877076,-6.6256749722,0.1381574472,5.2415543293,-74.7364818508,38.6516840904,-35.3873320953,3.6625996222,1.9339714565,9.2267895024,1.5837835652,19.6563993437,82.8432116924,13.6647920903,-37.1639763586,-2.7422042795,0.2622017399,0.8057629528,0.6404876794,-0.0854849469,-0.7169844524,0.9837799938,0.4585615296,-1.0237735686,6.5620619396,1.113218267,-9.5788938749,-7.3892283939,3.0795616947,0.4897602951,0.4414111862,0.217069716,-3.7122016744,3.4904868771,0.7305916317,0.0155730715,3.5251177932,-4.1159322046,3.2138226638,-5.8592823917,0.1599697614,-1.8404884507,3.4798037441,3.687632334,-0.5678563789,0.07381382,0.3387940436,0.9683472426,0.2223156232,-0.3058176085,0.5255378793,0.0885785389,2.0777676307,0.691066068,-0.2859083989,-0.0533845383,-0.6762104157,-0.1877913595,-6.5388921415,0.5220281849,-0.8954703954,0.2112003702,-0.0281332163,0.0915113566,-0.8158517766,-2.6859943232,0.2923311672,0.6954604308,-0.3376837962,0.9065064867,0.2829367208,0.5862569467,0.5602809931,-0.3289239734,2.375513789,-1.6879750586,2.2809886671,3.6248801839,-7.130315042,68.5094551327,-73.5686742385,0.6716742689,-0.2808086409,-2.629368047,-0.5542398571,-2.8742034349,-6.0219248621,6.7539228254,5.0342389628,-3.0373861124,5.007868224,-9.6277797318,8.826348691,2.3301814831,-3.2103176112,-0.8577478506,0.7600068887,0.1757553034,0.8285457756,-0.8728082756,0.6403615552,0.3482644339,0.7238979026,1.2583205939,-0.880990684,0.7443835788,0.5082857754,0.2236522693,0.7334719313,1.7189624837,-0.0451424812,1.5331713963,1.7233290387,3.894146764,-0.0082372895,-0.1222039269,0.1289013795,-1.0280773592,4.565963426,-0.8059677356,1.51112154,-0.0975909813,2.6144321243,1.6379708271,-4.9885603978,8.2495828278,0.275855733,-18.0912052859,-33.9599879559,-21.9655650441,220.5950578123,-7.7306623473,305.5518459679,279.0600892899,97.2386271363,-189.2228567334,29.6804607048,14.950762928,-31.0467612237,36.9464594579,30.5554308851,-70.2719245449,88.8807470672,-38.2884907141,-126.5363983654,28.1907960558,113.8073724713,37.5825784263,-103.0717475187,40.6230981779,15.935336542,0.1937108617,-51.588140109,-24.0443524189,3.8261483811,-6.170648138,3.6472514418,10.0124292053,18.5339917466,-1.3740759518,-56.3894074002,-10.2853967676,-9.1313888198,31.1689929428,-34.1126438669,20.2709086509,-11.2521123503,2.3611923046,17.7252903493,-11.6347057426,-16.8319842976,-98.0379238188,-3.5100495833,-0.3236996083,5.3519381749,-0.7566615621,34.6401638194,-0.7483684149,-16.2253236727,-34.7265977598,16.6003882596,-47.7004242331,16.2008120215,-74.4168448871,186.9544516543,336.0786553913,-1334.3382643429,77.8866254446,-37.5856874983,-10.5868479767,-5.8495816599,32.1805556276,33.5131092126,7.6964139475,43.7988753781,-9.0416463954,32.4274478768,-56.9332025027,21.1773802692,-29.5457008131,-52.228357255,224.7135671459,-74.3021957161,-5.4997851327,-2.6082851794,73.876255772,34.998319479,10.127533012,6.2764678359,0.6615161798,-5.8759003868,25.4927609798,-6.024382665,-10.4365121529,11.9460201411,3.7595279942,-124.1992332203,163.993262196,-11.6436622537,22.7674764966,-6.2952649202,-5.6416996573,-0.0357921369,-25.7540317897,26.0320983705,-25.2915876309,-24.8031972765,-4.0911707558,0.1780287068,0.6043115138,1.7214535964,0.750078575,-0.302280514,-2.807252302,4.9416564635,-2.0748503112,5.2872509196,-12.0835666698,-87.7685923051,50.287167172,6.444690634,1.7482216558,1.9003481667,-0.2307722606,8.9955644065,-12.158746134,-3.2623215554,2.2509827007,-2.1057670895,2.0335889236,12.7455618986,-13.3384841328,-2.1068589873,-1.2703927694,5.0896384137,11.8275992866,1.8219415528,0.7034436515,2.6792674229,-0.9164603396,0.3161576287,-1.3722786014,3.5996802886,0.9189351824,-1.5619204881,0.4297037273,-1.7029350579,0.4874226509,-0.5118871229,0.446524601,-7.7318764298,-5.2563657517,2.1475303787,0.7526825908,0.6257766027,1.0344838261,-1.8154160658,4.0877279605,5.5881097466,0.7370258309,0.0385718678,-0.1681422061,-0.1059037712,0.2551069413,1.5368820732,2.6296223229,-7.0864490235,11.6795243564,-0.4083385152,67.2378619241,60.8696617358,-8.9911764464,26.9373646184,-8.2307681636,1.7875683009,13.8262900211,12.5728215666,-4.5326836076,14.271849637,2.9225058606,7.8948457083,9.0749594329,-42.0745958453,31.1275782578,0.480649898,42.6930989264,-28.1180002552,6.9737308558,14.0457230087,0.2016793178,-0.2762285864,-10.3449816196,13.4396176531,0.8517985013,0.9631087083,-1.5987890957,1.6281976358,1.1461769279,-0.1496574512,-0.2366795882,-1.9992566457,-3.6184012519,-13.7393640505,14.2118833953,-22.619998403,-6.37568892,-1.6940402715,1.7668792184,1.0767597469,5.8003548286,8.0733521345,-0.2325311823,-3.0930813745,1.1692871819,1.7399495034,1.0395490212,2.5564895781,0.3306025553,-4.4827765913,-4.6765158323,-4.3694382991,14.7076512771,15.5787161283,-142.9191169246,11.6129476337,335.1259879127,3.4216648553,3.9488082951,-37.2573033255,-0.0040444272,35.4821022177,5.4506074528,37.4880265383,12.8093255208,33.3408280552,-74.4491087811,100.2553674954,-25.098626249,-74.3189699843,27.6630794412,11.5815234984,-14.1920507196,-7.4130506015,14.3012522548,-9.8807076998,-3.5936036195,-3.9970707506,3.1092660349,-2.3580516355,6.2474136201,2.6614983719,2.0930278187,-1.1394404149,-2.594500908,3.3047524783,1.5814975949,-20.6134397712,92.3343305956,41.3370286906,-2.4194246378,2.6062701699,-5.3446360425,15.7516693234,20.8856972448,6.3654929292,-15.0457942675,0.5633916145,1.2002596049,0.8000943652,0.7273793343,0.5144974585,3.8130893058,-3.1058446711,1.644884247,1.6055277273,11.4855879332,13.0407415645,31.1747931702,-96.7676944624,-0.3402582186,0.5295348486,4.3990718747,-2.414394633,0.8059522083,-10.1056380216,7.8979334781,-0.0417684288,-9.9412446948,18.3431212456,-16.2793238775,-4.3868487706,-10.7583934395,-2.8877436346,12.7123850419,0.5286396617,-0.2861861939,0.1114215113,0.9926225229,-10.5813000906,-0.7264162783,0.3626355774,-2.1979830241,0.0848899519,3.2530453061,0.9974664377,1.6932030736,-4.1286686019,2.8754088118,-2.4901509601,-10.7822313148,0.7345675812,-2.3080377388,0.698026256,1.603946451,-1.7113842758,4.1085718517,-2.495298683,5.2542888723,2.280139654,0.2754247147,13.1507877479,-3.4442356714,-27.5096601754,-10.6482154445,-12.8096205489,82.8783506369,9.5353727293,-3.7301111317
   -962.3434380788,594.7803671318,-3224.1477220137,3637.0601857194,52.6550988427,273.2972576356,46.6039959299,-64.1080372892,402.3480276038,494.6390152748,-585.6835123537,344.6206795172,-190.959460519,726.0896231557,-394.8417166866,531.8325949141,-522.7656020538,348.3861006222,411.5288141142,-589.9033926012,236.3121867642,6.5961412306,-151.8403191725,-23.347777609,-25.1740660559,-25.1199734524,53.32668418,152.9811147325,16.0288117151,8.2715497308,-85.9138640527,-45.9204576863,-18.3218659763,55.4851347011,11.2546019011,773.6208737039,-30.1933148101,-6.3687412394,-31.8212866589,45.3231563151,-33.2833009583,-7.4389538693,101.4138676161,-162.081154371,-4.7976979848,23.0040137573,38.5340697483,-1.9404418866,-5.8343609612,-29.1891585137,-1.93812943,36.1529225343,-34.3940859503,-211.695540312,118.5451361433,988.3443333034,-1938.8807363004,-23.8974104998,25.0172143838,52.3312966856,-15.7827521505,-33.8092756934,-3.828535408,94.2920399796,0.8182148872,-56.1664145431,193.5087809414,-74.1992998894,274.8156896688,61.830333007,-114.0233062337,222.5315335312,65.5649069645,5.2835553857,0.4464757312,51.0406290878,-33.8650219398,-1.0431472984,-6.6666549358,26.1189591432,-15.3854207812,31.8804966884,-15.2655229932,-46.9288766594,-9.550048158,2.2593985646,-0.1816403317,27.2789128817,-99.4736486866,60.2473257175,-1.0221342942,21.2724967211,-16.7821787695,-22.5798625453,-122.0172259306,-0.8475584559,38.3712504077,-22.171080473,-4.9828620051,6.08952211,2.3288044968,-13.3829487481,79.9610307547,8.915015923,9.1771269042,16.0566376052,169.1775040044,261.7276979999,-632.9308464219,-368.5150369949,-88.5233680634,43.4579159531,-2.6104110813,-148.8242224082,-67.5240238132,19.9358289372,-14.2012930176,31.146619376,136.2744949825,132.2459031645,-541.8331564057,104.3634500026,83.0581486606,-82.6966127699,-302.3928730579,217.9172027778,16.7275437429,-100.6626159583,5.2782492254,-142.3079014151,-53.3527306169,-53.1799419195,-5.8916456374,-26.9620930455,33.2285687644,19.6135253272,54.3347849733,-3.7375942372,56.3672454895,-44.8092953777,2.1600953213,-33.435113218,151.4098519587,9.979620683,46.4892509734,28.2167738842,53.2437754133,170.2749712669,73.0233387622,59.961712101,-15.6248492126,4.3926432496,3.0352458742,1.3918974243,2.5553678777,19.684555027,8.2942927208,-1.6637713817,1.6884567368,-17.5976031235,164.5704592566,359.0127546818,-169.0675654408,-60.0903114833,-24.5594694204,4.621521352,-9.1367057907,-24.0484340472,5.8275985456,33.5622320003,57.4552142991,-6.896316322,0.6769625401,12.2826611535,38.1041710627,-8.5218746973,-4.4311321662,3.1339660876,8.7424123833,-14.3418644393,-14.4071561039,71.1564995143,-43.5148587925,-2.711688907,1.6880976387,4.2702389476,10.2020765742,-4.2927466951,4.0229646658,2.1900627155,5.9765662826,7.1839402401,58.3397837269,16.3574948068,-14.5440790298,-12.0840886712,-3.1118391952,1.5874967542,4.5699498475,12.975957675,-34.8541404578,1.5128428525,10.7498303264,4.774298635,2.6414279232,1.1535432719,-1.0785183838,0.2827597088,-8.9098437529,11.6047243217,-4.8700075677,2.4534315071,98.6832062331,-19.7525762404,-388.7703482492,129.0532653765,0.5417998311,-5.3685156648,3.1055393366,-2.1129567412,-4.5052593491,16.6914031197,2.5649453536,12.7907971308,-1.9764175303,15.6647680119,19.9552359788,9.0561659958,-13.3667427757,9.8462148372,-12.1578860727,19.0627649888,2.4330560123,0.7780318156,-0.1748634096,-27.50444577,-0.8165521461,0.7972759936,2.1997507139,2.0955144868,-0.0745347371,5.9772737407,-0.0880249215,0.0727290349,2.1330813077,3.7443100269,-32.9069741617,-24.3770530737,35.669907495,4.318752552,0.9980685471,-6.2336161929,1.056525862,2.7367426396,-4.6364142025,16.4642560209,-0.9765692,0.9572148415,0.8395069325,0.7587679952,0.0173041094,-3.2223729182,2.9944899059,2.3507889334,-0.1016799989,11.1567130522,-9.4650629594,83.45449154,-0.0406334292,1.6312942147,1.8373792417,0.2902069399,-1.6401736023,8.3721110985,-5.2849250224,10.5355790863,2.1833677587,-3.0242062347,-15.8425482959,14.668303006,-10.4925953267,7.4407458451,-5.625963436,0.0145917171,5.0494407677,0.4798382254,-3.8424048727,-1.1721797513,7.7708737065,0.8618729492,-0.5301659056,-0.2153040744,1.9210725515,-0.315027243,-0.6094369462,-1.4160435626,2.1899953963,0.5542930233,-6.9600047986,1.7144148591,-1.4219061425,1.2442427795,1.0384201226,0.2796054718,0.3067934116,1.3247717802,4.5859573792,2.4291265085,0.8853561845,-0.4448993876,2.9770313115,12.1244347835,58.4557754935,10.3372052175,79.3126531931,-30.6917918803,-37.7657554868,71.1176086538,603.9059313566,-27.1708027369,2148.6793289034,-1021.0129613154,33.8261696179,64.1160643498,-66.3149472961,147.3538824909,224.2180962842,-236.5053961592,-111.3873331388,-394.5959622268,-1399.1479850741,960.2681078892,-851.4313786311,421.0130584948,671.7867334386,-217.820646416,207.2594001377,171.2767044921,2.3620529915,284.0172883698,-135.708270285,-55.3907694752,41.529585897,79.8137032528,-11.4588644643,-24.2442368191,16.2930065935,-3.2283706555,84.5266463004,18.5285077749,-9.6916800505,-42.4209380358,-50.9885441926,-123.1256756389,36.3473064852,23.4958308353,-2.0192039645,17.8703568019,25.5599859171,-54.5387324446,82.4840926197,57.9738558357,9.5105786834,-5.6255015701,-2.8711259008,2.1476657725,2.6990481663,-23.8372173561,49.004722085,10.2068876725,-14.7731980011,487.9287131449,-115.7800286638,351.6607523345,243.7640246326,60.9778264961,8.6943284952,23.4579006119,-72.0612106504,-12.9062636303,69.967007351,8.9236874375,3.5594314088,49.4972973995,-41.5955935822,-135.4220217135,-2.1041239586,69.1807426798,-42.3285621584,124.8424880189,-170.875305262,-20.4661016233,22.3724681237,46.791296307,-68.3481126854,-4.4246372544,12.4218977568,-2.349377354,2.1686448774,-22.1182005042,13.1841116896,-11.7793370972,-8.7648475104,-13.7136156584,-48.272412074,-214.9430193477,10.0170997349,-49.3376304526,7.0354543773,-3.045109158,16.6113842913,9.4787546905,-70.3865784061,29.5345509441,-41.4973134073,3.7631085009,-0.2024534151,-0.852103428,0.3778447462,-1.2384989783,0.2269615622,-0.6382592216,0.6745410261,-1.9327459077,13.9510940047,-14.5565961839,-45.1342843387,-47.8780332839,0.2080525681,-1.6656011694,3.8829127103,-2.2395573293,-1.1616361611,6.7568693241,0.4910262915,2.9004703331,5.8587326625,-8.7742752199,2.0766261135,22.0148131326,5.9856016259,-13.2898804723,-9.0841939348,-7.8672692842,-2.8178867929,-0.7106522076,0.8552163848,-3.3067963539,0.5684476359,-1.453458503,1.3281719442,-0.5995662972,1.9316538407,-0.3817816802,-1.0724218713,0.7923332563,0.4273871236,1.9365260382,2.4315419535,-3.2086426464,3.0593443682,1.5982546199,0.1460870516,0.1376090647,-1.3123038028,1.3232107509,-2.351236476,1.7131336759,-2.0769170337,0.2070468043,-0.2603145938,0.810497594,0.0832296461,0.5363685376,0.7616754497,2.0268781427,-0.27942034,2.283981862,31.875870125,-11.6396852399,-90.9944869641,0.2281659598,-0.1412103999,-1.2774535649,3.1701898967,-0.3543998713,-5.5250751641,-0.0682679172,14.4057685223,8.896892314,-12.1169161417,-2.5609509831,-1.3741672445,-1.9325219607,0.85786704,1.4796941847,5.2644739421,-1.1197410718,0.4995255122,-1.2610991319,1.7937712273,0.4842379642,0.0771292651,0.3986694616,-2.0429882689,-0.2424105786,0.942724433,1.2327269628,1.3945960149,0.4089808082,0.2167720863,-5.1751500122,1.121525959,1.9317482714,-0.4244769013,0.2301495607,0.9238376247,0.1668106174,2.2495115637,-2.12266265,-2.0710283204,0.7471440904,0.2522547682,1.7055541506,0.7917994422,1.1023197852,4.0940276424,-1.9178364298,-4.6175216735,0.8761363924,-32.7228233503,-22.1316931601,79.6839867539,-165.8925530749,10.4779765126,9.6702378026,5.993643827,-0.2904689965,-5.7028429154,-4.0108027623,2.1537542275,23.0386207762,-2.7178771503,12.6062732877,-2.0274232711,-30.1777723396,2.1756990357,-10.1932614636,23.4121334033,4.1867359787,1.1200161375,0.2519837471,6.8410533575,-9.8915788054,-0.510958735,1.525817475,3.4737483414,-2.7105983009,0.4507272663,1.5289831333,-1.7187439679,-1.9355014986,0.6761206473,-20.1655560198,37.3976348536,-2.4352792233,-5.5173532355,-0.0950546783,1.3265539251,1.2836825154,-5.0724623926,7.0858654187,-1.6742358405,2.5775025339,1.4854986303,-0.6733518133,0.163141785,0.3095331368,-0.4167419754,-1.6583129348,0.676571264,0.1423431751,0.0602884837,1.5759666835,-5.9619214393,-1.4724119373,-37.1854640066,-1.6110649266,4.6115609755,0.5852832686,-2.5887235914,-0.5914433809,-2.6132453791,1.4952914635,4.2142921563,-9.9615002199,10.2908182865,-16.5139116465,8.7512280503,1.9949783588,3.0118782223,6.6331009509,-7.4092127967,0.2734205094,0.1097940442,-3.3320749298,-1.0937090718,1.1510064815,1.1206719219,-0.165819577,-0.4528669667,0.5102940785,-0.3094892992,1.0938066216,0.289400702,-0.3163319791,-4.0439924206,3.558479794,-0.3002894216,0.9015091357,0.2314500882,-0.2300968734,0.5517344006,1.0842141532,-0.0189565744,0.260242988,0.2561487965,-0.5949827375,0.1672043126,0.9521486479,0.1982411603,1.4096246866,4.2210062142,-5.4466250774,0.677040196,3.4693384167,-15.5249018798,12.8902816313,-35.2026591955,37.20111953,0.6950669136,-3.2410410151,1.6214682934,14.6536428842,-2.3531704211,20.1637767303,7.6553922558,4.9306463322,-0.9619248031,-8.2686240021,-2.8223134187,27.8440632695,13.3463153454,-5.6556152723,-12.2602209572,19.0999999733,0.1708649743,0.8031528714,3.4074696145,-3.2536566478,2.6158790713,1.940508032,2.1029290745,-0.2191649042,0.8503206485,-1.6922179196,0.1318761434,-2.5292724432,-1.6941725304,5.4897281199,7.6121696693,-2.3333197885,3.3861433577,-1.1746890231,0.1979677251,0.8208685994,-2.8865491124,1.6549350229,-0.7536936895,-2.4890282021,1.2824118145,1.8203847925,2.2074637887,2.4781849292,-0.9878314002,2.0650262339,-0.3071457482,4.1116970148,3.634528735,37.3961355298,-48.0693621949,19.9958610151,-187.5452329753,-2.9943219696,7.9837878399,-0.8939427076,7.7662580412,9.1204543162,-11.7839091,2.8580968972,4.4429900532,17.2998813302,-4.0929523828,-13.5061674205,-21.0093511572,2.4442488164,-0.4373728792,-5.2269832097,11.298777382,-1.5686463852,3.6194136613,15.535912392,-19.2269198087,1.275733417,0.7451849072,0.4202300644,3.3644630721,-1.3772388456,0.4257061155,-2.7044831616,2.9169407004,1.6261602248,-9.7840599149,7.1267466818,-2.2729476209,11.2526616012,0.643290993,1.8289235945,-1.0598565551,-4.1235496042,4.8170872944,1.2758025549,3.7797872782,-1.5956015956,94.372479223,34.6190470861,29.4907355575,-27.0528765128,-101.0656800648,163.5730070127,119.1860995335,-166.6698354527,-165.3241834501,1305.2432476677,-1462.3082155668,2016.0413420601,-53.7426911513,-138.4970838606,-60.3471255664,-349.0406247542,-491.8656602849,64.2087604096,198.9160102626,-22.6028647497,105.7478954481,624.9508526722,-214.0584568854,41.0981074993,196.3447571032,222.252525484,276.6298538818,72.6276035485,135.2193850599,-22.0322244863,-338.1060104695,174.7859874301,16.1901954799,18.96147458,58.726151388,16.4708233757,151.4394381734,154.9320782445,69.9477594959,-28.9339912318,32.0936489659,216.4862175868,110.5435711932,58.9301404948,350.111925499,10.1773496069,-0.502916846,27.6229298665,131.1451989705,-104.8114300001,-177.3864855072,199.0997166649,-10.5695552565,2.0564058432,1.0785977043,-0.8730772146,0.0117743821,-0.2277818303,-12.9542654004,8.147139293,-3.5149609983,7.624591642,-24.5848326268,-77.632759391,103.5405440174,0.6840087663,-4.1347075043,-2.3718286861,3.0992007812,2.2733269213,0.9185770598,-5.4080927175,-8.6859810496,9.1334089195,-47.2521859349,57.56585198,-27.6516758069,11.9472513092,-22.1062997063,15.6618425348,7.8528057194,-0.2068575202,-1.0445609201,1.765840387,-7.4554267383,-0.4169518853,2.3407409229,-0.6078019675,3.7357109053,1.4723301569,0.677408929,-4.1416013552,1.8394817451,-0.089009743,8.0126833982,-3.2332390165,3.1332349187,2.9440380609,0.7865063003,2.8786841745,1.1567998074,2.6125776509,13.8825261518,-1.2949455561,3.7704368678,-0.0147185054,10.614900661,-21.4240393041,109.9268268914,74.6900299762,75.699517488,-27.1632196789,-93.4888906353,52.8791466725,284.971692317,1454.1724913912,1773.5306908527,-986.5984901888,-85.6316717681,-118.513215798,255.1222657141,-266.704317144,314.3784536499,-151.2614855845,150.838974768,-111.5579013198,-432.0382311966,-257.1240217964,177.590725768,22.7608572866,-16.470861103,-297.9178024091,699.9017286499,26.7965719824,288.5837343517,-13.7478569284,233.9449644506,-376.8438771723,-62.0152648506,158.5019465305,6.9804968326,-67.2849048447,-26.2810498083,120.8301906293,5.0311578435,112.8123697117,59.8710962347,-23.4054278645,-13.4831091833,-53.1744002963,-77.4380934346,-26.9000197177,38.580305865,73.5431098233,-290.4895038532,-167.8207402105,168.2912369614,241.8638659065,17.8694012365,2.649135656,1.8796314916,2.0522780085,-1.8075481478,1.8393546981,-17.2700292384,22.9865991776,-8.1261764478,52.006245542,175.8278024485,-19.5602997613,-24.8923602192,0.1858804434,-32.0133303636,17.6842773792,2.7527782291,-14.2248808887,-7.5655193481,0.3751866465,-17.6929225631,-37.912510601,166.1938261801,-143.4614624364,50.1287741894,-53.5983525722,6.0917245274,22.4962167099,-15.6172810282,-1.4235494873,-0.3661948586,26.4467414531,4.5779708309,-0.998004011,1.7312721472,2.7819098181,-3.9199466041,0.2372660154,3.1405533161,-2.6769109956,-4.3408179357,2.603460109,10.7051566875,-7.3604145025,-53.7932939284,-3.5299190708,0.3789643858,0.5159469342,4.441077829,7.0945742852,6.5875031226,2.855409863,1.1384819324,-2.5827429542,0.7347237564,1.6101389334,0.2708207205,0.9030278757,-1.4282210797,0.1416732917,0.026612682,-0.2978844888,0.7104800934,-2.6718889771,41.8495977835,-85.045846678,7.5906601919,-3.1084295306,-0.3888995951,3.415370723,9.7235229427,-13.3000799042,0.4481453293,-6.8594943931,-5.4463407848,-1.6832024677,7.9210354215,-4.7577423375,-7.4442711247,8.2741333219,-4.6385499785,4.6131763021,2.6085947569,1.570925808,2.3166546898,-3.7700030246,-0.142102406,-1.1019860482,0.1438563209,-0.306125593,0.148143622,0.170512147,0.9661318965,-0.5001991413,1.9733345093,2.822472982,-10.6848096058,0.1993944637,-1.2964035411,0.8555460035,0.1786383359,1.3506715669,1.7813664207,-4.956820897,0.0834335233,1.1747289502,0.0743713404,2.1541929737,0.227740377,0.3616305311,0.3238161278,1.8252510514,-1.2214740971,-0.9413028855,1.2198338151,21.7421980416,16.7676737454,2.9658746406,4.3214216278,6.0095065754,-2.8352065985,-2.3193627976,0.9664418405,4.2539583048,-2.9194339987,-6.3805112301,4.1966954827,11.7151389681,-17.2748187289,-0.2712499698,9.1219362299,8.8519578026,-2.7374764691,-2.7149837073,5.5708071625,0.0107035413,5.1503746801,1.6860487765,-2.5088140897,0.8425320599,-0.5035518045,-0.2695949143,1.533305225,-0.4216440964,-0.1640155627,-0.3110985948,-0.841126658,1.2556214757,-2.1762232765,-7.18919678,-4.9087648719,-2.8480271197,0.8581442869,0.3313129452,0.4208493086,1.0476863917,9.1994117154,3.5940460339,2.8880513683,-0.6159931784,2.560961084,4.2021809182,0.1203548065,-0.5529223275,2.2826057402,3.9716427851,-8.95941215,-2.8463553911,5.4383828411,145.0669788885,-46.7975357689,97.852916394,3.6762596512,-8.0418878445,1.3624709093,0.0923077855,-0.4406360181,-4.8070004808,4.5786107301,-5.3575306873,5.5415311519,9.0910851011,-8.6179555299,1.0091472973,13.5043610202,-8.0470883742,-13.8469482323,-10.9691399712,-0.6035130094,2.5571204279,-1.0981561616,9.2623982179,1.7691720056,-0.5052517454,-0.6703659539,-1.6700080447,-0.3432897101,-1.0533798853,0.0049814234,-0.5543315584,-5.327188596,8.7348278864,2.6253729506,-9.8429669678,4.5086261025,1.8455878487,-0.1118155629,-0.4306006277,-2.4253851519,5.578839433,1.0653094197,3.3919556097,-0.2862892107,1.1285913009,3.4189471633,0.170102402,-0.6707929402,3.2401414117,-1.5888747437,0.008393766,-17.8025842333,-42.3859059841,59.6980971809,-2.9531626607,-131.6470438166,-1.3246430572,-0.4310010477,-1.989646816,1.5658886111,-0.2552307089,-6.940800463,-0.7570409626,-3.6298502853,18.6985592473,-19.3544461957,-2.7679272469,3.8506439284,5.0086391094,1.8420739016,3.8067529965,25.9669100469,0.7367918814,1.9877748747,0.2319909643,-16.1130562163,1.9663535243,1.6291972772,-0.1943446889,-2.4851181882,-2.7636898308,-1.1985567185,0.1254167522,3.3630994551,-0.2221228124,10.3939668299,-1.4567254966,0.6829606653,5.1598137209,0.3552212897,-1.0869301217,0.4298552242,-0.0354213738,3.7850897364,6.3612618297,-0.1930358747,-0.3824634975,8.6766526228,5.3005444879,-2.4067248506,-3.0555475742,-16.8453636356,34.4144194844,-2.8331006628,2.6945073898,54.3375747601,15.914914108,78.7208987112,410.8574576782,0.1962030359,-18.0098873918,-0.5197420433,66.4815225831,-9.4436211507,37.8653016077,57.8087686382,19.7113560104,1.4942646957,-175.3386783148,83.0799294606,-3.3653111966,32.6477081544,-3.0780483529,-41.886474416,-12.3531096817,17.562301695,11.2389114445,-6.3893672903,-7.613075932,2.2108591922,0.0048694904,7.0664441841,8.8005291215,-20.4348794805,-11.2260382418,-1.5249248027,24.9286849909,14.3953145574,38.9519676381,-35.2381774963,-8.5277619688,17.2241065104,9.973989135,-4.8536272222,-5.3197139064,-28.1371562772,-33.3439518308,-10.8039235374,39.3203409811,-2.892191055,-4.2974883465,4.9996138956,2.5442791086,4.0662924448,-1.3909513145,-6.3596232021,8.2988901293,-18.3277566321,17.1100158832,-96.8810205306,-113.9151370821,-76.6938151558,87.1411232096,-25.6090236824,21.1329273715,70.1470153765,42.1932988035,18.9252871659,-63.5195632855,61.11578848,52.9456670273,-51.5987825772,43.5606418244,12.3298235933,-21.919426896,54.6173403389,-77.3241904069,-14.832638086,53.244979073,-121.2288986124,137.1230730281,-156.6434281036,-3.050643747,7.7888549123,10.7453474403,7.610171564,-1.0105935782,9.9838430935,5.6711564858,10.1034802637,6.8382150282,-60.930096311,-63.1086671032,44.7589630014,-22.5847871168,7.7343283302,15.6155210675,-7.499100278,-12.3986221441,-7.5567608107,14.3044995746,31.5796445184,4.0139898725,0.075903417,0.0009828242,0.0052343409,0.1471154157,0.5232426374,-5.1677771167,0.0465456311,1.1806484022,7.0394272558,-7.9003963913,-16.5451062556,23.5993072442,-2.2656610354,0.551816662,1.130131478,-6.2323816858,2.9111226973,1.2307841739,-0.0387429104,-7.3283505021,-1.0223498588,10.1395899188,-5.2914748053,18.0321750087,1.8273997597,2.3559087865,6.2402864812,-8.612703136,2.1698518835,0.739682642,-0.3763653179,1.2698452773,0.3755687936,-0.8542602408,1.6610322703,0.2981296444,0.2306148662,-0.7385301667,-0.5525589749,-0.8322159829,1.5952819393,0.5201469604,5.5592526774,-3.6349647363,0.8755203619,-0.5382667992,0.5609321924,1.2846091042,1.6307095838,3.4838132308,-2.1872281917,1.0954596524,-0.5303749231,5.828345888,4.2110532863,-0.4644345106,6.581680322,-2.1956461939,-2.1151520251,4.683122427,-11.5190427474,7.3904126414,-257.9083473886,-229.828946073,-254.8972200407,-0.2656594524,50.1971235079,-13.046884863,-22.5545434362,0.9006648883,1.2308218513,-2.4766831263,-48.2424596219,-17.7510810095,100.6184757695,-271.4690777576,150.5504240497,20.6810425217,9.2767942588,21.3009906516,17.6907230814,-28.8766416732,-0.729858633,29.2884360235,22.4058529098,6.7797659272,3.0641517137,5.1858146123,-7.4392050703,-7.095533819,1.2821519608,2.0763091799,3.7103112967,1.1341483032,-41.533058755,44.5081942588,74.9845926227,35.8803251274,0.1168129568,6.030437127,0.2383776334,1.3490054781,11.2529219343,-6.2472114348,25.2846488917,3.5567175093,0.8105430633,0.7268336376,1.8549957651,0.1397570601,-4.8294757765,9.4973048012,-0.0632283622,0.6486445101,2.7407949189,-5.0560622064,2.0251060237,42.9718472788,5.644499821,2.5913617225,1.1772693732,3.0350192465,6.8181393971,8.4290879944,4.4607451527,-23.2300256807,-3.0193095248,-3.9919436466,-5.5490143488,2.5948903073,-20.2505051698,27.8804138682,-1.5395735994,3.8348490521,-2.5505901121,1.3923815392,15.3168365494,-6.1620949687,0.6661810709,1.4806117974,-0.8046801155,-0.2054216259,-3.7540724784,-0.9884822421,-0.8988769872,2.3669857014,1.6678581389,0.075676721,-0.4028377821,1.1774781751,-3.9556448813,1.2870376444,0.7890818252,1.4103889009,-3.8796979913,8.8927491722,1.2396626683,3.1484262372,0.045322895,1.5960117149,-0.492701724,0.5349997331,-0.3739139086,0.412553907,0.7437159564,-1.7858572579,3.6500297256,5.4811752936,-11.2354432643,-14.103118035,25.1122712529,11.3837386242,1.1774465777,0.9574530654,7.7690513067,-1.4793022226,-5.1427741292,0.2138524819,-0.8520459175,-4.5096938325,22.4988036393,-28.1549663691,23.3089054952,1.2542760756,1.0574984264,-4.0647734654,-8.5612809499,0.4070815882,0.5391552742,1.1158510811,6.0435420905,0.970085668,-0.346022319,1.2441550487,1.4732033782,0.4643580287,0.1052087503,-1.6118964167,0.3621612323,0.6151948762,-2.1311870302,-9.1588998427,-2.9923793657,-3.3307738701,1.4040439922,-0.200098467,-0.6037552858,1.9991437727,6.5523067692,2.4922947311,0.600875382,-0.0987482573,-3.1496284812,4.3948722363,-0.2667759599,0.1053974223,2.9673332136,6.3275842932,-1.2552291941,3.5015109846,-58.3614146474,103.570982943,-257.1292982676,260.1053790543,-5.309289958,0.8223604599,9.2035911885,8.0778072582,-12.6296333701,-2.3370167949,4.5330217486,-7.055716445,26.0057218813,13.0727759645,-45.7812980172,13.2986509208,26.2026438864,14.5420727432,-7.3420952807,6.8800649035,3.497788048,-2.6661378963,-8.8282762423,28.185564124,0.4392497253,-0.1979105189,-0.4987315969,3.5041884216,-1.328840005,0.6694913419,-2.8395767413,0.3782865188,-1.6791881626,-6.2612868869,35.7475051408,22.550850407,3.0980650087,2.9374335735,-2.3104735173,1.3103607426,-1.8177956484,6.466294374,-7.3799380736,-14.0511542283,-0.6613075115,20.3590409272,12.6896819813,28.1908505653,-7.6644978576,-313.7421090374,305.1574764758,-147.7304722063,88.8563037277,227.0343608823,2334.1166111834,4363.4153578356,-5595.7451632532,27.0402411256,-3.9554196347,-101.3003699582,-194.5650244858,601.1522676836,-272.2673802943,999.6099647284,228.5141669851,-445.5229421181,-196.0775967071,940.8262252939,-402.3525582133,-3.2748482926,-51.6232676717,152.5070009873,-13.2678993974,132.1525532183,177.9954096615,-4.0043819431,-145.6706874288,-50.1559123476,-7.3579643185,130.8340454955,94.1309463441,40.4533552221,42.8801506057,-48.3702984613,78.4313968427,84.7229076084,-26.6365302804,118.210814886,-241.5909364498,-237.9049208377,-12.6650390364,10.3160868711,-14.4234724305,-80.9869794557,-144.6431658288,14.9401600631,-174.0430766525,-4.2944974482,40.939738814,34.2664154406,45.2131387803,35.9325313754,14.7547207259,9.6064858022,24.729997763,44.931170221,514.2765377033,-1659.2370355336,53.6295252352,733.6090039997,-87.3834633025,-39.7300634229,12.7122302351,33.8659831121,-169.2683382581,-39.6204496741,333.2327751996,-25.2870297125,-44.4240964604,-265.1445086587,596.0873297574,-82.6013956183,29.5212094061,-683.982191036,437.2251907144,-350.4514707485,67.7224238002,49.0016078624,64.8509404919,-157.3354029168,-17.3699179682,17.4700706278,15.3281075829,-57.0581640348,-14.1791852858,24.3277494038,68.1999218942,12.7150948721,75.2449514925,44.9537974168,161.5665579398,448.0823474809,44.0150483017,25.9400657807,3.7989714626,0.9691412971,-255.7113339938,35.3306174971,165.8841959924,22.2085341362,10.9897295889,0.8959772193,105.7369869738,28.6076623507,17.9359914471,30.1066805929,-33.6121788445,-140.4847997925,-24.743531002,587.7983544669,842.1769761576,1061.4146335895,-1216.7153046257,285.2792849261,-159.4273460247,7.5118208488,-105.8009362607,-36.6218873539,-353.9441702539,82.4957932081,-98.468468993,-690.1802965458,742.5797094134,404.8685060783,-364.6093602155,-160.4515735762,-575.3726990226,947.1173251434,-635.2631183646,164.0950378944,-143.9461183904,-127.4885966182,146.5050495372,47.0906650731,59.9196038816,-29.3360798816,14.5521766393,-1.4810260831,35.1156316941,-0.7754430488,-36.9965901069,-53.5765391904,368.4014060208,-344.2040202362,-450.6634519777,26.2998949244,6.9959199208,-35.3182929091,105.3035114943,-87.5830910692,12.5345112491,-117.7225683619,7.7398599115,8.1659628313,2.1563389948,2.9765406019,0.6878521344,1.5704522115,5.3075667629,-11.8006815634,-0.6719506167,7.2615560663,-60.4564855291,133.0304898371,-386.6210613941,213.8425961544,-35.0172517332,46.5105386657,4.9189152945,-9.9819958778,3.0314107655,-2.8601345466,16.1607832338,10.9826451316,-19.0067171702,9.1989117861,-1.9339515938,36.0291676974,-7.4230966407,-7.6419919756,-7.3385785036,14.4797215639,-3.7509462825,2.4538454368,31.5426526966,-12.3903959475,0.9470796572,1.7023913254,0.864071535,3.9853485932,1.7660523157,-1.6434366732,-1.8226744914,-1.3720831187,-6.7152223425,-12.0342016785,18.1522339085,0.8709286648,-8.1113431538,0.3279482553,-1.4808597934,-4.2629439193,2.3763646922,-0.1946122146,4.5192333515,1.4707259166,1.632296585,0.2768708005,0.4318883024,0.7011444602,0.5282679089,2.3113010902,-0.2970729152,-3.8231109621,5.6887780835,-9.1265349022,11.8948443293,-15.4530978119,50.9781325867,1.9197046726,2.1488795311,2.3577772652,-0.3813119478,5.5795073097,1.0794595824,8.733618279,5.648398878,-1.289937767,1.0243785125,8.4313332722,-11.7296263762,3.790808892,1.0391256779,-2.529825023,2.4731963599,-1.1419357423,0.3204944629,0.1950256031,0.8817505486,-0.0699905272,0.0750309291,-1.5807553765,-0.3555050672,-0.1107974011,-0.5185312675,2.0639825698,1.0520382913,-1.4416723144,2.3583162094,-4.577737966,-1.0418360995,2.9776722049,1.10161468,-0.9816208223,1.2451316659,0.3176502815,1.5094135028,2.5491845361,-1.8838864646,-0.1714246344,1.5514969201,1.9916601687,-0.4801827629,-0.639076987,4.2902290339,-4.8187847784,3.2969178946,-1.9219818275,28.1426258825,-15.667086298,13.0840634971,-78.6674033311,0.2933105963,8.7237063624,1.4304549906,-0.0568571336,0.9951744636,-1.013662923,-2.0477205539,15.6895708146,8.8037911353,-22.7522283968,3.3445768899,22.2125408088,1.3488879404,-4.330129254,-3.1873873093,9.7672414808,-1.5021134125,-0.0353137776,2.1891213048,7.7772544028,-0.5878819355,-1.1868186399,0.057413151,3.5802839868,-0.6442404543,-0.1326002916,-1.0594366824,-0.9456416489,0.890797734,-11.8312867911,0.8049381248,-12.5593899958,6.8504097958,4.0084046978,0.5404851068,-1.0391901731,-0.1596360972,3.4935266677,-0.0305625683,3.3666571396,-0.8065238015,-26.881284772,-11.8278124871,13.7150475376,-6.2157557071,-125.0070713083,196.269251934,38.152933925,-70.9559464571,674.4316605741,2294.7194791748,5351.9579693109,300.4390699734,187.6920218779,167.7521461441,-545.0245561203,-97.8774282343,243.4284282752,-310.5621745735,-23.2880386311,90.300731889,-161.1159037033,-295.6074744658,-490.8600004308,1008.3422877442,-27.3732031521,-125.6307737136,86.1535115624,-235.3143031899,-63.1473208131,-64.6084962131,71.1663108691,-6.3188694274,9.8676165553,42.7275573034,-11.3825523821,-25.5378169862,33.7884266611,-41.809704736,-24.0575765963,-160.3939623907,3.5077182031,46.6001896001,-112.6638201948,-775.0607533811,393.5664235986,111.137087767,101.4244097649,-72.5404999008,29.7467975724,152.1556982781,42.4669717777,138.733501025,-7.7039653484,39.1047357097,43.3026745148,10.7803976805,-13.2850942797,-59.302710069,154.7800962822,72.9568674247,6.4618664489,-35.2986976227,128.857464091,-85.2806566217,908.3574925033,15.7606636425,-47.869571343,-86.3983870129,-127.400582951,532.0439749907,199.9904896401,112.6821383771,115.3155436801,-432.9892268479,813.1755964684,-40.1825610337,834.0638116271,-111.573719784,-36.1292921516,-198.0986740247,359.2397489906,6.072019451,27.7474511266,510.7876429251,-17.3295585779,-31.5883776839,76.1985507823,-94.8124559827,-16.5323619275,21.256873343,-7.2891697237,74.8250888501,-35.0140156977,-27.170957532,100.8684015882,211.2622964329,237.4450170275,77.5867399177,-0.7252016676,10.9725706717,108.7392504967,-121.7724366671,-86.4821596554,13.9638455619,197.6560152188,-12.7274100358,-1.6868949019,1.2710254472,-0.3906176318,-1.5544228787,2.1774351898,-0.1286477302,3.4539104858,4.4425214202,-4.9071172243,24.7089105758,-66.3590088171,115.0485457123,5.6049828833,0.9878364092,3.2744544473,-6.8524377357,1.890312187,4.4207480988,-1.0413719383,-14.5096589196,50.496957945,-53.321754219,-0.8779126146,-5.9297145212,-25.0471228163,-22.7699220934,5.9656190252,-23.774204751,-2.7407226171,8.4138250628,0.9481242122,-8.0057676013,-0.692888613,-2.0557555562,0.4726280849,5.178387065,-0.9973773384,-0.3886643127,-4.1247729259,-5.1847156412,-2.0240162283,8.8541857338,-6.59758955,-11.6324791477,-0.6375525413,0.7648068392,0.7601716163,1.1994217589,7.1782351197,-3.3411636917,-4.1937800929,-0.159386192,-1.9424197291,1.0173473469,0.9143171633,-0.6728349447,-0.0824428639,4.1163951437,-1.5898437401,-5.1341208335,4.7629248519,49.9462207278,103.2834471321,147.4947676683,12.443585081,-41.6100071209,2.4137593826,32.259003201,-10.6309922846,13.7129196554,-0.9020245362,1.6217882363,14.7130137924,18.389612994,-28.323735228,49.839381338,-55.810833707,-22.8058242502,34.6436983784,-35.2678306839,31.6818076514,-0.6831318005,-0.6411272202,-1.9669153399,-11.5240620847,-0.730199534,0.6137638339,1.8680662171,3.675454495,-1.3452061813,2.6413534329,-1.0917409829,-1.6535856302,2.1815258139,11.4826168902
   13.2039044987,-49.8546931288,-23.33278865,1.8015763568,0.047192151,3.3697184309,-1.1382593572,-2.6275767205,2.2101635986,11.2869913829,-0.8702180643,0.2166089736,-0.1887310229,0.6127699106,0.4199581147,5.5008199064,0.4118683508,-2.9538233402,2.0962226835,-7.5934078671,30.623122413,-95.9649380243,22.9381965661,-2.9391526254,0.1544464598,4.2118485531,5.9871790146,10.438402948,4.3446848594,2.8780861163,2.3382794545,9.2807639374,-13.1574099721,-3.2062202393,-2.6586457169,1.6997494539,5.4795288256,3.8821538562,19.3453096847,0.9078047414,0.2575664942,-1.8971026994,8.5793648115,0.3909943036,1.4969987789,-0.8384195989,0.4393381327,-0.8268740576,-0.6509625018,3.9348856264,0.0172991423,3.2874207823,-2.7176991133,13.8710824233,0.7171676392,9.6591057961,-0.1003645577,-0.6480923394,-0.2944109289,-4.5425325963,-0.9707631586,4.1906200099,-1.9274558622,0.0217069045,-13.2157404577,45.4518322786,-46.4010473188,-30.9697720888,-21.5102483486,61.7392973573,28.6295064441,-11.5682941502,1014.328880826,-1483.8935069123,-1131.9728459309,1786.814740015,369.2705648187,75.9661890246,40.513650001,218.323203955,633.5730437119,138.0552247395,576.14198445,520.2491598806,124.0031146046,1158.7615195876,-1441.9057881616,570.9751197985,525.9738055288,23.3991587784,812.3357229192,-157.1488442177,-116.786986993,-17.2907865679,-294.8255013371,592.5461777411,229.672003871,53.4135950428,62.664800889,-16.6687607277,9.3804968746,24.3615402099,-21.8673302567,107.8452704409,-222.6876374696,-47.8733424849,-694.4938499355,-101.6968622172,0.4870613866,-11.5380029282,16.9239923741,0.8771927849,606.9688847687,404.3413858417,319.3173017881,343.892401509,-23.3591634456
##end
biasActivation=0,1,1
[BASIC:ACTIVATION]
"org.encog.engine.network.activation.ActivationTANH"
"org.encog.engine.network.activation.ActivationTANH"
"org.encog.engine.network.activation.ActivationLinear"
