encog,BasicNetwork,java,3.2.0,1,1432469583898
[BASIC]
[BASIC:PARAMS]
[BASIC:NETWORK]
beginTraining=0
connectionLimit=0
contextTargetOffset=0,0,0,0
contextTargetSize=0,0,0,0
endTraining=3
hasContext=f
inputCount=118
layerCounts=1,6,66,119
layerFeedCounts=1,5,65,118
layerContextCount=0,0,0,0
layerIndex=0,1,7,73
output=0,0,0,0,0,0,1,0,0,0,0,0,0,0,0,0,0,0,0,0,0,0,0,0,0,0,0,0,0,0,0,0,0,0,0,0,0,0,0,0,0,0,0,0,0,0,0,0,0,0,0,0,0,0,0,0,0,0,0,0,0,0,0,0,0,0,0,0,0,0,0,0,1,0,0,0,0,0,0,0,0,0,0,0,0,0,0,0,0,0,0,0,0,0,0,0,0,0,0,0,0,0,0,0,0,0,0,0,0,0,0,0,0,0,0,0,0,0,0,0,0,0,0,0,0,0,0,0,0,0,0,0,0,0,0,0,0,0,0,0,0,0,0,0,0,0,0,0,0,0,0,0,0,0,0,0,0,0,0,0,0,0,0,0,0,0,0,0,0,0,0,0,0,0,0,0,0,0,0,0,0,0,0,0,0,0,0,0,0,0,0,1
outputCount=1
weightIndex=0,6,336,8071
weights=##0
##double#8071
   1.1277198225,-0.6042688355,1.014439673,0.8070036649,-0.400558235,-1.1052531795,-0.2564443126,0.0954783481,0.3715586282,0.9492115609,0.4624532115,0.1651447539,0.1580532568,-0.5317712973,0.584520934,-0.9954526739,0.5407096738,0.057828382,0.2536586006,-0.1015738686,0.6377044485,0.7581081425,-0.9650697028,0.2011902201,0.5006469531,-0.6441127106,0.5756859794,-1.0497968989,0.2473396508,-0.8505394903,-0.9653725606,0.3327769671,0.531506392,-0.0113502244,-0.5827196916,0.5809247714,-0.1325095561,-1.087508651,0.329471712,0.0796511079,0.4917499428,-0.537841947,0.3415259502,-0.164348639,0.8102165238,0.2488069132,-1.1700450362,-0.8177337089,-0.9936850181,-0.4324471984,-1.6638880214,0.3102474079,-0.0191599842,0.3077736411,0.4787393456,-1.1516961828,0.7850362181,0.2788093597,-0.487181388,0.5630887501,0.1275646791,0.9879753216,0.5273157801,0.232296006,-0.4053588992,0.5224819378,-0.2504901201,0.301750887,0.7112254321,-1.1929506431,-0.0065825603,1.5974173486,-0.0788469842,0.4406765116,-0.0658831634,1.4790622639,0.3731900175,0.1718648116,0.6982983656,0.962912171,0.1434030794,0.1336172037,0.6384189551,0.7372198543,-1.3791024557,-0.9599330085,0.3654741516,0.1515232572,0.0653536997,-0.5735518716,-0.1277033004,-0.0796681087,0.9356327865,0.6599741166,-0.1024683244,0.6289723858,0.5426332004,0.1386817468,0.4147032114,0.1873269924,0.2645249286,-0.9025052175,-1.1474495141,0.4598962026,-0.1866889383,4.8827440266,0.6512262637,0.6446194701,-1.9212918559,0.3029202632,0.8612887085,0.8525642397,0.7169919476,0.7370730719,0.2796844802,0.5855450588,0.287689139,0.6642662112,0.2844678318,0.1263134471,0.8008734234,-0.0156674713,0.4331202118,0.8011519535,-0.1148279553,-0.0099796081,0.6512416558,2.9163631789,1.5810685146,0.0912325353,0.4721004586,0.018272695,0.7163260637,-2.842958907,-0.0165779863,0.3037093096,-0.9689267475,0.5722473866,0.5199845844,1.1008314,0.3265253778,-0.1922507877,0.6545713401,0.5125645607,-0.4426684249,0.7758866105,0.374023425,0.709985792,0.2384424247,0.3184933754,0.2046711477,0.2539996304,0.2304736261,0.4856084527,0.4877773301,0.210677799,0.5719913662,-0.7468902835,0.526975107,0.5048714872,0.454525197,0.4032200019,0.3382149755,0.4295802361,0.4843533246,-0.1084503529,0.4719310493,0.4969735047,0.7664451461,0.5690746704,2.1483206999,-0.0923904189,0.3268625474,-1.258370052,0.0503851105,0.590359005,-0.4344243842,0.0184469033,0.7853058418,1.0451989993,0.6033281803,0.6403395112,0.0821260169,0.3963932141,0.5435394624,0.1599508386,-0.0351297161,0.8245547419,-0.1148480472,-0.2525716621,0.1417486184,0.2921755571,-0.0573019439,-0.7396302175,0.1563842116,0.3766752093,0.1797943846,0.3355413044,0.5156684706,0.1024777038,0.7048984386,0.46451306,0.7597674438,-0.3043274657,-2.2634123042,-0.3331449577,-0.3056063366,0.154494227,-0.2304084344,-0.2715815502,0.5149312053,-0.0179618666,0.977316585,0.024281492,0.2304127471,0.1235376765,1.5267607525,0.2938916543,0.1426265023,0.5752285142,-0.3569199789,1.0447976421,0.2366064836,0.2509709775,0.7652206125,-0.2706277989,-0.2202529442,0.0055113249,-0.1268438689,0.0364553929,1.4319043348,1.5094368929,-0.3516369886,0.0624230388,-1.0106378727,-0.146284872,0.1648962053,0.4170635873,0.7322309644,-0.2726965128,-0.0877169909,-0.1203887475,0.2391821153,1.0326134795,0.2954586394,-0.0980795195,-0.1062734827,0.589532787,0.419247588,0.6982116143,-0.6387824671,1.3890920603,0.5548587859,-0.2527878971,1.1255576149,-0.6535826251,-0.9197732812,1.211122946,-1.4912284533,0.7112790803,0.8671382358,0.0073359633,2.0510337046,0.2342230513,-0.0476170137,-1.7392542333,0.072027079,-0.3512075702,1.1353875988,0.4410065352,0.7789641157,-0.5897381869,-4.8207589189,0.8250084133,-0.473494582,0.0475974889,-4.2557246327,-0.3144855315,1.2400952446,-0.4123039896,1.765630629,1.1343696748,-0.0932950739,0.2706775267,0.0528123368,0.7221145421,-0.8377254149,0.3536567309,-1.3851149575,0.4505256735,0.6082647079,-0.4188675581,0.0308546018,-0.1451611241,-0.9285868404,1.2225383427,0.5370336394,0.782063491,-0.0162020646,0.6844215352,-0.583688861,-2.9030634882,-0.3495908467,-1.2527168939,0.5162430333,0.3254479813,0.0274274936,0.2011696021,0.9523410575,0.3578190839,-1.5157712128,-0.0524821962,-0.2726661733,1.9967814297,0.2480418875,0.3942712599,0.0377495611,0.7798625348,1.0089335528,-1.3287648635,0.961853976,-1.5594782327,1.1029259336,1.0662894369,0.73534826,0.4269975947,0.8478587279,0.0116809554,7.1636850745,-0.0372284544,0.3084422408,-0.1497512689,0.0360704815,-0.312803099,2.5925239145,0.3223486678,1.1987963736,-0.2928036525,-0.6405794222,1.856727303,3.8542669657,0.0525296175,-0.9093331859,0.6782269883,0.4351683978,0.7129997458,0.3550372404,0.3463248677,1.65441222,0.6009610052,-0.2019767647,0.35976119,0.066886462,-0.0992905416,0.1494455326,0.2224346963,1.267457923,0.2184056628,-0.2396724602,0.4847633997,-0.3597039128,0.3733592067,0.4498444494,0.5433771631,-0.0386845466,0.4671650141,0.5369950098,0.9698718361,1.0524327089,0.4477053922,0.403626527,-0.028733181,-1.3832432968,0.3819145781,0.1346182093,0.1282477986,0.5584576026,0.2213752904,-0.5327239114,-20.2896901131,11.7781204298,0.9005101004,1.1519200037,-0.1734229189,0.2059000058,1.4082706893,0.1746727863,0.4427978424,-5.5944166277,-0.3814257732,-0.5836293139,-28.0742583333,-1.4874420503,0.154745309,1.9408241151,0.449712958,0.2983622973,0.9643959325,-1.067975467,1.1412813331,0.7564410632,1.6225936312,-0.059191832,1.7312301373,0.537360478,-0.1472698893,0.0882169263,0.0026478775,0.2289547417,0.9270102817,-0.7324051657,-1.5049618891,0.9357568381,0.6891803756,-0.8701806453,0.6337220475,0.2210950688,-0.2513866123,0.2766461824,1.5560383439,0.0766178557,0.0311139991,0.2992366696,0.0196093019,0.228746713,0.3804541598,0.5648231742,0.6235006039,-0.446542542,0.900256582,0.54798613,0.4780875743,0.4011700826,0.6682856439,0.6686618706,0.4322030732,0.1218553115,0.5896878204,-0.1936976625,3.1801999803,-0.1505579276,-0.924177627,2.4487279843,0.2242383471,-21.3558305745,-0.4762992316,0.5492757994,0.4353112378,-0.8196343555,-4.193149187,0.5388088927,0.4827230625,-0.1307563799,-0.4798118193,0.4793929323,0.070402662,-0.3520847621,-0.1149627253,0.0772850843,-1.5231081653,1.9051875255,0.6374426954,0.078291126,-0.0557978593,0.516243759,0.1506498462,0.4298421716,1.525857007,0.2402128012,0.3875541039,0.647977332,1.0606539041,0.1237611025,0.4362982346,0.1346551912,-0.2243767107,0.1601998809,0.2529821152,0.4372001363,0.286083816,0.3569751067,0.4829622778,-0.2373425143,0.6484718269,-1.2191468325,0.4238255391,0.1525690758,0.6066045709,-0.9257786309,1.3427863749,0.4294126971,0.1319937552,1.6620573622,-0.2547995737,0.5599542644,-0.2375995321,0.453934006,0.0967057025,3.0949200091,0.9257234532,-5.2026377033,2.6053848658,-0.4739368766,-0.4176555729,0.2709173852,0.3809424677,0.4085509529,0.0421919357,0.0565030691,0.2938624901,0.6283852029,0.0683633493,1.2323805761,-0.6575994478,1.4554378437,0.6232338982,0.3652277212,0.5909688716,0.6846889821,0.5006840447,1.8203455857,-0.4160653656,-1.5266724031,0.4139368341,0.2209017983,0.3731172275,0.4454230601,0.1351223024,5.0392176505,-0.2918792779,2.6588923075,-0.1023728399,0.6635200872,0.6709017521,-2.3638690311,0.7150540596,0.5862893375,0.270139433,0.3115243835,-2.6174877077,1.5537103318,0.1485556026,1.521599469,0.3276343257,1.0315359149,0.0159541446,0.4515171951,-0.0912480704,0.4028857757,0.6831155448,0.3603631088,-1.6242086343,0.0937893503,-0.6466343323,-0.3384568257,1.1163505772,1.2467831982,1.1093638323,-1.029728213,0.259910327,0.7399571666,-1.3417758435,2.2679961453,-22.238722025,-1.9590581314,-0.2289789299,0.4696898315,-1.1886743502,0.0636936043,0.6128318078,0.485853704,0.2328863313,0.3456257611,-0.5632902414,0.1063795663,0.0337802801,1.0994860157,-0.3637868086,2.4789466233,0.4097841754,0.255397321,-0.5367047098,0.1770655574,0.6362187207,-0.5712070228,0.2226170675,1.5386363661,-0.5758018044,0.5585282497,0.3541575957,0.527792461,0.4423458655,-1.1941561687,0.5386420894,0.0372945527,-0.1125668132,0.5150078111,-3.2772559735,0.3174538516,0.6646978018,-1.5415458775,0.3685489003,-0.2131650322,0.633435201,1.3253063433,1.2536091113,0.8355641842,0.3966243611,-0.1651940715,2.1641350297,0.0298111545,0.2933159798,-1.3841797533,0.834344916,0.161419918,0.1606384712,-0.2136477786,-2.7313381443,0.8044526126,1.1107146842,-0.9108692978,0.4297234611,-0.448090123,1.9640012436,0.4651167389,-0.010984802,-0.4632561854,-0.2494898271,-0.6196177695,-1.2547376775,0.2914625711,0.1094084582,-0.8827965385,0.9380027155,1.2673222122,0.8372681528,0.2220495688,0.0904761695,1.0501379678,1.3553251024,1.2482018484,1.524173584,-0.6464424455,-0.1816260755,0.236502214,-0.0825224573,0.3868916516,-2.3468280341,-19.2960443634,0.4948324108,0.620473717,0.4250182438,-0.1100420214,1.1267295031,0.2318140312,0.4507054111,-0.47813636,-2.6320533095,0.2666117984,0.272641956,0.6718100068,-0.1307494865,-0.1732190169,0.0737545323,-0.0291772953,-0.1453667028,-0.1309913785,0.7240557116,0.1701247107,0.1622586018,-0.1762606921,0.2429729245,-3.6608405452,-3.2103139227,0.2053504352,-0.1601977572,0.4123661618,0.5576295006,-0.2403758743,-1.6623467363,3.3839086641,0.6446143622,1.311145086,1.5899331863,0.8634632195,0.7503897478,0.6045571198,-0.0449035372,0.6779551479,-0.0618081099,-0.0443608957,0.3182761678,0.4078407467,0.3870228655,-0.0799334257,0.2328041324,-0.8014514178,0.3738662659,-0.1452820188,0.80581571,0.0758709172,0.4650107465,0.3762966676,0.3218246077,-0.1419478858,0.5740723681,0.5024262988,0.1610075824,0.0920375344,0.0971177933,0.2524295437,0.3040205466,0.2340978984,0.4046890881,0.8759995629,-0.1492694555,0.3875887661,-0.1040536076,0.2600343696,0.4436000448,0.2721023155,-1.1177394668,0.9241956887,0.8762112583,0.7595528468,1.1554900952,0.3076478792,0.1286546634,0.5000501057,0.3605432146,0.3421691453,0.0418105286,0.3864994863,0.2897957983,0.055822712,0.1195279665,6.8649690832,-0.2020216314,2.5287317782,-0.0231161145,0.0894908968,0.4786625719,0.5057611223,0.5464925787,0.4509982384,0.8649501501,-0.095190561,-0.7396624065,-0.3690321219,-2.4001847146,-0.4495016545,0.1623436031,1.1248404169,1.0974937345,0.318141638,0.9765964982,0.5951854764,0.5014756313,0.2483906041,0.6884426589,0.6638106183,0.249377049,0.429991299,0.2653187708,0.0983601571,0.4057576607,1.2280795787,2.245215485,-0.3933124281,0.2267995458,0.6441040539,0.0623353975,-0.2148793982,0.4966072502,0.0883639322,0.8786338412,-0.4757762743,0.4920720517,0.0460399922,0.798120207,2.8146746359,0.5274654383,-0.0164227744,0.2161644275,0.0885412548,-0.1869296615,-0.2170226484,0.6286080062,0.3796083938,0.6459302413,0.588307834,0.4199358136,-0.1713400669,0.4959825308,0.3667169777,0.3317244556,0.699694445,-0.3408316859,0.4421515994,0.3206835624,-3.4704224093,0.1394133621,-0.4159447769,-0.0443475524,1.0509225468,0.1472184154,3.2617459084,0.2056874187,0.3862784758,0.06352404,-0.143901769,0.3405857745,1.7388951761,-0.4256156133,0.4711062962,0.1681474824,0.2127144288,0.8143704701,-0.8302953882,-0.0120495084,-0.2353921716,0.4354525883,-0.3788264783,-0.3497963638,1.2239558608,-0.7164345251,0.1086192261,0.5007969848,0.1132193936,0.330563375,0.2732380174,0.7375340899,0.5855808923,0.4176043171,0.4295938861,1.0713014516,-3.9682838013,0.130650679,0.4254978319,1.5921180844,0.6442023268,0.2282296691,-0.3483099305,0.4733970737,-0.4938701331,0.010747401,-0.0390843971,3.1335782745,0.4237679742,1.2902452577,-0.048647743,0.0630206214,0.5427949501,1.0747645263,-0.1279654316,4.9359895,12.1971603406,0.5364796496,-1.0751792797,-9.2428626366,-5.295012634,-0.0200707374,0.6169213729,0.807750704,0.5055513657,0.7960372761,0.5818730088,0.7679237328,0.5010679312,-0.0402742303,-1.5491629645,-2.1488783639,0.2452359242,0.6396333746,-0.3208956842,0.8045102389,0.9253310745,1.2054243486,-1.0717601855,0.2371059943,0.2179716225,0.3575416481,0.4941192509,0.225620502,0.3495719879,3.8498202808,-0.959445759,20.2853885634,-0.768332608,0.2735705663,0.5055112448,-0.1914962577,1.7487575147,0.5633750696,0.4784640223,0.0822162726,-0.43275326,1.7302358056,0.1401315423,0.6657444785,0.111421682,-0.5001170455,0.0533929934,0.8382330896,-0.083752479,0.5804328402,0.3122183147,0.5790251411,-1.6327943856,0.4839758386,-5.6833477135,2.1114029632,9.1543374399,-0.6352920453,0.5483554934,-25.6697259569,0.1185718582,0.2318118432,1.9219201197,1.0416860856,10.3987850926,1.2424682188,0.4797042527,0.4004128501,0.0565666033,0.6295324545,-0.16963131,4.7984018417,0.1424564117,0.3695060857,-0.945566583,1.1563643103,0.9025659167,-0.6434473665,-0.3333618431,-0.1067590537,0.946063006,-0.3813682998,1.1203188075,0.5813860544,0.2910712559,-0.36676087,-0.079198113,1.5095281523,0.1876763671,0.1694984944,0.8732039791,2.3278520765,0.6103075322,-1.4330041998,2.352277958,0.1055883469,1.0473464949,0.8942847154,2.2476755018,0.5182376396,-1.822506482,0.1616074208,4.6953404654,0.7757413232,2.4219447969,0.0840416849,0.1011575357,0.0761746721,-0.1240436672,0.3855557717,0.4752898566,0.1705180974,1.37044348,-0.4913397248,0.4332645521,-0.0089955892,0.5130645511,-0.5030837864,-4.0374800909,-15.1974761008,-11.2984286029,1.3100145566,-10.736656741,0.111214858,0.5170302575,0.4211623695,0.8962646512,-0.055150035,0.8200341641,5.0182765051,0.9171214075,0.826035852,3.5465359234,0.9980439453,-0.0011446941,-1.9819304992,0.2547689303,-0.0556982148,0.5637257655,-0.9469143538,0.7486583282,4.1619818703,1.2885740274,0.3872562056,0.2391917463,0.2135068673,3.2220397546,0.8046912989,-0.2720402001,-1.8074456562,27.4965556778,-1.1652808227,0.5235048024,0.3361257886,-0.2630360574,0.8264085971,0.214172487,0.6089991628,1.3469981569,0.5341737701,0.5636441532,0.1185038492,0.117316249,-0.439139456,0.5198156801,0.1043329499,0.17088048,-0.6375732603,1.9479703137,0.0197121132,0.8700177299,0.0838748786,0.3771972458,-1.5460262587,0.3659181008,1.9732434768,11.5945583527,1.8110875303,0.6812346766,-0.2319203564,2.5454406187,0.1665541049,0.7289748659,-1.7464793376,0.9400724467,-0.1278478052,0.5654046059,0.2600335875,-24.005954134,0.6758447838,2.3261460427,1.2017808286,0.5217616383,0.0340550707,0.0640581012,0.4804544362,0.8002670391,1.0979293304,0.5519120782,0.2365006011,-0.127419795,-0.4540032921,0.2206407405,-0.8437834171,1.4618743937,0.4341947841,0.699976461,0.0706648536,0.0075302071,0.2596332951,-0.0142806025,-0.1262487968,0.5837838982,0.1533309395,0.041116601,-0.4131719828,-0.048879772,2.4106644843,-0.1270752506,0.3472465269,0.4895599158,0.6331754118,-0.2922255313,0.1285592164,0.6404995682,0.8592578759,0.9294191406,0.2646843624,0.3710891319,-0.4285072232,-0.8994872429,1.3510329198,0.0281338296,0.7562515166,0.1635609787,0.0633103141,-1.3228074663,-11.2805361263,0.5921723999,-0.586570422,1.4040351661,0.2590987077,0.0755166994,0.2742351165,-0.2440065119,0.3528120162,-0.3007466188,-0.4516452209,-0.2080172538,4.2839073455,0.5501938969,-0.3435037518,-0.1099512553,0.4040937035,0.662901333,0.4366690566,0.8044873789,0.6498310887,0.1018768973,0.7309532392,0.959156731,0.9714387875,0.445002067,-0.0290605165,0.2107555349,0.0869228685,0.2903928729,1.0029774064,1.1475442396,0.6707762284,0.3827322176,0.2226119832,0.8663718498,0.2485130019,0.0139355964,0.0993817508,0.3994086864,-0.2853144694,2.349570766,0.3747587042,0.6089847277,0.4580579862,0.063349865,0.3259367694,-0.0606083319,-0.1428047436,-1.4315762863,-0.232116252,0.2634752462,-0.1451600394,0.0930058986,0.2176103949,0.840663808,0.129560684,1.8386380639,-0.1209617484,-2.1057609691,0.2429074692,-0.3818463123,0.6772270192,-0.2476682696,1.3616795623,0.5596356498,0.3220522297,0.7954760364,0.8143207931,0.4695198534,0.5955407913,0.3127795983,-0.1028364779,0.1994417901,0.0414763979,0.4825730248,0.0445438354,0.0680553795,-0.1172947161,0.2416244834,0.2413297578,0.2552123573,0.7652172112,0.1945529069,1.1406401568,0.6323753102,0.1443348958,-1.6757349054,0.9977400678,-0.7567601029,0.3835909444,2.8152935452,-0.0651070396,2.4372208706,0.2665975347,0.4691703675,-0.0102455163,-0.0763880527,-1.4302863487,-0.1949958135,0.1987210161,-0.1326006101,0.8392040028,0.8993583813,0.0963021534,1.2930856273,-0.1815007458,0.1101758907,0.1680038458,-0.0546577153,0.5259248914,0.365361829,-0.0926058202,1.0712839844,-3.6456117866,0.1649998669,0.4767471925,0.2846022694,-0.2399917172,-14.9346779045,6.5997234879,-15.0110013531,0.6805631812,0.0895233674,-1.7748224453,-4.6084569974,5.243613447,0.2461002229,1.2857036934,0.6770797893,0.4244327193,-0.0409597203,1.009540335,0.8906511295,-0.3019605138,-0.261045907,0.0780419367,0.699656872,0.8254650305,0.3509369818,0.0572714401,0.5417964735,1.0607140583,-1.760206115,0.5496359481,0.6657358596,0.4094836286,0.2676371541,0.3158661913,0.8599277461,1.0190930137,20.2551473187,-0.6326448568,0.4893802034,0.32063621,0.9089527611,0.0097424055,0.4586481511,0.1784116723,0.1631767409,0.5099190814,1.3563937783,0.6620331428,0.7886192984,-3.7380401134,0.6932790976,0.0633119186,0.0323675864,-0.0525152211,-1.2399985501,0.2898793409,0.3931163518,-0.0154672413,0.1609293918,0.3081784455,0.5004282073,10.2491781493,-2.30029396,0.1355105497,1.6990959474,-0.4117091879,0.5721308069,0.1435843937,1.9582768142,11.3338720935,2.9907967753,2.1909088062,0.2145743624,0.6428191054,0.2178304844,0.3250676504,4.4181711044,0.4887408155,0.3326335889,-0.5632294249,0.1113703711,-0.7218616207,-1.5362760194,0.6163098051,0.1008966236,-0.1593269938,0.255011545,0.7816634693,0.1157307569,0.479782099,0.3537090768,0.6457945609,-0.5702783947,0.048059036,-0.1214320398,0.6152736522,-0.0979135941,-0.0766608166,0.0870303443,-0.2514020815,0.7956637568,0.4667264746,2.6313093114,0.2547178009,-0.2300933775,0.693136084,-0.0196560571,-0.2145847877,-3.693406671,0.05062891,0.3642537181,0.8407895618,0.6836807487,-0.351157621,-0.1764589369,0.2999043642,0.5638765127,0.3608746277,0.3711720769,0.2469447799,0.2753584879,0.4022088406,0.089456439,-3.5627493818,0.6814697041,2.5376782641,-0.6094939062,0.847825337,-0.3110601877,0.5572828055,-0.0686753953,-0.2082819524,-0.1457430539,-0.9508920206,-1.0044167898,-2.7489653609,-0.5809703411,0.1296608308,0.9375627389,1.6675178792,1.1008886856,0.5181698072,0.6480913618,0.6348231414,-0.1266986216,-0.2456548886,0.1873486954,1.1649994217,-1.2829052391,-0.2049878413,0.3649320506,-0.021955022,0.3541101916,0.4967840318,-19.1522404102,1.5998792466,-0.7898345717,0.5926524067,-2.1754131346,1.2650752555,0.0246496528,0.5195433835,0.1985983477,0.3594472953,-0.0183345462,0.483384716,2.8409035383,0.138820635,0.0035607247,-0.1034663749,0.5094510848,0.1468912688,0.130282413,-0.0265650033,0.363982172,0.0956150258,0.2573331341,0.3737784695,0.2158467245,-0.2709695277,0.5048961601,0.03996317,0.0866039507,0.1685088964,-9.358248839,-0.1996599463,0.0153597945,0.3715240131,-2.5697013166,4.5341425715,0.2002073901,-0.0482046174,0.462658224,-1.0871427271,0.1690654747,0.2783189711,-0.0730239675,-0.4147281618,1.1563018905,0.5304071538,0.3068005356,-0.1525182252,0.1950319908,0.418385246,0.4657433954,0.017793485,0.2345186299,0.5634811969,-0.5418339472,0.6957406305,0.0588453299,1.211519474,0.4773741035,0.493729977,0.2841156122,0.3725710006,0.9565650345,-0.3377251298,0.7759041762,0.7351202307,0.0240925854,0.6402832769,2.2373234042,0.9482972476,0.7524689738,0.3624515697,0.6187436789,0.161714144,1.1290847062,0.2214855582,0.1380321645,0.3857321873,0.1593755154,0.8576023989,0.5983630368,0.2305519762,2.4547624758,0.1486818067,0.4984859011,0.383764893,0.1948605035,0.2952489138,3.5123088614,2.5100610268,-0.59794342,0.2809214145,-0.7208258086,0.2290054132,0.5190855329,1.3187565018,0.2803825976,0.6893302606,0.197477704,0.5861002655,0.5479510982,0.6932918629,0.1918675393,-0.0033459142,-0.6820068638,-0.3297553968,0.2494636313,0.7826393896,0.0143903233,1.5832444883,3.9100131412,1.6780332077,-0.5860291064,0.3993059124,-0.0581101918,0.5420994007,0.8330120626,0.5357907677,0.6460954094,-0.8000231556,18.8207036016,-0.70862329,0.6533418326,0.5838922197,0.5458773068,0.3582769909,0.5557817928,0.8303726639,0.1305200818,1.0232596188,0.3543874682,0.1190226667,1.0726182208,0.4077327608,0.4866579828,0.633824366,-0.1415367748,0.1138448901,0.6558240137,0.6659634865,0.5554645271,0.4253037893,0.3074659794,-2.0769785742,-0.4704167928,4.67651006,0.3755735985,1.5340653156,-17.7133700932,-3.4827886775,0.339796528,0.0926243103,2.0352003202,3.9821364123,0.4359768539,1.1306881562,0.7250040001,0.5032313011,-5.0997516555,-0.1850509768,-2.1634148138,5.0626311622,0.1573465952,0.314216269,-0.1377602358,0.6555687325,0.0558460619,-0.0709534419,-0.7773613985,0.3157646139,0.6040963488,-2.8692705707,0.1603544292,0.5533471267,0.4951170047,0.4630316753,1.2283796355,2.9407607605,0.0344320654,2.5137045855,0.3255373574,-0.0377423701,-0.8858815485,0.0097670622,0.1905824383,0.1886535974,-1.5793531857,-1.0284912353,-0.3260457834,0.3039253482,0.4968587546,-0.5194436506,-0.4462206133,0.7913370724,0.5460723876,0.4986648882,0.5129507656,3.05760687,0.3447228019,-1.1565493609,0.0837788792,0.6099560248,-3.9791614404,2.4167628507,0.5105200194,0.6805109224,-0.3013579833,-26.4468354164,8.4921253341,-0.4991000386,-1.0685085938,2.1107555014,0.6559051296,3.7167402093,1.4825002902,0.1448818319,-0.1142427033,0.393246856,-0.0226110572,-0.2891201208,-0.3320553495,1.4694294175,-0.6280757448,0.8776544002,0.9276830784,0.6853225267,0.7580902488,-0.9087921651,0.2440918467,0.804505682,1.850289042,0.7510694729,0.1885495789,0.2703250234,0.1252123459,0.0200538602,-0.9140949621,0.9917588066,-20.583082577,-15.2571460477,1.4390708413,0.3778432941,-0.431668477,0.6699321611,0.080563782,0.1335899116,0.4019774602,0.4396754192,-0.779992438,0.1977635355,0.2701184492,0.2919821833,-0.0838464936,0.7550387945,-0.00282892,0.1824044668,-0.0450313088,0.5086071124,-0.8301069482,-0.1453922132,0.3782239006,-0.0752921256,-0.00524568,-1.0841805696,2.4067514089,0.4190075896,-0.0025730268,0.5333225947,-0.3987441189,0.0328864291,-32.977801386,-0.4085008135,2.8276185271,0.643000146,-0.8153619224,0.3767280695,0.3478456408,-2.3673854759,0.3489586774,0.0387870317,-0.1699928118,0.0516097613,0.5149253737,1.4690187683,0.2866888722,-2.3561286863,-1.7184911078,-1.9758900741,0.3681506218,0.8881087341,-0.021477041,0.9227451607,0.9384850822,-0.8655234741,2.2966686745,2.5783608358,-2.1217766113,1.2196033369,-0.1672475281,-0.183448157,-0.0653143716,-0.0934108261,-0.0168403402,0.6980372207,0.3334693935,2.3510883579,-2.1216630978,0.2029808311,0.2542520657,0.0032843103,-15.8684967272,0.3708234579,0.5330570044,-0.1361317105,0.3836457671,0.7373236963,0.2333169972,0.7501258917,-0.0732336464,-0.753849839,-7.6970955502,0.099077658,0.3257959231,0.4815590515,0.7563823559,0.7643231153,-2.0508363769,-2.0226373153,4.0708457005,-4.9569188059,0.457349781,-0.3075292593,2.6929312537,-0.2528246407,0.0003755488,-7.7223605897,0.323961919,0.3726316014,0.7270061407,0.3215739606,-5.4064902187,1.0046950125,0.6485218608,0.8336989409,0.5845487788,0.4250060654,-0.3937056709,6.2147084898,1.3301934849,0.36693323,4.8123107719,0.1229503528,0.4842547822,-0.0890994787,-0.4763492227,-0.4536721051,-0.265383109,-2.1958831653,5.5107986351,-0.5077406089,0.6383837639,-2.8135031833,0.2759155217,-0.0405091438,-0.0403539204,0.0286112665,0.5465583208,0.2104757045,-0.0490936047,-0.0987750491,-0.4715907188,0.3670975845,0.1458922237,0.5949437003,0.2248304952,1.321978128,0.3410860375,0.5133458335,0.2198478494,0.0271304234,-0.5858027146,0.821921356,-0.6633975852,0.2737150515,-0.5741230757,-1.3915039194,-4.037684498,-0.0618645231,-3.821872964,-1.6357036521,0.0610257986,32.0921262445,-1.071327868,0.3963130267,0.0587894579,0.8281524182,0.6051062914,0.6293392492,0.308251286,-0.4647982916,-0.0054149455,0.4090508467,2.0086773759,-0.0149412881,0.5278423058,1.2448288248,0.4483267839,0.6055134083,0.4496928149,0.4004208368,0.7498408472,0.8618066119,0.686904789,0.37740759,1.137757988,0.3798014798,0.4928803803,0.4703256045,0.4630455067,0.2022004798,0.2304093964,-0.0315641636,0.047296989,-0.1707157849,-0.1165792517,-0.005469699,-0.1180585879,0.0636170603,-0.0919185906,0.8608445207,0.0833669614,-0.1714665314,0.8076826774,0.5568161109,0.8788320702,0.1918939525,0.5944083119,0.1298341314,0.1796328687,0.0589512659,-0.3423736571,0.0980974673,0.3518257137,0.163216706,-0.2552256436,-12.2134842699,-3.5415702243,0.7538717467,-2.8058388237,0.6153186697,-0.5369791006,0.9846043209,0.5563561892,0.4500057502,-0.0363209275,0.3426384225,-0.1812239263,-0.6048548854,-0.4524846864,-1.0854802988,3.0736660224,0.9100913315,1.1271325072,0.6588531685,0.5428922154,1.1980572455,0.5624552004,5.783690614,0.6299120219,0.9416346613,0.0818952028,0.5759416919,0.4970844575,0.5188774889,0.0255409899,0.2955571393,-1.6866731875,-0.5236196058,0.7747247902,0.2944681454,0.6570201443,-0.0184325795,0.2920631431,0.7063152701,0.2563513534,-0.2052193066,-0.6932821782,-0.2442576657,0.4124034923,-0.6534723508,-0.1745478021,0.4992095884,0.1706894702,-0.1960018091,-0.0981044526,0.5160510039,-0.2516188827,0.2013121076,-0.0858772893,0.3251592396,1.739359854,0.2575746065,0.5008397364,0.0909711911,0.3390402233,1.1283878938,-1.492710025,-1.1826729323,9.6025003958,0.4241788847,-8.3957728129,0.2764841834,-0.0924007853,1.059037842,1.6294030852,0.3339571601,0.1215954893,0.0416912948,0.2148040182,0.386139258,0.0705122763,0.3904220846,-0.4925068042,0.365631577,-0.4252254262,0.8151925674,-0.697657367,0.7012416074,0.8946720259,0.3040604125,0.6631813059,0.3245499726,0.4738252802,0.7676829424,-5.3373136654,-7.0831146297,0.4996003767,0.0997783444,0.1004982972,-4.2345232394,0.8103425209,0.5589830355,0.0397331966,-0.0429102457,-2.7519734228,-0.412570172,0.1747696087,-0.4778997178,-0.957816414,-1.1531143218,0.3266306742,-0.3183677516,0.4771886581,0.586023982,0.8290897194,0.689898352,0.0455606761,-0.2442077747,-0.3710626777,-4.5130425008,0.1654284475,0.8547550087,0.5441276103,0.2101517654,-4.0340735136,4.6391177671,2.0475896883,1.2213993118,0.4762793706,-13.6706649579,-1.6104852803,0.7261786702,0.2166354531,0.3607149608,0.4532927445,-0.6082272817,-0.7590409076,1.4151624605,-0.846734489,3.1391812605,3.8052580984,0.3522546587,1.4217829002,1.3756750187,0.1813233934,0.2653273768,-0.1258543571,0.2378737117,0.7270615306,-0.1491131926,0.0920736207,0.344207304,0.1608409608,-0.1048563554,-1.9737423826,-2.0357929369,-1.1544711964,1.1210828037,0.6623830511,2.3296526396,0.7142513287,0.5508159864,0.1134549314,0.1057418891,-0.478775443,0.1315562487,-0.1424965161,0.5591742202,1.6741827621,-3.9911270199,-0.0193042114,0.8518729159,0.3632028168,0.3203627892,0.4291663114,-0.3574146114,0.6515388007,0.4236337228,0.3898348922,-0.3254884242,0.7433871783,-0.2418830425,-0.2849775092,-0.0719467878,-11.94931098,0.5500182777,0.1817414908,-0.103185274,0.1961265203,3.2626090118,-3.490016346,1.8320164709,0.6062213782,0.1135835368,-1.9383378655,-0.2407920068,0.0358714306,0.3233455804,0.3724010052,0.241874679,0.6138772835,0.3493390525,-0.173015342,0.3710009157,1.3492044376,0.7109616054,0.0827590085,0.7560926467,0.8195441638,0.5242754605,0.4391997201,0.5542846974,0.2917385607,0.0709084781,-0.8541649079,-0.7062206719,-0.300391708,0.0708470986,-13.1018967356,2.2054155574,0.1860671069,0.0446853694,-0.4950834014,-0.0107406729,0.1765801943,0.0036769175,0.2351258755,0.7496341495,0.7865239865,0.4284557791,0.6105565341,1.3531363887,1.3946770851,0.0437618046,0.0486450228,0.3433902434,-0.399489119,0.4039949615,-0.6688525158,0.9238731946,0.0033069722,0.1858806,-0.2845129444,4.6049006714,-1.5159712423,-7.6256489697
   -0.1687502973,-1.5585812355,0.1217862537,0.4682476883,-0.7072848154,-0.0191098033,0.0371284179,-0.6355331001,0.3219101085,0.4511024325,0.1578498444,-0.0731282235,0.7015982122,0.4364911547,0.7785570069,-0.1520153681,1.1244449164,0.5767710399,0.2726628197,0.6436385108,0.1739748825,1.1452558078,0.064992886,-0.7191959257,-0.255852491,0.1615284859,-0.2937320857,6.6463253549,-0.358218418,1.6021277992,0.0641565766,0.5862298418,-0.0442773436,0.4809055277,-0.0456658445,-0.0529708938,-0.8401438726,0.1601805669,1.709663668,-0.0129101164,-0.410173252,0.3192931269,-0.2466418856,0.9278246691,-0.1746530416,0.2985764362,-0.2076371805,-0.2515381931,0.3629505802,0.3650249142,-0.5215382185,0.5080291766,-0.5793000637,0.0638833647,-0.4823154621,-0.9383354514,0.1515081538,-6.5521713224,0.1407175034,-0.0588018158,-3.1291484511,-0.0701559693,-1.9596572315,-0.5211826176,-0.2501706901,-0.1178045149,-0.0214628589,0.1780345633,-0.1704120127,0.1673738711,-0.0657556005,-0.1112255595,0.4360928171,0.7311097972,0.2781408604,1.2274753142,-0.2576240704,1.3493298068,1.1343102212,0.6773040336,0.460642905,0.5750250393,0.7649078431,0.2188051204,0.45315325,-0.189790092,0.0986516947,-0.1225223763,0.3163343105,0.0716868683,0.1814525131,-0.0456065264,0.1186284602,-1.4241473549,-0.0964264194,0.2682608376,-0.4864586168,-0.0346172175,-0.135195866,-0.1368488366,-0.1042267556,0.0357836547,0.6139895135,0.9632692677,0.9347596464,0.5808364154,0.0430801402,0.3485173146,-0.038882312,1.3663787985,0.6367401067,0.6859867659,0.1189740497,-0.1833597007,0.0612882636,-0.1848848899,-3.8287002043,0.7654155474,0.6177262997,0.1138958244,0.0445454793,0.4428704373,0.0908785433,0.0279090788,0.1488060522,0.5133484622,0.2058578623,-0.5243355759,-0.3745635438,0.2003882684,0.1588168862,0.846827637,0.6869780497,1.1817318365,0.3223888133,1.0333024431,0.4121158495,0.3040682571,0.6039279438,0.2469375863,0.616268262,0.5244457202,-0.3332847146,0.1639752099,0.0333438812,-0.0305685912,0.8444160261,1.4855938219,1.0939840914,0.583455665,0.6024572897,1.1966632147,0.8160833974,-0.2770050062,-0.1183246802,-0.4598730202,0.4032278355,-0.3958673516,0.9977542354,0.0149518198,-2.2339904878,0.5391742972,-0.0373549754,0.2426011401,0.3301568778,0.0018192363,0.0728746911,-0.0406951312,-0.0026531801,0.2822704146,0.5885014734,0.6000189162,-1.6048503303,0.0226428425,0.6543541757,-0.4235914849,-4.2400554588,-0.998059136,-0.0772852035,1.0595609553,0.3806889621,4.0088243556,-1.0754159123,-0.02914547,0.480439897,0.2097304288,0.5346611712,0.202998366,0.3003560781,-0.2110817299,-0.1630981149,1.1191666653,0.8148388152,0.3595280499,1.202188995,0.2940124327,0.1947367551,0.7391665963,0.1455325907,-1.4153079072,-5.8078578294,-0.4334051656,0.39674829,0.2796069211,2.2927882465,0.3497103066,0.7106523104,0.1766151716,0.6483782009,3.3073637768,-6.3564422443,0.0471613972,0.2601648107,-0.224816111,-1.6604402888,0.4010549665,0.4253901339,0.5607224828,0.8726311571,0.7091404246,0.1057891992,-0.783161285,0.218324662,0.3286471528,0.6177742471,0.716368722,1.0232144042,0.4385700642,0.3765660369,0.9544530131,-0.0345722322,0.9077575504,0.0569920027,-0.1909133405,0.3113771368,8.1797549002,0.2234737301,2.7097445259,-3.190258683,-3.2400380671,0.7516609367,1.2246183277,0.3935135462,-1.1538813138,3.219824215,0.4987771521,0.5486125415,0.4507289886,0.8707945373,-0.1335961684,1.1678291507,0.2160501425,-0.2031197204,1.0348579743,0.8274338318,-0.1731465351,0.414999344,3.8207549723,-0.0355581526,0.3136128828,0.4796873748,0.3164937738,0.5237624568,1.2157409316,1.1669486399,-3.1050596228,1.2240827513,0.0066489898,0.3727474732,0.4005949088,0.5901368818,0.8090741411,-0.1988384733,3.0056594394,0.4547100099,0.698007001,0.1687769465,0.4202698639,0.7132388089,0.6308390611,0.3404984572,0.759878037,0.0151426232,0.3686629781,-0.17494069,0.1774310568,0.9880457188,1.0565917132,0.835438854,1.1877208011,0.4819239684,-3.7302233502,-6.2154555574,0.2044898422,1.610474333,0.5879884437,0.6297108057,-1.4615036471,-0.3346851336,0.5829396547,0.5842703204,-0.3504887995,0.8647402631,3.2512722248,1.6058054888,0.7577361335,2.0288289544,1.3881377443,0.2699446303,0.398264068,-0.46258555,2.26683661,0.7366628448,-0.2067441677,1.8015201713,-1.0800547168,2.1449150101,1.4287889794,0.743196022,0.7234098437,0.7620539856,0.9367165058,0.4948400842,0.3944228993,0.1606759465,0.3253837855,-0.1102037236,0.3381063369,0.2652429013,0.2596153883,0.5682511248,0.666159834,0.535016635,-0.5514045721,0.2174387101,-0.1977432298,0.3959574822,-0.1882910997,0.1031104256,0.7381995595,-0.2322325933,0.5430981813,0.9361793617,0.8392416176,0.4328598612,0.2700666905,1.0972378765,0.0781936774,0.0110534512,-0.0950297566,0.3292978819,0.5028146399,1.1173800657,-0.2265337694,2.5025504239,2.5758183159,-0.5404225235,0.3455064465,0.348242599,0.5538556038,0.6694156705,0.4324360434,-0.0436652255,0.2093606687,0.5634827224,0.4175786932,0.2589215282,-0.5202663497,-1.0925742993,0.7793583338,0.5263541769,1.3019457307,0.6022962562,0.7540575272,-0.0405696988,-0.0889106009,0.9035915184,0.7123488332,0.6285457903,0.5931807712,0.5815163232,0.0947989372,-0.1482308494,0.4185623583,0.6963331662,-0.1343737685,0.981934697,0.3252794699,0.0493697427,-0.3249751186,0.4502649316,0.0800250085,0.3135849455,-0.3392440557,0.3379354182,0.0758431151,0.1738200977,0.6255112268,-0.7815669453,0.2118007303,0.5828108912,0.5044633508,0.166572249,-0.1799934216,0.5654801796,-0.0528552516,0.0153018318,0.3852679873,0.265051904,0.6332897565,0.5518433193,0.0134932744,0.4624312398,0.470244028,0.445858504,-0.115687001,-0.1076416254,-0.0477806282,0.7492756862,-11.4596565613,0.1879237119,-0.3268926902,0.7138011151,1.9318275144,1.6729113739,0.5626807312,0.2653618613,-0.0168083676,0.3095754653,1.0266946286,0.5116214426,0.5889321104,0.10951468,1.7608820955,-1.4667548461,0.2786581074,0.2632306333,0.5319101058,0.52475089,0.8704637273,0.640799798,0.2837188062,0.6392172665,-0.0337789991,0.5044039519,0.3252274826,0.2192203012,0.0737552958,0.3162994185,-0.092336424,0.2814718986,-0.1130671544,-0.3615612829,1.3140707159,-0.0614177659,0.6772357197,-0.193031652,0.4136520728,-0.0827367352,-0.1339875112,0.7992199418,0.8666936011,0.7308384939,0.1057860245,0.6737547418,0.7158085783,-0.1794361992,1.1587104016,0.3640000354,0.4733366448,0.2566816496,0.3310726138,-0.0897073846,3.7652988906,0.1737058494,-0.7104856703,0.1182688172,0.3605309766,0.0057337254,-0.5172656945,-0.1351138003,-0.1309454408,-0.0807167179,0.1175895127,-0.3417047598,0.4701944791,-0.8364286633,0.39362813,0.9517422084,1.0569671658,0.6329990134,0.4811142193,0.6398739871,-0.5176210739,0.58662401,0.0411613772,0.4282057944,0.1333073059,0.779220186,0.3663020629,0.3883379882,0.1609687884,0.5709337839,0.3720958028,0.033144115,-4.0256973513,0.2299150621,0.388230268,-0.5384948708,0.2239381586,0.4223772486,0.3560856754,-0.0189785158,-0.0026346734,0.0880528434,1.0776255998,0.0069071797,0.1309285004,0.0431661863,0.5326459619,-0.0447665515,-0.0030907431,-0.3461485328,0.6689136918,-0.2523704037,0.4431204722,-0.1094459543,0.8015649428,0.105669537,0.2602264947,0.1686189179,0.7561310401,0.2308116944,0.2005094195,-0.0202941581,-11.6274490243,0.142445479,1.2918771929,-3.1361756684,0.0431793517,0.2558811535,0.079321511,1.8096467336,-4.0840650751,-0.20490307,0.31805126,0.1981909872,-0.1629248931,0.737620623,-0.5399341528,-0.1323955014,0.3552348386,-0.6540282654,0.1481852056,-0.4369988836,0.1185644458,0.769492585,0.9134457803,0.3452745959,1.0873532115,0.7808858565,-0.0416379683,0.3763806376,0.879924592,0.3607971749,-0.0975608453,0.1940791336,0.6976692934,0.2545752173,0.0585478259,0.1232530112,0.3139542081,0.7556923809,0.1771538913,2.2631530221,0.2069689013,1.2109327256,-0.6941995994,1.1253495056,0.7377702535,0.9637531549,0.9619415957,0.7795305373,0.2076448633,0.4490722729,0.0718967695,-0.0880910289,0.4338551436,0.9089357932,0.159967405,-0.7771089675,-0.3425014722,3.1095953509,-0.3000130989,-0.327093382,-0.3233363687,0.2740925065,0.9442363971,0.7670808479,0.4310917247,-0.2906905281,-0.0167476226,-0.4640636318,-0.830960589,-0.8265790773,0.233266498,-1.3982859635,0.3900357448,0.7589826299,0.4232575803,0.3169130173,0.9812186569,-1.057778558,0.4334066483,0.5193754422,1.0818766776,1.4567214878,0.7500102492,0.820699628,0.4453310013,0.268034109,0.1433513466,0.8330019246,0.1219166337,0.1481024598,0.3227412859,0.376395496,0.0410207875,0.6531321103,-0.4869386041,0.2858137465,-0.2414439679,0.3482705651,0.4904864487,0.4054658637,0.7645314909,-0.1327501271,0.1451454708,1.0064353699,0.0422200926,-0.4131488147,-0.4025354103,0.2537300754,0.544504471,-0.1277607347,0.0065414569,0.4703275824,0.6741662228,0.6214014667,0.1286762165,0.3821845187,-0.1991091137,1.5489870387,0.1328909016,-0.645376444,0.5268447599,0.7728446639,0.892600408,0.2421661038,-0.8229078781,-0.2511861798,0.1715187861,0.9444338728,0.3692670147,0.5102876963,0.2543429014,0.2972754161,0.010278866,-0.2863197865,-1.1170613518,0.156391029,-0.4135720164,0.5967939073,0.0266487598,0.5538579117,-0.2358169462,0.7916484332,0.8213550797,1.5513122653,0.4633662282,0.1624390633,1.9351175267,0.5419444176,-0.0064035767,0.3289776588,0.7901877639,7.9991237021,0.480295387,0.5533318522,0.7290433368,-0.1244930409,0.8641605844,-0.5501406798,-0.0445096649,0.6539050365,0.3129698451,-0.1589453179,-0.0434980769,0.575738488,0.7633399302,0.68771165,1.2372121709,0.1759846673,0.4024471424,-0.1702882794,0.1715200109,-0.9912698345,0.3162013758,0.4343887896,0.6409590628,0.1251129753,-7.3179378277,1.9299603073,-0.218006907,-0.302121184,-0.2496146543,0.0241202545,0.0188415192,-0.2098952303,1.3614225068,0.5310183189,0.057360763,0.3815243173,-2.104359643,0.0303501829,-0.7283646309,0.3775645081,0.1747493752,4.4333741114,0.5684072327,0.8205246053,-0.6963482226,-0.0319580012,-2.2649286395,0.1129522028,0.7640935693,0.3105610811,0.3923426592,0.1259517418,0.29254018,0.4577378102,0.4644076209,-1.1398053761,1.1455351511,-0.4440723559,0.4937350238,-0.9124832581,0.089424624,-0.5422896706,0.4224540879,0.3480532839,0.0047543346,0.1891645388,-0.4150394409,0.4975617294,0.6114273843,0.9388435266,0.0780685289,0.7239762555,0.4037468493,0.1629155955,0.8387388837,0.146661727,0.4183529925,-0.0933202899,0.4549310022,-4.6084954656,0.4376389997,0.0937602943,0.1677528151,0.172917698,0.9912871363,-12.4913097734,1.6402630428,1.4492964799,0.903490615,3.2860748715,0.3181950552,0.087664092,1.2384792734,1.2087320812,0.4253518162,-0.0336977542,0.2389211242,0.0169757364,0.4760360617,0.7488993086,0.0743477604,0.8790496051,0.2601722969,-2.5849048385,0.6672181654,0.7349197538,0.0779472176,0.271066018,-0.6332151113,0.6289672041,0.1392291404,0.570987353,0.3546972949,0.4280020077,0.0724064636,0.4299530139,0.4796011946,0.3872273813,0.283692787,0.3523618481,0.4997308519,-0.1944325249,-0.8440722075,1.0550358206,0.6497954033,0.4192622268,0.4356020904,0.6083832942,-0.3311686429,0.384124976,-0.1704606946,0.0855782239,0.1081721932,0.7807489084,0.3797214522,0.2582452573,0.393667272,0.7639906625,-0.2633027787,0.8103422282,0.3350982242,0.3039761677,-0.1477239745,-2.4873817089,-4.8243464717,-1.4864581661,-0.0245170751,3.0074069199,-0.6265769841,0.2643549347,0.3482009271,0.6653074947,0.4077558545,0.5400488009,1.0085558971,-0.8311675957,-0.0038013251,0.2390718339,-0.513066878,-0.0080151132,1.3482328379,1.032599593,0.6748139357,0.6681890462,1.3160542981,0.4303138471,0.1835518115,-0.9199791318,0.6462563656,0.0259668576,0.3930199005,0.1644968795,1.1486873646,0.9768733856,0.3287725265,1.7144468155,1.4946384584,0.3679690744,-0.1770145946,-0.5603798824,0.3925300688,0.2057491467,1.3223217901,0.2737300472,-0.1177488036,0.3147737461,0.6226463072,0.6445494896,0.3836818982,0.2721856496,0.3535262797,0.4581792075,0.2642638327,0.3121264415,-0.2116680627,-0.0669575674,0.5333463882,0.7681690279,-0.2137350724,-0.0691212866,-0.2515453897,1.5361422464,1.612107336,1.1830750049,0.072820355,0.9294911002,0.6239785779,0.6950314318,1.2395280832,1.9034417231,0.0358126442,0.5635123335,0.0191465631,2.7069128147,0.6774941167,0.4742576797,0.5715386122,0.5552960682,-0.2015237461,0.6842444605,-2.1218080366,1.2047511731,0.1408493458,-2.1946308187,-0.2760299305,0.1164169447,0.9661124325,0.6776838966,0.8761889863,0.1985766407,0.3990122152,0.749380448,0.3461459206,0.0233635105,-0.0236841522,0.154233663,0.057372172,-0.166206213,2.2701839806,0.0904399303,0.1727593276,0.1965549568,0.697857566,2.5069518349,0.6800959173,-1.8202588636,0.2747604457,-0.1013739364,0.7705730116,1.0383222471,0.4172851776,0.6285036116,-0.2666526322,-0.0631181545,0.1343718949,-0.2073393279,0.7977376201,0.3076623442,0.6108383816,0.3474773462,0.3976747575,0.114681106,2.5354973649,-0.582016238,1.262656508,0.6746912684,-0.4137277259,-3.8851334399,0.4808737503,0.1511118832,-0.0304828573,0.0447337874,-0.1026871768,0.1930036376,0.0721446331,0.018272862,-4.293418876,-0.0911186894,0.7512643201,2.3453400935,0.7554457603,0.8428100237,-0.3801640972,-0.2514303717,0.976624822,0.419662767,0.3225226554,0.50850562,0.2791352515,0.0061152625,0.2828611917,0.1827389501,0.33442586,-0.770379583,-0.2451409357,-1.3074388999,0.6952269099,0.0050432546,0.2324408169,0.053483159,-0.0558618592,0.3788955316,-0.6141862575,0.1104171481,-0.3165828732,0.59680118,0.6543354669,0.3409724226,0.3038881772,0.3897901684,-0.0506634536,0.5473643507,0.3108413283,0.1979866475,0.1005949686,0.4936606035,-0.0083603364,-4.3905497395,-1.2314142706,0.0556232521,0.6760609901,-0.0360817734,-29.4714037136,-0.3929567637,0.0860576274,-0.3235813369,2.1028573814,-14.9043580193,5.113851225,0.1901022058,0.6456458569,0.2297346901,-0.4518913746,0.7747137758,0.1628776467,0.3626172314,0.2556941557,0.4011931463,-0.2383719868,0.3488382155,-0.2889411541,-1.0411314268,-0.3128436709,0.6348927164,0.5082043816,-0.0139979961,0.5386015891,0.9444331155,-0.8348843553,0.94777904,0.6878222978,0.0489672138,0.663087701,0.3259837828,0.0952829904,1.9976739058,-0.9291806477,0.3166817276,0.5653194329,-0.4814051826,0.4081502039,0.5324589293,0.2784778764,-0.1102980777,-0.7863015006,0.7642329069,-0.2355884138,0.2548850787,0.2627707901,0.1080152773,-0.2017864293,0.5971925908,0.2554300288,-0.4286432236,-1.9720322504,0.9261724529,0.3103372664,0.0895750601,0.3017741956,-0.7872015416,0.4861257443,2.2090578746,0.319236214,-1.5213121564,0.9299903258,0.4867003345,0.5659690655,0.332754707,-0.0597427482,0.3881292989,1.4603671043,0.2282800562,0.6282554446,0.324746723,0.2870298209,1.4032722797,-0.6047703943,0.144329021,1.0458598729,0.276897639,1.118010382,1.5344116825,0.3620430733,0.9961065696,2.0701383978,-0.365641196,0.13440775,0.2747377987,0.5799046707,0.6272268175,1.3454926106,0.7633051758,0.6723904314,16.4675221835,0.9684103026,0.1447079617,-0.4509390095,0.0560074764,0.2310666654,-0.0796829586,1.3613208516,-0.6861134176,0.547498169,0.2296998308,0.2012062741,0.9231270627,0.1525195643,0.5082316227,0.2581391902,0.2248516219,0.1825925481,0.1988934033,0.3861742173,0.2466775468,-0.0742039918,1.3582026458,-1.002848776,1.396995729,0.0161344798,0.4346601777,20.4920918189,0.8378324389,0.2026299384,0.2940547142,-2.0476139965,1.2715694458,-0.3364434229,1.0157770061,0.7082835003,0.3029861806,1.2285074006,4.2662173187,0.266844053,0.2049637063,0.8057134856,-0.6795177468,-0.6417860433,0.1180740926,1.410720287,0.2241072253,1.0956615933,0.6357132952,0.9571927315,-1.450813758,0.3341350528,1.1308834631,0.7928693394,2.1118086629,0.943773047,1.6463486736,-0.5634657717,0.4385135116,-0.2143490936,0.1454689956,-0.1007221461,-5.3056113086,2.9154891491,-0.2488645586,3.2644056371,-0.2840899715,0.6638759255,-0.1036787699,0.0287570335,-0.0131237018,-0.6734337372,-0.1865562205,0.8195305045,0.220485588,0.664599549,0.7557659678,0.4224119311,-0.1213304813,-0.6674334206,-1.6111062681,-0.1615246491,-1.7039827196,2.1025211025,-2.0811674844,0.3796995661,-0.9227806021,1.7619432834,-1.0528073406,-0.1122597624,0.2867745841,0.0867168811,-0.1952956647,0.7398891807,0.3709574833,-0.0922793531,-0.0101770223,0.3573928596,0.4044043584,-0.1034335387,0.6126105544,1.1388412931,0.2001327929,0.0142730464,0.4074250636,0.9391115019,0.9541080068,0.1136277183,0.7057857736,0.7978757255,4.8113926835,0.9859010405,0.2437043951,0.4003760688,-0.1239592899,0.4141748932,0.4638371901,0.6555288898,4.6945400554,-14.4811991625,-0.2154089837,0.0256505976,-0.0582116097,1.6738208582,0.3051528519,-0.6295319948,-0.0637433663,-0.2802640034,0.9011960626,-0.2172734099,0.0635127899,-0.4040801871,-0.9839666819,1.2967958228,-1.1019214352,0.1432335072,-0.0411710782,0.3315713329,0.7737338791,-0.020484648,0.2239474885,-0.4996784764,-0.7548110507,0.3277569273,0.3076220326,-0.829353682,0.0029825346,1.445851659,-0.2914102772,-0.3596913651,-0.8130829629,0.1658133836,3.0866941635,1.2964730698,0.101443027,-0.4266313957,0.1343609673,-0.5671057587,-0.1139623518,0.7141270828,0.4362086749,-0.2043593412,-0.3799703133,0.2286805724,-0.3730962619,0.9180762789,-0.1257376781,0.1583612905,-0.0503576959,-1.0692734271,-1.6621257748,0.7560502367,0.3849410086,1.1282664341,0.5762523769,-0.2458028304,0.3822988374,0.0713801284,1.3685517547,-0.0386380232,0.143096932,0.7200378092,0.1550955354,0.4181773442,0.0525918447,0.6174175811,1.9551045477,-0.1007497806,0.7069667177,0.4473460864,1.094734152,-0.6949690958,-0.3093033625,0.9991039458,1.0586642912,0.3774294856,0.8516342476,-0.1791812873,-0.2288087575,-0.0137798321,1.1188573609,0.0049901998,-0.0033484883,-0.1029582883,-0.0545848063,0.2628720183,9.9927771255,10.2167393539,11.3897401093,0.2243505706,-0.8883456169,-1.3532502229,0.4444214582,1.0130940132,-0.238784527,0.0039111705,0.1823706195,0.2052920735,-0.3005215774,-0.6710149613,0.8243216637,-0.981853959,0.7816463224,4.4428821552,0.7900972282,1.7044576886,-0.8328548316,1.2193157291,2.1509057807,0.9567410725,2.4323626918,-0.1846449411,-0.0609084094,-0.0271634058,-0.2954872536,0.6501451909,0.8320713546,0.2772188861,-1.3805319445,-1.9159137562,0.3073887762,-0.4948977735,0.4537324336,-0.4823348219,0.8778660494,0.0801601529,-1.0104218904,-0.6700998834,0.1188053664,0.4841369104,0.7006819802,-0.2512424515,0.3596796919,0.255282249,0.1525731976,1.0843412995,0.7228835594,0.3646859908,0.4951154081,-0.5877828702,1.284659261,-2.5260707894,0.931598905,0.3021794222,-0.1957030756,-0.0893848009,0.6503946841,-0.1636277253,0.0776257736,-1.6391768621,0.5851391997,-12.0308026897,-1.5382629245,0.2915295951,0.6157092797,0.1003665816,0.4654521,0.0729383708,0.1606629448,-1.5429067168,0.14881128,0.0232607637,0.2904667305,0.2032746016,0.0776492946,0.2180113712,-0.7029315376,0.64207422,0.3379753358,0.3790164602,0.9249239719,-0.1146522886,-2.6674778359,0.417863879,-0.0726863366,-0.2505527621,-0.1844872659,0.1825565032,0.2869223948,0.095549055,-6.8765726794,0.1525360602,0.3131810309,-0.5519979513,-0.4508528597,0.5372508332,-0.4581311141,0.711858613,0.3875126011,0.6461081345,-0.6292130544,0.3113625375,0.9072234202,0.5615754678,1.1159067773,-2.6282781048,0.2286419038,0.0090002311,0.283905394,0.039361733,-3.1199784871,0.722994252,0.008476494,0.2603610737,-0.3415689788,-1.3712922021,2.9770821447,2.4176526046,-3.7814036099,-0.1794297256,-0.6146244207,1.3262519712,-0.0502455476,0.4061706415,0.4057587646,-0.3334661296,0.054367464,-2.9436117957,-0.291032208,0.7612810899,0.402135752,0.0925015803,1.2286651035,1.0326919271,0.5299067826,0.1286854549,0.2958805538,0.1684799974,0.7355195066,0.3394971573,0.1171400444,0.2324595115,0.4287933072,0.4435134571,-0.0635877318,-0.4887380814,-3.0751330542,-1.4902412173,-0.0885802007,0.6608684307,0.3722028238,0.5543507672,-0.4306175993,0.4696929036,0.2299381172,-0.2939229257,-0.1157062627,0.1522263473,0.0754863857,1.6462001637,-3.3562460048,0.2510376648,0.2185938033,0.5921847731,-0.384657454,0.0005597308,-0.387655596,-0.0158089042,0.1908054441,0.4050210195,-5.7136621243,0.2120766784,-0.1273596246,0.3902032403,1.1319330705,1.9345220115,-7.4475101031,-0.3217085056,0.0717711784,0.6947610288,13.8014852627,0.423778566,0.0689666472,0.2615936716,1.3039900175,0.1758223899,0.1673823005,0.7040500272,0.0874055214,0.4518990411,1.0859986503,0.1448553966,0.4166864161,1.9300812395,3.55569938,-0.7870298411,0.4936565256,0.069453294,0.5410287353,0.2032541594,0.1775043065,0.3088527835,0.0075367999,0.2816377289,0.5675378648,-0.0760729942,0.2330586546,0.1522779745,1.4633101471,-0.0576893859,-0.1209744737,0.3164647987,-0.1112517167,-0.429880421,-0.1775424631,-0.2927130181,1.5411338634,0.2299582054,0.5148088455,-1.6503640598,0.0411089566,1.0906827378,0.7778592481,0.7199996379,0.7533974722,-0.1056365111,0.2540382324,-0.1853832812,0.6061298459,-0.3013406229,0.4486440301,0.0453842633,-0.1037779927,-1.5735328192,6.8679791403,2.1429905137,0.2065842273,-0.1157003342,1.3762245815,3.4898270184,-0.1890052064,-0.1109534253,-0.0853771046,0.3657202964,-0.3429957678,1.2076542258,-1.3506316217,0.111277578,-0.2816948555,3.8709639983,0.6340933978,0.9194384149,0.4357703535,1.7146517751,0.1709808928,0.6995662564,0.3995672848,0.7455882798,0.4263345133,0.0871065754,-0.2960841247,0.3701995677,0.5244735257,0.1953403922,0.5265864192,-13.3195633979,-4.2107329422,0.2957199493,0.2047660397,-0.7498718185,0.400252742,-0.6907876856,0.1983073637,0.287211659,0.2301324365,1.1762131168,0.1456655795,0.5873306902,0.8603812068,0.0018456538,0.4683991258,0.1090319844,0.5688750844,-1.017732332,-0.1399332543,-0.3634328808,0.2210040408,-0.0786087425,0.9237344805,-1.7473710449,0.0272960513,0.3063687548,0.2985201598,-7.4995186319,0.4708743156,0.1311078705,2.0743499194,-0.2098671756,0.6667032411,-1.4698952768,-0.222341166,0.1291363184,0.5432912989,-1.321747938,1.2364105156,-0.0511516912,-0.1567643762,-0.1895015242,0.1309774956,0.5107051528,0.8654419329,0.0747527972,-0.1700445059,0.0032521643,0.5560175986,0.735539197,1.856797144,1.0437852321,0.9588241038,0.8240545856,-0.2304375384,0.1041153004,1.20747971,0.1059958176,0.3976841218,1.0367694414,0.0398457322,0.5424858076,0.3443622296,0.2246954277,-0.025736656,0.0420750064,0.1578423578,0.2838227778,0.1920705689,0.4005779211,0.2757967702,0.0084007545,0.7363550952,2.1392918844,0.478324872,0.7785559922,0.3301923283,2.4503736374,3.6525948219,-2.7862809356,0.3114391263,1.1904044767,-0.377050216,1.2556458962,0.79096137,0.0427813281,-0.2443834272,2.5521557983,1.8469735562,17.0448358127,1.0930367122,0.4325915143,1.0349888601,-0.7569633285,0.5317726871,0.1507985057,0.9462399998,0.6321527956,0.6785135914,0.5675187931,0.6532648275,0.389232787,0.7327919488,-0.3091693957,-1.1580706007,0.5601417048,1.2813118257,0.079996492,1.8615627758,0.2630075568,0.2293340258,0.9999162797,0.4920899305,0.2433998176,0.2531399555,0.6878634343,0.2711013696,6.8082647405,3.6205472076,-0.1587576324,1.4265984415,0.4023256744,0.2649166466,0.5892820202,0.7194940596,0.1551561424,-0.0141879889,-0.5919685654,0.1807850966,0.6387878346,0.0361466659,-0.5733086404,0.3602855371,1.3458165332,0.1305206689,-0.0454458051,-0.737634657,0.0288775322,-0.0713706513,-0.0287555021,0.1812089561,0.4662224917,4.3684723306,4.7212607695,0.5984138226,0.475626963,0.0906204326,16.1630679447,0.3210824801,-0.3423623664,-0.2863230117,1.4834466719,1.0263939394,-5.8166784651,0.438156483,0.5083396904,-0.2302714866,0.4278783552,2.5376281474,0.5476391627,0.0039488632,-0.2364734503,-0.7605448397,0.8669033568,0.6410512129,-0.4154611317,0.4308763082,0.4148292265,0.1091151803,-0.6138066979,0.293068215,0.7998320456,0.8503398359,0.4376599121,-0.3349052439,1.4371093847,0.082226367,-1.6144457014,-0.2107822139,0.03227362,0.0075066153,13.2518592252,0.6753309352,0.1475910153,-0.0409803381,-0.1262553389,0.6467297783,0.0814125258,0.3736664685,0.0275097948,3.3150822029,-0.1727898129,0.7512120417,1.1521493024,0.6415806641,1.6137775743,-0.8490177369,-0.0045408071,0.4286011742,-0.0237397568,0.7286011956,0.2579446332,-0.5046398192,0.3072299178,-0.0349169799,-0.1918933508,16.1211043233,2.5361240336,2.3425731734,-1.6549096049,2.4030339842,-14.3608770172,0.1175052864,0.0393319277,-0.2616459166,-0.6811393824,-0.7603696982,-0.9464329376,0.0934663176,-0.3357864361,-2.2811565239,1.1021303325,0.3453022097,1.1570442304,0.5845230553,1.194568362,0.4143451148,0.5009848326,0.4283853449,-0.4121729496,0.3280525527,0.0051866578,-0.4057711595,-0.0542911364,0.1057047652,0.5368953662,-0.3784766631,1.103736318,-0.9842461464,-3.5472945393,0.6983551645,-0.091276654,0.0175141547,1.8218010604,0.0306605043,-1.1669879302,-1.0199276877,-3.1306232107,0.4926162477,-0.7409566136,0.4434608374,0.6233590705,0.0558794628,0.1841690982,-0.0170349739,-0.9783557302,-0.7020096391,0.3286672393,-0.3108851363,-0.2105542911,0.3682900832,5.4249192212,-0.4580298828,0.2564736008,0.281757169,0.3090662741,0.0010764726,0.6193616749,-0.767350494,0.4447265892,0.9662491005,-0.1872394061,2.6040142973,-0.3538446161,0.5715498297,-0.5439318511,1.0169468892,0.231887659,0.2397181618,0.3984864524,0.1281004103,0.6096958372,0.2378798583,0.034158906,-0.2077671567,0.4908397457,0.0382394436,0.9282199967,0.3749175067,0.1674932978,0.2313392462,1.0840397184,-0.7478505539,2.9932021312,0.6130697716,0.4892491344,0.1830243252,0.6802802743,-0.3386688474,-0.2911169473,0.8543813117,0.8608368251,-0.1746426412,0.0702040863,-0.2082347015,1.180418356,-0.0259282687,-1.5180480686,-0.2776558506,0.1849987005,0.2278985235,-0.4786771995,-0.5207630191,0.8415074093,0.2829370271,0.5949740482,0.0146542188,0.0446717892,0.5671547346,0.185301362,0.0561844615,1.1073977661,0.5640342263,-0.5077093764,-0.202710137,-3.1432235226,-1.1109242364,0.2806076896,-0.3016770414,0.0987492757,0.4812128881,0.9856832476,0.5027277972,-0.0406586677,-1.0779518368,-0.0056723411,0.6934276208,0.1842925465,-0.2143168786,-0.1768966569,0.4701301643,0.3245711463,0.8278205412,0.5546023664,0.3810575868,0.9837381531,3.0482875846,2.0316582067,0.1348577623,1.6772878624,0.301056968,0.0044637669,-0.1037881798,-0.2228397298,-0.1929850648,0.6215103128,3.0991541346,-0.8893991283,0.321561094,0.260271978,0.3516979715,0.3157110601,0.1789005569,0.3630429579,-1.6634772338,0.2068115729,0.3312273393,0.095526014,0.2051204293,1.6488512223,0.7244953514,0.5820989968,0.2882541484,-0.3683761833,0.0858503581,0.535275754,0.5807375709,0.2853698316,-0.0626021592,0.3504919247,0.3021543646,0.6399301634,-0.3230843818,0.2092434176,-2.6323183925,2.5269386558,-2.0607247733,1.8413786514,-6.8458678181,2.6419874016,-3.2939740812,0.0782539368,-0.8131547976,0.1932007016,-0.7891771823,0.7495265832,-0.4181381878,0.3618237681,0.3288701873,-0.20013807,-0.4787028473,0.3664198987,1.327738851,0.7366286791,-0.9717895102,0.2698638215,3.209133444,-0.2508659264,-1.5038076858,-0.5219366908,-0.12918745,0.2695278302,-0.050780021,1.1608148482,0.0582571589,-1.8403179397,0.7051529113,1.0602862105,0.1433147887,0.6705662313,0.2596011757,0.3490378985,1.8423057215,-0.3972117989,1.0359271515,4.2077635747,1.1331946395,0.3192807753,1.1992176208,0.4939890268,0.4900435542,0.3583796523,0.0516826843,0.4132509509,0.9375027465,1.0357874288,0.2404322511,1.363720285,1.978559276,0.2215521778,0.0949532359,0.0889740688,0.2782343996,0.3297469938,4.4548955172,-5.9016615645,5.6497028616,0.143640771,2.8734610514,0.3643605081,0.0225560342,0.7232873988,0.3733070044,0.2202164538,0.3360530114,0.3702487787,0.625778519,-0.27844304,0.7143462461,-1.2030507796,-1.9190191366,0.2947519911,0.4848563441,0.2709035578,0.0626918332,0.6615356636,0.2686390412,1.0864672306,0.04887527,0.3032907614,0.4898874041,2.1605715878
   0.3446504676,0.6841342157,-0.0941685113,-1.5776797469,18.6845948608,0.9177925036,0.4462296651,0.4704549943,0.5976609435,0.4788470844,0.3090438998,0.5439444239,0.0774890656,0.6286632009,0.1267528251,1.6308735146,1.4016751695,0.276631738,0.7550139905,0.1856015138,0.3064123336,0.163078748,-0.0404187936,0.3869004863,0.9274259312,0.459584441,4.5325165132,-6.6851784758,-3.4241712044,19.7907786338,-3.5101881017,0.9582543579,0.6609333655,-9.1494050014,0.6746027824,0.0657456853,3.0016720204,5.1355177134,0.5646259592,0.5264719075,1.0490221017,0.2533592853,7.0675315536,0.6983856969,-0.5255740368,4.8648606621,0.5787232464,-0.2408320193,2.7613178731,-0.0019444608,-0.1991722414,0.5491092606,0.4960435129,0.6276736791,0.2259168823,1.5630216355,0.6672317484,0.9458525773,0.050453331,0.6263645752,0.0637608844,0.1234164954,-0.7174625904,0.7403919195,0.2155257026,-0.8095436526,0.4873208395,0.2821973763,-0.0381910838,-0.8778268673,0.1566740282,-0.3042224925,-2.0556962114,0.2095244539,-0.0053473383,0.8241253122,-0.2757849303,-1.2304526406,0.5966883048,0.610870267,0.6785391299,0.0997079984,-0.4942908844,0.0915249798,0.2871020098,0.0552479768,0.7185983576,0.536884842,-0.182731299,-1.2805653211,0.4347364931,2.8130505386,4.415995473,-0.4901335899,-2.369157086,-3.2012736715,-0.1962012216,-0.5023270107,0.0151182675,0.6771729883,0.0692666814,0.0671105743,0.2913485032,0.1005561205,-0.2056729616,0.6833048786,0.4831364041,3.4701560198,0.3212835353,0.182781105,0.0855795542,0.0133822482,2.2294097679,1.5987637805,0.2935629824,0.2389875861,-0.0682053151,0.2522323481,0.0066867243,0.1036305166,0.4284261141,-0.8609870991,-1.1922554985,0.9240517256,0.7145288413,0.0932099125,0.0589078273,0.1765146401,0.2139528998,0.2470306242,0.1641236606,-0.3510825164,-0.0791263002,-0.1216379467,-0.7079545118,0.5481930062,-0.0453987851,0.5084534324,-0.4684263741,-0.5210433684,-0.1479959082,-0.5660178117,0.3911208805,-0.1956386223,0.2083473755,0.7666458739,0.0402161855,0.0075797483,1.6996149374,0.4099511777,0.4872795223,0.9955583278,0.1086864258,0.050020136,0.2987564674,0.1985773606,1.4014528692,0.3137425116,-1.5941673363,0.3337857957,0.3759428562,0.7337662809,0.5793881425,0.1229728477,0.3251168263,-0.0100669523,-0.6039047983,0.181521255,0.5125314259,0.2761708962,2.0082790599,0.3123256232,0.184790439,0.0700263355,0.9933928212,0.428493863,0.7861321235,-1.2761095463,0.3984873436,0.7411648227,0.5826807023,0.3027068596,-0.0352850654,-0.2019810762,0.2231673377,1.082959598,0.5019712028,0.0455548594,0.7162803618,-1.1944895062,-0.0374685358,-0.3124041249,0.1007749488,-0.0724018071,0.3396375148,0.4897037202,1.068156354,0.4661949106,0.7073033379,0.4416423394,0.1853711081,0.332430329,0.204360405,0.7196885867,-0.191231975,0.5826013893,0.6178335458,-0.3913303292,-0.3482283945,-0.0820945949,-2.7865074813,-3.6852238179,0.2873393264,1.1165965558,-1.9706716334,1.0464418003,0.223779445,-0.1318104265,0.5304164512,0.0417239706,0.2497162317,0.0200277076,0.2377522028,0.4059283851,2.3106849285,-0.1981317281,0.6274996338,0.7022779699,0.9294226218,0.209960638,0.0895826924,0.174869481,0.3256694388,0.4507806618,-0.2263783138,0.4271522237,-0.156002875,0.333313593,0.2759004569,0.5492113734,-0.1412507864,0.3480181049,0.0981138416,1.2033285665,0.0648103294,0.2001763481,0.1327158594,0.3908944455,0.3029853952,1.3310542929,0.3339687058,0.2590698055,0.0061035516,0.8313705554,1.1339164237,-0.6049447381,0.8100858482,0.1627243637,-0.9701833225,-0.1353564791,-0.1759412529,0.4492333841,-0.0373167685,0.8249875081,-0.252943689,-0.0323596713,0.3456322974,-0.0293249434,-0.1964424157,0.7508599307,1.996439187,-0.2675153012,0.6608789564,-0.2783646965,0.6792624358,0.9159135855,0.9195425959,0.740542504,-0.2403702557,0.732206534,1.6047319106,0.6063769901,-0.0580070883,0.1255867629,-0.3764897914,0.5354869262,0.2384380646,0.6886437682,0.5901297257,0.4879550603,-0.9039779808,-0.6223797481,1.0661938297,0.794059332,1.2901817142,0.2666033014,0.5029521533,0.9764958068,1.2179061614,0.5009216227,-0.433869357,0.2364712718,0.0969229053,1.4189822866,0.4470967458,1.5510880909,-0.5480395836,-0.0876720824,0.2577541273,0.0633100711,0.1558133994,0.3169022545,0.2573173147,-0.0613602207,0.3450845811,0.7222277531,0.5278554627,0.6763431662,1.0851789477,0.2720342387,0.3043198938,0.3072973848,0.1063897602,-0.8288268017,0.2880001627,0.5354136727,-0.5153963686,-0.2220618133,-0.0095086468,0.6053969415,9.8992842847,0.5969723522,-0.9694299172,2.6867234383,0.2651827871,0.4121455854,0.2551038259,0.2404483286,0.8286105437,-0.0267861774,-0.0036041742,1.0663963214,0.1164168344,0.5191049808,0.9275352649,0.7617357935,0.9008064658,-1.4516219501,0.9033119403,0.553743769,0.7166548313,1.1342665959,-0.4339545533,0.5837414683,0.5220873038,0.0032714757,-0.0480270988,0.0694072585,0.3509485979,-0.372686352,2.4372299474,0.3180863872,0.2127421432,0.0169345219,0.3661866962,0.2725961859,-0.1557113799,-0.3613664963,0.0971402074,0.1693209028,0.164615248,0.4744062107,-0.1712760983,-0.0412203238,0.3181809131,0.6027137882,0.3778607889,-0.1529020445,0.462500058,0.4680774224,0.7487640977,0.2579069418,0.3187983848,0.0306382482,0.3975623498,0.0970740147,0.0175075529,0.3093222788,0.1888685971,-0.4893666295,-0.0672294052,-0.0399259331,0.1025973031,-1.3943603778,3.4618634441,0.5558111469,-3.069926008,0.0239270397,-0.0836400424,-0.8819535562,0.2156782689,-0.0651544083,0.2108787109,-0.1527853224,0.2623587874,0.0471098299,0.596434701,-0.0396310932,-0.9050740478,0.5551368899,0.5390774274,0.0104581536,0.5056816443,0.2999429329,1.1069530714,0.6666504412,-0.018933662,0.7018272761,0.9936972679,0.0328229032,0.345307202,0.1663836615,-0.1711722007,-0.2985337031,1.0804528748,0.1082828853,-0.1560659277,0.5997656552,-0.4525483384,0.9544911348,-0.0767458126,0.3975850994,0.2904184108,0.2496322513,0.6012477548,0.5472949132,0.5961611123,0.415796479,0.3401441299,1.3426297355,0.2984006512,0.0225644558,0.1352377226,0.1473547107,0.5714032111,0.1788228443,-0.1421077536,0.5787774015,-0.2065639329,2.6783970027,2.3428617046,0.1475598982,0.2124644298,1.2033311588,0.5850657133,0.1849574189,0.1601931638,-0.2240761745,0.6224532967,-0.0436743419,0.2270062071,0.299853137,0.5121934131,0.6137701797,0.792007536,0.3009579974,0.3303033881,0.4742886014,0.0987775685,0.410615692,0.1784047148,0.1683157015,0.3208458903,0.540781495,0.5711670297,0.3891904178,-0.2102174288,0.3906754866,0.3824057659,0.2372344934,-0.4814316223,0.840700657,0.2169302653,-0.2960607545,-0.6442970657,0.787640644,0.0580652581,0.5067537544,0.1817757109,0.8122341888,0.6083955046,-0.5624570297,0.5960775276,0.6365196742,0.2117334752,0.0495994674,0.1775534864,0.6453294202,1.0090288222,0.8095470752,0.2306418285,0.7158920255,-0.0649514013,-2.3305784298,0.6488469344,0.625712471,0.5806041123,0.2455297915,5.0959301066,0.001339695,0.0620108922,0.4665547225,0.8289134813,3.3678066017,-2.0782939963,0.3535177426,0.2006672425,0.755811918,0.8000373439,0.8045789596,0.1282370794,0.4928598927,-0.0175250236,-0.005922947,0.4768918705,-0.9383795479,1.1788788826,-0.7077511119,-3.2789212949,0.2373564278,0.3151899705,-0.6895061445,0.1163339211,1.0375345123,0.6398678048,1.2233218323,-0.1270445486,0.2870006231,0.9993251541,0.694758189,-0.0316032723,0.5008248962,0.1562862597,12.5882878207,0.6180838527,1.352871049,-0.3640897201,-1.2969442362,-0.3719932562,0.0257835883,0.0400294708,-1.414831823,0.8673146815,0.5888818554,0.5915018507,0.832425502,0.9214555164,-0.0059540143,0.0341168782,0.3181482294,0.7981577101,-0.73770144,0.1549743245,3.3450029683,0.7793495445,-0.0057122868,-0.327289591,4.1782693647,0.7118126676,9.5982608212,2.2889504142,1.1203381876,0.0966357603,4.242120653,0.9623952886,-2.9487193297,-0.3457099017,-0.005448542,0.4035863029,0.1262540134,0.6257895674,0.8751054156,-0.2328981766,-3.0458338987,-0.1522321305,-2.3791094771,0.4759915363,0.1760666647,1.2301823227,1.2983408544,1.040180664,-1.2055979613,0.6665167751,0.1595194253,0.1359961728,-0.3051516197,-0.079171094,1.7389719156,-3.4118465604,-1.9975152065,0.0535193859,0.2243651592,0.2462886377,0.3715665963,0.3940956081,0.5122500969,-0.256223962,0.3701959946,0.7609528297,0.0863006669,0.4484143002,0.043581002,0.4780914607,1.3080349178,1.1669002081,0.2874119766,0.2365978767,0.713159299,-0.1879810581,0.099106895,-0.2198799617,-0.3201804965,-0.6816556912,2.2184940325,0.4470394524,0.013583479,0.0767805335,-2.1977158682,-2.5713531801,-0.5310309205,0.5994248425,-0.3219735297,0.1181451398,0.269188336,1.3343727866,0.4768005276,0.0882971108,0.7683927032,-0.1741799919,-0.7580429116,0.2062580533,0.2742418527,-0.3837951023,1.0010573969,1.0223907412,1.0472590335,-0.4240919634,-1.6084266443,-2.1291407257,0.0629054105,-0.5543755293,-0.0591992961,-0.137997574,1.2781346067,0.571088545,2.0002100784,0.0924524846,0.2778716978,1.4187779101,-1.938499976,0.5293369402,-0.5132377278,0.1455403836,0.5583416794,0.3197973739,0.172726288,-3.2023106006,0.0075846705,0.8626619508,1.769373071,0.6907600821,-0.0712895911,0.6774608539,0.343443941,0.0076141081,0.649104016,0.1849101519,0.097041395,2.4220062933,0.2400519051,1.1225962003,0.0115206943,-0.0163042647,0.6339840423,0.7527422567,0.0207813404,-10.6213568816,-4.3850203354,-0.0290591271,0.5785333819,-0.1933956843,0.3797852329,0.035803266,2.0011686074,0.4836603281,1.2760182122,0.666315217,0.3087804007,0.3438756584,0.439324597,0.1293534042,0.3915106917,0.0940809655,0.4182025457,0.1837173276,0.0752304612,1.0967702645,-0.7867944979,0.3000221409,0.9254055179,0.4386492566,0.3985696025,-0.0798671153,0.6951834378,0.500778973,0.4663173113,1.4256647725,0.5566442106,-1.2097245299,0.2680038788,0.1692704722,-2.07517675,0.0975647787,0.5835509973,3.1650871291,0.4489246898,-0.6447569968,0.0257753274,0.8306081319,3.0506733613,0.2380187911,0.2908432466,0.5544498716,1.1196954483,0.847300953,-0.2666813626,-0.208692131,0.0989813487,-0.4989603946,0.291159528,0.5526042839,1.7500586618,0.4340752148,-1.517161408,2.9918670707,0.6558616975,3.9393512264,3.4799256374,0.5962233283,0.3789299955,0.6721061308,2.965586548,-0.3563038106,-0.0033055193,0.6754634551,0.1390772626,-0.0633199694,0.6168932826,-0.4822838151,0.552569488,0.415942069,0.5969745812,0.4042596269,-0.2019371139,0.0328016029,1.2066234033,1.4436581388,0.8694561085,0.5100636763,0.825340456,0.869006282,0.7418278583,0.2436803619,0.1047449343,-1.0099700146,0.5487656589,0.3582276936,0.3930489279,0.3313901184,0.443606385,0.0152642175,0.0872842883,1.1618659182,0.0810710664,0.1145092241,0.1795824461,-0.2782877011,-0.0755880912,0.5663702101,0.3848695727,-3.6529748383,0.0831043074,0.9354771935,0.8254463602,1.1473959194,3.1911844765,0.4970427026,0.0487480375,0.148424855,0.4725751575,-0.0156508292,0.0375343349,0.8288507136,0.3070590496,0.0039341646,-2.9737877747,1.3838990305,1.8832225527,-1.1400558088,0.6240126347,0.3931912389,0.4183543723,0.1412045756,-0.1088006318,1.0596900786,0.0869683959,-1.2528313788,0.0758341032,0.2022536539,-1.8252525466,1.0386389126,0.4184804459,0.9729023966,0.3510958314,0.6307971906,0.0025736011,0.7662388258,0.3075147503,0.6745027009,0.2315938522,0.3491048136,0.0953855404,0.1114107285,0.0072407278,0.2963464607,0.3365598114,1.3642919754,-1.0497596414,0.2782117533,0.1053578836,-0.2850601158,-0.0247952325,0.3779612044,0.5775684915,0.5264004607,0.4037442913,-0.3095105245,-0.0330377853,0.962523067,1.7449769207,-0.307802976,0.4585769567,0.1045774996,0.1570044006,0.060445416,0.3206177909,0.5634781551,0.0124145514,0.0410729869,0.2199500538,0.0174292209,-0.0727534479,0.3321170366,-0.0365488151,0.3776498661,0.0803650786,0.171564104,1.032356688,0.1853606584,0.4248301796,-11.252611622,-0.2646316102,-0.0860703733,-0.4405088717,1.033641334,0.2495367246,0.6270906045,0.0926523272,-0.1310315837,0.4267320974,0.7002130772,0.7669862344,-0.7598182846,0.1542820928,2.3316496836,-0.3996176762,1.711095085,0.7175801036,0.9085961164,0.1761442744,-0.1429581403,0.6632017703,0.1751473179,-1.1475483247,-0.0242669577,0.0193019759,0.1159479272,0.1800453195,0.8440454418,0.5457667049,0.5390193754,2.6382357091,2.683273103,0.168279954,0.3771889808,0.0709000352,0.0294480902,0.6021101137,0.6049972386,-0.1829226658,0.4739560729,0.9635896209,0.4771608856,0.9367070414,-0.1915898776,0.2689070656,0.2496621671,0.0905572949,0.1402370844,0.1295592265,0.1430986981,0.1036977401,0.1465167941,0.2647933357,9.6468776745,0.4857537888,2.2482469308,1.683473577,0.9119766779,0.476762549,0.6602213926,-0.0317787594,0.3458473605,0.3077522942,-0.2738901466,-0.3691599009,0.0977777775,-0.0825836265,-9.5162056536,-0.2520647979,0.6877130043,-2.5021408783,0.8216002928,0.5850168482,0.2808293909,0.6741570703,-1.3407460777,0.5169472188,1.6335104767,0.3712674004,0.6719657161,0.0650092861,0.2383645891,0.2653401972,-0.6715960374,0.5429536025,-3.6771895174,3.8709031843,0.3295999236,0.4569736008,0.2695893506,0.7322113966,0.5499049449,1.0741576138,0.5347657911,-0.0060819609,0.4818430232,-0.2649694578,0.3904306465,0.0411256068,0.0946895644,0.1233737177,0.1974654101,0.3662290209,-0.205317331,0.3406412787,-0.1969791005,0.266634497,0.4605461751,0.3632972137,-1.3200281726,-0.0916538853,0.0075078476,0.8279865778,0.6938417447,-0.4043225464,2.1759640244,-0.0391980385,0.5707967348,-0.0019911707,-1.1963240663,-0.1134530334,0.0296435813,0.5230035316,0.0274805074,0.1070679021,0.6560745941,-0.1679682439,0.2414754142,1.0301082577,0.1576440174,0.1232786386,0.269382261,-0.7881098881,0.4684957392,0.8363472832,-1.4341211222,0.0086326471,0.3836157663,0.5260161392,0.9571419725,0.528047554,2.3897017964,0.1018493652,0.2489938445,0.1002344267,0.0575417607,0.6768441536,0.0456759694,2.4062956777,0.6343864508,0.5798497385,-0.0643739081,0.4279741432,-0.5094588642,0.5384311812,0.3561802551,0.5819777184,0.3222900266,1.2771208991,0.237452375,0.3301078703,0.6207705025,-0.0619619018,0.8990480439,0.2846097361,-0.0465610676,0.6998973365,0.5045256927,5.9136010162,0.072859481,0.4836276377,0.7254207851,2.9843601209,0.5066501944,0.4341019227,0.6595370366,0.5962300925,0.2585345609,-2.070940745,0.1608290243,-0.057467497,0.2692416594,0.3665448094,0.1274280858,-0.0238049438,0.3336732393,1.1078014536,0.1361339132,0.3615342754,0.2465023869,1.1076509354,0.3713559787,-0.8119301167,0.8443975016,4.8080231239,0.0943610259,0.3390913194,0.6890999135,0.5506311352,0.3064287641,0.2607355778,0.5625553553,-0.293758835,-0.8530115667,0.3598820413,0.6228233208,0.5752741253,0.5676662301,0.6020565933,0.5182749536,0.0486632771,0.2562486371,-0.1063325739,0.360746315,0.316257792,0.5138470529,0.6398892796,0.2118574562,1.8871830629,0.2335454772,-0.0851610057,0.5428256853,0.7052102294,0.4482753872,0.8523749579,0.3478185373,0.2909096827,-3.8290296788,5.4875368431,0.1928794032,0.503291739,0.452142423,0.7267381877,0.1742803095,1.1760179428,0.7025174048,1.1082972887,0.6677614724,-0.3998726049,2.2820530526,1.3157577494,0.7787413096,1.5424272395,0.6476239653,0.3594933789,0.4374431055,1.2405655434,-0.5604444916,0.4307979601,0.3103112555,0.2273432367,0.1091114638,0.7883233136,0.7100932501,-1.551698068,0.220322785,0.8099733683,-0.1846555271,0.083748187,0.0692717612,1.3140426371,0.2258547673,0.45159029,0.4475594427,0.6171724752,0.0667292709,0.433220035,0.7609377987,0.2466005044,0.1600076399,0.6392433142,1.053605156,0.8659645091,0.4729659473,0.0623296022,0.470214038,0.4905347933,1.0059614708,-0.5083196602,0.157962453,0.4965824306,0.453869852,1.2166117283,0.1381058204,0.2359955861,0.5019149179,0.1385389248,1.2695857171,0.20989541,0.1923318184,1.1805242039,-4.5298462122,3.4687254463,1.2041647071,0.5855248475,4.351523723,0.5675287292,0.6917739618,0.4647705185,0.2289322613,0.7214701193,0.7176401695,0.7002195688,0.0512374683,0.572735295,0.636404123,0.1253737415,-0.1270996566,-0.5335313766,-0.0122770926,0.7825092112,-0.0039156022,0.1996898263,4.5088587691,0.3946070708,0.8190220856,0.7115943946,-0.5089320636,0.0284903086,0.4233479307,0.3192859665,1.0958351639,-0.4993851783,0.0413113231,0.3678720456,0.5758972875,0.0536480473,-0.1405479421,1.1558557516,0.3552223458,0.1995069831,0.3650540684,0.6189228378,1.018366665,-0.1021782061,0.0179963655,0.4679254574,1.1964926623,0.6181008116,0.5215732273,0.7089203176,0.1847228426,0.1896650628,0.2066956768,-0.2152541316,0.1838081931,-0.5863223932,-0.5173546766,-0.48822747,0.3434239107,0.2979512826,-14.9928702818,0.2706769091,0.1830731911,0.1716183564,0.2445954029,3.8476049943,0.1179411191,-0.5464265752,0.5697147854,0.0843595447,0.3359714079,1.5265792133,-0.0015520831,0.5515774873,0.9859027853,0.0548537474,0.1350273131,-0.5728951048,0.1662997921,-0.9965071542,-0.6228823688,0.2329073554,-0.3365519972,0.3974613015,0.7172768521,1.1310448811,-0.9527900693,0.9726267413,0.4102551678,-0.0700290187,0.274661908,0.2825077775,0.4917155149,1.1217145436,-0.1118968169,0.0272945421,0.1539981618,0.1880240041,-0.0676934044,-0.9141629274,0.4628801853,0.0613384026,0.4287883506,0.2937058816,0.562596354,0.5117677993,0.4281018102,0.025770987,0.4505913496,0.3785333551,0.2124187492,0.4622806253,0.5960986871,0.8945700935,0.1558795592,0.5354011472,-0.1072141204,0.3750306721,0.64185712,-6.2203721422,-10.1282381889,-0.1403313736,-0.2505914188,0.7794628113,0.0385350846,0.5346396689,0.5984376351,-0.0117580928,0.9445184211,0.7448932956,0.2082152986,0.4980151024,0.6891926913,1.1217229335,0.6862696784,0.2167255835,0.166590328,0.6993201278,0.2398933229,-4.4096348891,0.3394106038,0.2709453577,-0.0135640363,-0.3595886944,0.3272111159,0.2809806841,0.7199921708,0.8615765112,0.4271023181,0.7538053173,20.1058610271,14.9276701892,-1.2230648571,0.2195812614,0.4633653826,0.3281165576,-0.1184806962,0.22341742,0.5386922733,0.5446886658,0.3479483855,0.7875068512,0.717419995,1.3537916145,0.3684324158,0.0815059103,0.1101704959,0.1408854601,0.1731577986,0.1248394359,-0.1461728042,-0.000624814,0.3052258705,1.5395407799,0.8100150792,0.2464129375,0.2263995541,1.2765845799,6.5056041615,1.2220073507,0.2444954938,0.5746857968,1.2204724941,1.0036499291,0.8789409633,0.6964276211,-1.1616130359,0.597118102,0.17689637,-0.5369206338,0.5977128425,0.3544683325,0.6273491142,0.3620405791,-0.6779956494,-0.7289472563,1.3315503783,-0.0860524285,0.1261123907,-0.5186209041,-0.229337026,0.5909716971,0.3125198465,0.8014738946,0.8529365914,1.0033142624,0.8068940294,4.2032127065,-0.2260255428,0.3267382274,-0.085886773,0.4516421268,-0.1499060791,0.5253721039,0.0469944665,0.4865190128,0.1655694556,2.1626304486,1.4113582139,-0.1135844698,-0.1405535521,0.1573688431,0.1416567086,0.3556123466,0.1744963946,0.1691063519,0.6790294361,0.9948832774,0.1475271731,0.1728419817,0.4370951669,0.2482202143,0.1947790834,0.3114766621,0.2811416569,0.4254486572,0.513266584,0.5854168015,-3.2753243832,0.4244744805,2.1468530557,-1.8702044935,0.0968423605,0.4916790123,1.4060440498,0.3568818934,-0.1298990007,0.180731989,-0.5268897807,-0.6910885599,-0.5712015517,0.6012039266,-0.0010552197,0.0528392996,2.0553786189,1.7803653921,2.398001105,0.2371823288,0.5608200702,1.0022803317,1.2046215054,1.0088456878,0.7663954575,0.4381579536,0.5333860547,-0.1110823138,0.4935144906,0.0382833844,-0.0401333084,-17.9756681741,0.386309547,-0.9960082794,0.6190037106,-0.0279005201,0.1275588676,0.0589147667,0.2108451779,-0.0714690135,0.4464083709,-2.2676768742,-0.1718326614,0.3870839046,-0.1286101137,0.4308336996,0.476330874,0.7045317112,0.5791758781,1.7198370427,0.6185388917,0.4203745697,-0.7784108531,-0.1198888842,0.1367951836,4.4340287462,1.099235534,0.1719200305,-0.2295537558,0.1251531543,3.2290249571,-2.9374409374,0.2255970192,0.1576839026,0.1014691742,-12.621315601,0.6261351366,0.2568954329,0.0609059818,-0.8079271897,1.1609744643,-2.7469793144,0.6611426736,-0.1213054365,-0.0366004432,0.0251619027,0.80105561,0.4526723017,-0.1636958317,-0.0934497076,0.7757240296,1.3153970304,0.0098842509,0.0754806059,-0.9449276788,0.4660598853,0.7680515021,0.722479717,-0.22727896,0.1107156336,1.1676413057,0.4486249925,-0.0425737843,0.1134163887,0.1782427505,0.7774229818,0.0821017194,-0.0276221927,-0.0497057082,-1.5833728033,1.3950480288,0.4743069226,0.3899252943,0.5215708488,0.8562229727,0.595943972,0.4001939816,0.1071702931,0.5585369674,0.8067644105,0.1655759143,0.4665279441,0.0242500266,0.1139105434,1.4273465008,1.3089707136,2.2818858034,-0.409794154,-0.615475525,-3.0339094545,0.2606078362,-0.6393377217,0.5898145252,2.4520927486,5.2617577269,0.499668179,1.1058404317,-0.0207648361,-0.760635569,0.0217042273,0.9380185603,-0.405063337,-1.0302955733,-0.4293519851,1.4653071952,0.1501489716,0.7571380982,2.9873873174,0.4553872074,-0.47497644,0.6018974883,-0.0104379224,-1.9181953412,0.6832530853,0.9733233532,0.3096565354,0.4385839462,0.0187351395,0.0163294456,0.8750469465,1.7556022158,-0.3098297201,0.5084525703,0.4943972023,0.4825864644,0.0002807276,0.0574193336,0.385782496,-0.0180305707,0.0801969611,0.6657808935,0.0234337721,0.2345489981,0.2625039819,0.8659700331,1.3185401655,0.950300513,-0.1658677235,-0.2593870118,0.2256215231,0.199674872,0.4074405687,-0.4904131436,0.1646760147,-1.396065536,-0.6355645026,-0.1650437726,-0.4383797544,-0.9368393637,0.7068050859,5.0735100674,-0.4590099097,3.3722120159,0.4117450254,1.717027643,-0.0017920494,-1.4830563313,0.6638573618,0.5586008516,2.5262877108,-1.5455119281,1.4791962197,-0.1017777032,-0.1546616003,0.2563279345,0.7524159885,0.6712179867,0.0228680069,-0.8434899264,0.6379650342,0.7914438048,0.3043559119,0.6259354625,0.0804332696,0.9893170615,1.1407572663,0.5915351331,1.0975795044,0.2164876944,0.7635664551,0.7668083825,0.0683994436,-0.3640197289,-1.0231120911,4.8764714803,0.4704772532,0.1320926684,0.2273206882,-0.5333553677,-3.8598611657,0.6647931546,-0.1090311021,-0.1464380996,-0.206063386,-0.2599110647,1.0536512774,1.4793620163,1.0943815098,0.0813761462,0.3410427161,0.2536507146,-0.61663255,-0.1322974328,-0.1944305196,0.663396736,0.4896078926,0.4852928496,-0.2825805304,-21.4374423401,-6.8235710626,-0.416484229,3.32502187,-0.2870891179,2.9678861042,0.3081149319,0.4144285713,0.1177292775,0.2578122635,-0.0184701215,-0.498885629,0.0771351792,-0.4678367997,1.1574875822,-0.5001581915,1.3009926623,0.7827360393,1.0094814897,0.3676748217,0.0769627076,0.3983875236,0.4029654887,1.1310796501,5.0130091831,0.351537987,0.2515217813,-0.1512760793,-0.1878233473,-0.1341646014,-0.3337885739,-16.4524904251,0.1510002035,0.5981015363,0.4001976704,-2.1958944752,0.0948724313,0.1887109842,1.5975065519,0.6090043294,-0.6980183959,0.2850566923,0.2833776676,0.1177937597,-0.1375339949,-0.9621507437,0.7355391492,0.7986932785,0.0594537893,-0.813242116,-0.583842779,0.564787195,-0.4935725511,-1.1152439071,-0.1114330353,2.7285712872,-2.8450389467,0.7810246492,1.4482357813,0.3252831664,-7.3486579382,0.7485732477,-0.9134049497,-0.0457032239,0.0783635367,-7.6491558284,2.5320085631,1.4403063342,0.1088501975,-1.1920583842,-0.7902398758,0.4788914626,2.1941349171,0.0507016982,-0.3434131266,0.3466376381,1.2776004813,1.0590283909,-1.0862258352,-3.3424993118,3.7656335576,0.2946167187,0.0914069513,-0.0366426034,0.4542899853,1.4069846762,1.4479112893,-0.006938223,0.5876463538,-0.1790208347,0.0451082102,0.7973538168,-0.5026869851,0.3559713714,-10.9898467933,0.8121385557,0.548895997,-0.7436235307,-0.0258833782,-3.3531489106,0.1116260229,-4.600193405,0.2431662498,0.6462961381,0.0935649259,-0.4134444797,0.1809748678,0.5429298765,0.3045249503,-0.1169094137,0.4299215566,-0.5016534648,1.449876636,0.6496695588,-3.0133055006,2.0134860992,-0.7556799761,-2.6521141615,-0.6417807011,-14.842177226,1.4419756415,-5.7654724631,2.9353013961,-0.6050745222,-0.2080620675,-0.1423035213,0.7700955058,-3.5390368234,0.3328712543,0.4073600863,0.3761516785,0.0469803627,0.3175603219,-0.8014925739,-0.8120998543,0.2882694987,1.2802040948,1.2599507744,0.6734460755,-0.4352519073,0.6336668973,-0.1772048311,-0.0468300732,0.3418293783,0.2525207257,0.494478286,-0.0033891754,-0.1141520607,0.2420786241,0.4098326216,-0.5698219279,1.0733668898,0.3564812994,0.0121327336,0.4963812607,-0.5474023699,0.0479937476,0.2744899122,-0.3958277608,-0.2359508634,0.0377671148,0.1556425479,0.653818089,0.1823665877,-1.8472803896,1.085035965,-0.1664690282,-0.7105931728,0.2605756498,0.4425963825,0.6229463503,0.2511482537,0.0272700594,0.6035267455,0.3251777976,0.487390268,-0.1322918481,-0.1113368054,0.286881367,0.795282862,-1.9326385715,0.9705892506,0.5940580764,0.7840342728,-0.2152274187,2.0621435316,0.1817594907,0.4112049665,-0.4949517022,0.2298286977,0.2413062426,0.0064115794,-0.2101748746,0.0850188976,-0.7007864578,1.7351957546,1.3388739203,-0.9807977657,0.0304077761,-0.0161569927,0.8826801864,0.4237804966,0.5228197667,0.4798640409,0.4623291488,0.5424216528,0.3111748127,0.8929453212,-1.5788513818,0.0702419185,0.3641426696,0.2868550911,0.0669066704,0.1889779283,0.3121462979,0.1819060094,-0.0859052824,-0.0544724254,0.8210060388,0.5425274388,0.5963522124,0.4111518194,0.4859185725,-0.1313290955,-0.009010414,0.6480669001,0.8455937235,0.7241820205,0.2079393651,0.3439729232,0.2734991549,0.2467535925,0.3865363293,-0.1013753616,0.4579089841,0.1467800971,-0.4434191603,-0.837063435,17.99364822,4.1258766281,1.2966428162,0.3359118482,-0.2288241245,-0.0764450674,0.2529756912,0.5886240115,0.6674305608,0.1314734691,0.306793162,-0.2315591151,-0.0173961049,0.3759365636,0.0136152907,0.4101462171,0.5261298216,1.6561437727,0.4343070356,0.8588767935,-3.3380617297,-0.2413048146,-1.062885363,0.2120386452,0.4132486034,0.1732896501,0.3741201523,0.0708959092,-0.1138925151,0.6477794137,0.4180595881,-0.6742142731,2.1879236465,0.4954325488,0.0290351457,-0.2362865206,0.3469868583,0.1204887044,0.4022889836,0.6674496656,0.1827362742,-0.2676003224,0.0074181072,0.6897466538,0.1166368764,-0.5479845138,0.6058244992,0.2864513984,-0.1984770484,-0.8142176869,0.1336960199,-0.1915960822,0.6193364612,-0.1417379752,0.5371821753,-1.2011338799,0.2621962742,0.2207683598,0.5744002993,0.4208731736,0.8788344785,-1.2433707392,0.2729035353,-0.060621818,0.9735051743,-9.9698083768,-4.2595282288,-0.0466078847,0.4454926513,0.7216599208,0.1308000813,0.1239806106,0.5898004429,-0.1246244347,-0.0151327271,0.8693936876,1.3082327858,0.1241837888,-0.2787560377,-5.4044334349,0.1874901484,0.1720936227,-0.780917484,0.4350077961,0.1269052539,1.0880403626,0.4075841727,0.2040979943,1.5504925755,0.525066058,0.5630265049,0.3270955733,0.1630400816,0.5930708554,0.3192429982,0.3811667861,0.2360253453,1.4552576273,0.2333566482,3.7263762222,-0.2627718285,-0.1011010898,-2.386467189,-0.2267867059,1.7196008877,-3.7457762321,0.8852694486,1.1861955632,0.3853545868,0.2704527188,0.5229634166,0.3542710652,0.5530372699,-0.0446985708,4.6539049587,0.9513041635,-0.1823684555,1.0634629698,0.7898808228,-12.7581006519,-6.7125921812,3.3988649126,-0.5421221624,1.7741935234,0.4543421332,0.2099730572,0.3264860819,1.2182443143,5.0572374653,-0.1032917378,-0.2218571187,0.3301672721,0.2477456713,-1.6427021288,0.6322856583,0.1602026126,0.2025477749,-0.4435858575,-2.5581320071,0.0344161724,0.3202273261,0.5118923519,1.5386924588,0.7077836564,0.4194185067,0.279988422,0.4167483664,-0.1957944662,0.3030879332,1.4413196966,0.9805968179,-0.5638401269,0.2494631445,0.5185464903,1.0852586191,2.1392984236,0.1288917724,-0.2683234264,0.0854766382,-1.7153828167,0.1490185666,0.2071737648,0.1051884845,0.3312194762,3.1008071165,0.7260973442,0.3192187542,0.266244901,0.5319184503,0.5503363995,0.126741513,-0.2002164084
