FANN_FLO_2.1
num_layers=4
learning_rate=0.700000
connection_rate=1.000000
network_type=0
learning_momentum=0.000000
training_algorithm=0
train_error_function=0
train_stop_function=0
cascade_output_change_fraction=0.010000
quickprop_decay=-0.000100
quickprop_mu=1.750000
rprop_increase_factor=1.200000
rprop_decrease_factor=0.500000
rprop_delta_min=0.000000
rprop_delta_max=50.000000
rprop_delta_zero=0.100000
cascade_output_stagnation_epochs=12
cascade_candidate_change_fraction=0.010000
cascade_candidate_stagnation_epochs=12
cascade_max_out_epochs=150
cascade_max_cand_epochs=150
cascade_num_candidate_groups=2
bit_fail_limit=3.49999994039535520000e-001
cascade_candidate_limit=1.00000000000000000000e+003
cascade_weight_multiplier=4.00000005960464480000e-001
cascade_activation_functions_count=10
cascade_activation_functions=3 5 7 8 10 11 14 15 16 17 
cascade_activation_steepnesses_count=4
cascade_activation_steepnesses=2.50000000000000000000e-001 5.00000000000000000000e-001 7.50000000000000000000e-001 1.00000000000000000000e+000 
layer_sizes=8 14 6 2 
scale_included=0
neurons (num_inputs, activation_function, activation_steepness)=(0, 0, 0.00000000000000000000e+000) (0, 0, 0.00000000000000000000e+000) (0, 0, 0.00000000000000000000e+000) (0, 0, 0.00000000000000000000e+000) (0, 0, 0.00000000000000000000e+000) (0, 0, 0.00000000000000000000e+000) (0, 0, 0.00000000000000000000e+000) (0, 0, 0.00000000000000000000e+000) (8, 7, 5.00000000000000000000e-001) (8, 7, 5.00000000000000000000e-001) (8, 7, 5.00000000000000000000e-001) (8, 7, 5.00000000000000000000e-001) (8, 7, 5.00000000000000000000e-001) (8, 7, 5.00000000000000000000e-001) (8, 7, 5.00000000000000000000e-001) (8, 7, 5.00000000000000000000e-001) (8, 7, 5.00000000000000000000e-001) (8, 7, 5.00000000000000000000e-001) (8, 7, 5.00000000000000000000e-001) (8, 7, 5.00000000000000000000e-001) (8, 7, 5.00000000000000000000e-001) (0, 7, 5.00000000000000000000e-001) (14, 7, 5.00000000000000000000e-001) (14, 7, 5.00000000000000000000e-001) (14, 7, 5.00000000000000000000e-001) (14, 7, 5.00000000000000000000e-001) (14, 7, 5.00000000000000000000e-001) (0, 7, 5.00000000000000000000e-001) (6, 15, 5.00000000000000000000e-001) (0, 15, 5.00000000000000000000e-001) 
connections (connected_to_neuron, weight)=(0, 6.64176791906356810000e-002) (1, 3.51177826523780820000e-002) (2, 2.76648290455341340000e-002) (3, 1.35885798954404890000e-004) (4, -3.91869544982910160000e-002) (5, -4.71450798213481900000e-002) (6, -7.51104280352592470000e-002) (7, -5.48228286206722260000e-002) (0, 4.25785705447196960000e-002) (1, 8.84108170866966250000e-002) (2, -1.51466898387297990000e-004) (3, 9.42997410893440250000e-002) (4, 1.00613728165626530000e-001) (5, 3.72488386929035190000e-002) (6, 3.65964658558368680000e-002) (7, 6.69445544481277470000e-002) (0, 3.62872816622257230000e-002) (1, 2.70632444880902770000e-004) (2, -4.57241833209991460000e-002) (3, -3.52086499333381650000e-002) (4, 2.15275269001722340000e-002) (5, -1.67553294450044630000e-002) (6, -1.71916640829294920000e-003) (7, 7.65021070837974550000e-002) (0, 7.59500935673713680000e-002) (1, -6.45570363849401470000e-003) (2, -2.91188936680555340000e-002) (3, -2.65087001025676730000e-002) (4, 8.83278027176856990000e-002) (5, 7.12799206376075740000e-002) (6, -6.24999627470970150000e-002) (7, -5.71654038503766060000e-003) (0, 8.55506211519241330000e-002) (1, 8.84433388710021970000e-002) (2, -6.61839619278907780000e-002) (3, -1.01838139817118640000e-002) (4, -7.42310434579849240000e-002) (5, 1.00887812674045560000e-001) (6, 3.52213606238365170000e-002) (7, -7.82552734017372130000e-002) (0, 6.21924065053462980000e-002) (1, 5.35153485834598540000e-002) (2, -5.81661574542522430000e-002) (3, -3.69950011372566220000e-002) (4, -5.02787828445434570000e-002) (5, 2.34086252748966220000e-002) (6, 2.54295859485864640000e-002) (7, 8.80472809076309200000e-002) (0, -6.07159100472927090000e-002) (1, -6.16931244730949400000e-002) (2, 4.33532521128654480000e-002) (3, -9.19334217905998230000e-002) (4, 6.42659654840826990000e-003) (5, 1.89646370708942410000e-002) (6, -1.54015729203820230000e-002) (7, -5.23408688604831700000e-003) (0, 4.11821063607931140000e-003) (1, 6.22790977358818050000e-002) (2, -9.11456644535064700000e-002) (3, -8.50236937403678890000e-002) (4, -5.19864000380039220000e-002) (5, -6.07546605169773100000e-003) (6, 6.07193894684314730000e-002) (7, 5.04635050892829900000e-002) (0, 3.44120450317859650000e-002) (1, 2.96407919377088550000e-002) (2, 1.53497215360403060000e-002) (3, -2.11044289171695710000e-002) (4, -8.00120010972023010000e-002) (5, 7.73221030831336980000e-002) (6, -9.32803824543952940000e-002) (7, 5.78200742602348330000e-002) (0, -6.33585751056671140000e-002) (1, -7.45180845260620120000e-002) (2, -5.27884960174560550000e-002) (3, 7.14603066444396970000e-002) (4, -1.46407783031463620000e-002) (5, -1.48555869236588480000e-002) (6, -9.57298651337623600000e-002) (7, -2.53872433677315710000e-003) (0, -4.56489697098731990000e-002) (1, 1.56888831406831740000e-002) (2, 6.24392963945865630000e-002) (3, 1.07953641563653950000e-002) (4, 6.66040107607841490000e-002) (5, -2.98807527869939800000e-002) (6, 1.05491187423467640000e-002) (7, 5.11626861989498140000e-002) (0, -4.83235977590084080000e-002) (1, -1.86203662306070330000e-002) (2, 2.38391850143671040000e-002) (3, -1.18520529940724370000e-002) (4, 2.31918450444936750000e-002) (5, 1.66276376694440840000e-002) (6, 8.48141405731439590000e-003) (7, -5.42035186663270000000e-003) (0, 5.29016926884651180000e-002) (1, 5.21837882697582240000e-002) (2, -8.70099067687988280000e-002) (3, 8.86490121483802800000e-002) (4, 3.26680801808834080000e-002) (5, 6.57054036855697630000e-002) (6, 5.81247471272945400000e-002) (7, 3.55807133018970490000e-002) (8, 1.64587292820215230000e-002) (9, -7.70922452211380000000e-002) (10, 2.94706486165523530000e-002) (11, 6.45244866609573360000e-002) (12, -8.30835700035095210000e-002) (13, 5.14217540621757510000e-002) (14, -2.66032405197620390000e-002) (15, -4.15158756077289580000e-002) (16, 9.18556898832321170000e-002) (17, -8.48865285515785220000e-002) (18, 2.41809990257024770000e-002) (19, 1.01887412369251250000e-001) (20, -1.36397331953048710000e-002) (21, -5.29230833053588870000e-002) (8, -3.92922153696417810000e-003) (9, 9.13217365741729740000e-002) (10, -1.26116555184125900000e-002) (11, -7.27793797850608830000e-002) (12, -2.93328650295734410000e-002) (13, 3.58053706586360930000e-002) (14, 7.18016270548105240000e-003) (15, 8.16505104303359990000e-002) (16, -4.52673528343439100000e-003) (17, 5.84629131481051450000e-004) (18, -3.22623029351234440000e-002) (19, -9.04026031494140630000e-002) (20, -3.17935622297227380000e-003) (21, 3.33841070532798770000e-002) (8, -6.43328651785850520000e-002) (9, 1.02210499346256260000e-001) (10, 3.03026475012302400000e-002) (11, 8.48689079284667970000e-002) (12, -8.61912593245506290000e-002) (13, 2.07032691687345500000e-002) (14, -9.45049971342086790000e-002) (15, -1.28364041447639470000e-002) (16, 3.92266251146793370000e-002) (17, -2.53299381583929060000e-002) (18, -5.05651123821735380000e-002) (19, 1.07319001108407970000e-002) (20, -2.55648065358400340000e-002) (21, 7.19217360019683840000e-002) (8, 4.52048569917678830000e-001) (9, 3.86262357234954830000e-001) (10, 3.12715232372283940000e-001) (11, 4.89541083574295040000e-001) (12, 3.26932728290557860000e-001) (13, 2.95453578233718870000e-001) (14, 3.07644367218017580000e-001) (15, 4.77230221033096310000e-001) (16, 3.73218297958374020000e-001) (17, 3.33548665046691890000e-001) (18, 4.02899116277694700000e-001) (19, 4.10732269287109380000e-001) (20, 4.83862519264221190000e-001) (21, 4.18657422065734860000e-001) (8, -4.49287265539169310000e-001) (9, -4.22933667898178100000e-001) (10, -3.76636892557144170000e-001) (11, -3.92564088106155400000e-001) (12, -2.93726086616516110000e-001) (13, -3.01489353179931640000e-001) (14, -3.70279520750045780000e-001) (15, -4.68341827392578130000e-001) (16, -4.25086617469787600000e-001) (17, -4.37765389680862430000e-001) (18, -3.27833205461502080000e-001) (19, -4.67085123062133790000e-001) (20, -3.66755753755569460000e-001) (21, -3.72777700424194340000e-001) (22, -5.31986653804779050000e-001) (23, -6.18855416774749760000e-001) (24, -5.47396063804626460000e-001) (25, -1.99988186359405520000e-002) (26, -2.04172581434249880000e-002) (27, -6.11800312995910640000e-001) 
