FANN_FLO_2.1
num_layers=4
learning_rate=0.700000
connection_rate=1.000000
network_type=0
learning_momentum=0.000000
training_algorithm=2
train_error_function=1
train_stop_function=0
cascade_output_change_fraction=0.010000
quickprop_decay=-0.000100
quickprop_mu=1.750000
rprop_increase_factor=1.200000
rprop_decrease_factor=0.500000
rprop_delta_min=0.000000
rprop_delta_max=50.000000
rprop_delta_zero=0.100000
cascade_output_stagnation_epochs=12
cascade_candidate_change_fraction=0.010000
cascade_candidate_stagnation_epochs=12
cascade_max_out_epochs=150
cascade_max_cand_epochs=150
cascade_num_candidate_groups=2
bit_fail_limit=3.49999999999999980000e-001
cascade_candidate_limit=1.00000000000000000000e+003
cascade_weight_multiplier=4.00000000000000020000e-001
cascade_activation_functions_count=10
cascade_activation_functions=3 5 7 8 10 11 14 15 16 17 
cascade_activation_steepnesses_count=4
cascade_activation_steepnesses=2.50000000000000000000e-001 5.00000000000000000000e-001 7.50000000000000000000e-001 1.00000000000000000000e+000 
layer_sizes=9 17 9 2 
scale_included=0
neurons (num_inputs, activation_function, activation_steepness)=(0, 0, 0.00000000000000000000e+000) (0, 0, 0.00000000000000000000e+000) (0, 0, 0.00000000000000000000e+000) (0, 0, 0.00000000000000000000e+000) (0, 0, 0.00000000000000000000e+000) (0, 0, 0.00000000000000000000e+000) (0, 0, 0.00000000000000000000e+000) (0, 0, 0.00000000000000000000e+000) (0, 0, 0.00000000000000000000e+000) (9, 6, 5.00000000000000000000e-001) (9, 6, 5.00000000000000000000e-001) (9, 6, 5.00000000000000000000e-001) (9, 6, 5.00000000000000000000e-001) (9, 6, 5.00000000000000000000e-001) (9, 6, 5.00000000000000000000e-001) (9, 6, 5.00000000000000000000e-001) (9, 6, 5.00000000000000000000e-001) (9, 6, 5.00000000000000000000e-001) (9, 6, 5.00000000000000000000e-001) (9, 6, 5.00000000000000000000e-001) (9, 6, 5.00000000000000000000e-001) (9, 6, 5.00000000000000000000e-001) (9, 6, 5.00000000000000000000e-001) (9, 6, 5.00000000000000000000e-001) (9, 6, 5.00000000000000000000e-001) (0, 6, 0.00000000000000000000e+000) (17, 6, 5.00000000000000000000e-001) (17, 6, 5.00000000000000000000e-001) (17, 6, 5.00000000000000000000e-001) (17, 6, 5.00000000000000000000e-001) (17, 6, 5.00000000000000000000e-001) (17, 6, 5.00000000000000000000e-001) (17, 6, 5.00000000000000000000e-001) (17, 6, 5.00000000000000000000e-001) (0, 6, 0.00000000000000000000e+000) (9, 6, 5.00000000000000000000e-001) (0, 6, 0.00000000000000000000e+000) 
connections (connected_to_neuron, weight)=(0, -9.96827360319122310000e-002) (1, 2.60537741549196900000e-001) (2, -4.41240326290434030000e-001) (3, 1.61008248567749030000e-001) (4, 4.82685490109658720000e-001) (5, -4.57078891553305560000e-001) (6, -5.76348589874712050000e-001) (7, -1.03532590304149690000e-001) (8, -4.31085225378461330000e-001) (0, 4.17369542377173220000e-001) (1, 4.41996676701677580000e-001) (2, 6.21578585040686860000e-001) (3, -6.38744913269871480000e-001) (4, -4.62161920893742030000e-001) (5, -3.28505454251125590000e-001) (6, -2.10770928842350690000e-001) (7, 1.51785758219205040000e-001) (8, 2.43838573841339810000e-001) (0, 5.20622483092234910000e-001) (1, 6.04886926073077560000e-002) (2, -1.04558609656581830000e-001) (3, 5.40171057362946680000e-001) (4, -6.98434203367494400000e-001) (5, -5.33369114833649460000e-001) (6, -3.51637672198366390000e-001) (7, 4.73693595313621830000e-002) (8, 2.07734208668681640000e-001) (0, 2.84891808160819380000e-001) (1, 4.93668742221979430000e-001) (2, 6.03495543498905550000e-001) (3, 4.45754911691190690000e-001) (4, 1.56562702215324620000e-001) (5, -5.11136520022040240000e-001) (6, 6.42555740714057520000e-001) (7, 5.68185783529567390000e-001) (8, 4.94735230574068710000e-001) (0, 1.22890106892334190000e-001) (1, 3.05855343661368680000e-001) (2, 5.48906812581513410000e-001) (3, 1.04319304632523690000e-001) (4, -2.15917813187149250000e-001) (5, 2.54141739383254910000e-001) (6, -1.25029622278571890000e-001) (7, 5.88816787797054930000e-001) (8, 4.44948490463664800000e-001) (0, -2.05401780960952680000e-001) (1, 3.62235104702914370000e-001) (2, 2.87061113441700630000e-002) (3, 6.77636378608155630000e-003) (4, 6.53331637040986850000e-001) (5, -3.38497840595580800000e-001) (6, 3.28737163333866660000e-001) (7, -3.40010753592634000000e-001) (8, -4.30663703194133700000e-002) (0, -1.51112814933541370000e-001) (1, 6.15102558781072230000e-001) (2, -1.49379774805671610000e-001) (3, 2.15572962471483890000e-002) (4, 2.06881470691089090000e-001) (5, -1.59609901706675800000e-001) (6, 2.80250581469681510000e-001) (7, -5.18304182183574660000e-001) (8, -4.14013778638509470000e-001) (0, 2.83257744056838570000e-001) (1, 6.21118083100209990000e-001) (2, -4.84508735981531050000e-001) (3, -3.52326091070178430000e-001) (4, 5.87578203658841500000e-001) (5, -4.32427846693331120000e-001) (6, -1.91757069937116030000e-001) (7, 2.49101654545567960000e-001) (8, -4.59189535500621260000e-002) (0, 5.36939987064455340000e-001) (1, 5.34844685700444080000e-001) (2, -9.97948150928061740000e-002) (3, -4.56657482503005030000e-001) (4, 3.82598415935446360000e-001) (5, 6.35941255645757320000e-001) (6, -4.42615629525409340000e-001) (7, -5.75119634545363630000e-001) (8, -6.71989875131631000000e-001) (0, 6.62035451876609060000e-001) (1, 5.39491524604664430000e-001) (2, 1.83729659642982260000e-002) (3, 1.98882776698766830000e-001) (4, -2.78476935065354370000e-001) (5, -4.66219105474427350000e-001) (6, 2.67429916860010000000e-001) (7, -2.59926310645486880000e-001) (8, -4.57967818176123920000e-001) (0, -6.23300015895463910000e-001) (1, -5.63355742751907030000e-001) (2, 2.35433962981999950000e-001) (3, 2.05709682627186030000e-001) (4, -4.11133388797725430000e-001) (5, 6.96237389988075380000e-001) (6, -2.91130934924720860000e-001) (7, -4.78915586795323640000e-001) (8, 4.57702388631920310000e-001) (0, -5.04409542921608060000e-002) (1, -5.49404510454395640000e-001) (2, 4.83182252187913160000e-001) (3, -4.07281441349658160000e-001) (4, 2.26885211003521520000e-001) (5, -4.82096286998166590000e-001) (6, 2.53355327612762800000e-001) (7, -1.08227905889431570000e-001) (8, -4.42197394071848010000e-002) (0, 5.09235692059828100000e-001) (1, -3.25115957581253330000e-001) (2, -6.51484540423822200000e-001) (3, -5.30375900332502260000e-001) (4, 3.49475717733441440000e-001) (5, 1.29509601984617170000e-001) (6, 5.27535492619267480000e-002) (7, -3.84249948068623500000e-001) (8, 8.76093352434425820000e-002) (0, -6.85423274409157900000e-002) (1, 1.63830135541213700000e-001) (2, 4.93965450440374270000e-001) (3, 6.55350043544387970000e-001) (4, -2.34117143740636110000e-001) (5, -6.77187856149247700000e-001) (6, 1.94898932335856530000e-001) (7, -8.00866581221763570000e-002) (8, -2.33146252072236160000e-001) (0, -5.36349625650712090000e-001) (1, 3.90511417629895220000e-001) (2, 2.97834583313376640000e-001) (3, 3.94115716704587120000e-001) (4, -1.10332328713078060000e-001) (5, -3.80615187514290020000e-001) (6, -1.42427882346908790000e-001) (7, -3.20686207952366120000e-002) (8, -2.94754156620554710000e-001) (0, 1.99323249654594210000e-003) (1, 5.25731033061589350000e-002) (2, -3.81276863067355590000e-001) (3, -4.27439440479263470000e-001) (4, 3.33408388130899010000e-001) (5, 2.01474559830891710000e-001) (6, 6.01989436617991420000e-001) (7, -4.15053214615619880000e-002) (8, -6.11262668272430140000e-001) (9, -5.57590642729247300000e-001) (10, 1.02963412368910630000e-001) (11, -5.22644330956231750000e-001) (12, 7.32359101066179300000e-001) (13, -5.47821991179977320000e-001) (14, -2.97693649528151140000e-001) (15, 3.46301803860616210000e-001) (16, 5.63479293357559000000e-002) (17, -5.56071156574558970000e-001) (18, -2.66528503274244300000e-002) (19, 6.60233999574292410000e-001) (20, -6.70474459831885250000e-001) (21, -1.87727342845137370000e-001) (22, 2.76031094407059970000e-001) (23, -6.42942200868587110000e-001) (24, 5.08523173228985880000e-001) (25, 2.24109112024086730000e-001) (9, 2.60098769635709270000e-001) (10, -4.38639661500604850000e-001) (11, -6.01980076071989780000e-001) (12, 5.38788707656992980000e-002) (13, 2.35493022728045650000e-001) (14, -4.64671987815189540000e-001) (15, 6.04980775336894870000e-001) (16, -1.53912084663319900000e-001) (17, 7.96080571573326150000e-002) (18, 2.90605432598364520000e-001) (19, 6.83993659284749980000e-001) (20, -4.76874549967165550000e-001) (21, -6.02170131246266500000e-001) (22, 3.82804754309305600000e-003) (23, -4.12252187453375330000e-001) (24, 2.84089491576905770000e-001) (25, 1.02241848014405800000e-002) (9, 4.97197367453008020000e-001) (10, -1.46992753027799410000e-001) (11, -5.46990180049314880000e-001) (12, 2.64168127495160170000e-001) (13, -3.24744563284319050000e-002) (14, 5.72492945707087230000e-002) (15, 3.06601725104136020000e-001) (16, -4.79696853632588290000e-001) (17, 1.07533187651675290000e-001) (18, -1.41049342943377480000e-001) (19, -2.50260765098299980000e-001) (20, -1.54110900831875400000e-001) (21, 4.61037669690980420000e-001) (22, 7.20684740037324410000e-001) (23, 1.75140007103390260000e-001) (24, 8.58318072812905810000e-003) (25, 1.34250117695559920000e-001) (9, -5.17806408039030000000e-001) (10, 2.68000350504934260000e-001) (11, 1.58744000141879480000e-001) (12, -5.20471796444713310000e-001) (13, -1.38638066820945710000e-002) (14, -4.73410069680218200000e-001) (15, 2.18097682078640160000e-001) (16, -1.45350188109584890000e-001) (17, 1.23330375806949020000e-002) (18, 6.96295569779043940000e-001) (19, -5.44524512358159460000e-001) (20, 6.91946483922993850000e-001) (21, 2.12498611366455510000e-002) (22, 6.43677077392059370000e-001) (23, -5.46035487356317020000e-001) (24, -1.00244570580056730000e-001) (25, -7.67074950758058760000e-001) (9, 6.63091339813555500000e-001) (10, 2.69194229601616210000e-001) (11, -4.11736702745280350000e-001) (12, -3.63734813507941460000e-001) (13, 2.59905988760413540000e-001) (14, 4.70668320791865600000e-001) (15, 6.01901577789515360000e-001) (16, -6.31817770652862710000e-001) (17, 1.28298880878073480000e-001) (18, 2.89228414898472510000e-001) (19, -2.84642804912767890000e-001) (20, -3.38051256599563980000e-001) (21, -2.22026874161297320000e-001) (22, 4.90222340057733740000e-001) (23, -5.49374116376798230000e-001) (24, 6.18010424210394050000e-002) (25, -1.73369303385466240000e-001) (9, 2.19397606248986630000e-001) (10, -2.72651977841578740000e-001) (11, 1.75042747443622140000e-001) (12, -2.25347015667665410000e-001) (13, -1.24845102717126290000e-001) (14, 4.43459119034736060000e-001) (15, 8.09466605817927290000e-002) (16, -3.08971124092359550000e-001) (17, -7.17939033890333420000e-001) (18, -1.05743726810278670000e-001) (19, -1.53804902969491200000e-001) (20, 1.69730713360353560000e-001) (21, 3.12706470946519990000e-001) (22, -2.09035768207451250000e-002) (23, 2.91490336946485410000e-001) (24, -1.09223478213876080000e-002) (25, -4.51805081837054370000e-001) (9, 5.19788335976238210000e-002) (10, 4.99048163611588990000e-001) (11, -5.77180193770775450000e-001) (12, 3.96312611676081780000e-001) (13, -4.89540595155554540000e-001) (14, -1.24661954871548410000e-001) (15, -6.94747006347558480000e-001) (16, -4.00649598366747290000e-001) (17, 3.74235021911246250000e-001) (18, 9.13406394865227680000e-002) (19, -3.56932614746923230000e-001) (20, -5.47705836437109460000e-001) (21, 5.49413767857063310000e-001) (22, 2.05122785886088040000e-001) (23, 5.54770341460810280000e-001) (24, 2.12740938367207870000e-001) (25, -3.13585076958346810000e-001) (9, -6.20152120534693820000e-001) (10, -2.56390367710255470000e-001) (11, 6.28679182636081720000e-002) (12, 6.05693325258896520000e-001) (13, 4.36793089354499620000e-001) (14, 2.40902898025780600000e-001) (15, -6.32725356527186310000e-001) (16, -4.60371903679983490000e-001) (17, -4.57057342348040460000e-001) (18, -3.75878859567000570000e-001) (19, 4.90937606596147440000e-001) (20, -4.24971605273432640000e-001) (21, -1.74634970478907660000e-001) (22, -3.90296246781653310000e-001) (23, 5.75122281443982250000e-001) (24, 3.69357006014531880000e-002) (25, -6.82454660977779180000e-001) (26, 5.15372175372329040000e-001) (27, -3.22924198290913230000e-001) (28, 4.56470563369573920000e-001) (29, -5.93934461572317220000e-001) (30, -6.31367884757724760000e-001) (31, 4.33337481269691900000e-001) (32, -5.80302515448524870000e-002) (33, 7.73444169364486120000e-002) (34, -2.29323077101307250000e-001) 
