FANN_FLO_2.1
num_layers=3
learning_rate=0.700000
connection_rate=1.000000
network_type=0
learning_momentum=0.000000
training_algorithm=2
train_error_function=0
train_stop_function=0
cascade_output_change_fraction=0.010000
quickprop_decay=-0.000100
quickprop_mu=1.750000
rprop_increase_factor=1.200000
rprop_decrease_factor=0.500000
rprop_delta_min=0.000000
rprop_delta_max=50.000000
rprop_delta_zero=0.100000
cascade_output_stagnation_epochs=12
cascade_candidate_change_fraction=0.010000
cascade_candidate_stagnation_epochs=12
cascade_max_out_epochs=150
cascade_max_cand_epochs=150
cascade_num_candidate_groups=2
bit_fail_limit=3.49999994039535520000e-001
cascade_candidate_limit=1.00000000000000000000e+003
cascade_weight_multiplier=4.00000005960464480000e-001
cascade_activation_functions_count=10
cascade_activation_functions=3 5 7 8 10 11 14 15 16 17 
cascade_activation_steepnesses_count=4
cascade_activation_steepnesses=2.50000000000000000000e-001 5.00000000000000000000e-001 7.50000000000000000000e-001 1.00000000000000000000e+000 
layer_sizes=6 3 2 
scale_included=0
neurons (num_inputs, activation_function, activation_steepness)=(0, 0, 0.00000000000000000000e+000) (0, 0, 0.00000000000000000000e+000) (0, 0, 0.00000000000000000000e+000) (0, 0, 0.00000000000000000000e+000) (0, 0, 0.00000000000000000000e+000) (0, 0, 0.00000000000000000000e+000) (6, 4, 5.00000000000000000000e-001) (6, 4, 5.00000000000000000000e-001) (0, 4, 5.00000000000000000000e-001) (3, 11, 5.00000000000000000000e-001) (0, 11, 5.00000000000000000000e-001) 
connections (connected_to_neuron, weight)=(0, 3.82123589515686040000e-001) (1, 1.49695947766304020000e-002) (2, 2.76038378477096560000e-001) (3, -4.99474033713340760000e-002) (4, 2.61890441179275510000e-001) (5, 2.42682665586471560000e-001) (0, -5.17442345619201660000e-001) (1, 6.97589278221130370000e-001) (2, -4.50419574975967410000e-001) (3, 7.13757455348968510000e-001) (4, -4.23081964254379270000e-001) (5, -4.84648078680038450000e-001) (6, -1.01851701736450200000e-001) (7, 4.03846427798271180000e-002) (8, -1.17760114371776580000e-002) 
