FANN_FLO_2.1
num_layers=3
learning_rate=0.700000
connection_rate=1.000000
network_type=0
learning_momentum=0.000000
training_algorithm=0
train_error_function=0
train_stop_function=0
cascade_output_change_fraction=0.010000
quickprop_decay=-0.000100
quickprop_mu=1.750000
rprop_increase_factor=1.200000
rprop_decrease_factor=0.500000
rprop_delta_min=0.000000
rprop_delta_max=50.000000
rprop_delta_zero=0.100000
cascade_output_stagnation_epochs=12
cascade_candidate_change_fraction=0.010000
cascade_candidate_stagnation_epochs=12
cascade_max_out_epochs=150
cascade_max_cand_epochs=150
cascade_num_candidate_groups=2
bit_fail_limit=3.49999994039535520000e-001
cascade_candidate_limit=1.00000000000000000000e+003
cascade_weight_multiplier=4.00000005960464480000e-001
cascade_activation_functions_count=10
cascade_activation_functions=3 5 7 8 10 11 14 15 16 17 
cascade_activation_steepnesses_count=4
cascade_activation_steepnesses=2.50000000000000000000e-001 5.00000000000000000000e-001 7.50000000000000000000e-001 1.00000000000000000000e+000 
layer_sizes=12 6 2 
scale_included=0
neurons (num_inputs, activation_function, activation_steepness)=(0, 0, 0.00000000000000000000e+000) (0, 0, 0.00000000000000000000e+000) (0, 0, 0.00000000000000000000e+000) (0, 0, 0.00000000000000000000e+000) (0, 0, 0.00000000000000000000e+000) (0, 0, 0.00000000000000000000e+000) (0, 0, 0.00000000000000000000e+000) (0, 0, 0.00000000000000000000e+000) (0, 0, 0.00000000000000000000e+000) (0, 0, 0.00000000000000000000e+000) (0, 0, 0.00000000000000000000e+000) (0, 0, 0.00000000000000000000e+000) (12, 3, 5.00000000000000000000e-001) (12, 3, 5.00000000000000000000e-001) (12, 3, 5.00000000000000000000e-001) (12, 3, 5.00000000000000000000e-001) (12, 3, 5.00000000000000000000e-001) (0, 3, 5.00000000000000000000e-001) (6, 8, 5.00000000000000000000e-001) (0, 8, 5.00000000000000000000e-001) 
connections (connected_to_neuron, weight)=(0, 1.18264026939868930000e-001) (1, 1.18944831192493440000e-001) (2, 3.78583595156669620000e-002) (3, -3.56979854404926300000e-002) (4, 1.13082669675350190000e-001) (5, -6.75659179687500000000e-002) (6, 9.83706414699554440000e-002) (7, -7.36821070313453670000e-002) (8, -8.72865878045558930000e-003) (9, 7.17894658446311950000e-002) (10, -6.12611994147300720000e-002) (11, -8.68230834603309630000e-002) (0, 1.06367804110050200000e-001) (1, 1.09110362827777860000e-001) (2, -5.18023855984210970000e-002) (3, 9.04637947678565980000e-002) (4, 1.20132103562355040000e-001) (5, -6.35192915797233580000e-002) (6, -5.53833842277526860000e-002) (7, -8.28255806118249890000e-003) (8, 4.47447970509529110000e-002) (9, -2.39745881408452990000e-002) (10, -8.88665206730365750000e-003) (11, -2.01664622873067860000e-002) (0, 3.97389568388462070000e-002) (1, -3.69051508605480190000e-002) (2, 4.89456690847873690000e-002) (3, -9.27051305770874020000e-002) (4, -1.11802294850349430000e-002) (5, 6.82373065501451490000e-003) (6, -8.55408310890197750000e-002) (7, 5.01098074018955230000e-002) (8, 3.41735407710075380000e-002) (9, -9.11498889327049260000e-002) (10, -9.54894721508026120000e-002) (11, 5.81134967505931850000e-002) (0, 1.09004020690917970000e-001) (1, 5.01632504165172580000e-002) (2, 3.21295186877250670000e-002) (3, 1.14188499748706820000e-001) (4, 8.82319360971450810000e-002) (5, 1.23718259856104850000e-002) (6, -6.49352893233299260000e-002) (7, 1.83284282684326170000e-002) (8, 1.40253854915499690000e-002) (9, -8.05067922919988630000e-003) (10, -4.12721149623394010000e-002) (11, 7.31080546975135800000e-002) (0, 4.66617457568645480000e-002) (1, -1.23283192515373230000e-001) (2, 4.31276559829711910000e-002) (3, 7.20641463994979860000e-002) (4, -7.95273333787918090000e-002) (5, 2.58728023618459700000e-002) (6, 7.98950344324111940000e-002) (7, -9.90965813398361210000e-002) (8, -3.99153912439942360000e-003) (9, 1.43310958519577980000e-002) (10, 1.43431928008794780000e-002) (11, 4.98840510845184330000e-002) (12, -4.54262465238571170000e-001) (13, -4.08300906419754030000e-001) (14, -3.69531698524951930000e-002) (15, -4.65077877044677730000e-001) (16, 5.72113245725631710000e-002) (17, -3.36279481649398800000e-001) 
