FANN_FLO_2.1
num_layers=4
learning_rate=0.700000
connection_rate=1.000000
network_type=0
learning_momentum=0.000000
training_algorithm=2
train_error_function=0
train_stop_function=0
cascade_output_change_fraction=0.010000
quickprop_decay=-0.000100
quickprop_mu=1.750000
rprop_increase_factor=1.200000
rprop_decrease_factor=0.500000
rprop_delta_min=0.000000
rprop_delta_max=50.000000
rprop_delta_zero=0.100000
cascade_output_stagnation_epochs=12
cascade_candidate_change_fraction=0.010000
cascade_candidate_stagnation_epochs=12
cascade_max_out_epochs=150
cascade_max_cand_epochs=150
cascade_num_candidate_groups=2
bit_fail_limit=3.49999994039535520000e-001
cascade_candidate_limit=1.00000000000000000000e+003
cascade_weight_multiplier=4.00000005960464480000e-001
cascade_activation_functions_count=10
cascade_activation_functions=3 5 7 8 10 11 14 15 16 17 
cascade_activation_steepnesses_count=4
cascade_activation_steepnesses=2.50000000000000000000e-001 5.00000000000000000000e-001 7.50000000000000000000e-001 1.00000000000000000000e+000 
layer_sizes=8 14 6 2 
scale_included=0
neurons (num_inputs, activation_function, activation_steepness)=(0, 0, 0.00000000000000000000e+000) (0, 0, 0.00000000000000000000e+000) (0, 0, 0.00000000000000000000e+000) (0, 0, 0.00000000000000000000e+000) (0, 0, 0.00000000000000000000e+000) (0, 0, 0.00000000000000000000e+000) (0, 0, 0.00000000000000000000e+000) (0, 0, 0.00000000000000000000e+000) (8, 8, 5.00000000000000000000e-001) (8, 8, 5.00000000000000000000e-001) (8, 8, 5.00000000000000000000e-001) (8, 8, 5.00000000000000000000e-001) (8, 8, 5.00000000000000000000e-001) (8, 8, 5.00000000000000000000e-001) (8, 8, 5.00000000000000000000e-001) (8, 8, 5.00000000000000000000e-001) (8, 8, 5.00000000000000000000e-001) (8, 8, 5.00000000000000000000e-001) (8, 8, 5.00000000000000000000e-001) (8, 8, 5.00000000000000000000e-001) (8, 8, 5.00000000000000000000e-001) (0, 8, 5.00000000000000000000e-001) (14, 8, 5.00000000000000000000e-001) (14, 8, 5.00000000000000000000e-001) (14, 8, 5.00000000000000000000e-001) (14, 8, 5.00000000000000000000e-001) (14, 8, 5.00000000000000000000e-001) (0, 8, 5.00000000000000000000e-001) (6, 6, 5.00000000000000000000e-001) (0, 6, 5.00000000000000000000e-001) 
connections (connected_to_neuron, weight)=(0, -1.92151904106140140000e+000) (1, 7.16386508941650390000e+000) (2, -5.08636891841888430000e-001) (3, 3.02926135063171390000e+000) (4, 7.49710416793823240000e+000) (5, 2.57361084222793580000e-001) (6, -6.29536485671997070000e+000) (7, 9.29090827703475950000e-002) (0, -6.86782741546630860000e+000) (1, -4.50352668762207030000e+000) (2, -5.16669273376464840000e+000) (3, -1.55583381652832030000e+000) (4, 7.86893177032470700000e+000) (5, 5.95071554183959960000e+000) (6, 5.35950279235839840000e+000) (7, -8.06380629539489750000e-001) (0, 7.21482753753662110000e+000) (1, 3.24042153358459470000e+000) (2, 4.75942325592041020000e+000) (3, -2.85264756530523300000e-003) (4, 3.60518884658813480000e+000) (5, 1.91399359703063960000e+000) (6, -1.72194159030914310000e+000) (7, -1.72975516319274900000e+000) (0, -4.23043775558471680000e+000) (1, 3.09792017936706540000e+000) (2, -1.38428771495819090000e+000) (3, 1.78194653987884520000e+000) (4, 7.60046672821044920000e+000) (5, 3.17048335075378420000e+000) (6, -4.27506160736083980000e+000) (7, 3.09725791215896610000e-001) (0, -5.91107797622680660000e+000) (1, -2.54053950309753420000e+000) (2, -5.00859308242797850000e+000) (3, 5.84986388683319090000e-001) (4, 6.20783209800720210000e-001) (5, 9.70744252204895020000e-001) (6, 4.40298128128051760000e+000) (7, -2.93879771232604980000e+000) (0, -7.44705533981323240000e+000) (1, 3.30728459358215330000e+000) (2, 7.39634656906127930000e+000) (3, 8.81920051574707030000e+000) (4, -5.56297159194946290000e+000) (5, -4.40550184249877930000e+000) (6, 4.91806554794311520000e+000) (7, -2.25977540016174320000e+000) (0, -5.48745059967041020000e+000) (1, -6.72908127307891850000e-001) (2, 1.91610527038574220000e+000) (3, 3.31124496459960940000e+000) (4, -2.44127535820007320000e+000) (5, -7.65656328201293950000e+000) (6, -5.55490732192993160000e+000) (7, 1.43225622177124020000e+000) (0, -5.98873257637023930000e-001) (1, 7.48008072376251220000e-001) (2, -2.35036039352416990000e+000) (3, -7.93781876564025880000e-001) (4, 9.30504798889160160000e-001) (5, 8.25700998306274410000e-001) (6, 1.75605249404907230000e+000) (7, 1.20773959159851070000e+000) (0, 1.21026492118835450000e+000) (1, 5.82755565643310550000e-001) (2, 2.90173649787902830000e+000) (3, 8.33686709403991700000e-001) (4, 5.13166859745979310000e-002) (5, 2.09143233299255370000e+000) (6, 1.81640851497650150000e+000) (7, 6.15974426269531250000e-001) (0, 7.92367517948150630000e-001) (1, -5.24709224700927730000e+000) (2, 1.09709348678588870000e+001) (3, 1.41414394378662110000e+001) (4, 1.05722122192382810000e+001) (5, 6.31068181991577150000e+000) (6, 6.40633630752563480000e+000) (7, 1.37872529029846190000e+000) (0, 9.88620162010192870000e-001) (1, 2.90960001945495610000e+000) (2, -2.78302693367004390000e+000) (3, -8.24630141258239750000e-001) (4, -2.44866895675659180000e+000) (5, -3.10686612129211430000e+000) (6, -2.31103467941284180000e+000) (7, -1.19056105613708500000e+000) (0, -1.04032814502716060000e+000) (1, -1.54506552219390870000e+000) (2, -9.80413258075714110000e-001) (3, -2.15699601173400880000e+000) (4, 8.22952747344970700000e+000) (5, 2.32672977447509770000e+000) (6, 1.33773243427276610000e+000) (7, 3.83065938949584960000e-001) (0, 3.38944315910339360000e-001) (1, 4.08577728271484370000e+000) (2, -8.79581272602081300000e-001) (3, 1.73116075992584230000e+000) (4, 1.54112434387207030000e+000) (5, -2.92053174972534180000e+000) (6, -1.84301304817199710000e+000) (7, 2.81884104013442990000e-001) (8, -1.92021834850311280000e+000) (9, 9.01310980319976810000e-001) (10, 1.05810546875000000000e+001) (11, 2.86673140525817870000e+000) (12, 8.42840385437011720000e+000) (13, 1.59752440452575680000e+000) (14, 1.71666355133056640000e+001) (15, -7.45353031158447270000e+000) (16, -1.92821083068847660000e+001) (17, -2.42660255432128910000e+001) (18, 2.30218029022216800000e+000) (19, -1.22029209136962890000e+000) (20, -1.65975856781005860000e+001) (21, -2.08822631835937500000e+000) (8, -8.58197510242462160000e-001) (9, -3.74513864517211910000e-001) (10, -1.57249879837036130000e+000) (11, 1.20638394355773930000e+000) (12, -4.53830337524414060000e+000) (13, -2.25208926200866700000e+000) (14, -1.26767861843109130000e+000) (15, -1.25662565231323240000e+000) (16, -5.80905055999755860000e+000) (17, 8.86207103729248050000e-001) (18, 9.85998272895812990000e-001) (19, -2.46647432446479800000e-001) (20, 2.06958508491516110000e+000) (21, -1.56682467460632320000e+000) (8, 1.17010040283203130000e+001) (9, 4.91901397705078120000e+000) (10, -2.18502597808837890000e+001) (11, 4.41207427978515620000e+001) (12, -6.99924993515014650000e+000) (13, 3.96871376037597660000e+000) (14, -4.06072616577148440000e+000) (15, 1.08410120010375980000e+001) (16, -7.00655102729797360000e-001) (17, -2.96155643463134770000e+001) (18, 9.11444759368896480000e+000) (19, -2.65443801879882810000e+001) (20, -1.57746040821075440000e+000) (21, -1.54825055599212650000e+000) (8, 1.85903084278106690000e+000) (9, 4.20636981725692750000e-001) (10, 5.01410436630249020000e+000) (11, -1.74535965919494630000e+000) (12, 1.36148142814636230000e+000) (13, -9.66170653700828550000e-002) (14, 9.46584284305572510000e-001) (15, 4.70974922180175780000e+000) (16, 4.10105317831039430000e-001) (17, -4.29853498935699460000e-002) (18, 2.91936111450195310000e+000) (19, -1.02220671251416210000e-002) (20, -5.30363619327545170000e-001) (21, 2.83842372894287110000e+000) (8, 8.23960006237030030000e-002) (9, 7.61465951800346370000e-002) (10, 3.02478633821010590000e-002) (11, 5.13687264174222950000e-003) (12, 4.55287426710128780000e-001) (13, -8.63284096121788020000e-002) (14, 1.78113549947738650000e-001) (15, 5.29628872871398930000e-001) (16, -5.01016378402709960000e-001) (17, -4.46591585874557500000e-001) (18, 4.52149540185928340000e-001) (19, -1.73496231436729430000e-002) (20, 7.28094130754470830000e-002) (21, 2.86475241184234620000e-001) (22, 2.29949772357940670000e-001) (23, 1.00733831524848940000e-001) (24, 2.80010282993316650000e-001) (25, 1.38030514121055600000e-001) (26, 5.19102573394775390000e-001) (27, 6.67460560798645020000e-002) 
