FANN_FLO_2.1
num_layers=4
learning_rate=0.700000
connection_rate=1.000000
network_type=0
learning_momentum=0.000000
training_algorithm=2
train_error_function=1
train_stop_function=0
cascade_output_change_fraction=0.010000
quickprop_decay=-0.000100
quickprop_mu=1.750000
rprop_increase_factor=1.200000
rprop_decrease_factor=0.500000
rprop_delta_min=0.000000
rprop_delta_max=50.000000
rprop_delta_zero=0.500000
cascade_output_stagnation_epochs=12
cascade_candidate_change_fraction=0.010000
cascade_candidate_stagnation_epochs=12
cascade_max_out_epochs=150
cascade_max_cand_epochs=150
cascade_num_candidate_groups=2
bit_fail_limit=3.49999999999999980000e-001
cascade_candidate_limit=1.00000000000000000000e+003
cascade_weight_multiplier=4.00000000000000020000e-001
cascade_activation_functions_count=8
cascade_activation_functions=3 5 7 8 10 11 14 15 
cascade_activation_steepnesses_count=4
cascade_activation_steepnesses=2.50000000000000000000e-001 5.00000000000000000000e-001 7.50000000000000000000e-001 1.00000000000000000000e+000 
layer_sizes=8 16 6 2 
scale_included=0
neurons (num_inputs, activation_function, activation_steepness)=(0, 0, 0.00000000000000000000e+000) (0, 0, 0.00000000000000000000e+000) (0, 0, 0.00000000000000000000e+000) (0, 0, 0.00000000000000000000e+000) (0, 0, 0.00000000000000000000e+000) (0, 0, 0.00000000000000000000e+000) (0, 0, 0.00000000000000000000e+000) (0, 0, 0.00000000000000000000e+000) (8, 11, 5.00000000000000000000e-001) (8, 4, 5.00000000000000000000e-001) (8, 4, 5.00000000000000000000e-001) (8, 4, 5.00000000000000000000e-001) (8, 4, 5.00000000000000000000e-001) (8, 4, 5.00000000000000000000e-001) (8, 4, 5.00000000000000000000e-001) (8, 4, 5.00000000000000000000e-001) (8, 4, 5.00000000000000000000e-001) (8, 4, 5.00000000000000000000e-001) (8, 4, 5.00000000000000000000e-001) (8, 4, 5.00000000000000000000e-001) (8, 4, 5.00000000000000000000e-001) (8, 4, 5.00000000000000000000e-001) (8, 4, 5.00000000000000000000e-001) (0, 0, 0.00000000000000000000e+000) (16, 11, 5.00000000000000000000e-001) (16, 4, 5.00000000000000000000e-001) (16, 4, 5.00000000000000000000e-001) (16, 4, 5.00000000000000000000e-001) (16, 4, 5.00000000000000000000e-001) (0, 0, 0.00000000000000000000e+000) (6, 11, 5.00000000000000000000e-001) (0, 0, 0.00000000000000000000e+000) 
connections (connected_to_neuron, weight)=(0, 3.89185873641888680000e+000) (1, -2.34096520581727980000e+000) (2, 4.04308220531087440000e+002) (3, 9.41283751673983030000e+001) (4, 3.33135467501374480000e+001) (5, 4.00379770758906230000e+001) (6, 1.72044200193400730000e+001) (7, 3.05059219151208260000e-001) (0, 3.05078243565457140000e+000) (1, 2.40040382550038830000e+000) (2, -1.21944369796353680000e+001) (3, -4.04110334954461620000e+001) (4, -3.19939988570746150000e+001) (5, 2.22158989364272410000e+001) (6, 4.43329992619210070000e+000) (7, 1.32768384355316420000e+000) (0, 1.08237137851547260000e-002) (1, 1.10800351854582610000e+000) (2, -6.89498101735782050000e+000) (3, 9.03655233849952720000e-001) (4, 2.05054779530677940000e+000) (5, -8.70397387726270730000e-001) (6, -3.61328947786695830000e-001) (7, 2.76753545156048940000e-001) (0, 4.89879510156963160000e+000) (1, 2.73176565375589930000e-001) (2, 7.98384549568788770000e+001) (3, -9.83095515347968350000e+000) (4, -1.26941057897702440000e+001) (5, 8.77315050341824330000e+000) (6, 1.31830719678781150000e+001) (7, 2.23336879186898950000e+000) (0, -2.52857877828348120000e+000) (1, 3.82987905108260880000e+000) (2, 9.65483211820998690000e+001) (3, 7.65860892753439690000e+000) (4, -3.12515787655380140000e+001) (5, -1.46174772429613840000e+001) (6, 1.34058627994190050000e+001) (7, -7.87853109294986640000e-001) (0, 2.69802385075591400000e-001) (1, 1.60654245157417110000e+000) (2, -2.59022561925303480000e+000) (3, 1.54432031880252250000e+000) (4, -2.55694244154411370000e+001) (5, -6.78329197313565580000e+000) (6, 1.86796923359728910000e+001) (7, 7.07950458682494510000e-001) (0, -1.35280154384834260000e-001) (1, -5.79595429373919610000e-001) (2, 2.69216691064617070000e+001) (3, 6.30969583468619090000e+000) (4, -1.05965903003900600000e+001) (5, -7.33992235133744140000e+000) (6, 1.46630030979341690000e+001) (7, -1.28432510132380910000e+000) (0, -6.71372702400716420000e-002) (1, 4.85884922458966470000e-001) (2, 1.60672041323792540000e+002) (3, 1.38765274072126880000e+001) (4, -1.16061100886164790000e+001) (5, -1.58915233443198980000e+000) (6, -7.55807935643193930000e+000) (7, 4.91207176769208890000e-001) (0, -1.21970950051908680000e-001) (1, -4.44921361447562450000e-001) (2, 2.29030800698584730000e+002) (3, -9.56340096444338460000e+001) (4, -1.07334764483654420000e+001) (5, -2.95788224605746300000e+000) (6, 3.77775891689795970000e+000) (7, 1.49237178576456020000e+000) (0, 4.47962998076865740000e-001) (1, -3.56288645361111040000e-001) (2, -1.15417995109267260000e+001) (3, -1.80855996672475820000e+001) (4, 6.17496109090887390000e+000) (5, 8.78299534794695800000e-001) (6, 5.26834054218597810000e+000) (7, -2.48292626054079380000e+000) (0, 2.00310396994260030000e+000) (1, -2.14220829017916260000e+000) (2, 5.80275966548964850000e+001) (3, 2.85063144384769630000e+001) (4, -7.18128456040931840000e+001) (5, 2.65834891437133360000e+001) (6, -1.87599727314909860000e+001) (7, -9.27999972870252270000e-001) (0, -1.65465417013131690000e+000) (1, 3.99632289629892500000e+000) (2, -1.77352446975655660000e+001) (3, 5.37456500594105790000e+000) (4, -2.05284068132204420000e+001) (5, -5.40858259313114050000e+001) (6, 4.94194079770216350000e+001) (7, 6.05444853031501570000e+000) (0, -9.46858404905585040000e-001) (1, -8.38215362409693120000e+000) (2, 3.48883759103694260000e+001) (3, -1.21174897667709880000e+000) (4, 1.28742854974779950000e+000) (5, -3.24368249910651230000e+000) (6, 3.30248323938722740000e+000) (7, 8.16236237018437560000e-002) (0, -3.02264299477839170000e-001) (1, -9.70526354978381720000e-002) (2, -4.54209971127715840000e+000) (3, 6.02901749967248610000e+000) (4, -1.30665439321641550000e+001) (5, -2.61959468307434040000e+000) (6, -3.50053170575858890000e-001) (7, -2.86284729919919690000e+000) (0, 9.64706759204371660000e-001) (1, -2.43648429696668170000e-001) (2, 1.91494513677728730000e+001) (3, 7.83503493962246460000e+000) (4, 2.36419418652899190000e+001) (5, 3.92261484938781810000e+000) (6, -4.09212949105720870000e+001) (7, -5.12106909254670840000e-001) (8, 2.61848354600725090000e-001) (9, -2.94462082307388180000e-001) (10, 8.91311088443460190000e-001) (11, -3.67988865424895280000e-001) (12, -2.16381995148126640000e-001) (13, 2.14183089983621370000e-001) (14, 7.89526797677183810000e-001) (15, -5.57750788195343070000e-001) (16, 2.91851626496383580000e-001) (17, 1.62039397454769190000e+000) (18, 2.74638769264029030000e-001) (19, -7.31819699000511470000e-001) (20, -8.16945427716608160000e-001) (21, 1.46167761661671490000e+000) (22, 2.94765082791474060000e-001) (23, -9.24687231553919850000e-001) (8, 5.26278553171594440000e-001) (9, -1.78531538238403980000e+000) (10, -1.83808403682813840000e+000) (11, 1.22902888242810680000e+000) (12, 1.41064318504930620000e+000) (13, -4.35459248591557710000e-001) (14, 2.02835773516847560000e+000) (15, 1.46671432725400490000e+000) (16, -2.12127465216661550000e+000) (17, 2.63541219065130910000e+000) (18, -2.86752160835241690000e-001) (19, -3.65381907038495200000e+000) (20, -5.89674548326953300000e+000) (21, 2.47481268864985890000e+000) (22, 4.29849940029368990000e-001) (23, 4.67516639715132300000e-001) (8, 1.73207758125444090000e+000) (9, -1.71232731490647080000e+000) (10, -7.54748485415246330000e+000) (11, 6.68618396532808860000e-001) (12, 7.82889804198255600000e-001) (13, -7.82734716896973830000e-001) (14, 1.74548150767831460000e+000) (15, 1.56437141655131580000e+000) (16, 2.27303148252712690000e-001) (17, 4.69336773860827530000e+000) (18, 2.91297103873857490000e-001) (19, -6.91415644464050240000e-001) (20, -3.29537609524280390000e+000) (21, -1.03258217296621460000e+000) (22, -3.82263348566466710000e-001) (23, -8.94878792541310640000e-001) (8, 5.25624745845946610000e+000) (9, -2.52010686226880190000e+000) (10, -2.22210542308773510000e+000) (11, 9.25699439492388860000e-001) (12, 3.48724637504678640000e+000) (13, -3.44605586497206350000e-001) (14, 3.87129065854684560000e+000) (15, 2.96718851480567030000e+000) (16, -3.16866699007735650000e+000) (17, 9.09039305721905680000e+000) (18, -2.42535290383257380000e+000) (19, -4.53809678871262830000e-001) (20, 2.85894154787294670000e+000) (21, 2.35226069513418510000e+000) (22, -1.38023369418847520000e+000) (23, -1.23098784150398210000e-001) (8, -2.24189114992918050000e+000) (9, -2.63732928724970250000e+000) (10, -1.38518843702025030000e+000) (11, 1.40053684594438900000e+000) (12, 2.50121174513633230000e+000) (13, 2.50594482837984860000e-001) (14, 3.17491678607564150000e+000) (15, 6.62674949437400130000e-001) (16, 1.47835297681722850000e+000) (17, 4.28531631982725080000e+000) (18, 1.20652934580669990000e-001) (19, 5.40596749719012840000e-001) (20, 3.03320716000162790000e+000) (21, 4.59809642172450860000e+000) (22, 3.13699679631991140000e-001) (23, 3.58550271324686100000e-002) (24, 3.67139913162645380000e+000) (25, -2.83386223496393710000e+000) (26, -5.31391483694259840000e+000) (27, -7.88472880431091760000e-001) (28, 9.27125363643032660000e-001) (29, 9.87280192839701700000e-001) 
