FANN_FLO_2.1
num_layers=3
learning_rate=0.700000
connection_rate=1.000000
network_type=0
learning_momentum=0.000000
training_algorithm=2
train_error_function=1
train_stop_function=0
cascade_output_change_fraction=0.010000
quickprop_decay=-0.000100
quickprop_mu=1.750000
rprop_increase_factor=1.200000
rprop_decrease_factor=0.500000
rprop_delta_min=0.000000
rprop_delta_max=50.000000
rprop_delta_zero=0.500000
cascade_output_stagnation_epochs=12
cascade_candidate_change_fraction=0.010000
cascade_candidate_stagnation_epochs=12
cascade_max_out_epochs=150
cascade_max_cand_epochs=150
cascade_num_candidate_groups=2
bit_fail_limit=3.49999999999999980000e-001
cascade_candidate_limit=1.00000000000000000000e+003
cascade_weight_multiplier=4.00000000000000020000e-001
cascade_activation_functions_count=8
cascade_activation_functions=3 5 7 8 10 11 14 15 
cascade_activation_steepnesses_count=4
cascade_activation_steepnesses=2.50000000000000000000e-001 5.00000000000000000000e-001 7.50000000000000000000e-001 1.00000000000000000000e+000 
layer_sizes=12 18 2 
scale_included=0
neurons (num_inputs, activation_function, activation_steepness)=(0, 0, 0.00000000000000000000e+000) (0, 0, 0.00000000000000000000e+000) (0, 0, 0.00000000000000000000e+000) (0, 0, 0.00000000000000000000e+000) (0, 0, 0.00000000000000000000e+000) (0, 0, 0.00000000000000000000e+000) (0, 0, 0.00000000000000000000e+000) (0, 0, 0.00000000000000000000e+000) (0, 0, 0.00000000000000000000e+000) (0, 0, 0.00000000000000000000e+000) (0, 0, 0.00000000000000000000e+000) (0, 0, 0.00000000000000000000e+000) (12, 6, 5.00000000000000000000e-001) (12, 4, 5.00000000000000000000e-001) (12, 4, 5.00000000000000000000e-001) (12, 4, 5.00000000000000000000e-001) (12, 4, 5.00000000000000000000e-001) (12, 4, 5.00000000000000000000e-001) (12, 4, 5.00000000000000000000e-001) (12, 4, 5.00000000000000000000e-001) (12, 4, 5.00000000000000000000e-001) (12, 4, 5.00000000000000000000e-001) (12, 4, 5.00000000000000000000e-001) (12, 4, 5.00000000000000000000e-001) (12, 4, 5.00000000000000000000e-001) (12, 4, 5.00000000000000000000e-001) (12, 4, 5.00000000000000000000e-001) (12, 4, 5.00000000000000000000e-001) (12, 4, 5.00000000000000000000e-001) (0, 0, 0.00000000000000000000e+000) (18, 6, 5.00000000000000000000e-001) (0, 0, 0.00000000000000000000e+000) 
connections (connected_to_neuron, weight)=(0, 5.94110427576050810000e-001) (1, 9.45422799318821010000e-001) (2, 2.75395850025814590000e+000) (3, -2.58563531893661300000e+000) (4, 2.17085061753418080000e+000) (5, 1.59085033798595130000e+000) (6, 5.68322515200075260000e-001) (7, -1.54445417748964970000e-001) (8, 2.15972931854580090000e+000) (9, 2.61079830323792560000e-001) (10, -3.24409386828941890000e+000) (11, 1.00536097013278770000e+000) (0, 5.81469980246796410000e-001) (1, 7.30291448188104540000e-001) (2, 1.17687717540132350000e+001) (3, 7.65254279012925040000e+000) (4, 2.00761221990155600000e+000) (5, 1.11679372959099970000e+001) (6, 6.17168842846513320000e+000) (7, -3.87363623180960740000e-001) (8, -3.52278517616187740000e+000) (9, 2.65432404314360460000e-002) (10, -2.09457671785362810000e+000) (11, -6.01994135886271490000e-001) (0, -2.62326663424194360000e-001) (1, 2.92617270377642760000e-002) (2, -9.83269096162409320000e-001) (3, 5.13422241336333950000e-002) (4, 1.89342204998719630000e+000) (5, -1.87224157527536910000e-001) (6, -9.54149991567439400000e-001) (7, 1.26497220904879070000e+000) (8, 1.13912821775307730000e+000) (9, 4.15769340616946700000e-001) (10, -1.35608454194498610000e+000) (11, 6.54733709958108240000e-003) (0, 3.02354965070578800000e-001) (1, 3.12526475945975820000e-001) (2, -8.24081904945525020000e-001) (3, -3.40993298538480650000e-001) (4, 1.58934733184765960000e+000) (5, -2.22832687913396880000e+000) (6, -4.85421140360946140000e-001) (7, 2.24565364551852700000e+000) (8, 4.07659022892200260000e+000) (9, -1.19503521846745620000e+000) (10, -1.27644795951365490000e+000) (11, -5.58459722123171740000e-001) (0, 3.26924111433480440000e-001) (1, -1.67881476656275400000e-001) (2, -2.30073092338679250000e+000) (3, 5.64546609586419890000e-001) (4, -1.39168515552979770000e-001) (5, -2.86749755181316380000e+000) (6, -5.42837158856434310000e-005) (7, 1.03009182401502470000e+000) (8, -3.62346158272440380000e-001) (9, 1.09539100804281340000e-002) (10, 2.14744111266049000000e+000) (11, -9.18763297170742680000e-001) (0, 1.03718029388086360000e-001) (1, 7.83863468213015000000e-004) (2, 8.93140267452286140000e-001) (3, 3.56966927463911790000e-001) (4, 5.22586208777784570000e+000) (5, 2.20460664370191180000e+000) (6, 2.86383345673638170000e+000) (7, -1.73019771460153440000e+000) (8, 2.40308340236619820000e+000) (9, 2.50136374975590400000e+000) (10, 4.51828792117578450000e+000) (11, 3.58501897247115900000e-001) (0, 5.85467420649785850000e-001) (1, 9.18826785197506680000e-002) (2, 9.94071524526775160000e-001) (3, -8.13593904225421330000e-001) (4, -5.22433139523375620000e+000) (5, -2.72101972764888680000e-001) (6, -1.06474750553175750000e+001) (7, -2.19785456900478240000e+000) (8, 4.10156253032414710000e+001) (9, -8.42287446488820990000e+000) (10, -1.35003200095990420000e+001) (11, 3.35834281833553630000e-001) (0, -1.94069189072662600000e-001) (1, -2.99534655220480280000e-001) (2, -2.75657387942457400000e+000) (3, -7.82867857465164630000e-001) (4, 7.81589952126706680000e-001) (5, -3.01538797339374340000e+000) (6, 1.14518442357469800000e+000) (7, 7.61974024979411800000e-001) (8, 3.79603438176947190000e-001) (9, -4.91574183963778830000e-001) (10, 3.49044110341470590000e-001) (11, -3.24151079533663790000e-001) (0, 5.25612656368421030000e-001) (1, 5.23036303004900120000e-001) (2, 1.28649695270208110000e+001) (3, 5.55289601600308740000e+000) (4, 2.88013670752673870000e-001) (5, -8.83684381944343040000e+000) (6, -3.94187905530122120000e-001) (7, -9.36426010683187180000e-002) (8, -8.29481024112244340000e-001) (9, 2.85037461112220420000e-002) (10, -2.18656095052106100000e+000) (11, -3.96142055000018530000e-001) (0, 6.26855667029282420000e-001) (1, 3.77717113193584810000e-001) (2, 2.49096624928941870000e+000) (3, 3.86660572808419100000e+000) (4, 4.07396059822684720000e+000) (5, 1.31278760973865970000e+000) (6, 9.67755554831626900000e-001) (7, 8.95873851820567960000e+000) (8, -7.56939975373185180000e+000) (9, 2.89216679736075120000e+000) (10, 1.87085578996612690000e+000) (11, -9.90853265263228960000e-003) (0, 2.41748954611147120000e-001) (1, 2.53563837597168620000e-002) (2, -2.65717508808629830000e+000) (3, -1.29727861846548810000e+000) (4, 1.25650619408552930000e+000) (5, -3.88178416136790410000e+000) (6, 1.51569523263512210000e+000) (7, 1.04522540236698090000e+000) (8, 1.69100496996980510000e+000) (9, -1.12642248969199920000e+000) (10, 5.26692600076501320000e-001) (11, -8.87185446396423160000e-001) (0, 7.64855232171004480000e-002) (1, 2.11645907738879780000e-001) (2, -1.28681871766305100000e+000) (3, -4.81424761131137250000e-001) (4, 1.56477768398264310000e+000) (5, -1.21976829916997940000e-001) (6, -4.22296341582639120000e-001) (7, 1.08205512454082500000e+000) (8, 7.13111873285552370000e-001) (9, -1.09095563297827950000e-001) (10, -9.81346659842078030000e-001) (11, -4.48338307028782130000e-001) (0, 1.16956589519002670000e+000) (1, 9.00570407058470360000e-001) (2, 2.57114479878735170000e+000) (3, -4.00156110959095200000e+000) (4, 2.75584757843810340000e+000) (5, 5.49182415001793990000e-001) (6, 3.79591782104687360000e-002) (7, 8.24891554513894950000e-001) (8, 2.40836254746330300000e+000) (9, -2.48290371955289580000e+000) (10, -6.64416289605916250000e-001) (11, 1.24986460574001400000e+000) (0, -3.34770847102236810000e-001) (1, 4.44462841228790980000e-001) (2, -2.90706238083193960000e+000) (3, -2.29924214407912020000e+000) (4, 1.69746230373242520000e+000) (5, -1.19077295189703250000e+000) (6, 1.48483190326252770000e+000) (7, 7.97862373057691480000e-001) (8, -1.93039655919395370000e-001) (9, -2.82652614413046570000e-001) (10, -5.13318337870560800000e-001) (11, -7.68618232615159600000e-001) (0, 9.00572913113495630000e-001) (1, 1.29350962440418990000e+000) (2, 1.85152307425249910000e+000) (3, -2.89768894678032930000e+000) (4, 2.12020209325545530000e+000) (5, 1.03319282002206810000e+000) (6, 1.09712248554393970000e+000) (7, -1.01340489733220210000e+000) (8, 3.00285686144778640000e+000) (9, -2.15772839645926820000e+000) (10, -2.62533171074487590000e+000) (11, 1.05899004189136850000e+000) (0, -1.31442460792533240000e-001) (1, -1.76041689795021860000e-001) (2, -1.28472209084886120000e+000) (3, -7.50108669871530490000e-002) (4, 1.50047350242475090000e+000) (5, -1.19320918611765110000e-001) (6, -2.99512954522322630000e-001) (7, 1.22461378823486070000e+000) (8, -9.59612438558707510000e-002) (9, 5.66270651056919760000e-001) (10, -4.26621687796936710000e-001) (11, -2.51625558494628860000e-001) (0, 4.38775431218130450000e-001) (1, 4.33949068496188690000e-001) (2, 1.89973606462850380000e+000) (3, 9.81868613432964720000e-001) (4, 7.05060566413700580000e+000) (5, -3.29165780563983870000e+000) (6, -1.28124107809408990000e+000) (7, -2.76627413547128500000e-001) (8, 6.42910957524401970000e-001) (9, -3.74173160503271610000e+000) (10, -3.50343408948470000000e+000) (11, 7.66227340413756920000e-002) (12, -4.00999826274386630000e-001) (13, -3.55648379109743620000e-001) (14, 1.69015280651272940000e-001) (15, 5.04553021815540630000e-001) (16, 2.93333606986635580000e-001) (17, 4.55153498217769130000e-001) (18, -8.80084634136623630000e-002) (19, 5.22783211089174050000e-002) (20, -2.23904727409257820000e-001) (21, 5.64394965040922460000e-001) (22, 1.45055025807302060000e-001) (23, 5.35784194017474570000e-001) (24, -1.46051783212912570000e-001) (25, 2.61323786754133090000e-001) (26, -1.42565133257371160000e-001) (27, 1.18083805758034440000e-001) (28, 5.27864682520966080000e-001) (29, -8.80763209699967020000e-001) 
