encog,BasicNetwork,java,3.2.0,1,1351200717755
[BASIC]
[BASIC:PARAMS]
[BASIC:NETWORK]
beginTraining=0
connectionLimit=0
contextTargetOffset=0,0,0
contextTargetSize=0,0,0
endTraining=2
hasContext=f
inputCount=40
layerCounts=1,61,41
layerFeedCounts=1,60,40
layerContextCount=0,0,0
layerIndex=0,1,62
output=0,0,0,0,0,0,0,0,0,0,0,0,0,0,0,0,0,0,0,0,0,0,0,0,0,0,0,0,0,0,0,0,0,0,0,0,0,0,0,0,0,0,0,0,0,0,0,0,0,0,0,0,0,0,0,0,0,0,0,0,0,1,0,0,0,0,0,0,0,0,0,0,0,0,0,0,0,0,0,0,0,0,0,0,0,0,0,0,0,0,0,0,0,0,0,0,0,0,0,0,0,0,1
outputCount=1
weightIndex=0,61,2521
weights=##0
##double#2521
   0.0167106186,-0.0202734039,-0.0333506697,-0.024131182,-0.1360237131,-0.1643157741,0.0211194026,0.0264241346,-0.1759093097,-0.0147424227,0.0938198873,-0.2117305921,-0.0655334791,0.001876824,0.0168278451,0.0337093871,-0.1398836505,-0.0462429236,0.0187122777,-0.0280283747,-0.1558110536,0.0305436495,0.2139061206,0.0485967776,-0.1548677071,-0.0807553158,-0.0218790567,-0.2106063914,-0.2136116041,-0.0632679889,-0.0895937121,-0.15604977,-0.1918488636,-0.0107164393,0.0053685998,-0.0733902038,-0.1726538992,0.2241619873,-0.1870609213,0.0368731043,-0.1536435541,0.063915216,-0.0121483884,0.0001825954,0.0007575953,0.0889772468,-0.1914264365,-0.0345287772,0.0554277147,0.1937615347,-0.2749290651,-0.0789732818,-0.0382614654,0.0444148645,-0.1341940597,-0.0534740515,-0.1343616295,-0.0910594202,-0.037273139,-0.0378641142,0.1108677186,0.1669422425,0.1668413269,-0.1016888266,-0.103683168,0.0415968195,0.1762835875,0.0987286259,-0.0945557637,-0.0729474555,0.0752568289,0.0940329127,0.0818742457,0.1161639246,-0.129046698,0.0276325864,-0.1445217337,0.0097896815,0.0138040291,-0.0313053805,-0.0692881445,-0.168773158,-0.0444130683,-0.1259408906,0.1192491345,0.0009559676,-0.0965759369,-0.1339182288,0.0869016683,-0.1798990674,0.0449878308,-0.0876113139,0.1270718418,0.1798514613,-0.1130446643,0.0506572328,0.0790264188,-0.1279347314,-0.0931185761,-0.0880346458,0.0831761225,0.3103861226,0.1515990074,0.0610062904,0.0799892662,-0.0636175661,0.1202314803,0.113671321,0.2113851566,0.1393451867,-0.0413425367,0.0718927951,-0.0217338573,0.066842176,0.2877046411,0.0720778572,0.0331149952,0.1630646197,0.0141543062,0.1230673356,0.1123036416,0.2296045666,0.1475270162,0.1874132967,0.1392468245,0.266524834,0.0189107521,0.1640961681,-0.0103127734,0.2337814104,0.1244517371,0.0074477297,0.1118996807,0.2977231798,-0.0094956986,0.0689993088,0.3120908069,0.1259468397,0.2676480872,0.2560130502,0.2919193432,0.1711948882,-0.1577327017,-0.1771506687,-0.0581010012,0.1117914606,-0.1019749639,-0.0788592846,-0.148113176,0.0612558215,-0.1767358754,0.1713970538,0.0846395918,-0.0675041347,-0.0113063428,-0.0136772102,0.0077399286,-0.155256308,0.0266875206,-0.1832486488,0.1022071799,0.0066551067,-0.1093379185,-0.1444152263,-0.0657594666,0.1525550794,-0.0505989362,0.047652133,0.0740236971,0.1293197858,-0.1382294379,0.1234371769,0.1621751098,0.0945626281,-0.1007903873,-0.1013645961,0.1431038426,0.1714631682,0.0416521754,-0.1271276242,0.0532130179,0.0269197054,-0.1634924051,-0.1060382313,-0.1289717048,-0.1391126152,0.0902630551,-0.0475880817,-0.0083677014,-0.1000640547,-0.1645922834,0.011860005,-0.0803412507,0.0229843324,0.0872940299,-0.0986301187,-0.1970382899,-0.1216397358,-0.1139332774,0.0312215627,0.0877481003,0.1455328407,0.0404974232,0.0838455311,-0.1166986797,0.0853345573,-0.0757835881,0.0667499836,-0.153049732,0.0235114894,0.1005721971,0.1395583424,-0.0116821526,-0.092278669,-0.0923307944,0.0485466214,-0.135799531,0.1542469883,-0.2000507683,0.0777749339,0.0331993324,0.1115017987,-0.1435017517,0.1162954111,-0.1955727305,-0.2168952816,0.0258746226,-0.1630185006,-0.1469570073,-0.101101832,-0.0994768682,-0.0536863258,0.1959724951,0.0496000664,-0.1737472755,-0.0302658991,-0.2286865685,-0.2377569177,-0.2850605052,-0.1514996393,-0.0965410712,-0.0219124981,-0.0112407207,0.109541265,0.1477694092,-0.0251210011,-0.250968381,-0.2695613132,-0.0034027718,0.1745536004,0.1084668887,0.11224276,0.1092951342,0.1401863296,0.1334983585,-0.0386942475,-0.2058569228,-0.2624674235,0.0115245437,-0.1111853964,-0.0258716472,0.0465191705,-0.0019766901,-0.1283991652,-0.1448895151,0.2382396257,-0.0678168497,0.123095579,0.2212736949,0.1102048848,-0.0962864091,-0.1087935642,-0.1057716583,0.2205545782,0.1643195603,0.0223340189,0.0956692838,0.0217571457,-0.0405024365,0.0909765942,0.0475690011,0.0057231598,0.1963988366,-0.0943025649,0.1283910737,0.0733829028,0.1966909444,0.1345676569,-0.0098122085,0.1681457615,0.1181209585,0.0578894439,-0.0373098208,0.1378390373,-0.1198078193,0.0379695673,-0.080438691,0.0933790025,0.1329372785,0.1661992596,0.0327950823,0.0277503344,0.0306549997,0.0911266578,0.1719713664,0.0067114967,-0.0587519848,0.0799008798,0.0435821127,0.0599224317,-0.0025040234,0.1155836901,-0.0028553127,0.1646492318,-0.0528572051,-0.0993826739,-0.0221548736,-0.1425022978,-0.1565888586,-0.0075295417,0.1031751231,0.0418721093,0.0991375351,-0.175848291,0.138084824,0.0996442667,-0.1627088961,-0.0088240846,0.09898885,-0.0545222524,-0.2002615525,-0.0882913251,-0.0233310211,0.0541928386,0.1292659289,-0.0380689815,-0.0579731091,-0.1209911199,-0.0026419072,0.0171463798,0.1696101264,0.0617286128,-0.1469042634,-0.0062547319,-0.1859471491,-0.1671650026,-0.1827201021,-0.1529240161,0.240778755,0.1753682881,0.200239268,0.3574546168,0.0857268492,0.1203248972,0.0649224463,0.0298893521,0.26049252,0.0512352851,0.0460273425,0.0372781438,0.2492708033,0.3119940163,0.2936811969,0.088746351,0.3615913238,0.0968966066,0.1893695268,0.0859512653,0.3038811415,0.3128642033,0.1191161844,0.3437975022,0.0579681523,0.1074645088,0.1860664204,0.3029066703,0.036029242,0.2489278125,0.0519971849,0.2025148336,0.2201614611,0.2431665262,0.1537850828,0.3171111558,0.2608904873,0.1877528788,0.3186929893,0.1482943853,0.3235043616,0.1076397994,-0.0240430668,0.0826002128,0.2211484077,0.1536292376,0.225433394,0.0091498468,0.1937589602,-0.0854155793,0.0497455406,-0.0786542415,0.1590945088,0.2084004521,-0.0662823807,0.1913076493,0.1717055814,0.0481398415,0.0409607398,-0.0674372639,-0.0728539764,0.0535966671,-0.0049590527,-0.070574068,-0.0111275096,0.0210019747,-0.0907646722,0.1844281099,0.05680829,-0.0182020534,0.2426589492,0.2214483703,0.0355951522,-0.0791985256,0.2479254906,0.1502866641,0.2222978757,0.1126422277,0.1737175905,0.2655516406,0.2051200805,-0.2425752722,0.1109340291,0.0809416501,0.0804147896,0.2415853768,0.2055836524,0.2200540364,0.2435339775,0.1893322764,0.2359368613,0.0698104736,0.1457112653,-0.040341347,0.1326241296,0.2756824229,0.1902702135,0.174032899,-0.0269306605,0.1079283427,0.1457423378,0.0390997371,0.2007789072,0.1610923094,-0.0466636416,-0.0188753785,0.0492932921,-0.0568490061,0.2256952317,0.0462087557,0.3065140634,0.270796789,-0.052484011,0.284435613,0.0590861739,0.2957845871,0.3147050547,-0.0385379114,0.2172988677,0.2003496883,0.0949338562,0.1383580679,-0.1202427505,0.1567536672,0.0980830226,0.1695038853,-0.0135819958,0.3196093439,0.0683993139,0.2632151351,0.3040287366,0.0132312232,0.0986748648,-0.0049083376,0.1202613953,-0.0069030051,0.1660412753,0.0671476833,0.2272003168,0.2073315227,0.015619055,0.2992048296,0.1907947797,0.3122309099,0.1771396157,0.1707671854,0.1901225394,-0.0210039959,0.2230093539,0.2017499155,0.0751938835,0.2669327989,0.2515065118,0.1617503964,0.0202452074,0.1628474514,0.0565304095,0.2302280469,-0.0048555512,0.2310979772,0.1630146919,0.0499746844,0.2516714471,0.325928179,0.2084500667,-0.1108313033,-0.0847318715,0.0055192633,0.071165995,0.0577581766,0.2144615674,-0.1328062053,0.0453017274,-0.0885938992,0.1893521874,0.1526809776,-0.1529292269,0.1371124098,0.1532005701,0.0861718561,0.1803296309,0.1976916615,0.0465140503,-0.0195116756,-0.022365098,-0.0379532764,0.1381933783,0.0703287388,0.1024573091,-0.0209169155,0.2215307741,-0.1032245985,0.1017518293,0.1629823731,0.1833671985,0.1555659506,-0.1631792389,-0.0676238026,-0.0759687379,0.1346257922,-0.0629488512,-0.070671288,-0.0437679877,0.0996187676,0.6066736632,0.376732186,0.2674850773,0.0816952143,0.2027491873,0.278045735,0.1684944814,0.0833524667,0.1338665929,0.2789993447,0.0445611482,0.2512054115,0.1117964419,0.316611971,0.1122750789,0.0410661779,0.1387688997,0.0071778329,0.1284074261,0.1652096808,0.1755026127,0.3445622185,0.3032034358,0.3319507929,0.2427600155,0.103684897,0.0113870509,0.3426726856,0.2538407673,0.2364855335,0.3816878703,0.362012279,0.1294137943,0.3749003615,0.2406210224,0.3059337051,0.2375801417,0.1654914688,0.2643260363,0.3010845397,0.0578437391,-0.2034015417,0.0353718244,-0.0197002826,-0.1556056907,-0.1778501651,0.082528125,0.1355539289,-0.157894826,0.1244294034,-0.1544344396,0.1547497738,0.1395954376,-0.0366938369,0.1862047317,-0.0845698586,-0.1714012398,-0.0814434353,0.0067699074,0.0048061231,0.0935221641,0.0511052652,0.1707663679,0.0207307363,-0.053969246,0.1076682135,-0.0665529189,-0.1366560024,-0.1854870217,-0.1954954912,-0.1331733151,-0.0116641577,-0.0145836792,0.0957965849,0.0559112397,0.0675156387,0.0861221415,0.1683636755,-0.1061748084,-0.0414561174,0.0926057994,0.077492478,0.2163992506,-0.0946708384,-0.1305699465,-0.0065798204,0.1670068019,-0.1042998682,0.0808655367,-0.0254226382,-0.0193420135,-0.1515229074,-0.0389039436,0.1678882687,0.1138215477,-0.1820419095,-0.0132220276,-0.1238516893,0.1714073718,-0.1407872419,0.130477448,-0.1294748713,0.1605828817,0.0760091715,0.097500853,-0.1172657755,0.0092498858,-0.1711297428,0.0220169544,-0.0553731805,-0.1275249596,0.0323771636,-0.0721973583,0.0567717157,-0.1783268603,0.1700899448,-0.130004564,-0.1924484275,-0.1316489715,-0.1969003099,-0.0030990541,0.1250538841,-0.1369558806,-0.2563028825,0.320939837,0.0465090095,0.0446873734,0.1769456659,0.3207341098,0.2761051439,0.3497809352,0.1780117462,0.3706769878,0.0751068637,0.3127989238,0.1916971114,0.103247376,0.2299038846,0.0293205398,0.187549228,0.0509406918,0.2602068486,0.2337878048,0.25038673,0.2696641275,0.2221214507,0.1843493443,0.2882478223,0.2543518029,0.1930448739,0.2389450669,0.1493397562,0.1158580254,0.2779769318,0.1363814495,0.2918830926,0.3229686423,0.3816895236,0.2384942191,0.094773112,0.3791853888,0.0608449237,0.2616474065,0.0664084467,0.2992680617,-0.1027606243,-0.0597129315,-0.0213520857,-0.1770629878,0.1806702977,-0.0084529985,0.1948258213,-0.006298787,0.2050039246,0.0232351593,0.0282343646,0.0442164319,-0.0121364706,-0.0611115716,0.0725074498,-0.1405693232,-0.0857789869,-0.0872068756,-0.0348512645,0.0957258323,0.0071336209,-0.2102154016,-0.2877879784,-0.3398853075,0.0489567126,-0.1007681287,0.1038740062,-0.1759484288,0.1750382641,-0.0454023044,-0.3151924479,-0.0428464955,0.0112627196,-0.0532902513,0.1101530811,-0.1459754934,0.0360608045,0.107664195,0.063296759,-0.0637423694,0.1776026049,-0.3061353946,-0.0382842021,0.0112045218,0.1394430823,-0.1686094903,-0.0953932504,0.1612588417,0.1758660998,-0.142540916,-0.0872118686,-0.2353930136,-0.1045889731,-0.1173453793,0.0224145943,0.0506141853,-0.154604818,0.1159685763,0.0091367088,0.0077356596,-0.1499445081,0.0168683862,-0.04146973,-0.0537858848,0.1422053619,0.1749686425,-0.0774715695,0.0189438164,0.1291505306,-0.0181914748,-0.0526744864,-0.2400809389,0.0352922221,-0.1468019324,0.1001128583,0.1075143622,0.2059080158,0.1636024869,0.1323777394,-0.0382122433,-0.1416742702,0.1646278944,0.0174060257,0.0277887897,-0.0838299981,-0.1185814379,-0.0448481271,0.1265158776,0.128005543,-0.0587707877,-0.1720316593,0.1060256343,0.1672206209,-0.1651324824,-0.0909987875,0.1509541642,-0.1105934909,0.0278782139,0.0586562374,0.1094122832,-0.1808842762,-0.175107462,0.1063235357,-0.1367884591,0.1499912878,-0.0650316345,0.0246602203,0.1466026746,0.0675031178,0.1620163129,-0.0997707888,-0.022328022,-0.1208981581,0.0693525125,0.113598199,-0.204933753,0.1766568352,-0.1521840066,0.0432230721,0.0553993099,-0.0951296678,0.1257526942,-0.0052135421,0.1747289964,0.3466385513,0.104310037,0.3153752466,0.0983688645,0.0727925535,-0.0007836043,0.0678419693,0.2397281774,0.0751734824,0.0708639575,0.0052390984,0.3295687493,0.1752408037,0.1075723904,0.225112679,0.265134222,0.0090879823,0.0577465646,0.344962101,0.0150834715,0.2880854505,0.019353988,0.330069703,0.0633979683,0.183176046,-0.014223011,0.2707965436,0.1033611966,0.0520527715,-0.024868246,0.2108078894,0.3207755052,0.1211410112,0.3207122442,0.3132465923,0.0251744975,0.0955913099,-0.003340273,0.2679575531,-0.23326925,-0.0549497432,0.0280490098,0.2172091505,-0.0663859224,0.1414712001,0.2033923898,0.1677967799,-0.0002802717,-0.1049608336,-0.0384470262,0.1252208427,0.2200122262,0.1649524323,0.0696844808,-0.0639424406,0.0540908492,0.050426336,0.193847042,0.1601876957,0.0826558298,0.239577812,0.0451087782,-0.1118395623,0.0402507321,0.2262076663,0.0980494768,-0.0433092258,-0.1072113857,0.2561932507,-0.100197237,0.2179899624,0.2410059492,0.0913367089,0.2212124844,0.1501239611,0.1730523067,-0.0022084625,-0.006951886,-0.0234067883,0.2011379745,-0.2092645512,0.1374240689,-0.1217528123,0.1242351426,-0.1474330061,-0.1509888708,0.0123772143,0.0852246659,0.1418885353,-0.0127198328,-0.1928019021,0.1356198797,0.0697601875,-0.1437996118,0.0471522175,0.1373300996,-0.1952748173,-0.0748554999,0.1174212396,0.0043804346,0.0374041977,-0.0271987423,-0.0787236018,0.0972813676,0.1857875374,-0.0073302203,0.0996638372,-0.1344492956,-0.0086009471,-0.0565575729,0.074819778,-0.1923273224,0.0571818789,-0.1257386809,-0.153390754,0.0168317928,-0.1501306037,0.1438177507,-0.1398325487,-0.0416087381,0.1017604786,0.364850346,0.2268782018,0.0535743887,0.3014026539,0.1970852096,0.0020617376,0.3306811159,0.2431255509,0.0492473891,0.1234141535,0.1368358892,0.1130146204,-0.0460700162,0.093377174,-0.0369973526,0.0903217914,0.1656085263,0.1100182453,-0.038384433,0.0190105282,0.1723820945,-0.0388639947,0.2823821464,0.111983952,0.1194334945,0.1036311233,-0.0136618728,-0.0228751535,0.3098119156,0.2432913695,0.3018575695,0.0678692495,0.2920767551,-0.0277345676,0.2968273741,-0.0407537826,0.2624133169,-0.0393262388,0.2427822729,0.2608673339,0.3060390953,0.3425135478,-0.1377303505,0.1157906736,0.1101339717,0.1299865814,0.1035759751,-0.0538762916,0.0729855074,0.0690448186,-0.1011721601,-0.1749897664,-0.1378079711,0.158503871,0.0408350607,-0.1762296946,0.0131365353,0.107753258,-0.0471225774,-0.1912806861,0.0526648388,0.1438197003,0.1408734717,0.0503444424,0.1808147484,-0.1576520318,-0.1400716445,-0.0182467269,-0.1117908615,-0.1684198401,-0.0086434005,0.0549891383,0.0870729364,-0.0894271734,-0.125425012,0.1245657733,-0.1928914212,0.1816674524,0.0899167381,-0.068434752,-0.0765062692,-0.1400266856,0.2571551895,0.1107893526,-0.0891396078,0.0339378877,0.2585650265,0.1869654713,0.1249630594,-0.0812995725,0.0513291125,-0.0076835034,0.1564961745,0.2197237221,0.00701963,0.1966526159,0.1676758197,0.1562644174,-0.1142513042,0.210572968,0.021758681,-0.0969258076,-0.0616640102,-0.0504848682,0.1788094703,0.0896709143,-0.0832186975,-0.0846906255,0.0469284796,0.2171165255,0.2274324604,0.010045305,0.0556603733,-0.1092505497,0.1180200089,0.0570161813,0.0574982784,0.1733739118,0.1124376504,0.208838944,0.2522633195,0.2403966718,0.2289678448,-0.2615789081,0.2758897377,0.2243130896,0.1724699623,0.0587786173,0.40935075,0.3618201012,0.3085210107,0.2652162312,0.0976881881,0.3668523828,0.0590796268,0.2160075072,0.3446731497,0.1674168742,0.3838352893,0.3367266495,0.3757428934,0.4355142011,0.0691344865,0.2514668066,0.3778593006,0.2584004695,0.2640809297,0.0970533092,0.0957767356,0.3146040916,0.3749505547,0.1796926821,0.0641136225,0.2690857744,0.3623706579,0.2987268799,0.0720095831,0.157497429,0.2897384233,0.4290610608,0.2592555676,0.3450574776,0.1365487972,0.1801686452,-0.0650785275,-0.0489689567,-0.0282000758,0.003433573,-0.1063441286,0.1012827548,0.0902503293,0.0752797866,0.0985268181,0.1700817988,0.0726360475,0.0326445722,-0.1495758702,-0.0444987617,0.1737937726,0.0466894443,-0.0668125679,0.0032678444,0.038508532,-0.0883598459,0.1420015329,-0.1845992384,-0.0044055355,0.0139302648,-0.1130762226,-0.2079141726,0.1205263059,0.0615565132,-0.0767202695,-0.1282588834,0.1317862431,-0.0506355314,-0.0935736901,0.0933259029,-0.1455271415,-0.1304201166,-0.0881486011,-0.1670343486,0.0577957998,-0.008857831,0.0857469359,0.0435421812,0.0186806614,0.2028153262,0.0960330476,0.2049120282,0.1463643285,0.223803569,-0.07382685,-0.0875641419,0.1945867129,-0.0326823708,0.1945948533,0.1514101682,-0.0948839478,0.1146710842,0.1244139788,0.00835803,0.1342251539,0.0175239156,0.0465736957,-0.1628855531,-0.0690516459,0.1034858592,-0.1490161302,-0.0375146891,-0.0355335142,0.2011218405,0.2194756446,0.0408549508,-0.0545439321,0.0964222946,-0.0636401432,0.1920797513,-0.1283437276,-0.063331329,0.2081056096,0.1556980556,0.1948029089,-0.1178639097,0.0802580878,0.0885777432,0.289909075,0.202702467,0.0147428792,-0.1545681423,0.2034327027,0.1724988071,0.188168828,0.1965102698,0.1129104262,0.2015513566,0.0822737538,-0.0287455855,0.1521301391,-0.0939702449,0.079780561,0.2223395316,-0.0168488692,-0.1536016433,0.0301009485,0.003418631,0.1202197051,-0.1521215527,0.0061940931,0.2172352228,0.0046413963,-0.0690716218,-0.158634096,0.0857689121,-0.1046363885,0.1291940261,-0.1429200671,-0.0323988067,0.1855142617,0.0800028636,-0.1197903344,0.1213829847,0.2127341529,0.0149803746,0.0762647951,-0.1337183301,0.02489954,0.5325779367,0.2555129291,0.1397121257,0.3422470662,0.3078304577,0.1979746061,0.2065642705,0.3011351257,0.1783209591,0.1627926416,0.1172776542,0.2403688672,0.3802588333,0.3365554563,0.2212891014,0.1017773787,0.0133041175,0.2042853485,0.1800581609,0.0160955408,0.0933569241,0.1482570577,0.170002962,0.1164654007,0.3719361982,0.0194565121,0.3655447732,0.1176865044,0.3758560221,0.0529267179,0.27247629,0.1387591776,0.3399702299,0.2356761886,0.2910140062,0.2240149525,0.1203174359,0.2035066183,0.3731068447,0.0532518056,0.0911858535,0.1491074537,-0.0181379544,-0.0033546389,0.3676072691,0.1898161959,0.0876264174,0.1457907278,-0.0002369232,0.1576574193,0.2306834659,0.0269724245,0.2165351249,0.3553876986,0.1775983638,0.2827770739,0.3598626593,0.2239585768,-0.0165668624,0.0506874916,0.2022200908,0.0790991391,-0.0165524225,0.1206769368,0.056896192,0.0207465302,0.2899144509,0.0532346654,0.2167124786,0.0265306713,0.1140081182,0.2020233337,0.3109182285,0.2739318451,0.1016507686,-0.0185086443,0.1548314149,0.0394181527,-0.0109336818,0.0893325488,0.0110650389,0.3023470002,-0.3119616773,-0.033864234,0.2098604988,0.2138858564,-0.0213590284,0.1425413672,0.1634788075,-0.0605974733,-0.0398960874,0.0437261456,-0.1312918193,0.1096218589,-0.1539017426,0.1616070192,-0.121309702,-0.0318917864,0.0602753053,0.1225342334,-0.0993340855,0.1539188123,0.1398069959,-0.0482668274,-0.1272443738,0.1414453205,0.108529395,-0.1461455988,0.0830494234,0.0799938354,0.0762983373,-0.029483958,0.0703259097,0.1444964183,0.1728141231,0.1221390365,-0.1342195488,0.2082647328,-0.083333347,-0.0584058961,0.111065725,0.0501176862,-0.0898801765,0.5668028366,-0.1186540215,0.145022961,-0.0489672348,-0.0795829612,-0.0611239136,-0.0685384295,-0.0027734101,0.1466687059,0.3514688598,0.4127073197,0.0928240238,0.0230747284,-0.152769407,0.1007870354,-0.0202316514,-0.1126637571,-0.1280589535,0.1822150212,0.27615315,0.1382887488,-0.0178608361,0.1949682419,-0.0678976706,0.00763945,-0.0629541155,0.1156980612,0.2185084329,0.0870462057,0.392631219,0.2937223279,-0.1529097372,0.0802007463,0.0360154727,-0.037517554,0.1541129542,-0.1397317433,-0.0755887003,0.1973823381,0.2931859532,0.2757415482,0.2461466427,-0.0034140064,-0.1373421911,-0.063068064,-0.0878842846,-0.1246294271,0.0055351681,0.1047059264,-0.1465814874,0.1480683674,-0.1302530959,0.0945084825,-0.1001525289,0.1042594304,-0.1581982636,0.116833515,-0.0164055899,-0.0543980532,-0.1834540234,-0.1849502496,-0.1255435906,0.1021300555,0.0842760112,0.0951833558,-0.1902281787,0.0796468468,-0.1077516804,-0.0593857011,-0.0362247409,-0.0589484524,-0.0234422691,-0.1175106224,-0.1605283213,0.0187390063,0.1880328077,0.0126365324,0.0265684509,-0.1465774772,0.1627581695,-0.0180659287,0.0607560086,0.1178789512,0.1047000914,-0.0176293243,-0.0885574726,0.0809992391,0.0901760919,0.1605175026,0.0637999994,0.0709042546,0.1784911424,0.0906535326,0.0593924849,-0.0643726391,-0.0608416521,0.154258373,-0.1175359038,-0.0284848939,-0.0950634878,-0.1727731622,-0.0687026973,-0.0859249755,-0.0669875042,-0.0555759377,-0.1389086093,0.0079299521,-0.0290013805,0.0785767917,-0.0192028115,-0.0499544665,0.0585738509,-0.1150195183,-0.1126972173,0.1763242458,-0.0448456473,-0.1246875802,-0.1926746378,0.1659682682,-0.164549125,-0.1047866449,-0.0206140247,0.0761471708,0.3998345658,0.43868982,0.2090814586,0.370170354,0.0621199771,0.3847893469,0.303449691,0.2991597271,0.2131742724,0.3999938185,0.4369809777,0.2265036109,0.1904764979,0.0774077973,0.1120310975,0.4387659884,0.2625404755,0.2015387007,0.1890132609,0.1002906742,0.1170603633,0.2603588408,0.1516521002,0.3632617913,0.2423076409,0.0596934258,0.0913527054,0.3616802182,0.1615339911,0.2765821551,0.3955185251,0.2562166417,0.1241820042,0.3871970728,0.3187130445,0.1195831097,0.0723045594,0.1839755013,0.169058875,0.0579030479,0.3845650917,0.1555607492,0.1112764048,0.2396501029,0.2285783846,0.1445785226,-0.0154093015,0.107913301,0.1251856736,-0.1156620507,0.1752273515,-0.0040329151,0.0710920683,0.0694385541,0.1415918286,0.1415697591,-0.1131618491,0.0406607569,-0.0907187689,0.0057010821,0.0739020122,-0.020657398,0.102851641,0.0324697822,0.0081447537,0.0963477065,0.0426702604,0.0894488575,0.0316598411,0.0230654982,-0.0249264885,-0.1099832552,0.1471014534,0.2485072827,0.106775795,0.247704088,0.1686170095,0.0317337262,0.1558771535,-0.0036459609,-0.0711789161,0.0439843343,-0.0673775253,0.1174909904,0.3001264394,0.0072951884,0.2180500279,0.2601707103,0.2636626533,0.2222226188,0.1494835148,-0.0100994968,-0.0059024353,0.191246998,0.0027367422,-0.0097589695,0.1894807028,0.2922010499,0.2427862011,-0.0271917565,0.0606364707,0.2300570953,0.1722450417,0.0495677659,0.0832188923,0.3259794379,0.2333322002,0.2208952052,0.0165242218,0.1897718962,-0.0048598863,0.2799114642,0.1211182262,0.0767304025,0.0765012618,0.1742817317,0.1888146827,0.0283219346,0.2766945837,0.2672858302,-0.0137764405,0.2204227053,0.074978705,0.3626796429,-0.0230409109,0.2525573499,0.2642716606,0.1899736306,0.3086956901,0.354465465,-0.0234527163,-0.0211150427,0.0465120435,0.2527452561,0.2021611287,0.0107824809,0.090135855,-0.0124086258,0.244696472,0.210665608,0.1801135329,0.3496339837,0.1226257084,0.1649538323,0.1090745933,0.0746383712,0.0145043978,0.1881668827,0.2917912424,0.2902967564,0.077095484,0.1875412235,0.0882497845,0.2072468768,0.0879813035,0.3204882486,0.0136483958,0.0339980419,0.3425940222,0.1764256785,0.202410571,0.0642441457,0.2470660778,0.0182233017,-0.0131015384,-0.1419868622,-0.1429218061,0.012653651,0.1641596332,-0.1262278248,0.0426737865,0.0600851676,0.1284019103,-0.1311729595,0.0087176461,0.1311270153,-0.0646931918,0.0210504722,0.1524813823,-0.0382465717,0.1693666298,0.0956922222,-0.1045307124,-0.1914061395,-0.163980988,-0.1359506148,0.1653534272,-0.0673300126,-0.0811891765,-0.0397751014,0.1322000307,0.1229016841,0.0934300887,0.0273438307,-0.1626779663,-0.1102720058,0.0977923361,0.0437738664,-0.0353183258,-0.0101412015,0.122196674,-0.0996266144,-0.1291154714,-0.1206824681,0.1423217579,0.3535532377,-0.3151618735,-0.2440641336,-0.1374679951,-0.0039667666,0.0767044403,-0.0756735329,-0.0729127538,0.1491291946,-0.1591114578,0.1207314562,-0.040280797,-0.2863235667,-0.1026921556,-0.2194778826,0.030302909,-0.092754279,-0.005785322,0.0739890444,0.0424864061,0.1960883159,-0.0628423865,-0.2694516824,0.0129121677,-0.3175795567,0.1295240066,-0.1746879991,-0.1305502146,-0.0465322988,0.1038656864,0.116426648,-0.2152892562,-0.1859781744,-0.1941267666,-0.29330158,0.022466433,0.0585159254,-0.0770870887,-0.0976811903,0.0675893,0.0253386052,0.2438135443,-0.0522193446,0.1095021913,0.1667907347,0.117544482,0.1080255646,-0.1497123588,-0.0815594179,-0.11180078,-0.1562752699,0.0554128529,-0.1779912078,-0.0708226341,0.1547762902,0.0093727482,-0.0372714613,-0.188593518,-0.1621263861,-0.0977267172,0.043858954,0.1081603996,-0.0752749471,-0.0962010091,-0.1710133948,0.0023095599,0.0835953836,0.0964981693,0.1602029932,0.035220334,0.0292313008,-0.0076056284,0.1029134957,0.0310486683,-0.1269320646,0.0134203283,0.0051237945,0.093082137,-0.0687708552,-0.0653377194,-0.09604079,-0.1863249873,0.4612725586,-0.0616589228,-0.1293799004,-0.2019719596,0.0978915265,-0.0692816424,0.0675536091,0.0485735154,-0.0237437428,0.1295012332,-0.056765013,0.0745594167,0.0521669138,0.1374460351,0.1001666328,-0.1459235628,-0.1664679368,0.1708328869,0.070789864,0.1103876205,-0.022250469,-0.1336966297,-0.1183588037,-0.0717717772,-0.0653786354,-0.0290565735,0.016156738,-0.1344811192,0.0489384153,-0.0936857698,0.1166252492,-0.1350153982,-0.0740600435,-0.0057948449,0.0739323059,0.0296906286,-0.0943172966,-0.2092659404,-0.0914609138,0.0802837764,0.1158793845,-0.2095130556,-0.1762030238,-0.0234132535,-0.2448005106,-0.1145920932,-0.2531464349,0.0272484027,0.0568417941,0.3058649009,-0.0439797055,0.2617679552,-0.1289397389,-0.1039653253,-0.0823485645,-0.1691057788,-0.2287046945,-0.1834944163,0.2979012149,0.1396248407,0.1112276618,-0.0647815197,-0.18619201,0.0230131436,0.0204332903,-0.2567868651,-0.1772218741,-0.1811974435,0.2576085006,0.1659142002,0.0733089855,0.2031605283,-0.2422638439,-0.085635891,-0.2664365761,-0.309000636,-0.0849694153,-0.0477656127,0.1413747047,0.1382479033,0.2723180932,0.1465558544,-0.2608748604,-0.1411104808,0.0249145379,-0.0094981335,-0.1247515329,-0.0392390399,0.02570439,0.1118614633,-0.099449494,-0.1438737103,-0.0365616357,0.0938961131,-0.109834034,0.0405494718,-0.0680430256,0.0547440055,0.1442264801,0.0471284315,0.1535195938,0.1003989787,0.0605750997,0.0048405313,-0.0244839684,0.1795404488,-0.1721500702,-0.125537398,-0.0689464312,0.1024934918,-0.1526265207,-0.1376224508,-0.017236451,0.1472673425,-0.1319932922,0.0878620662,0.0279880098,-0.0774416114,0.1819959924,-0.0786866183,0.098868933,-0.0841229559,0.1421543209,0.2861861247,0.0115225202,0.0593873969,-0.0765141867,-0.0556859632,-0.1272584898,-0.0819368464,-0.0699088389,-0.0365970893,-0.0367026485,0.0738278623,0.0272679701,-0.1160766072,0.0015458979,-0.1578878007,-0.0569300139,-0.1437926959,0.1601652334,0.0612726744,0.0999557975,0.1156909084,0.1571159424,0.1611082567,-0.0312908223,-0.0153181381,-0.0181878777,0.0994201082,0.0275244344,-0.0410581803,-0.0161527412,0.184200418,-0.1729007728,-0.1606927316,0.0814865351,0.023388105,0.0749545551,-0.0367049272,-0.0139483449,0.07088739,0.1864589388,-0.0544233933,0.4091292617,0.1177842663,0.0105986504,0.0448517781,-0.0256657078,0.0796443643,-0.0371733552,0.2002101039,0.1079724355,0.1438010909,0.0651153747,0.2197140372,0.0375495938,-0.0544477041,0.1411157512,0.0905927659,-0.0601671567,0.144492259,0.152760759,0.0354811518,-0.0892275548,-0.0600652106,0.025261245,0.0483333162,0.0850426486,-0.0809157584,0.0253898087,0.2071053107,0.0154558975,0.1635988394,-0.1197498073,0.1250502743,0.1023362859,0.0278943295,0.0826047897,0.0375526798,0.2360735198,0.2082696275,0.0448566893,0.0878241571,-0.0296396289,-0.0513088232,0.3201704176,0.1853925201,0.3370328496,0.2426631135,0.2492390158,0.0763760694,0.1863554259,0.2576984934,0.2754725613,0.1283591768,0.0563285988,0.2632157959,0.1060246163,0.1371177328,0.0823144332,-0.0163429593,0.3022488993,0.0210549467,0.2017050858,0.2528538454,-0.0075929599,0.2385181762,-0.0021916013,0.1609797617,0.314304357,0.0453024533,0.3316883985,0.1863916471,0.0623261645,0.1183330631,0.2262424852,0.0699127841,0.0138106156,0.1661578879,0.3569677865,0.1057410702,0.2896264846,-0.0144430092,0.2412551288,0.1384062274,0.2631397131,-0.1476426429,-0.0374373107,-0.1520635261,-0.0743201588,0.1334437829,-0.0933734046,0.1074257613,-0.1735355193,0.1523461394,-0.0496694393,0.0659114072,-0.0863243956,-0.0354064517,-0.1613005449,-0.1774282632,-0.1188966554,0.1506762176,0.0104529283,0.0805542393
   -0.115475792,0.1330544385,0.1310924937,0.1776146439,0.1015234161,0.1705248202,0.0170396408,-0.0863738568,0.1493941198,0.0560490829,-0.0673652262,-0.023701136,-0.0026938235,0.0637488214,-0.0619262889,-0.0924091094,0.1199667571,0.1222604319,-0.0037743501,0.0021981683,0.0943362586,0.3087369698,0.0325124388,-0.1403844327,0.0877211713,0.0796416134,-0.1609020657,-0.0120282082,0.1140272017,0.0578118204,-0.0915248845,-0.0123748356,0.1138714038,-0.1779024311,0.156300119,0.1557269498,-0.0110670585,0.1616192176,-0.0543424797,0.1192528511,0.1389139298,0.1532829312,0.0809667508,-0.1094373004,0.1177033205,-0.1689722,0.1521326156,0.1827537025,0.089548306,0.0395215416,-0.0810686997,0.1643375219,0.0733352695,-0.1700618481,0.1525392948,0.1354783712,0.0208346395,0.1433737395,-0.0794413472,0.139257704,0.1160043672,-0.0903629466,0.0107297777,-0.0920266095,0.0598590617,0.0575609637,0.1145646852,-0.1782075952,-0.1029120812,0.062806706,-0.0743972146,-0.0956944022,-0.1202908817,-0.1151180966,-0.0124503506,0.0506208243,-0.0525043973,0.0055254299,0.1251168745,-0.0024469198,-0.1286918865,-0.1376602714,0.007165228,0.1323585584,0.0241339845,-0.0606975094,0.0133684519,0.2001844754,0.1774628474,0.0702652883,-0.1795286964,-0.1572404926,-0.167317461,0.0297184812,-0.1296180779,-0.0210390054,-0.0494646264,-0.0656342332,-0.0280571913,0.0974304238,-0.1161216876,-0.0910409169,0.1993779109,-0.0952514834,0.2874497552,0.259545377,0.3444047519,0.4024584095,0.1696371056,0.214107819,0.1709385378,0.1049674171,0.0844091611,0.2002407425,0.2922943987,0.2474096265,0.2956115891,0.1652985926,0.3955633856,0.2289822106,0.3996069957,0.1634578308,0.3769759151,0.339912815,0.4225596571,0.2897643648,0.2897262895,0.2343658162,0.3435830443,0.3160381065,0.185826811,0.3566059371,0.430399002,0.3994980114,0.0745467178,0.3974286337,0.2793701582,0.0703537706,0.0931478242,0.1597716972,0.3406921156,0.1838070334,0.1923868777,0.3341437542,-0.2996845443,0.0207804474,0.0628461735,0.1603944019,-0.0317153571,0.0603434418,0.2074242399,0.07571394,0.1132624952,0.2216401895,0.009624752,0.1706889474,0.2105845562,0.1009992987,0.2045043834,0.2159527409,-0.1613475128,-0.1341013613,-0.0435444147,-0.1089976737,0.165399355,0.2018013316,-0.1292677525,0.0588902382,-0.0333793451,-0.0738224375,0.1565184673,-0.097180898,0.1566870951,0.0050449759,0.1291266148,0.0535414003,0.0059205588,0.0531920596,-0.001032223,-0.0846621589,0.0125981271,-0.0019530475,-0.0114051252,-0.1163555836,-0.052066455,0.3487503572,-0.056187657,-0.071483694,0.1609721776,0.170288783,-0.1170038926,-0.1376517437,-0.1171531237,0.1100200203,-0.1424853821,-0.1227486963,-0.0925618519,-0.0399619131,-0.1210374718,0.0818111816,0.0281994706,0.1383271631,-0.1380194398,-0.1411475325,0.0023286119,0.0659465182,0.0767854899,-0.1439421114,0.1822846622,-0.1292200071,-0.0757515022,0.1396241071,0.1259632172,-0.0844540821,-0.1321368733,-0.1968390397,0.1366801214,-0.0924817906,-0.1592689462,0.1347899813,0.1432675415,0.0899144545,0.0773684783,-0.0064017635,-0.1334671811,0.0150636234,0.1498889463,-0.0645081372,0.1351979866,0.1198861897,0.1159170725,0.1133217425,-0.0173397154,0.2190409439,0.0175629996,0.1821097348,0.0102736981,-0.1155717151,0.0792637512,0.203314222,0.1954488131,0.1807454536,0.2140807986,0.0749247322,0.0017803024,0.161483817,0.0143301107,-0.1234966213,-0.1413587977,0.2107854495,0.0326545214,-0.0971392514,-0.1348785039,0.2063380591,0.199981474,0.1148960146,0.0068485665,-0.0952933893,0.1158832494,-0.0670005582,0.2133607813,0.1210879323,-0.1048816059,-0.0741847564,-0.0952333353,-0.1136959116,0.127289699,0.601850578,0.0148364774,0.1610630865,0.0400336345,0.188930082,0.0157138409,0.0161057397,0.0447312161,0.2033014138,0.1532345262,0.3478702101,0.2556288217,0.252712859,0.0135628044,0.1972262541,0.1567213021,0.1427120914,0.0807989132,0.275188597,0.2649355194,0.3732752628,0.2419892218,0.223676435,0.2414909111,0.2779282511,0.3735519247,0.3450741769,0.1531921773,0.0135990507,0.0922132084,0.3450734904,0.147971298,0.3816584994,0.3516818375,0.2498061571,0.0917025221,0.2495718162,0.3461252391,0.3498681102,0.1260496987,0.0515895134,-0.0084676526,0.1956871393,0.1389967957,-0.0931812715,-0.1521148789,-0.0020981097,0.017191931,0.0764763915,0.4283118911,0.1729998217,0.2336903707,-0.0730721211,0.1907956599,0.203919214,-0.0336456776,-0.1566653834,0.162395848,0.1419767591,0.1328994804,0.4235500197,0.1295206812,0.0969978987,-0.1237220396,-0.1070329986,0.0270175112,-0.0227620256,-0.114032476,-0.0808404735,0.2443351441,0.4234712706,0.0870627101,0.1257462423,-0.0157154068,0.0636468866,-0.1613301471,0.0825786794,-0.1447240046,0.1211496069,0.1754222062,0.0729621896,0.3509479044,0.1572996939,0.1212915477,0.0851920197,0.3935045477,0.1382687471,0.0626491718,0.365760314,0.2623456791,0.3935845869,0.4078984838,0.1116509667,0.4164284828,0.3264837995,0.1576932063,0.2494358011,0.4166455104,0.4003714632,0.3116435069,0.3374870278,0.1414933452,0.2477024183,0.0954257547,0.0697005935,0.1629367602,0.2885734869,0.2626228097,0.3432709472,0.387002334,0.1265649364,0.407135402,0.4108642864,0.3506504228,0.1868627478,0.4191373098,0.2601251294,0.2413156453,0.3429327104,0.3636808935,0.3373269346,0.3973188513,0.2224896628,-0.1399520474,0.0164120605,0.0464304602,-0.0926043015,-0.080326103,0.0354134668,-0.1242418493,0.127882668,0.0006680731,-0.0040742625,0.175052595,-0.0315785656,0.1171294588,0.1420913125,-0.0273484204,0.1356941643,0.0551574656,0.0482449386,-0.1277887011,0.0106795719,-0.1535653459,0.1778210522,-0.1673066784,0.1756497734,-0.0772342022,-0.0919473757,-0.0426812756,-0.0936170909,-0.0423502532,-0.0357439631,0.1625706758,0.114979996,-0.1565823007,0.0965583027,-0.106449318,-0.0620038396,0.0189874388,0.0466073913,-0.002552134,-0.19945405,-0.0066888491,0.048497417,0.0296392005,-0.0350960567,-0.0911753595,-0.0088409968,-0.1901531981,0.1237159626,-0.1484918262,0.1024712075,-0.0974940101,-0.0729773614,0.061832987,-0.1230641424,-0.0407968512,-0.0172983852,0.0683429888,-0.1374147686,0.0302727663,-0.1298839174,-0.1253296645,0.0887325487,0.0214828253,0.1704455784,-0.2017396806,0.1315875264,0.1566321213,-0.1188778115,-0.1425451715,-0.1759584916,0.1504960566,-0.1086495382,0.172172879,-0.0662312299,0.0190835067,-0.1369950897,-0.1364161125,0.0834769807,0.1233514784,-0.1571347556,0.0867940446,-0.1886689586,-0.258017134
##end
biasActivation=0,1,1
[BASIC:ACTIVATION]
"ActivationTANH"
"ActivationTANH"
"ActivationLinear"
