FANN_FLO_1.1
4 0.500000 1.000000 0 5 5 5.00000000000000000000e-001 5.00000000000000000000e-001
2 4 5 2 
0 0 
2 2 2 0 
4 4 4 4 0 
5 0 
(0 5.63791707321815490000e+000) (1 3.29896663159619630000e-001) (0 8.94342564914535030000e+000) (1 -7.79697858868484590000e+000) (0 6.44214180160079050000e+000) (1 -1.59950443494924550000e+000) (2 2.97111300453855790000e+000) (3 5.83171462753610200000e+000) (4 3.61363208402244180000e+000) (5 -1.62551979877230090000e+000) (2 5.45176353694862040000e+000) (3 6.82946938900922710000e+000) (4 2.76013898026529290000e+000) (5 2.48267315889787410000e+000) (2 2.91459079254542890000e+000) (3 -5.50796952948349540000e+000) (4 -1.80914018963247300000e-001) (5 -9.30889555819678030000e-001) (2 3.17935720374753530000e+000) (3 1.69299970447263930000e+000) (4 5.49122045178603630000e+000) (5 3.41660373799968920000e+000) (6 3.29060410494436130000e+000) (7 -3.90899930260292550000e+000) (8 2.66370411742507860000e+000) (9 2.91941072036608550000e+000) (10 -1.69263135772463280000e+000) 
