FANN_FLO_2.1
num_layers=4
learning_rate=0.500000
connection_rate=1.000000
network_type=0
learning_momentum=0.000000
training_algorithm=2
train_error_function=1
train_stop_function=0
cascade_output_change_fraction=0.010000
quickprop_decay=-0.000100
quickprop_mu=1.750000
rprop_increase_factor=1.200000
rprop_decrease_factor=0.500000
rprop_delta_min=0.000000
rprop_delta_max=50.000000
rprop_delta_zero=0.100000
cascade_output_stagnation_epochs=12
cascade_candidate_change_fraction=0.010000
cascade_candidate_stagnation_epochs=12
cascade_max_out_epochs=150
cascade_max_cand_epochs=150
cascade_num_candidate_groups=2
bit_fail_limit=3.49999999999999980000e-001
cascade_candidate_limit=1.00000000000000000000e+003
cascade_weight_multiplier=4.00000000000000020000e-001
cascade_activation_functions_count=10
cascade_activation_functions=3 5 7 8 10 11 14 15 16 17 
cascade_activation_steepnesses_count=4
cascade_activation_steepnesses=2.50000000000000000000e-001 5.00000000000000000000e-001 7.50000000000000000000e-001 1.00000000000000000000e+000 
layer_sizes=2 4 5 2 
scale_included=0
neurons (num_inputs, activation_function, activation_steepness)=(0, 0, 0.00000000000000000000e+000) (0, 0, 0.00000000000000000000e+000) (2, 5, 5.00000000000000000000e-001) (2, 5, 5.00000000000000000000e-001) (2, 5, 5.00000000000000000000e-001) (0, 5, 5.00000000000000000000e-001) (4, 5, 5.00000000000000000000e-001) (4, 5, 5.00000000000000000000e-001) (4, 5, 5.00000000000000000000e-001) (4, 5, 5.00000000000000000000e-001) (0, 5, 5.00000000000000000000e-001) (5, 5, 5.00000000000000000000e-001) (0, 5, 5.00000000000000000000e-001) 
connections (connected_to_neuron, weight)=(0, -6.58656088235598070000e-001) (1, -3.82623474767231140000e-002) (0, -1.02368265068782350000e-001) (1, 1.43211418504324590000e-001) (0, -1.15041089508719270000e-001) (1, -1.85832028260537050000e-001) (2, -2.28932645261280070000e-001) (3, 7.18807255560346860000e-001) (4, 6.48398012015848790000e-001) (5, 3.93308059804094510000e-003) (2, -2.04026390544253890000e-001) (3, 7.80502723369413180000e-001) (4, 4.35108272522822250000e-001) (5, -2.00198443098474730000e-002) (2, 2.60114638582723320000e-001) (3, -7.31414452088344320000e-001) (4, -8.25959835100015800000e-001) (5, -1.90552176736196910000e-002) (2, -1.15247455399474910000e-001) (3, -3.56788320473713500000e-001) (4, 9.67238761055845830000e-001) (5, 1.12670282823472790000e-001) (6, -5.14404442493438150000e-004) (7, -5.01392160187373050000e-004) (8, 5.55299045835081370000e-004) (9, -1.63183846693931340000e-004) (10, 3.21032225498509070000e-001) 
